svm_type c_svc
kernel_type rbf
gamma 0.022727272727272728
nr_class 2
total_sv 16953
rho -0.15973530310629597
label 1 -1
nr_sv 8065 8888
SV
1.1 0:0.397 1:0.459 2:0.28 3:0.045 4:0.102 5:0.09 6:0.236 7:2.0 8:0.125 9:24.0 10:1.0 11:24.0 12:0.396 13:37.0 14:0.875 15:1.0 16:35.0 22:1.0 
1.1 0:0.574 1:0.673 2:0.463 3:0.229 4:0.386 5:0.406 6:0.218 7:2.0 8:0.118 9:24.0 10:0.96 11:24.0 12:0.403 13:39.0 14:0.8 15:0.96 16:43.0 22:1.0 
1.1 0:0.737 1:0.679 2:0.332 3:0.0 4:0.132 5:0.363 6:0.471 7:4.0 8:0.308 9:20.0 10:0.741 11:20.0 12:0.6 13:32.0 14:0.667 15:0.722 16:32.0 39:1.0 
1.1 0:0.423 1:0.451 2:0.344 3:0.136 4:0.108 5:0.164 6:0.335 7:3.0 8:0.2 9:18.0 10:0.947 11:18.0 12:0.482 13:28.0 14:0.789 15:0.947 16:28.0 22:1.0 
1.1 0:0.022 1:0.018 2:0.12 3:0.0 4:0.0 5:0.057 6:0.0 7:0.0 8:0.0 9:22.0 10:0.846 11:22.0 12:0.487 13:31.0 14:0.846 15:0.865 16:35.0 33:1.0 
1.1 0:0.88 1:0.774 2:0.602 3:0.544 4:0.563 5:0.493 6:0.365 7:4.0 8:0.222 9:25.0 10:0.926 11:25.0 12:0.56 13:35.0 14:0.667 15:0.944 16:43.0 19:1.0 
1.1 0:0.437 1:0.432 2:0.415 3:0.0 4:0.055 5:0.157 6:0.471 7:4.0 8:0.308 9:18.0 10:0.72 11:18.0 12:0.584 13:28.0 14:0.6 15:0.76 16:34.0 23:1.0 
1.1 0:0.317 1:0.466 2:0.218 3:0.042 4:0.026 5:0.02 6:0.105 7:1.0 8:0.056 9:21.0 10:1.0 11:21.0 12:0.0 13:38.0 14:0.952 15:1.0 16:38.0 19:1.0 
1.1 0:0.937 1:0.955 2:0.445 3:0.06 4:0.437 5:0.402 6:0.478 7:4.0 8:0.308 9:17.0 10:0.708 11:17.0 12:0.595 13:28.0 14:0.625 15:0.688 16:30.0 23:1.0 
1.1 0:0.968 1:0.963 2:0.577 3:0.158 4:0.283 5:0.462 6:0.474 7:3.0 8:0.375 9:13.0 10:1.0 11:13.0 12:0.558 13:14.0 14:0.615 15:1.0 16:14.0 17:1.0 
1.1 0:0.562 1:0.569 2:0.28 3:0.0 4:0.046 5:0.139 6:0.354 7:3.0 8:0.214 9:20.0 10:0.8 11:20.0 12:0.625 13:26.0 14:0.6 15:0.82 16:28.0 23:1.0 
0.11789894448391368 0:0.989 1:0.95 2:0.999 3:0.97 4:0.986 5:0.994 6:0.655 7:6.0 8:0.462 9:17.0 10:0.567 11:17.0 12:0.767 13:19.0 14:0.567 15:0.583 16:19.0 17:1.0 
0.8675332303791974 0:0.633 1:0.608 2:0.379 3:0.158 4:0.198 5:0.199 6:0.149 7:2.0 8:0.091 9:22.0 10:0.88 11:22.0 12:0.413 13:44.0 14:0.88 15:0.88 16:46.0 25:1.0 
1.1 0:0.892 1:0.883 2:0.305 3:0.408 4:0.324 5:0.399 6:0.359 7:3.0 8:0.214 9:25.0 10:1.0 11:25.0 12:0.496 13:33.0 14:0.76 15:1.0 16:35.0 22:1.0 
1.1 0:0.092 1:0.124 2:0.143 3:0.138 4:0.099 5:0.137 6:0.0 7:0.0 8:0.0 9:21.0 10:0.955 11:21.0 12:0.399 13:37.0 14:0.909 15:0.955 16:39.0 17:1.0 
1.1 0:0.026 1:0.021 2:0.108 3:0.057 4:0.043 5:0.089 6:0.289 7:2.0 8:0.167 9:14.0 10:0.933 11:14.0 12:0.525 13:20.0 14:0.733 15:0.933 16:20.0 33:1.0 
1.1 0:0.252 1:0.265 2:0.201 3:0.201 4:0.294 5:0.231 6:0.149 7:2.0 8:0.08 9:29.0 10:0.967 11:29.0 12:0.411 13:50.0 14:0.833 15:0.967 16:54.0 23:1.0 
1.1 0:0.082 1:0.102 2:0.106 3:0.077 4:0.053 5:0.098 6:0.098 7:1.0 8:0.048 9:28.0 10:0.933 11:28.0 12:0.407 13:39.0 14:0.933 15:0.933 16:37.0 23:1.0 
1.1 0:0.254 1:0.248 2:0.252 3:0.089 4:0.168 5:0.112 6:0.149 7:1.0 8:0.077 9:19.0 10:0.731 11:19.0 12:0.553 13:30.0 14:0.731 15:0.712 16:32.0 39:1.0 
1.1 0:0.986 1:0.988 2:0.671 3:0.0 4:0.126 5:0.294 6:0.408 7:3.0 8:0.214 9:20.0 10:0.909 11:20.0 12:0.523 13:29.0 14:0.682 15:0.909 16:33.0 18:1.0 
1.1 0:0.212 1:0.195 2:0.215 3:0.0 4:0.134 5:0.154 6:0.0 7:0.0 8:0.0 9:16.0 10:0.941 11:16.0 12:0.451 13:28.0 14:0.824 15:0.941 16:30.0 33:1.0 
1.1 0:0.67 1:0.65 2:0.997 3:0.877 4:0.938 5:0.977 6:0.617 7:4.0 8:0.444 9:11.0 10:0.478 11:11.0 12:0.616 13:18.0 14:0.435 15:0.522 16:22.0 24:1.0 
0.3225963446127445 0:0.015 1:0.039 2:0.059 3:0.0 4:0.0 5:0.013 6:0.0 7:0.0 8:0.0 9:32.0 10:1.0 11:32.0 12:0.0 13:58.0 14:1.0 15:1.0 16:56.0 17:1.0 
1.1 0:0.902 1:0.904 2:0.611 3:0.232 4:0.412 5:0.415 6:0.4 7:4.0 8:0.25 9:23.0 10:0.793 11:23.0 12:0.531 13:39.0 14:0.69 15:0.828 16:43.0 23:1.0 
1.1 0:0.013 1:0.035 2:0.115 3:0.0 4:0.0 5:0.017 6:0.0 7:0.0 8:0.0 9:26.0 10:1.0 11:26.0 12:0.301 13:45.0 14:0.885 15:1.0 16:49.0 21:1.0 
1.1 0:0.235 1:0.26 2:0.287 3:0.107 4:0.172 5:0.317 6:0.236 7:2.0 8:0.167 9:20.0 10:0.8 11:20.0 12:0.592 13:26.0 14:0.6 15:0.82 16:28.0 23:1.0 
1.1 0:0.435 1:0.406 2:0.407 3:0.197 4:0.157 5:0.183 6:0.408 7:3.0 8:0.25 9:16.0 10:0.8 11:16.0 12:0.544 13:26.0 14:0.7 15:0.775 16:28.0 22:1.0 
1.1 0:0.994 1:0.988 2:0.399 3:0.19 4:0.235 5:0.295 6:0.286 7:3.0 8:0.167 9:25.0 10:0.926 11:25.0 12:0.426 13:38.0 14:0.778 15:0.907 16:42.0 23:1.0 
1.1 0:0.904 1:0.919 2:0.443 3:0.16 4:0.384 5:0.403 6:0.456 7:4.0 8:0.286 9:22.0 10:0.815 11:22.0 12:0.499 13:32.0 14:0.741 15:0.815 16:32.0 23:1.0 
1.1 0:0.546 1:0.674 2:0.534 3:0.09 4:0.076 5:0.075 6:0.359 7:3.0 8:0.214 9:18.0 10:0.9 11:18.0 12:0.533 13:28.0 14:0.7 15:0.9 16:28.0 19:1.0 
1.1 0:0.897 1:0.873 2:0.988 3:0.217 4:0.533 5:0.468 6:0.526 7:6.0 8:0.353 9:15.0 10:0.6 11:15.0 12:0.638 13:23.0 14:0.56 15:0.58 16:29.0 17:1.0 
1.1 0:0.02 1:0.072 2:0.141 3:0.0 4:0.072 5:0.085 6:0.0 7:0.0 8:0.0 9:20.0 10:0.952 11:20.0 12:0.366 13:39.0 14:0.952 15:0.952 16:39.0 21:1.0 
1.1 0:0.747 1:0.803 2:0.385 3:0.086 4:0.281 5:0.295 6:0.201 7:2.0 8:0.111 9:24.0 10:0.828 11:24.0 12:0.515 13:38.0 14:0.759 15:0.828 16:44.0 17:1.0 
1.1 0:0.105 1:0.221 2:0.256 3:0.161 4:0.163 5:0.178 6:0.185 7:2.0 8:0.1 9:24.0 10:0.923 11:24.0 12:0.334 13:42.0 14:0.846 15:0.904 16:44.0 21:1.0 
1.1 0:0.738 1:0.747 2:0.353 3:0.0 4:0.177 5:0.225 6:0.272 7:2.0 8:0.154 9:25.0 10:0.926 11:25.0 12:0.441 13:37.0 14:0.815 15:0.926 16:41.0 23:1.0 
0.12459483454863637 0:1.0 1:1.0 2:1.0 3:1.0 4:1.0 5:1.0 6:0.424 7:3.0 8:0.25 9:18.0 10:0.783 11:18.0 12:0.647 13:20.0 14:0.696 15:0.783 16:22.0 17:1.0 
1.1 0:0.471 1:0.524 2:0.352 3:0.234 4:0.161 5:0.165 6:0.483 7:4.0 8:0.267 9:20.0 10:0.909 11:20.0 12:0.464 13:33.0 14:0.773 15:0.909 16:29.0 23:1.0 
1.1 0:0.082 1:0.122 2:0.154 3:0.0 4:0.0 5:0.044 6:0.183 7:2.0 8:0.1 9:29.0 10:0.853 11:29.0 12:0.501 13:48.0 14:0.765 15:0.882 16:54.0 23:1.0 
1.1 0:0.83 1:0.876 2:0.562 3:0.22 4:0.371 5:0.329 6:0.603 7:6.0 8:0.429 9:19.0 10:0.826 11:19.0 12:0.523 13:24.0 14:0.522 15:0.804 16:26.0 17:1.0 
1.1 0:0.388 1:0.296 2:0.204 3:0.091 4:0.215 5:0.193 6:0.174 7:2.0 8:0.095 9:26.0 10:0.867 11:26.0 12:0.339 13:40.0 14:0.833 15:0.883 16:44.0 23:1.0 
1.1 0:0.793 1:0.824 2:0.391 3:0.12 4:0.145 5:0.184 6:0.447 7:4.0 8:0.286 9:17.0 10:0.739 11:17.0 12:0.52 13:26.0 14:0.652 15:0.783 16:28.0 17:1.0 
1.1 0:0.621 1:0.607 2:0.489 3:0.139 4:0.14 5:0.328 6:0.196 7:2.0 8:0.105 9:28.0 10:0.8 11:28.0 12:0.517 13:41.0 14:0.8 15:0.8 16:47.0 27:1.0 
1.1 0:0.933 1:0.925 2:0.371 3:0.133 4:0.357 5:0.487 6:0.507 7:3.0 8:0.333 9:19.0 10:0.792 11:19.0 12:0.569 13:26.0 14:0.708 15:0.813 16:30.0 23:1.0 
1.1 0:0.971 1:0.951 2:0.897 3:0.0 4:0.0 5:0.0 6:0.545 7:5.0 8:0.417 9:12.0 10:0.522 11:12.0 12:0.757 13:16.0 14:0.435 15:0.522 16:24.0 24:1.0 
1.1 0:0.57 1:0.734 2:0.623 3:0.108 4:0.128 5:0.285 6:0.25 7:2.0 8:0.143 9:19.0 10:1.0 11:19.0 12:0.478 13:29.0 14:0.789 15:1.0 16:27.0 17:1.0 
1.1 0:0.488 1:0.652 2:0.518 3:0.382 4:0.352 5:0.319 6:0.192 7:2.0 8:0.105 9:29.0 10:0.935 11:29.0 12:0.378 13:52.0 14:0.871 15:0.952 16:54.0 19:1.0 
1.1 0:0.258 1:0.286 2:0.342 3:0.094 4:0.098 5:0.279 6:0.404 7:4.0 8:0.235 9:21.0 10:1.0 11:21.0 12:0.294 13:38.0 14:0.905 15:1.0 16:34.0 22:1.0 
1.1 0:0.317 1:0.313 2:0.09 3:0.068 4:0.128 5:0.09 6:0.0 7:0.0 8:0.0 9:24.0 10:1.0 11:24.0 12:0.0 13:40.0 14:1.0 15:1.0 16:38.0 22:1.0 
1.1 0:0.15 1:0.15 2:0.581 3:0.373 4:0.289 5:0.359 6:0.32 7:3.0 8:0.188 9:18.0 10:0.818 11:18.0 12:0.556 13:28.0 14:0.682 15:0.818 16:32.0 17:1.0 
1.1 0:0.322 1:0.285 2:0.202 3:0.073 4:0.184 5:0.17 6:0.306 7:3.0 8:0.176 9:23.0 10:0.821 11:23.0 12:0.497 13:35.0 14:0.714 15:0.821 16:37.0 23:1.0 
1.1 0:0.38 1:0.443 2:0.383 3:0.051 4:0.246 5:0.229 6:0.134 7:1.0 8:0.071 9:17.0 10:0.895 11:17.0 12:0.404 13:34.0 14:0.895 15:0.868 16:34.0 17:1.0 
1.1 0:0.843 1:0.808 2:0.531 3:0.096 4:0.186 5:0.379 6:0.302 7:3.0 8:0.176 9:18.0 10:0.857 11:18.0 12:0.362 13:33.0 14:0.81 15:0.857 16:31.0 22:1.0 
1.1 0:0.306 1:0.398 2:0.564 3:0.48 4:0.437 5:0.538 6:0.333 7:4.0 8:0.2 9:21.0 10:1.0 11:21.0 12:0.363 13:35.0 14:0.857 15:1.0 16:33.0 23:1.0 
1.1 0:0.676 1:0.688 2:0.308 3:0.137 4:0.068 5:0.074 6:0.277 7:3.0 8:0.158 9:27.0 10:0.9 11:27.0 12:0.369 13:45.0 14:0.833 15:0.9 16:49.0 23:1.0 
1.1 0:0.33 1:0.396 2:0.996 3:1.0 4:1.0 5:0.993 6:0.527 7:5.0 8:0.357 9:14.0 10:0.636 11:14.0 12:0.621 13:22.0 14:0.636 15:0.636 16:24.0 17:1.0 
1.1 0:0.309 1:0.298 2:0.39 3:0.388 4:0.538 5:0.322 6:0.338 7:3.0 8:0.167 9:22.0 10:0.957 11:22.0 12:0.458 13:32.0 14:0.739 15:0.957 16:32.0 22:1.0 
1.1 0:0.41 1:0.299 2:0.625 3:0.0 4:0.331 5:0.474 6:0.174 7:2.0 8:0.095 9:23.0 10:0.92 11:23.0 12:0.472 13:38.0 14:0.8 15:0.9 16:42.0 17:1.0 
1.1 0:0.003 1:0.004 2:0.312 3:0.052 4:0.034 5:0.055 6:0.286 7:3.0 8:0.167 9:26.0 10:0.867 11:26.0 12:0.467 13:48.0 14:0.8 15:0.867 16:50.0 39:1.0 
1.1 0:0.624 1:0.764 2:0.345 3:0.445 4:0.487 5:0.452 6:0.533 7:4.0 8:0.235 9:28.0 10:0.933 11:28.0 12:0.509 13:42.0 14:0.767 15:0.933 16:46.0 39:1.0 
1.1 0:0.985 1:0.956 2:0.368 3:0.17 4:0.276 5:0.229 6:0.24 7:3.0 8:0.136 9:23.0 10:0.821 11:23.0 12:0.46 13:37.0 14:0.75 15:0.821 16:41.0 23:1.0 
1.1 0:0.38 1:0.376 2:0.437 3:0.081 4:0.139 5:0.118 6:0.277 7:3.0 8:0.158 9:18.0 10:0.75 11:18.0 12:0.589 13:29.0 14:0.625 15:0.75 16:37.0 22:1.0 
1.1 0:0.999 1:0.998 2:0.997 3:0.0 4:0.698 5:0.892 6:0.87 7:10.0 8:0.769 9:6.0 10:0.231 11:6.0 12:0.926 13:8.0 14:0.231 15:0.231 16:10.0 24:1.0 
1.1 0:0.004 1:0.008 2:0.152 3:0.0 4:0.0 5:0.159 6:0.0 7:0.0 8:0.0 9:24.0 10:0.923 11:24.0 12:0.422 13:40.0 14:0.885 15:0.942 16:44.0 17:1.0 
1.1 0:0.259 1:0.308 2:0.601 3:0.48 4:0.619 5:0.583 6:0.402 7:4.0 8:0.25 9:13.0 10:0.619 11:13.0 12:0.544 13:21.0 14:0.619 15:0.619 16:25.0 22:1.0 
1.1 0:0.665 1:0.783 2:0.571 3:0.122 4:0.286 5:0.306 6:0.302 7:2.0 8:0.154 9:24.0 10:0.828 11:24.0 12:0.51 13:31.0 14:0.793 15:0.81 16:35.0 21:1.0 
1.1 0:0.617 1:0.574 2:0.393 3:0.295 4:0.199 5:0.242 6:0.204 7:2.0 8:0.111 9:28.0 10:1.0 11:28.0 12:0.385 13:42.0 14:0.857 15:1.0 16:42.0 22:1.0 
1.1 0:0.381 1:0.648 2:0.426 3:0.0 4:0.0 5:0.0 6:0.224 7:2.0 8:0.125 9:24.0 10:0.889 11:24.0 12:0.439 13:40.0 14:0.815 15:0.889 16:46.0 21:1.0 
1.1 0:0.571 1:0.662 2:0.326 3:0.328 4:0.361 5:0.298 6:0.289 7:2.0 8:0.167 9:18.0 10:0.9 11:18.0 12:0.503 13:26.0 14:0.75 15:0.9 16:28.0 22:1.0 
1.1 0:0.051 1:0.065 2:0.539 3:0.356 4:0.298 5:0.392 6:0.126 7:1.0 8:0.067 9:27.0 10:0.964 11:27.0 12:0.522 13:33.0 14:0.786 15:0.964 16:33.0 25:1.0 
1.1 0:0.017 1:0.054 2:0.349 3:0.109 4:0.204 5:0.303 6:0.0 7:0.0 8:0.0 9:30.0 10:1.0 11:30.0 12:0.311 13:52.0 14:0.867 15:1.0 16:58.0 21:1.0 
1.1 0:0.744 1:0.818 2:0.698 3:0.791 4:0.911 5:0.932 6:0.402 7:4.0 8:0.25 9:19.0 10:0.826 11:19.0 12:0.485 13:34.0 14:0.783 15:0.826 16:34.0 19:1.0 
1.1 0:0.381 1:0.413 2:0.338 3:0.125 4:0.233 5:0.194 6:0.105 7:1.0 8:0.056 9:19.0 10:0.76 11:19.0 12:0.509 13:34.0 14:0.76 15:0.74 16:40.0 23:1.0 
1.1 0:0.504 1:0.49 2:0.365 3:0.286 4:0.177 5:0.205 6:0.559 7:5.0 8:0.385 9:18.0 10:0.75 11:18.0 12:0.646 13:25.0 14:0.542 15:0.75 16:29.0 25:1.0 
1.1 0:0.938 1:0.941 2:0.494 3:0.177 4:0.214 5:0.197 6:0.612 7:5.0 8:0.417 9:21.0 10:0.875 11:21.0 12:0.532 13:28.0 14:0.625 15:0.854 16:28.0 23:1.0 
1.1 0:0.031 1:0.041 2:0.043 3:0.0 4:0.0 5:0.035 6:0.0 7:0.0 8:0.0 9:27.0 10:1.0 11:27.0 12:0.385 13:48.0 14:0.926 15:1.0 16:50.0 31:1.0 
1.1 0:0.984 1:0.965 2:0.583 3:0.296 4:0.467 5:0.444 6:0.555 7:6.0 8:0.375 9:16.0 10:0.667 11:16.0 12:0.69 13:20.0 14:0.542 15:0.729 16:26.0 39:1.0 
1.1 0:0.855 1:0.84 2:0.528 3:0.0 4:0.0 5:0.0 6:0.2 7:2.0 8:0.111 9:20.0 10:1.0 11:20.0 12:0.436 13:31.0 14:0.8 15:1.0 16:33.0 22:1.0 
1.1 0:0.483 1:0.381 2:0.712 3:0.338 4:0.454 5:0.426 6:0.306 7:3.0 8:0.176 9:32.0 10:0.97 11:32.0 12:0.367 13:45.0 14:0.848 15:0.97 16:43.0 17:1.0 
1.1 0:0.993 1:0.994 2:0.538 3:0.0 4:0.013 5:0.094 6:0.548 7:3.0 8:0.375 9:20.0 10:0.909 11:20.0 12:0.418 13:31.0 14:0.773 15:0.909 16:31.0 23:1.0 
1.1 0:0.897 1:0.818 2:0.764 3:0.136 4:0.239 5:0.234 6:0.435 7:5.0 8:0.278 9:15.0 10:0.625 11:15.0 12:0.631 13:25.0 14:0.583 15:0.604 16:29.0 31:1.0 
1.1 0:0.843 1:0.828 2:0.538 3:0.126 4:0.045 5:0.15 6:0.447 7:4.0 8:0.286 9:15.0 10:0.882 11:15.0 12:0.608 13:20.0 14:0.588 15:0.882 16:22.0 20:1.0 
1.1 0:0.363 1:0.384 2:0.369 3:0.25 4:0.308 5:0.304 6:0.354 7:3.0 8:0.214 9:21.0 10:0.778 11:21.0 12:0.516 13:34.0 14:0.741 15:0.759 16:38.0 22:1.0 
1.1 0:0.632 1:0.639 2:0.281 3:0.0 4:0.1 5:0.243 6:0.327 7:3.0 8:0.176 9:28.0 10:0.933 11:28.0 12:0.366 13:50.0 14:0.9 15:0.933 16:48.0 23:1.0 
1.1 0:0.701 1:0.636 2:0.29 3:0.0 4:0.0 5:0.077 6:0.16 7:2.0 8:0.087 9:26.0 10:0.867 11:26.0 12:0.339 13:42.0 14:0.867 15:0.867 16:42.0 23:1.0 
1.1 0:0.623 1:0.58 2:0.412 3:0.145 4:0.172 5:0.256 6:0.289 7:2.0 8:0.167 9:9.0 10:0.474 11:9.0 12:0.762 13:15.0 14:0.474 15:0.474 16:19.0 23:1.0 
1.1 0:0.325 1:0.268 2:0.585 3:0.251 4:0.247 5:0.337 6:0.334 7:4.0 8:0.2 9:22.0 10:0.815 11:22.0 12:0.493 13:35.0 14:0.667 15:0.815 16:39.0 23:1.0 
1.1 0:0.625 1:0.608 2:0.623 3:0.086 4:0.307 5:0.406 6:0.5 7:3.0 8:0.2 9:17.0 10:0.654 11:17.0 12:0.585 13:28.0 14:0.538 15:0.673 16:34.0 17:1.0 
1.1 0:0.881 1:0.887 2:1.0 3:0.914 4:0.956 5:0.971 6:0.802 7:9.0 8:0.75 9:11.0 10:0.407 11:11.0 12:0.837 13:13.0 14:0.259 15:0.444 16:19.0 17:1.0 
1.1 0:0.023 1:0.023 2:0.065 3:0.0 4:0.0 5:0.046 6:0.224 7:2.0 8:0.125 9:29.0 10:1.0 11:29.0 12:0.315 13:48.0 14:0.828 15:1.0 16:52.0 23:1.0 
1.1 0:0.75 1:0.82 2:0.636 3:0.334 4:0.388 5:0.48 6:0.455 7:4.0 8:0.267 9:22.0 10:1.0 11:22.0 12:0.364 13:33.0 14:0.773 15:1.0 16:33.0 19:1.0 
1.1 0:0.331 1:0.254 2:0.402 3:0.0 4:0.0 5:0.269 6:0.286 7:3.0 8:0.167 9:24.0 10:0.96 11:24.0 12:0.437 13:33.0 14:0.72 15:0.96 16:35.0 18:1.0 
1.1 0:0.316 1:0.537 2:0.397 3:0.189 4:0.153 5:0.159 6:0.167 7:2.0 8:0.091 9:28.0 10:0.933 11:28.0 12:0.436 13:45.0 14:0.867 15:0.933 16:49.0 22:1.0 
1.1 0:0.454 1:0.523 2:0.346 3:0.113 4:0.077 5:0.108 6:0.109 7:1.0 8:0.067 9:24.0 10:0.889 11:24.0 12:0.449 13:39.0 14:0.852 15:0.87 16:43.0 22:1.0 
1.1 0:0.58 1:0.616 2:0.677 3:0.824 4:0.871 5:0.713 6:0.577 7:4.0 8:0.4 9:16.0 10:0.8 11:16.0 12:0.682 13:17.0 14:0.65 15:0.8 16:19.0 24:1.0 
1.1 0:0.233 1:0.34 2:0.112 3:0.0 4:0.029 5:0.021 6:0.0 7:0.0 8:0.0 9:21.0 10:0.808 11:21.0 12:0.526 13:29.0 14:0.808 15:0.827 16:35.0 33:1.0 
1.1 0:0.786 1:0.768 2:0.472 3:0.05 4:0.104 5:0.269 6:0.333 7:2.0 8:0.182 9:20.0 10:0.769 11:20.0 12:0.521 13:32.0 14:0.769 15:0.769 16:36.0 25:1.0 
1.1 0:0.623 1:0.634 2:0.362 3:0.166 4:0.176 5:0.193 6:0.2 7:2.0 8:0.111 9:24.0 10:1.0 11:24.0 12:0.342 13:41.0 14:0.875 15:1.0 16:41.0 23:1.0 
1.1 0:0.735 1:0.73 2:0.33 3:0.0 4:0.145 5:0.139 6:0.316 7:2.0 8:0.182 9:12.0 10:0.545 11:12.0 12:0.681 13:19.0 14:0.545 15:0.523 16:21.0 22:1.0 
1.1 0:0.696 1:0.709 2:0.553 3:0.081 4:0.12 5:0.276 6:0.378 7:3.0 8:0.231 9:19.0 10:0.905 11:19.0 12:0.498 13:27.0 14:0.762 15:0.905 16:31.0 22:1.0 
1.1 0:0.75 1:0.727 2:0.417 3:0.113 4:0.241 5:0.224 6:0.302 7:2.0 8:0.091 9:33.0 10:0.868 11:33.0 12:0.429 13:42.0 14:0.816 15:0.882 16:46.0 22:1.0 
0.7318199198483318 0:0.712 1:0.714 2:0.444 3:0.46 4:0.428 5:0.557 6:0.211 7:2.0 8:0.118 9:22.0 10:0.786 11:22.0 12:0.444 13:41.0 14:0.75 15:0.768 16:47.0 23:1.0 
1.1 0:0.482 1:0.535 2:0.215 3:0.096 4:0.022 5:0.051 6:0.144 7:1.0 8:0.077 9:24.0 10:1.0 11:24.0 12:0.409 13:34.0 14:0.917 15:1.0 16:34.0 22:1.0 
1.1 0:0.55 1:0.523 2:0.548 3:0.03 4:0.079 5:0.153 6:0.343 7:4.0 8:0.19 9:28.0 10:0.903 11:28.0 12:0.51 13:40.0 14:0.774 15:0.903 16:42.0 23:1.0 
1.1 0:0.06 1:0.13 2:0.283 3:0.281 4:0.313 5:0.234 6:0.273 7:3.0 8:0.158 9:27.0 10:0.9 11:27.0 12:0.475 13:38.0 14:0.7 15:0.9 16:40.0 25:1.0 
1.1 0:0.817 1:0.773 2:0.613 3:0.0 4:0.512 5:0.485 6:0.2 7:3.0 8:0.125 9:30.0 10:1.0 11:30.0 12:0.514 13:43.0 14:0.733 15:1.0 16:55.0 18:1.0 
1.1 0:0.927 1:0.853 2:0.244 3:0.177 4:0.126 5:0.238 6:0.228 7:2.0 8:0.125 9:17.0 10:0.85 11:17.0 12:0.454 13:28.0 14:0.8 15:0.85 16:30.0 23:1.0 
1.1 0:0.988 1:0.983 2:0.452 3:0.219 4:0.287 5:0.504 6:0.436 7:3.0 8:0.231 9:18.0 10:0.75 11:18.0 12:0.434 13:26.0 14:0.708 15:0.771 16:30.0 23:1.0 
1.1 0:0.824 1:0.787 2:0.497 3:0.205 4:0.094 5:0.246 6:0.273 7:3.0 8:0.158 9:22.0 10:0.957 11:22.0 12:0.422 13:39.0 14:0.87 15:0.957 16:39.0 17:1.0 
1.1 0:0.945 1:0.982 2:0.683 3:0.258 4:0.426 5:0.258 6:0.385 7:5.0 8:0.238 9:20.0 10:0.833 11:20.0 12:0.566 13:30.0 14:0.667 15:0.833 16:36.0 22:1.0 
1.1 0:0.494 1:0.452 2:0.256 3:0.0 4:0.261 5:0.269 6:0.535 7:4.0 8:0.364 9:21.0 10:0.875 11:21.0 12:0.434 13:32.0 14:0.833 15:0.875 16:32.0 28:1.0 
1.1 0:0.46 1:0.475 2:0.115 3:0.256 4:0.164 5:0.147 6:0.258 7:2.0 8:0.143 9:17.0 10:0.85 11:17.0 12:0.528 13:25.0 14:0.75 15:0.85 16:27.0 22:1.0 
1.1 0:0.44 1:0.448 2:0.266 3:0.145 4:0.182 5:0.278 6:0.144 7:1.0 8:0.077 9:25.0 10:0.962 11:25.0 12:0.313 13:35.0 14:0.808 15:0.962 16:37.0 22:1.0 
1.1 0:0.981 1:0.973 2:0.594 3:0.0 4:0.237 5:0.276 6:0.401 7:3.0 8:0.25 9:23.0 10:0.958 11:23.0 12:0.417 13:34.0 14:0.833 15:0.958 16:34.0 23:1.0 
1.1 0:0.407 1:0.384 2:0.555 3:0.196 4:0.158 5:0.141 6:0.283 7:2.0 8:0.118 9:19.0 10:0.864 11:19.0 12:0.488 13:33.0 14:0.773 15:0.886 16:37.0 18:1.0 
1.1 0:0.382 1:0.399 2:0.339 3:0.088 4:0.148 5:0.276 6:0.333 7:2.0 8:0.2 9:12.0 10:1.0 11:12.0 12:0.444 13:18.0 14:0.75 15:1.0 16:20.0 27:1.0 
1.1 0:0.199 1:0.2 2:0.406 3:0.742 4:0.83 5:0.915 6:0.674 7:7.0 8:0.5 9:19.0 10:0.576 11:19.0 12:0.692 13:28.0 14:0.515 15:0.576 16:34.0 32:1.0 
1.1 0:0.895 1:0.92 2:0.512 3:0.122 4:0.093 5:0.105 6:0.169 7:1.0 8:0.091 9:21.0 10:0.913 11:21.0 12:0.489 13:27.0 14:0.652 15:0.891 16:35.0 22:1.0 
1.1 0:0.967 1:0.977 2:0.517 3:0.256 4:0.263 5:0.315 6:0.462 7:4.0 8:0.267 9:22.0 10:0.815 11:22.0 12:0.449 13:39.0 14:0.741 15:0.796 16:43.0 22:1.0 
1.1 0:0.019 1:0.018 2:0.517 3:0.169 4:0.268 5:0.215 6:0.0 7:0.0 8:0.0 9:22.0 10:0.917 11:22.0 12:0.317 13:35.0 14:0.833 15:0.938 16:39.0 25:1.0 
1.1 0:0.64 1:0.57 2:0.314 3:0.0 4:0.047 5:0.028 6:0.371 7:5.0 8:0.227 9:26.0 10:0.867 11:26.0 12:0.429 13:46.0 14:0.8 15:0.867 16:46.0 23:1.0 
1.1 0:0.962 1:0.949 2:0.996 3:0.661 4:0.802 5:0.868 6:0.535 7:6.0 8:0.333 9:31.0 10:0.775 11:31.0 12:0.494 13:32.0 14:0.725 15:0.788 16:32.0 17:1.0 
1.1 0:0.64 1:0.623 2:0.568 3:0.129 4:0.219 5:0.262 6:0.338 7:4.0 8:0.2 9:20.0 10:0.87 11:20.0 12:0.451 13:34.0 14:0.783 15:0.891 16:36.0 22:1.0 
1.1 0:0.256 1:0.232 2:0.435 3:0.069 4:0.103 5:0.063 6:0.134 7:1.0 8:0.071 9:16.0 10:0.941 11:16.0 12:0.424 13:25.0 14:0.824 15:0.941 16:27.0 24:1.0 
1.1 0:0.029 1:0.057 2:0.208 3:0.116 4:0.114 5:0.171 6:0.222 7:2.0 8:0.125 9:25.0 10:1.0 11:25.0 12:0.426 13:37.0 14:0.76 15:1.0 16:41.0 21:1.0 
1.1 0:0.622 1:0.641 2:0.701 3:0.365 4:0.383 5:0.42 6:0.308 7:4.0 8:0.211 9:21.0 10:0.7 11:21.0 12:0.585 13:29.0 14:0.6 15:0.733 16:39.0 18:1.0 
1.1 0:0.739 1:0.78 2:0.371 3:0.0 4:0.098 5:0.112 6:0.378 7:3.0 8:0.231 9:14.0 10:0.875 11:14.0 12:0.463 13:21.0 14:0.688 15:0.875 16:23.0 25:1.0 
1.1 0:0.444 1:0.551 2:0.416 3:0.159 4:0.298 5:0.308 6:0.423 7:5.0 8:0.263 9:21.0 10:0.724 11:21.0 12:0.616 13:27.0 14:0.621 15:0.724 16:31.0 22:1.0 
1.1 0:0.898 1:0.901 2:0.415 3:0.392 4:0.333 5:0.34 6:0.6 7:6.0 8:0.429 9:14.0 10:0.737 11:14.0 12:0.719 13:16.0 14:0.421 15:0.737 16:18.0 21:1.0 
1.1 0:0.925 1:0.925 2:0.328 3:0.087 4:0.316 5:0.348 6:0.316 7:3.0 8:0.188 9:22.0 10:0.846 11:22.0 12:0.54 13:32.0 14:0.731 15:0.846 16:34.0 23:1.0 
1.1 0:0.426 1:0.469 2:0.342 3:0.177 4:0.198 5:0.202 6:0.111 7:1.0 8:0.059 9:25.0 10:0.962 11:25.0 12:0.419 13:41.0 14:0.885 15:0.962 16:43.0 22:1.0 
1.1 0:0.693 1:0.704 2:0.646 3:0.408 4:0.364 5:0.453 6:0.426 7:4.0 8:0.267 9:19.0 10:0.905 11:19.0 12:0.54 13:27.0 14:0.714 15:0.905 16:31.0 22:1.0 
1.1 0:0.527 1:0.542 2:0.589 3:1.0 4:0.988 5:0.992 6:0.612 7:7.0 8:0.412 9:24.0 10:0.686 11:24.0 12:0.646 13:32.0 14:0.629 15:0.686 16:36.0 24:1.0 
1.1 0:0.897 1:0.871 2:0.768 3:0.448 4:0.391 5:0.593 6:0.632 7:6.0 8:0.462 9:26.0 10:0.929 11:26.0 12:0.702 13:27.0 14:0.5 15:0.929 16:21.0 17:1.0 
1.1 0:0.763 1:0.656 2:0.965 3:0.794 4:0.298 5:0.241 6:0.359 7:3.0 8:0.214 9:15.0 10:0.714 11:15.0 12:0.608 13:23.0 14:0.619 15:0.738 16:27.0 17:1.0 
1.1 0:0.286 1:0.358 2:0.702 3:0.242 4:0.453 5:0.498 6:0.286 7:3.0 8:0.167 9:22.0 10:0.957 11:22.0 12:0.299 13:35.0 14:0.87 15:0.957 16:35.0 22:1.0 
1.1 0:0.299 1:0.368 2:0.27 3:0.169 4:0.215 5:0.148 6:0.422 7:4.0 8:0.267 9:25.0 10:0.926 11:25.0 12:0.442 13:33.0 14:0.704 15:0.926 16:39.0 23:1.0 
1.1 0:0.644 1:0.63 2:0.243 3:0.162 4:0.114 5:0.162 6:0.408 7:2.0 8:0.2 9:20.0 10:0.909 11:20.0 12:0.426 13:30.0 14:0.773 15:0.932 16:32.0 23:1.0 
1.1 0:0.245 1:0.229 2:0.605 3:0.136 4:0.46 5:0.655 6:0.617 7:4.0 8:0.444 9:14.0 10:0.609 11:14.0 12:0.758 13:16.0 14:0.391 15:0.63 16:18.0 17:1.0 
1.1 0:0.482 1:0.493 2:0.399 3:0.362 4:0.322 5:0.224 6:0.277 7:3.0 8:0.158 9:18.0 10:0.857 11:18.0 12:0.505 13:29.0 14:0.762 15:0.833 16:31.0 23:1.0 
1.1 0:0.356 1:0.361 2:0.304 3:0.085 4:0.15 5:0.242 6:0.267 7:3.0 8:0.176 9:24.0 10:0.857 11:24.0 12:0.393 13:41.0 14:0.786 15:0.839 16:41.0 23:1.0 
1.1 0:0.502 1:0.58 2:0.218 3:0.06 4:0.111 5:0.267 6:0.081 7:1.0 8:0.042 9:24.0 10:1.0 11:24.0 12:0.0 13:38.0 14:0.833 15:1.0 16:42.0 23:1.0 
1.1 0:0.809 1:0.698 2:0.377 3:0.0 4:0.237 5:0.237 6:0.364 7:4.0 8:0.222 9:26.0 10:1.0 11:26.0 12:0.37 13:42.0 14:0.808 15:1.0 16:40.0 17:1.0 
1.1 0:0.478 1:0.572 2:0.524 3:0.0 4:0.066 5:0.063 6:0.274 7:3.0 8:0.188 9:22.0 10:1.0 11:22.0 12:0.403 13:28.0 14:0.636 15:1.0 16:32.0 17:1.0 
1.1 0:0.26 1:0.287 2:0.258 3:0.057 4:0.079 5:0.11 6:0.074 7:1.0 8:0.038 9:28.0 10:0.933 11:28.0 12:0.384 13:51.0 14:0.9 15:0.917 16:53.0 23:1.0 
1.1 0:0.613 1:0.821 2:0.556 3:0.0 4:0.053 5:0.065 6:0.143 7:1.0 8:0.077 9:17.0 10:1.0 11:17.0 12:0.414 13:29.0 14:0.882 15:1.0 16:29.0 17:1.0 
1.1 0:0.412 1:0.4 2:0.385 3:0.295 4:0.302 5:0.261 6:0.201 7:2.0 8:0.111 9:22.0 10:0.917 11:22.0 12:0.449 13:38.0 14:0.833 15:0.917 16:40.0 22:1.0 
1.1 0:0.509 1:0.363 2:0.537 3:0.174 4:0.361 5:0.317 6:0.175 7:2.0 8:0.111 9:19.0 10:0.826 11:19.0 12:0.456 13:33.0 14:0.739 15:0.804 16:39.0 28:1.0 
1.1 0:0.196 1:0.246 2:0.699 3:0.388 4:0.444 5:0.522 6:0.418 7:5.0 8:0.263 9:23.0 10:0.852 11:23.0 12:0.621 13:26.0 14:0.667 15:0.889 16:30.0 17:1.0 
1.1 0:0.786 1:0.803 2:0.491 3:0.192 4:0.173 5:0.161 6:0.707 7:7.0 8:0.5 9:20.0 10:0.69 11:20.0 12:0.675 13:24.0 14:0.621 15:0.707 16:24.0 23:1.0 
1.1 0:0.199 1:0.299 2:0.44 3:0.066 4:0.177 5:0.197 6:0.222 7:2.0 8:0.125 9:24.0 10:0.96 11:24.0 12:0.469 13:39.0 14:0.8 15:0.96 16:41.0 21:1.0 
1.1 0:0.122 1:0.105 2:0.552 3:0.154 4:0.169 5:0.499 6:0.169 7:2.0 8:0.091 9:18.0 10:0.857 11:18.0 12:0.417 13:31.0 14:0.762 15:0.857 16:37.0 22:1.0 
1.1 0:0.643 1:0.565 2:0.645 3:0.75 4:0.893 5:0.797 6:0.37 7:4.0 8:0.143 9:41.0 10:0.932 11:41.0 12:0.474 13:60.0 14:0.75 15:0.932 16:68.0 18:1.0 
1.1 0:0.69 1:0.717 2:0.405 3:0.299 4:0.23 5:0.406 6:0.32 7:4.0 8:0.19 9:21.0 10:0.875 11:21.0 12:0.566 13:30.0 14:0.667 15:0.875 16:36.0 23:1.0 
1.1 0:0.018 1:0.032 2:0.144 3:0.038 4:0.018 5:0.067 6:0.0 7:0.0 8:0.0 9:30.0 10:1.0 11:30.0 12:0.0 13:40.0 14:1.0 15:1.0 16:38.0 17:1.0 
1.1 0:0.883 1:0.917 2:0.547 3:0.0 4:0.13 5:0.366 6:0.429 7:5.0 8:0.25 9:19.0 10:0.76 11:19.0 12:0.564 13:28.0 14:0.64 15:0.76 16:30.0 27:1.0 
0.2847666370809546 0:0.593 1:0.505 2:0.302 3:0.0 4:0.135 5:0.303 6:0.087 7:1.0 8:0.053 9:22.0 10:0.815 11:22.0 12:0.483 13:36.0 14:0.815 15:0.815 16:36.0 25:1.0 
1.1 0:0.955 1:0.957 2:0.683 3:0.231 4:0.243 5:0.507 6:0.402 7:4.0 8:0.25 9:20.0 10:0.909 11:20.0 12:0.54 13:29.0 14:0.682 15:0.909 16:33.0 22:1.0 
1.1 0:0.183 1:0.186 2:0.153 3:0.14 4:0.153 5:0.153 6:0.298 7:2.0 8:0.167 9:22.0 10:0.846 11:22.0 12:0.474 13:36.0 14:0.769 15:0.846 16:40.0 23:1.0 
1.1 0:0.741 1:0.774 2:0.56 3:0.33 4:0.359 5:0.409 6:0.298 7:2.0 8:0.167 9:18.0 10:1.0 11:18.0 12:0.444 13:30.0 14:0.833 15:1.0 16:30.0 23:1.0 
1.1 0:0.848 1:0.822 2:0.401 3:0.045 4:0.158 5:0.177 6:0.375 7:3.0 8:0.231 9:18.0 10:0.75 11:18.0 12:0.527 13:31.0 14:0.708 15:0.729 16:35.0 23:1.0 
1.1 0:0.595 1:0.614 2:0.437 3:0.472 4:0.457 5:0.353 6:0.456 7:5.0 8:0.294 9:20.0 10:0.87 11:20.0 12:0.449 13:29.0 14:0.783 15:0.87 16:25.0 23:1.0 
1.1 0:0.535 1:0.723 2:0.704 3:0.414 4:0.367 5:0.301 6:0.572 7:6.0 8:0.4 9:20.0 10:0.833 11:20.0 12:0.6 13:29.0 14:0.625 15:0.833 16:31.0 22:1.0 
1.1 0:0.172 1:0.31 2:0.099 3:0.097 4:0.055 5:0.033 6:0.0 7:0.0 8:0.0 9:22.0 10:1.0 11:22.0 12:0.0 13:38.0 14:1.0 15:1.0 16:36.0 24:1.0 
1.1 0:0.739 1:0.776 2:0.609 3:0.552 4:0.551 5:0.633 6:0.544 7:4.0 8:0.364 9:12.0 10:0.444 11:12.0 12:0.757 13:18.0 14:0.444 15:0.463 16:20.0 23:1.0 
1.1 0:0.528 1:0.409 2:0.399 3:0.167 4:0.227 5:0.212 6:0.286 7:2.0 8:0.125 9:21.0 10:0.913 11:21.0 12:0.452 13:37.0 14:0.826 15:0.913 16:41.0 22:1.0 
1.1 0:0.905 1:0.862 2:0.496 3:0.267 4:0.301 5:0.298 6:0.401 7:3.0 8:0.25 9:13.0 10:0.765 11:13.0 12:0.608 13:20.0 14:0.588 15:0.765 16:26.0 23:1.0 
1.1 0:0.302 1:0.309 2:0.385 3:0.395 4:0.328 5:0.33 6:0.63 7:5.0 8:0.455 9:19.0 10:0.826 11:19.0 12:0.477 13:30.0 14:0.783 15:0.87 16:28.0 23:1.0 
1.1 0:0.075 1:0.144 2:0.151 3:0.042 4:0.073 5:0.14 6:0.0 7:0.0 8:0.0 9:22.0 10:1.0 11:22.0 12:0.0 13:40.0 14:0.955 15:1.0 16:40.0 21:1.0 
1.1 0:0.613 1:0.606 2:0.682 3:0.0 4:0.17 5:0.228 6:0.519 7:7.0 8:0.35 9:34.0 10:0.919 11:34.0 12:0.437 13:52.0 14:0.784 15:0.919 16:48.0 17:1.0 
1.1 0:0.94 1:0.877 2:0.369 3:0.053 4:0.134 5:0.151 6:0.455 7:5.0 8:0.294 9:26.0 10:0.929 11:26.0 12:0.471 13:40.0 14:0.714 15:0.946 16:44.0 23:1.0 
1.1 0:0.254 1:0.261 2:0.459 3:0.342 4:0.46 5:0.471 6:0.272 7:2.0 8:0.154 9:21.0 10:0.875 11:21.0 12:0.465 13:32.0 14:0.792 15:0.854 16:34.0 22:1.0 
1.1 0:0.162 1:0.275 2:0.612 3:0.237 4:0.278 5:0.464 6:0.37 7:3.0 8:0.188 9:24.0 10:0.889 11:24.0 12:0.476 13:34.0 14:0.741 15:0.889 16:36.0 22:1.0 
1.1 0:0.363 1:0.49 2:0.229 3:0.18 4:0.138 5:0.159 6:0.316 7:2.0 8:0.182 9:17.0 10:0.739 11:17.0 12:0.545 13:27.0 14:0.739 15:0.717 16:29.0 24:1.0 
1.1 0:0.515 1:0.444 2:0.233 3:0.124 4:0.103 5:0.285 6:0.118 7:1.0 8:0.063 9:24.0 10:1.0 11:24.0 12:0.447 13:39.0 14:0.833 15:1.0 16:41.0 23:1.0 
1.1 0:0.0 1:0.0 2:0.379 3:0.273 4:0.354 5:0.398 6:0.272 7:2.0 8:0.154 9:22.0 10:0.759 11:22.0 12:0.559 13:33.0 14:0.724 15:0.741 16:35.0 25:1.0 
1.1 0:0.689 1:0.654 2:0.655 3:0.344 4:0.319 5:0.441 6:0.522 7:6.0 8:0.353 9:20.0 10:0.833 11:20.0 12:0.472 13:30.0 14:0.708 15:0.854 16:30.0 18:1.0 
1.1 0:0.898 1:0.898 2:0.541 3:0.234 4:0.332 5:0.367 6:0.669 7:8.0 8:0.5 9:21.0 10:0.75 11:21.0 12:0.615 13:28.0 14:0.536 15:0.732 16:32.0 23:1.0 
1.1 0:0.072 1:0.191 2:0.194 3:0.223 4:0.172 5:0.178 6:0.105 7:1.0 8:0.056 9:26.0 10:1.0 11:26.0 12:0.324 13:43.0 14:0.846 15:1.0 16:43.0 21:1.0 
1.1 0:0.255 1:0.262 2:0.332 3:0.258 4:0.342 5:0.332 6:0.267 7:2.0 8:0.154 9:20.0 10:0.833 11:20.0 12:0.528 13:34.0 14:0.708 15:0.833 16:40.0 22:1.0 
1.1 0:0.714 1:0.638 2:0.283 3:0.167 4:0.23 5:0.215 6:0.192 7:2.0 8:0.105 9:18.0 10:0.818 11:18.0 12:0.521 13:28.0 14:0.727 15:0.795 16:34.0 18:1.0 
1.1 0:0.055 1:0.054 2:0.202 3:0.081 4:0.214 5:0.18 6:0.213 7:2.0 8:0.118 9:24.0 10:0.857 11:24.0 12:0.343 13:38.0 14:0.821 15:0.857 16:42.0 22:1.0 
1.1 0:0.908 1:0.93 2:0.473 3:0.231 4:0.212 5:0.241 6:0.211 7:2.0 8:0.118 9:24.0 10:1.0 11:24.0 12:0.501 13:32.0 14:0.708 15:1.0 16:34.0 23:1.0 
1.1 0:0.885 1:0.861 2:0.199 3:0.146 4:0.236 5:0.225 6:0.274 7:3.0 8:0.158 9:22.0 10:0.917 11:22.0 12:0.484 13:34.0 14:0.75 15:0.917 16:32.0 23:1.0 
1.1 0:0.524 1:0.527 2:0.073 3:0.238 4:0.141 5:0.113 6:0.402 7:4.0 8:0.25 9:20.0 10:0.952 11:20.0 12:0.373 13:31.0 14:0.81 15:0.952 16:29.0 22:1.0 
1.1 0:0.462 1:0.606 2:0.33 3:0.12 4:0.173 5:0.334 6:0.144 7:1.0 8:0.048 9:26.0 10:0.897 11:26.0 12:0.347 13:47.0 14:0.862 15:0.914 16:51.0 22:1.0 
1.1 0:0.498 1:0.474 2:0.213 3:0.113 4:0.14 5:0.117 6:0.114 7:1.0 8:0.059 9:30.0 10:1.0 11:30.0 12:0.278 13:44.0 14:0.9 15:1.0 16:44.0 22:1.0 
1.1 0:0.129 1:0.176 2:0.168 3:0.0 4:0.0 5:0.0 6:0.158 7:1.0 8:0.083 9:17.0 10:1.0 11:17.0 12:0.0 13:28.0 14:0.824 15:1.0 16:30.0 19:1.0 
1.1 0:0.885 1:0.897 2:0.568 3:0.28 4:0.321 5:0.384 6:0.535 7:4.0 8:0.364 9:17.0 10:0.81 11:17.0 12:0.627 13:21.0 14:0.619 15:0.81 16:25.0 22:1.0 
1.1 0:0.838 1:0.853 2:0.471 3:0.358 4:0.472 5:0.471 6:0.369 7:3.0 8:0.214 9:21.0 10:0.875 11:21.0 12:0.49 13:33.0 14:0.792 15:0.896 16:37.0 23:1.0 
1.1 0:0.878 1:0.833 2:0.63 3:0.527 4:0.417 5:0.467 6:0.478 7:4.0 8:0.308 9:17.0 10:0.63 11:17.0 12:0.644 13:26.0 14:0.593 15:0.611 16:30.0 26:1.0 
1.1 0:0.028 1:0.095 2:0.481 3:0.148 4:0.211 5:0.262 6:0.0 7:0.0 8:0.0 9:27.0 10:0.964 11:27.0 12:0.43 13:47.0 14:0.857 15:0.964 16:53.0 21:1.0 
1.1 0:0.852 1:0.821 2:0.566 3:0.2 4:0.323 5:0.271 6:0.272 7:2.0 8:0.154 9:13.0 10:0.565 11:13.0 12:0.637 13:24.0 14:0.565 15:0.565 16:26.0 25:1.0 
1.1 0:0.449 1:0.549 2:0.326 3:0.527 4:0.515 5:0.444 6:0.228 7:2.0 8:0.125 9:18.0 10:0.783 11:18.0 12:0.504 13:30.0 14:0.783 15:0.783 16:30.0 19:1.0 
1.1 0:0.96 1:0.973 2:0.428 3:0.13 4:0.22 5:0.28 6:0.426 7:3.0 8:0.231 9:16.0 10:0.667 11:16.0 12:0.601 13:27.0 14:0.625 15:0.667 16:31.0 23:1.0 
1.1 0:0.216 1:0.295 2:0.258 3:0.302 4:0.32 5:0.378 6:0.277 7:4.0 8:0.16 9:23.0 10:0.885 11:23.0 12:0.417 13:38.0 14:0.808 15:0.885 16:36.0 22:1.0 
1.1 0:0.108 1:0.268 2:0.217 3:0.127 4:0.193 5:0.129 6:0.105 7:1.0 8:0.056 9:20.0 10:1.0 11:20.0 12:0.376 13:30.0 14:0.8 15:1.0 16:30.0 21:1.0 
1.1 0:0.382 1:0.372 2:0.294 3:0.044 4:0.074 5:0.199 6:0.096 7:1.0 8:0.05 9:22.0 10:0.759 11:22.0 12:0.511 13:39.0 14:0.759 15:0.741 16:41.0 23:1.0 
1.1 0:0.27 1:0.316 2:0.264 3:0.177 4:0.177 5:0.281 6:0.185 7:2.0 8:0.1 9:23.0 10:0.885 11:23.0 12:0.448 13:39.0 14:0.846 15:0.865 16:41.0 22:1.0 
1.1 0:0.369 1:0.483 2:0.281 3:0.172 4:0.247 5:0.318 6:0.112 7:1.0 8:0.059 9:27.0 10:1.0 11:27.0 12:0.387 13:37.0 14:0.778 15:1.0 16:37.0 21:1.0 
1.1 0:0.971 1:0.963 2:0.393 3:0.283 4:0.372 5:0.381 6:0.433 7:3.0 8:0.273 9:20.0 10:0.952 11:20.0 12:0.534 13:28.0 14:0.714 15:0.952 16:28.0 23:1.0 
1.1 0:0.91 1:0.935 2:0.61 3:0.23 4:0.203 5:0.16 6:0.32 7:3.0 8:0.188 9:16.0 10:0.727 11:16.0 12:0.591 13:23.0 14:0.682 15:0.727 16:27.0 19:1.0 
1.1 0:0.64 1:0.586 2:0.408 3:0.373 4:0.349 5:0.365 6:0.228 7:2.0 8:0.125 9:19.0 10:0.864 11:19.0 12:0.515 13:32.0 14:0.727 15:0.864 16:32.0 23:1.0 
1.1 0:0.807 1:0.827 2:0.805 3:0.85 4:0.891 5:0.832 6:0.315 7:4.0 8:0.154 9:41.0 10:0.891 11:41.0 12:0.537 13:48.0 14:0.739 15:0.902 16:56.0 26:1.0 
1.1 0:0.046 1:0.077 2:0.245 3:0.171 4:0.252 5:0.196 6:0.0 7:0.0 8:0.0 9:29.0 10:1.0 11:29.0 12:0.386 13:50.0 14:0.897 15:1.0 16:54.0 21:1.0 
1.1 0:0.426 1:0.612 2:0.228 3:0.0 4:0.316 5:0.172 6:0.267 7:2.0 8:0.154 9:15.0 10:0.882 11:15.0 12:0.414 13:29.0 14:0.882 15:0.882 16:27.0 24:1.0 
0.0406332322182042 0:0.999 1:0.999 2:0.997 3:0.098 4:0.876 5:0.865 6:0.85 7:8.0 8:0.727 9:9.0 10:0.31 11:9.0 12:0.78 13:9.0 14:0.31 15:0.328 16:9.0 17:1.0 
1.1 0:0.091 1:0.135 2:0.578 3:0.412 4:0.707 5:0.67 6:0.502 7:6.0 8:0.333 9:25.0 10:0.833 11:25.0 12:0.451 13:41.0 14:0.767 15:0.85 16:37.0 17:1.0 
1.1 0:0.719 1:0.714 2:0.475 3:0.134 4:0.119 5:0.081 6:0.211 7:2.0 8:0.118 9:27.0 10:1.0 11:27.0 12:0.416 13:43.0 14:0.889 15:1.0 16:39.0 25:1.0 
1.1 0:0.842 1:0.885 2:0.457 3:0.165 4:0.185 5:0.295 6:0.242 7:3.0 8:0.158 9:21.0 10:0.778 11:21.0 12:0.581 13:31.0 14:0.667 15:0.796 16:37.0 22:1.0 
1.1 0:0.619 1:0.589 2:0.441 3:0.317 4:0.438 5:0.486 6:0.32 7:4.0 8:0.19 9:25.0 10:0.781 11:25.0 12:0.551 13:40.0 14:0.688 15:0.813 16:46.0 17:1.0 
1.1 0:0.317 1:0.324 2:0.333 3:0.118 4:0.107 5:0.235 6:0.163 7:2.0 8:0.087 9:27.0 10:0.964 11:27.0 12:0.361 13:45.0 14:0.821 15:0.964 16:45.0 22:1.0 
1.1 0:0.096 1:0.246 2:0.461 3:0.376 4:0.331 5:0.315 6:0.129 7:1.0 8:0.063 9:21.0 10:0.913 11:21.0 12:0.343 13:32.0 14:0.913 15:0.913 16:32.0 22:1.0 
1.1 0:0.724 1:0.828 2:0.365 3:0.0 4:0.18 5:0.22 6:0.5 7:3.0 8:0.333 9:12.0 10:0.6 11:12.0 12:0.672 13:17.0 14:0.5 15:0.575 16:23.0 22:1.0 
1.1 0:0.619 1:0.558 2:0.715 3:0.263 4:0.368 5:0.563 6:0.667 7:6.0 8:0.5 9:16.0 10:0.64 11:16.0 12:0.662 13:25.0 14:0.52 15:0.64 16:33.0 25:1.0 
1.1 0:0.306 1:0.334 2:0.314 3:0.0 4:0.0 5:0.0 6:0.302 7:3.0 8:0.176 9:24.0 10:1.0 11:24.0 12:0.342 13:39.0 14:0.833 15:1.0 16:39.0 21:1.0 
1.1 0:0.844 1:0.876 2:0.339 3:0.258 4:0.251 5:0.333 6:0.25 7:3.0 8:0.167 9:28.0 10:0.966 11:28.0 12:0.364 13:44.0 14:0.828 15:0.966 16:48.0 22:1.0 
1.1 0:0.401 1:0.38 2:0.482 3:0.279 4:0.291 5:0.309 6:0.456 7:4.0 8:0.286 9:21.0 10:0.75 11:21.0 12:0.466 13:34.0 14:0.714 15:0.75 16:38.0 23:1.0 
1.1 0:0.456 1:0.527 2:0.309 3:0.133 4:0.163 5:0.154 6:0.378 7:3.0 8:0.231 9:19.0 10:0.826 11:19.0 12:0.541 13:31.0 14:0.696 15:0.804 16:35.0 22:1.0 
1.1 0:0.397 1:0.447 2:0.288 3:0.303 4:0.273 5:0.276 6:0.354 7:2.0 8:0.167 9:14.0 10:0.7 11:14.0 12:0.596 13:22.0 14:0.65 15:0.75 16:26.0 22:1.0 
1.1 0:0.349 1:0.405 2:0.506 3:0.054 4:0.357 5:0.292 6:0.25 7:2.0 8:0.143 9:19.0 10:0.864 11:19.0 12:0.532 13:22.0 14:0.545 15:0.864 16:24.0 21:1.0 
1.1 0:0.035 1:0.067 2:0.472 3:0.467 4:0.426 5:0.406 6:0.306 7:3.0 8:0.176 9:21.0 10:0.778 11:21.0 12:0.572 13:30.0 14:0.704 15:0.759 16:34.0 17:1.0 
1.1 0:0.29 1:0.286 2:0.56 3:0.351 4:0.294 5:0.404 6:0.265 7:3.0 8:0.143 9:26.0 10:0.867 11:26.0 12:0.499 13:35.0 14:0.8 15:0.85 16:39.0 23:1.0 
1.1 0:0.241 1:0.333 2:0.277 3:0.0 4:0.0 5:0.096 6:0.177 7:2.0 8:0.091 9:30.0 10:1.0 11:30.0 12:0.393 13:40.0 14:0.867 15:1.0 16:44.0 24:1.0 
1.1 0:0.004 1:0.005 2:0.143 3:0.1 4:0.122 5:0.073 6:0.105 7:1.0 8:0.056 9:22.0 10:1.0 11:22.0 12:0.315 13:37.0 14:0.864 15:1.0 16:41.0 17:1.0 
1.1 0:0.225 1:0.195 2:0.195 3:0.397 4:0.31 5:0.286 6:0.381 7:4.0 8:0.235 9:17.0 10:0.81 11:17.0 12:0.556 13:28.0 14:0.667 15:0.833 16:32.0 22:1.0 
1.1 0:0.713 1:0.69 2:0.733 3:0.359 4:0.246 5:0.368 6:0.429 7:3.0 8:0.273 9:16.0 10:0.842 11:16.0 12:0.668 13:18.0 14:0.526 15:0.868 16:20.0 24:1.0 
1.1 0:0.975 1:0.971 2:0.368 3:0.052 4:0.055 5:0.167 6:0.478 7:4.0 8:0.308 9:16.0 10:0.533 11:16.0 12:0.626 13:26.0 14:0.5 15:0.533 16:32.0 23:1.0 
1.1 0:0.922 1:0.953 2:0.416 3:0.0 4:0.0 5:0.223 6:0.368 7:4.0 8:0.222 9:24.0 10:0.96 11:24.0 12:0.386 13:39.0 14:0.8 15:0.96 16:39.0 25:1.0 
1.1 0:0.89 1:0.851 2:0.415 3:0.231 4:0.37 5:0.292 6:0.333 7:3.0 8:0.2 9:15.0 10:0.682 11:15.0 12:0.577 13:25.0 14:0.591 15:0.659 16:31.0 22:1.0 
1.1 0:0.765 1:0.735 2:0.564 3:0.73 4:0.726 5:0.715 6:0.632 7:6.0 8:0.462 9:10.0 10:0.5 11:10.0 12:0.696 13:17.0 14:0.5 15:0.5 16:17.0 18:1.0 
1.1 0:0.552 1:0.577 2:0.957 3:1.0 4:0.972 5:0.98 6:0.761 7:9.0 8:0.75 9:10.0 10:0.4 11:10.0 12:0.859 13:10.0 14:0.28 15:0.46 16:18.0 24:1.0 
1.1 0:0.603 1:0.696 2:0.361 3:0.344 4:0.333 5:0.4 6:0.309 7:2.0 8:0.182 9:27.0 10:0.931 11:27.0 12:0.463 13:38.0 14:0.759 15:0.931 16:44.0 23:1.0 
1.1 0:0.935 1:0.923 2:0.359 3:0.11 4:0.147 5:0.143 6:0.224 7:2.0 8:0.125 9:16.0 10:0.889 11:16.0 12:0.422 13:25.0 14:0.833 15:0.889 16:27.0 23:1.0 
1.1 0:0.792 1:0.736 2:0.354 3:0.0 4:0.0 5:0.0 6:0.237 7:3.0 8:0.13 9:29.0 10:0.967 11:29.0 12:0.448 13:48.0 14:0.833 15:0.967 16:52.0 23:1.0 
1.1 0:0.377 1:0.464 2:0.503 3:0.13 4:0.297 5:0.305 6:0.236 7:2.0 8:0.125 9:18.0 10:0.783 11:18.0 12:0.534 13:26.0 14:0.783 15:0.783 16:28.0 22:1.0 
1.1 0:0.978 1:0.987 2:0.775 3:0.108 4:0.396 5:0.375 6:0.5 7:5.0 8:0.333 9:24.0 10:1.0 11:24.0 12:0.39 13:31.0 14:0.667 15:1.0 16:31.0 25:1.0 
1.1 0:0.384 1:0.328 2:0.502 3:0.306 4:0.335 5:0.311 6:0.704 7:7.0 8:0.538 9:16.0 10:0.727 11:16.0 12:0.638 13:18.0 14:0.5 15:0.75 16:18.0 17:1.0 
1.1 0:0.304 1:0.32 2:0.251 3:0.289 4:0.195 5:0.146 6:0.101 7:1.0 8:0.059 9:22.0 10:0.759 11:22.0 12:0.525 13:36.0 14:0.759 15:0.759 16:38.0 23:1.0 
1.1 0:0.378 1:0.542 2:0.323 3:0.171 4:0.161 5:0.211 6:0.135 7:1.0 8:0.067 9:21.0 10:1.0 11:21.0 12:0.0 13:35.0 14:0.857 15:1.0 16:35.0 19:1.0 
1.1 0:0.177 1:0.147 2:0.437 3:0.0 4:0.0 5:0.015 6:0.504 7:4.0 8:0.333 9:19.0 10:0.704 11:19.0 12:0.622 13:29.0 14:0.593 15:0.722 16:37.0 17:1.0 
1.1 0:0.465 1:0.542 2:0.366 3:0.236 4:0.079 5:0.144 6:0.258 7:2.0 8:0.133 9:20.0 10:0.87 11:20.0 12:0.475 13:31.0 14:0.826 15:0.87 16:31.0 18:1.0 
1.1 0:0.847 1:0.826 2:0.436 3:0.312 4:0.394 5:0.374 6:0.306 7:3.0 8:0.176 9:19.0 10:0.731 11:19.0 12:0.569 13:28.0 14:0.731 15:0.731 16:32.0 23:1.0 
1.1 0:0.383 1:0.277 2:0.413 3:0.079 4:0.041 5:0.12 6:0.609 7:7.0 8:0.438 9:17.0 10:0.68 11:17.0 12:0.672 13:19.0 14:0.48 15:0.72 16:21.0 17:1.0 
1.1 0:0.749 1:0.736 2:0.698 3:0.121 4:0.169 5:0.365 6:0.386 7:5.0 8:0.238 9:19.0 10:0.826 11:19.0 12:0.546 13:30.0 14:0.696 15:0.848 16:32.0 18:1.0 
1.1 0:0.56 1:0.624 2:0.533 3:0.251 4:0.405 5:0.385 6:0.373 7:5.0 8:0.227 9:23.0 10:0.885 11:23.0 12:0.563 13:31.0 14:0.692 15:0.885 16:33.0 22:1.0 
1.1 0:0.315 1:0.528 2:0.65 3:0.509 4:0.384 5:0.443 6:0.344 7:3.0 8:0.167 9:29.0 10:0.967 11:29.0 12:0.383 13:37.0 14:0.767 15:0.967 16:37.0 22:1.0 
1.1 0:0.117 1:0.219 2:0.172 3:0.0 4:0.116 5:0.131 6:0.0 7:0.0 8:0.0 9:27.0 10:0.964 11:27.0 12:0.335 13:42.0 14:0.857 15:0.964 16:48.0 21:1.0 
1.1 0:0.715 1:0.747 2:0.586 3:0.131 4:0.15 5:0.22 6:0.27 7:2.0 8:0.143 9:19.0 10:0.826 11:19.0 12:0.0 13:25.0 14:0.826 15:0.826 16:25.0 17:1.0 
1.1 0:0.08 1:0.087 2:0.161 3:0.254 4:0.206 5:0.164 6:0.144 7:1.0 8:0.077 9:18.0 10:0.947 11:18.0 12:0.37 13:32.0 14:0.895 15:0.947 16:32.0 22:1.0 
1.1 0:0.089 1:0.112 2:0.112 3:0.0 4:0.019 5:0.012 6:0.094 7:1.0 8:0.056 9:30.0 10:1.0 11:30.0 12:0.0 13:42.0 14:0.867 15:1.0 16:42.0 23:1.0 
1.1 0:0.798 1:0.792 2:0.613 3:0.0 4:0.352 5:0.434 6:0.456 7:4.0 8:0.286 9:15.0 10:0.714 11:15.0 12:0.609 13:21.0 14:0.667 15:0.762 16:25.0 18:1.0 
1.1 0:0.592 1:0.635 2:0.277 3:0.152 4:0.199 5:0.241 6:0.273 7:3.0 8:0.158 9:19.0 10:0.679 11:19.0 12:0.534 13:33.0 14:0.679 15:0.661 16:39.0 23:1.0 
1.1 0:0.255 1:0.262 2:0.332 3:0.258 4:0.342 5:0.332 6:0.267 7:2.0 8:0.154 9:20.0 10:0.833 11:20.0 12:0.528 13:34.0 14:0.708 15:0.833 16:40.0 22:1.0 
1.1 0:0.196 1:0.257 2:0.537 3:0.53 4:0.543 5:0.451 6:0.303 7:3.0 8:0.167 9:26.0 10:0.897 11:26.0 12:0.493 13:39.0 14:0.793 15:0.897 16:43.0 17:1.0 
1.1 0:0.171 1:0.144 2:0.283 3:0.0 4:0.248 5:0.296 6:0.386 7:5.0 8:0.238 9:22.0 10:0.733 11:22.0 12:0.621 13:32.0 14:0.6 15:0.75 16:38.0 23:1.0 
1.1 0:0.556 1:0.563 2:0.385 3:0.486 4:0.602 5:0.606 6:0.314 7:3.0 8:0.176 9:22.0 10:0.917 11:22.0 12:0.406 13:36.0 14:0.833 15:0.917 16:36.0 22:1.0 
1.1 0:0.078 1:0.127 2:0.31 3:0.087 4:0.1 5:0.186 6:0.359 7:3.0 8:0.214 9:23.0 10:1.0 11:23.0 12:0.295 13:34.0 14:0.826 15:1.0 16:34.0 22:1.0 
1.1 0:0.457 1:0.479 2:0.356 3:0.236 4:0.295 5:0.203 6:0.309 7:2.0 8:0.182 9:18.0 10:0.783 11:18.0 12:0.622 13:24.0 14:0.609 15:0.783 16:32.0 23:1.0 
1.1 0:0.994 1:0.995 2:0.547 3:0.367 4:0.289 5:0.374 6:0.512 7:7.0 8:0.333 9:33.0 10:0.825 11:33.0 12:0.625 13:34.0 14:0.525 15:0.837 16:36.0 25:1.0 
1.1 0:0.272 1:0.569 2:0.555 3:0.675 4:0.648 5:0.637 6:0.211 7:2.0 8:0.143 9:20.0 10:0.8 11:20.0 12:0.484 13:32.0 14:0.72 15:0.84 16:40.0 17:1.0 
1.1 0:0.88 1:0.836 2:0.451 3:0.17 4:0.23 5:0.231 6:0.364 7:3.0 8:0.167 9:22.0 10:0.786 11:22.0 12:0.539 13:33.0 14:0.75 15:0.786 16:39.0 18:1.0 
1.1 0:0.062 1:0.067 2:0.339 3:0.171 4:0.132 5:0.262 6:0.254 7:3.0 8:0.167 9:21.0 10:0.913 11:21.0 12:0.536 13:32.0 14:0.696 15:0.913 16:38.0 25:1.0 
1.1 0:0.332 1:0.205 2:0.405 3:0.142 4:0.302 5:0.336 6:0.183 7:2.0 8:0.1 9:23.0 10:0.958 11:23.0 12:0.292 13:39.0 14:0.917 15:0.958 16:39.0 22:1.0 
1.1 0:0.379 1:0.382 2:0.477 3:0.0 4:0.081 5:0.182 6:0.327 7:3.0 8:0.158 9:26.0 10:0.897 11:26.0 12:0.477 13:36.0 14:0.759 15:0.897 16:42.0 22:1.0 
1.1 0:0.748 1:0.701 2:0.238 3:0.135 4:0.148 5:0.173 6:0.32 7:3.0 8:0.188 9:21.0 10:0.875 11:21.0 12:0.406 13:38.0 14:0.792 15:0.854 16:42.0 23:1.0 
1.1 0:0.518 1:0.516 2:0.446 3:0.344 4:0.3 5:0.31 6:0.134 7:1.0 8:0.071 9:22.0 10:0.917 11:22.0 12:0.56 13:31.0 14:0.667 15:0.938 16:37.0 25:1.0 
1.1 0:0.69 1:0.664 2:0.466 3:0.412 4:0.252 5:0.348 6:0.471 7:4.0 8:0.308 9:18.0 10:0.857 11:18.0 12:0.549 13:18.0 14:0.476 15:0.881 16:20.0 21:1.0 
1.1 0:0.234 1:0.241 2:0.231 3:0.25 4:0.214 5:0.308 6:0.111 7:1.0 8:0.059 9:25.0 10:1.0 11:25.0 12:0.361 13:43.0 14:0.88 15:1.0 16:43.0 23:1.0 
1.1 0:0.942 1:0.936 2:0.606 3:0.497 4:0.467 5:0.455 6:0.387 7:3.0 8:0.231 9:25.0 10:0.862 11:25.0 12:0.536 13:32.0 14:0.793 15:0.879 16:36.0 17:1.0 
1.1 0:0.795 1:0.827 2:0.673 3:0.043 4:0.236 5:0.268 6:0.185 7:2.0 8:0.1 9:24.0 10:0.889 11:24.0 12:0.454 13:35.0 14:0.815 15:0.889 16:37.0 24:1.0 
1.1 0:0.889 1:0.875 2:0.606 3:0.372 4:0.346 5:0.487 6:0.426 7:4.0 8:0.267 9:17.0 10:0.81 11:17.0 12:0.552 13:27.0 14:0.667 15:0.786 16:31.0 22:1.0 
1.1 0:0.237 1:0.225 2:0.197 3:0.209 4:0.108 5:0.083 6:0.169 7:2.0 8:0.105 9:22.0 10:0.957 11:22.0 12:0.449 13:38.0 14:0.826 15:0.957 16:42.0 18:1.0 
1.1 0:0.138 1:0.141 2:0.345 3:0.168 4:0.162 5:0.203 6:0.236 7:2.0 8:0.125 9:26.0 10:1.0 11:26.0 12:0.392 13:40.0 14:0.885 15:1.0 16:38.0 23:1.0 
1.1 0:0.503 1:0.526 2:0.3 3:0.423 4:0.442 5:0.418 6:0.24 7:3.0 8:0.136 9:27.0 10:0.9 11:27.0 12:0.501 13:42.0 14:0.767 15:0.883 16:48.0 23:1.0 
1.1 0:0.157 1:0.215 2:0.238 3:0.158 4:0.162 5:0.206 6:0.182 7:2.0 8:0.1 9:23.0 10:0.958 11:23.0 12:0.309 13:42.0 14:0.917 15:0.958 16:42.0 22:1.0 
1.1 0:0.392 1:0.324 2:0.381 3:0.267 4:0.302 5:0.263 6:0.25 7:2.0 8:0.143 9:18.0 10:0.947 11:18.0 12:0.453 13:28.0 14:0.842 15:0.947 16:26.0 38:1.0 
1.1 0:0.108 1:0.172 2:0.528 3:0.183 4:0.181 5:0.237 6:0.335 7:3.0 8:0.2 9:22.0 10:0.917 11:22.0 12:0.28 13:39.0 14:0.833 15:0.917 16:41.0 23:1.0 
1.1 0:0.3 1:0.445 2:0.623 3:0.101 4:0.266 5:0.318 6:0.322 7:3.0 8:0.158 9:26.0 10:0.963 11:26.0 12:0.426 13:38.0 14:0.778 15:0.963 16:40.0 22:1.0 
1.1 0:0.961 1:0.918 2:0.515 3:0.2 4:0.182 5:0.202 6:0.387 7:3.0 8:0.231 9:19.0 10:0.826 11:19.0 12:0.511 13:30.0 14:0.739 15:0.826 16:30.0 23:1.0 
1.1 0:0.856 1:0.819 2:0.876 3:0.92 4:0.886 5:0.941 6:0.56 7:7.0 8:0.389 9:18.0 10:0.692 11:18.0 12:0.723 13:22.0 14:0.423 15:0.731 16:32.0 17:1.0 
1.1 0:0.714 1:0.736 2:0.382 3:0.339 4:0.242 5:0.33 6:0.222 7:3.0 8:0.125 9:26.0 10:0.929 11:26.0 12:0.408 13:45.0 14:0.821 15:0.946 16:45.0 23:1.0 
1.1 0:0.748 1:0.741 2:0.443 3:0.32 4:0.34 5:0.348 6:0.381 7:3.0 8:0.2 9:30.0 10:1.0 11:30.0 12:0.393 13:39.0 14:0.667 15:1.0 16:39.0 23:1.0 
1.1 0:0.963 1:0.953 2:0.422 3:0.287 4:0.245 5:0.275 6:0.302 7:3.0 8:0.176 9:26.0 10:0.929 11:26.0 12:0.41 13:39.0 14:0.75 15:0.929 16:43.0 23:1.0 
1.1 0:0.626 1:0.67 2:0.449 3:0.459 4:0.267 5:0.383 6:0.272 7:2.0 8:0.154 9:18.0 10:0.947 11:18.0 12:0.372 13:29.0 14:0.842 15:0.947 16:27.0 22:1.0 
1.1 0:0.28 1:0.283 2:0.111 3:0.054 4:0.119 5:0.074 6:0.0 7:0.0 8:0.0 9:15.0 10:0.938 11:15.0 12:0.362 13:25.0 14:0.875 15:0.938 16:25.0 33:1.0 
1.1 0:0.317 1:0.323 2:0.425 3:0.189 4:0.148 5:0.127 6:0.316 7:2.0 8:0.222 9:17.0 10:0.85 11:17.0 12:0.336 13:25.0 14:0.8 15:0.85 16:25.0 17:1.0 
1.1 0:0.006 1:0.028 2:0.216 3:0.0 4:0.0 5:0.0 6:0.0 7:0.0 8:0.0 9:25.0 10:0.962 11:25.0 12:0.379 13:43.0 14:0.846 15:0.962 16:47.0 21:1.0 
1.1 0:0.173 1:0.194 2:0.313 3:0.0 4:0.0 5:0.054 6:0.327 7:3.0 8:0.188 9:19.0 10:0.95 11:19.0 12:0.442 13:29.0 14:0.8 15:0.95 16:31.0 20:1.0 
1.1 0:0.828 1:0.753 2:0.264 3:0.474 4:0.363 5:0.281 6:0.535 7:4.0 8:0.364 9:15.0 10:0.625 11:15.0 12:0.776 13:19.0 14:0.417 15:0.625 16:27.0 21:1.0 
1.1 0:0.153 1:0.202 2:0.337 3:0.0 4:0.122 5:0.319 6:0.126 7:1.0 8:0.067 9:17.0 10:1.0 11:17.0 12:0.0 13:26.0 14:0.882 15:1.0 16:26.0 17:1.0 
1.1 0:0.677 1:0.795 2:0.533 3:0.23 4:0.31 5:0.374 6:0.201 7:2.0 8:0.111 9:24.0 10:0.857 11:24.0 12:0.503 13:37.0 14:0.75 15:0.857 16:41.0 31:1.0 
1.1 0:0.496 1:0.506 2:0.25 3:0.0 4:0.045 5:0.055 6:0.101 7:1.0 8:0.059 9:24.0 10:1.0 11:24.0 12:0.0 13:41.0 14:0.875 15:1.0 16:41.0 25:1.0 
1.1 0:0.16 1:0.13 2:0.164 3:0.0 4:0.0 5:0.054 6:0.309 7:2.0 8:0.182 9:19.0 10:1.0 11:19.0 12:0.448 13:25.0 14:0.737 15:1.0 16:21.0 22:1.0 
1.1 0:0.1 1:0.107 2:0.262 3:0.376 4:0.351 5:0.273 6:0.158 7:2.0 8:0.083 9:25.0 10:0.862 11:25.0 12:0.46 13:43.0 14:0.828 15:0.862 16:47.0 22:1.0 
1.1 0:0.45 1:0.491 2:0.381 3:0.155 4:0.09 5:0.165 6:0.094 7:1.0 8:0.048 9:26.0 10:0.867 11:26.0 12:0.389 13:40.0 14:0.833 15:0.883 16:46.0 22:1.0 
1.1 0:0.814 1:0.766 2:0.215 3:0.228 4:0.159 5:0.213 6:0.267 7:2.0 8:0.154 9:20.0 10:0.87 11:20.0 12:0.507 13:34.0 14:0.739 15:0.848 16:38.0 23:1.0 
1.1 0:0.151 1:0.155 2:0.247 3:0.0 4:0.071 5:0.13 6:0.0 7:0.0 8:0.0 9:26.0 10:0.897 11:26.0 12:0.418 13:43.0 14:0.897 15:0.897 16:45.0 25:1.0 
1.1 0:0.669 1:0.657 2:0.385 3:0.0 4:0.116 5:0.121 6:0.224 7:2.0 8:0.125 9:21.0 10:1.0 11:21.0 12:0.467 13:32.0 14:0.81 15:1.0 16:34.0 22:1.0 
1.1 0:0.66 1:0.519 2:0.435 3:0.072 4:0.179 5:0.17 6:0.283 7:3.0 8:0.188 9:24.0 10:0.828 11:24.0 12:0.58 13:32.0 14:0.69 15:0.845 16:38.0 22:1.0 
1.1 0:0.708 1:0.811 2:0.592 3:0.63 4:0.495 5:0.51 6:0.364 7:4.0 8:0.222 9:18.0 10:0.783 11:18.0 12:0.652 13:24.0 14:0.522 15:0.804 16:30.0 19:1.0 
1.1 0:0.623 1:0.699 2:0.425 3:0.17 4:0.362 5:0.377 6:0.224 7:2.0 8:0.125 9:15.0 10:0.882 11:15.0 12:0.569 13:22.0 14:0.647 15:0.912 16:28.0 22:1.0 
1.1 0:0.775 1:0.779 2:0.755 3:0.302 4:0.599 5:0.583 6:0.5 7:5.0 8:0.333 9:20.0 10:0.714 11:20.0 12:0.552 13:32.0 14:0.714 15:0.714 16:36.0 22:1.0 
1.1 0:0.194 1:0.275 2:0.3 3:0.516 4:0.318 5:0.161 6:0.191 7:2.0 8:0.105 9:26.0 10:1.0 11:26.0 12:0.302 13:46.0 14:0.923 15:1.0 16:46.0 22:1.0 
1.1 0:0.371 1:0.379 2:0.245 3:0.383 4:0.226 5:0.204 6:0.359 7:3.0 8:0.214 9:24.0 10:0.923 11:24.0 12:0.382 13:40.0 14:0.808 15:0.923 16:40.0 22:1.0 
1.1 0:0.789 1:0.7 2:0.712 3:0.0 4:0.123 5:0.254 6:0.354 7:3.0 8:0.214 9:22.0 10:0.917 11:22.0 12:0.452 13:36.0 14:0.792 15:0.917 16:36.0 18:1.0 
1.1 0:0.892 1:0.889 2:0.59 3:0.207 4:0.507 5:0.496 6:0.351 7:4.0 8:0.25 9:23.0 10:0.885 11:23.0 12:0.469 13:37.0 14:0.769 15:0.885 16:39.0 17:1.0 
0.12228388779673073 0:0.873 1:0.893 2:0.524 3:0.248 4:0.396 5:0.559 6:0.401 7:3.0 8:0.25 9:18.0 10:0.818 11:18.0 12:0.461 13:32.0 14:0.773 15:0.795 16:32.0 23:1.0 
1.1 0:0.594 1:0.476 2:0.521 3:0.233 4:0.328 5:0.324 6:0.335 7:3.0 8:0.2 9:20.0 10:0.769 11:20.0 12:0.445 13:34.0 14:0.769 15:0.769 16:36.0 23:1.0 
1.1 0:0.931 1:0.926 2:0.965 3:0.902 4:0.933 5:0.965 6:0.926 7:6.0 8:0.857 9:2.0 10:0.143 11:2.0 12:0.966 13:2.0 14:0.143 15:0.179 16:4.0 17:1.0 
1.1 0:0.061 1:0.09 2:0.097 3:0.0 4:0.053 5:0.037 6:0.0 7:0.0 8:0.0 9:18.0 10:0.947 11:18.0 12:0.404 13:34.0 14:0.895 15:0.947 16:34.0 21:1.0 
1.1 0:0.896 1:0.871 2:0.504 3:0.78 4:0.662 5:0.635 6:0.504 7:4.0 8:0.333 9:21.0 10:0.913 11:21.0 12:0.548 13:28.0 14:0.696 15:0.913 16:32.0 23:1.0 
1.1 0:0.988 1:0.985 2:0.63 3:0.318 4:0.224 5:0.22 6:0.269 7:4.0 8:0.154 9:23.0 10:0.767 11:23.0 12:0.537 13:41.0 14:0.7 15:0.75 16:49.0 23:1.0 
1.1 0:0.994 1:0.992 2:0.369 3:0.286 4:0.37 5:0.339 6:0.342 7:3.0 8:0.2 9:27.0 10:0.844 11:27.0 12:0.565 13:34.0 14:0.75 15:0.859 16:34.0 25:1.0 
1.1 0:0.713 1:0.805 2:0.959 3:0.11 4:0.17 5:0.434 6:0.544 7:4.0 8:0.364 9:13.0 10:0.684 11:13.0 12:0.694 13:17.0 14:0.474 15:0.711 16:19.0 17:1.0 
1.1 0:0.126 1:0.121 2:0.198 3:0.262 4:0.222 5:0.204 6:0.126 7:1.0 8:0.067 9:19.0 10:0.864 11:19.0 12:0.434 13:34.0 14:0.864 15:0.841 16:36.0 25:1.0 
1.1 0:0.952 1:0.975 2:0.718 3:0.113 4:0.612 5:0.909 6:0.5 7:4.0 8:0.333 9:16.0 10:0.889 11:16.0 12:0.613 13:16.0 14:0.5 15:0.917 16:16.0 17:1.0 
1.1 0:0.912 1:0.902 2:0.486 3:0.167 4:0.337 5:0.391 6:0.378 7:3.0 8:0.231 9:23.0 10:0.92 11:23.0 12:0.448 13:30.0 14:0.68 15:0.96 16:36.0 23:1.0 
1.1 0:0.963 1:0.973 2:0.568 3:0.116 4:0.324 5:0.355 6:0.477 7:5.0 8:0.313 9:27.0 10:0.9 11:27.0 12:0.434 13:44.0 14:0.767 15:0.9 16:48.0 23:1.0 
1.1 0:0.307 1:0.565 2:0.441 3:0.147 4:0.113 5:0.109 6:0.246 7:2.0 8:0.133 9:24.0 10:0.828 11:24.0 12:0.448 13:33.0 14:0.759 15:0.828 16:35.0 26:1.0 
1.1 0:0.496 1:0.469 2:0.17 3:0.0 4:0.0 5:0.0 6:0.258 7:2.0 8:0.143 9:21.0 10:0.913 11:21.0 12:0.472 13:31.0 14:0.783 15:0.891 16:35.0 23:1.0 
1.1 0:1.0 1:1.0 2:0.997 3:0.935 4:0.974 5:0.987 6:0.609 7:7.0 8:0.438 9:12.0 10:0.5 11:12.0 12:0.674 13:23.0 14:0.5 15:0.521 16:23.0 17:1.0 
1.1 0:0.788 1:0.807 2:0.35 3:0.19 4:0.358 5:0.343 6:0.377 7:4.0 8:0.2 9:20.0 10:0.87 11:20.0 12:0.507 13:34.0 14:0.739 15:0.87 16:36.0 22:1.0 
0.7711588539447732 0:0.906 1:0.91 2:0.889 3:0.381 4:0.797 5:0.832 6:0.577 7:6.0 8:0.4 9:24.0 10:0.615 11:24.0 12:0.748 13:26.0 14:0.564 15:0.654 16:34.0 24:1.0 
1.1 0:0.988 1:0.983 2:0.517 3:0.261 4:0.402 5:0.414 6:0.335 7:3.0 8:0.25 9:15.0 10:0.75 11:15.0 12:0.521 13:22.0 14:0.65 15:0.75 16:26.0 23:1.0 
1.1 0:0.801 1:0.844 2:0.646 3:0.0 4:0.514 5:0.816 6:0.63 7:5.0 8:0.455 9:7.0 10:0.412 11:7.0 12:0.818 13:10.0 14:0.353 15:0.471 16:16.0 21:1.0 
1.1 0:0.893 1:0.889 2:0.709 3:0.842 4:0.749 5:0.782 6:0.322 7:4.0 8:0.222 9:29.0 10:1.0 11:29.0 12:0.4 13:44.0 14:0.793 15:1.0 16:42.0 23:1.0 
1.1 0:0.776 1:0.772 2:0.346 3:0.293 4:0.408 5:0.431 6:0.387 7:3.0 8:0.231 9:20.0 10:0.714 11:20.0 12:0.444 13:33.0 14:0.714 15:0.714 16:31.0 25:1.0 
1.1 0:0.304 1:0.288 2:0.232 3:0.139 4:0.073 5:0.146 6:0.101 7:1.0 8:0.053 9:22.0 10:0.917 11:22.0 12:0.418 13:41.0 14:0.875 15:0.917 16:43.0 23:1.0 
1.1 0:0.918 1:0.931 2:0.856 3:0.411 4:0.695 5:0.689 6:0.505 7:6.0 8:0.316 9:19.0 10:0.792 11:19.0 12:0.501 13:28.0 14:0.625 15:0.813 16:34.0 17:1.0 
1.1 0:0.307 1:0.332 2:0.274 3:0.149 4:0.123 5:0.106 6:0.3 7:3.0 8:0.176 9:26.0 10:0.963 11:26.0 12:0.303 13:44.0 14:0.889 15:0.963 16:44.0 18:1.0 
1.1 0:0.207 1:0.317 2:0.298 3:0.0 4:0.0 5:0.0 6:0.112 7:1.0 8:0.059 9:23.0 10:0.885 11:23.0 12:0.288 13:39.0 14:0.885 15:0.904 16:41.0 21:1.0 
1.1 0:0.213 1:0.204 2:0.232 3:0.052 4:0.051 5:0.051 6:0.0 7:0.0 8:0.0 9:33.0 10:0.971 11:33.0 12:0.286 13:59.0 14:0.941 15:0.971 16:61.0 32:1.0 
1.1 0:0.851 1:0.85 2:0.323 3:0.09 4:0.154 5:0.183 6:0.309 7:2.0 8:0.182 9:24.0 10:1.0 11:24.0 12:0.447 13:39.0 14:0.833 15:1.0 16:39.0 23:1.0 
1.1 0:0.6 1:0.605 2:0.411 3:0.117 4:0.17 5:0.158 6:0.192 7:2.0 8:0.105 9:19.0 10:0.76 11:19.0 12:0.524 13:35.0 14:0.72 15:0.74 16:39.0 23:1.0 
1.1 0:0.205 1:0.207 2:0.576 3:0.233 4:0.275 5:0.429 6:0.25 7:2.0 8:0.143 9:21.0 10:1.0 11:21.0 12:0.463 13:33.0 14:0.81 15:1.0 16:33.0 17:1.0 
1.1 0:0.779 1:0.682 2:0.493 3:0.086 4:0.239 5:0.227 6:0.471 7:4.0 8:0.308 9:19.0 10:0.864 11:19.0 12:0.693 13:19.0 14:0.5 15:0.886 16:19.0 17:1.0 
1.1 0:0.625 1:0.66 2:0.626 3:0.283 4:0.379 5:0.319 6:0.309 7:2.0 8:0.182 9:11.0 10:0.786 11:11.0 12:0.619 13:14.0 14:0.643 15:0.786 16:14.0 20:1.0 
1.1 0:0.894 1:0.828 2:0.901 3:0.324 4:0.32 5:0.199 6:0.455 7:5.0 8:0.294 9:13.0 10:0.591 11:13.0 12:0.644 13:23.0 14:0.545 15:0.591 16:29.0 18:1.0 
1.1 0:0.649 1:0.611 2:0.456 3:0.135 4:0.261 5:0.332 6:0.286 7:4.0 8:0.167 9:27.0 10:0.9 11:27.0 12:0.441 13:48.0 14:0.8 15:0.883 16:52.0 23:1.0 
1.1 0:0.6 1:0.587 2:0.387 3:0.108 4:0.145 5:0.262 6:0.289 7:2.0 8:0.125 9:18.0 10:0.783 11:18.0 12:0.482 13:35.0 14:0.783 15:0.761 16:35.0 23:1.0 
1.1 0:0.847 1:0.858 2:0.411 3:0.0 4:0.129 5:0.186 6:0.239 7:2.0 8:0.133 9:26.0 10:0.813 11:26.0 12:0.501 13:39.0 14:0.813 15:0.813 16:43.0 17:1.0 
1.1 0:0.768 1:0.773 2:0.407 3:0.286 4:0.36 5:0.28 6:0.32 7:3.0 8:0.188 9:14.0 10:0.583 11:14.0 12:0.631 13:25.0 14:0.583 15:0.604 16:29.0 23:1.0 
1.1 0:0.909 1:0.897 2:0.597 3:0.318 4:0.387 5:0.375 6:0.378 7:3.0 8:0.231 9:15.0 10:0.75 11:15.0 12:0.629 13:18.0 14:0.5 15:0.8 16:24.0 26:1.0 
1.1 0:0.494 1:0.514 2:0.346 3:0.156 4:0.308 5:0.341 6:0.429 7:3.0 8:0.273 9:18.0 10:0.818 11:18.0 12:0.457 13:29.0 14:0.682 15:0.818 16:31.0 22:1.0 
1.1 0:0.722 1:0.698 2:0.483 3:0.167 4:0.354 5:0.445 6:0.202 7:2.0 8:0.105 9:25.0 10:0.893 11:25.0 12:0.376 13:35.0 14:0.821 15:0.893 16:39.0 25:1.0 
1.1 0:0.88 1:0.891 2:0.979 3:0.126 4:0.59 5:0.792 6:0.452 7:5.0 8:0.313 9:17.0 10:0.81 11:17.0 12:0.601 13:24.0 14:0.619 15:0.786 16:26.0 17:1.0 
1.1 0:0.893 1:0.882 2:0.484 3:0.0 4:0.098 5:0.181 6:0.403 7:4.0 8:0.222 9:21.0 10:0.7 11:21.0 12:0.564 13:35.0 14:0.7 15:0.7 16:37.0 23:1.0 
1.1 0:0.872 1:0.924 2:0.691 3:0.235 4:0.304 5:0.253 6:0.309 7:4.0 8:0.182 9:19.0 10:0.633 11:19.0 12:0.633 13:30.0 14:0.6 15:0.65 16:36.0 19:1.0 
0.799102995081019 0:0.802 1:0.691 2:0.521 3:0.267 4:0.342 5:0.308 6:0.267 7:2.0 8:0.154 9:25.0 10:1.0 11:25.0 12:0.556 13:29.0 14:0.72 15:1.0 16:29.0 21:1.0 
1.1 0:0.835 1:0.819 2:0.52 3:0.083 4:0.307 5:0.392 6:0.342 7:3.0 8:0.2 9:24.0 10:1.0 11:24.0 12:0.0 13:29.0 14:0.833 15:1.0 16:29.0 22:1.0 
1.1 0:0.211 1:0.448 2:0.355 3:0.155 4:0.347 5:0.344 6:0.307 7:4.0 8:0.2 9:27.0 10:0.9 11:27.0 12:0.471 13:38.0 14:0.767 15:0.9 16:36.0 22:1.0 
1.1 0:0.565 1:0.624 2:0.234 3:0.178 4:0.228 5:0.22 6:0.191 7:2.0 8:0.105 9:23.0 10:0.793 11:23.0 12:0.486 13:41.0 14:0.793 15:0.776 16:43.0 23:1.0 
1.1 0:0.818 1:0.811 2:0.635 3:0.0 4:0.094 5:0.183 6:0.526 7:5.0 8:0.333 9:24.0 10:0.857 11:24.0 12:0.57 13:32.0 14:0.679 15:0.857 16:34.0 23:1.0 
1.1 0:0.488 1:0.506 2:0.283 3:0.125 4:0.153 5:0.256 6:0.34 7:3.0 8:0.231 9:25.0 10:0.833 11:25.0 12:0.412 13:37.0 14:0.833 15:0.833 16:35.0 21:1.0 
1.1 0:0.01 1:0.013 2:0.066 3:0.0 4:0.0 5:0.058 6:0.0 7:0.0 8:0.0 9:30.0 10:1.0 11:30.0 12:0.0 13:49.0 14:1.0 15:1.0 16:47.0 23:1.0 
0.7238274035795699 0:0.79 1:0.805 2:0.993 3:0.537 4:0.87 5:0.886 6:0.615 7:8.0 8:0.444 9:25.0 10:1.0 11:25.0 12:0.606 13:29.0 14:0.6 15:1.0 16:31.0 26:1.0 
1.1 0:0.533 1:0.625 2:0.53 3:0.0 4:0.29 5:0.333 6:0.091 7:1.0 8:0.048 9:23.0 10:1.0 11:23.0 12:0.452 13:37.0 14:0.826 15:1.0 16:41.0 24:1.0 
1.1 0:0.483 1:0.564 2:0.214 3:0.154 4:0.111 5:0.137 6:0.359 7:3.0 8:0.214 9:19.0 10:0.826 11:19.0 12:0.455 13:34.0 14:0.783 15:0.826 16:30.0 22:1.0 
1.1 0:0.567 1:0.507 2:0.362 3:0.191 4:0.289 5:0.406 6:0.239 7:2.0 8:0.133 9:18.0 10:0.818 11:18.0 12:0.611 13:23.0 14:0.636 15:0.795 16:29.0 22:1.0 
1.1 0:0.087 1:0.119 2:0.229 3:0.152 4:0.104 5:0.194 6:0.359 7:3.0 8:0.214 9:19.0 10:0.905 11:19.0 12:0.452 13:29.0 14:0.857 15:0.905 16:31.0 18:1.0 
1.1 0:0.822 1:0.839 2:0.548 3:0.189 4:0.523 5:0.612 6:0.358 7:4.0 8:0.222 9:22.0 10:0.957 11:22.0 12:0.313 13:30.0 14:0.696 15:0.957 16:34.0 22:1.0 
1.1 0:0.346 1:0.356 2:0.381 3:0.224 4:0.388 5:0.456 6:0.088 7:1.0 8:0.043 9:28.0 10:0.933 11:28.0 12:0.446 13:49.0 14:0.833 15:0.933 16:53.0 23:1.0 
1.1 0:0.976 1:0.937 2:0.431 3:0.205 4:0.162 5:0.233 6:0.327 7:3.0 8:0.188 9:21.0 10:0.75 11:21.0 12:0.562 13:32.0 14:0.714 15:0.75 16:36.0 21:1.0 
1.1 0:0.165 1:0.28 2:0.204 3:0.242 4:0.254 5:0.255 6:0.364 7:4.0 8:0.222 9:26.0 10:1.0 11:26.0 12:0.276 13:37.0 14:0.769 15:1.0 16:37.0 22:1.0 
1.1 0:0.977 1:0.978 2:0.539 3:0.089 4:0.06 5:0.071 6:0.408 7:3.0 8:0.25 9:22.0 10:0.917 11:22.0 12:0.283 13:32.0 14:0.708 15:0.917 16:28.0 22:1.0 
1.1 0:0.989 1:0.986 2:0.604 3:0.243 4:0.23 5:0.432 6:0.375 7:3.0 8:0.231 9:18.0 10:0.75 11:18.0 12:0.518 13:29.0 14:0.75 15:0.729 16:29.0 23:1.0 
1.1 0:0.967 1:0.984 2:0.432 3:0.285 4:0.251 5:0.246 6:0.273 7:3.0 8:0.158 9:27.0 10:1.0 11:27.0 12:0.452 13:39.0 14:0.741 15:1.0 16:41.0 23:1.0 
1.1 0:0.057 1:0.149 2:0.449 3:0.435 4:0.38 5:0.313 6:0.404 7:4.0 8:0.2 9:22.0 10:0.957 11:22.0 12:0.446 13:31.0 14:0.696 15:0.957 16:33.0 22:1.0 
1.1 0:1.0 1:1.0 2:1.0 3:1.0 4:1.0 5:1.0 6:0.567 7:3.0 8:0.375 9:6.0 10:0.667 11:6.0 12:0.569 13:11.0 14:0.667 15:0.611 16:11.0 32:1.0 
1.1 0:0.795 1:0.767 2:0.659 3:0.103 4:0.112 5:0.103 6:0.53 7:3.0 8:0.333 9:13.0 10:0.619 11:13.0 12:0.683 13:13.0 14:0.524 15:0.643 16:15.0 17:1.0 
1.1 0:0.852 1:0.901 2:0.427 3:0.0 4:0.154 5:0.163 6:0.286 7:3.0 8:0.188 9:16.0 10:0.727 11:16.0 12:0.569 13:28.0 14:0.636 15:0.727 16:30.0 23:1.0 
1.1 0:0.832 1:0.888 2:0.255 3:0.243 4:0.272 5:0.244 6:0.316 7:3.0 8:0.188 9:24.0 10:0.8 11:24.0 12:0.523 13:35.0 14:0.7 15:0.783 16:39.0 23:1.0 
1.1 0:0.005 1:0.009 2:0.067 3:0.0 4:0.025 5:0.041 6:0.0 7:0.0 8:0.0 9:22.0 10:0.957 11:22.0 12:0.364 13:41.0 14:0.957 15:0.957 16:41.0 21:1.0 
1.1 0:0.113 1:0.161 2:0.264 3:0.247 4:0.225 5:0.35 6:0.096 7:1.0 8:0.05 9:28.0 10:0.966 11:28.0 12:0.368 13:43.0 14:0.828 15:0.966 16:43.0 27:1.0 
1.1 0:0.019 1:0.056 2:0.29 3:0.063 4:0.061 5:0.077 6:0.261 7:3.0 8:0.15 9:28.0 10:0.966 11:28.0 12:0.441 13:47.0 14:0.862 15:0.966 16:47.0 18:1.0 
1.1 0:0.334 1:0.216 2:0.962 3:0.032 4:0.081 5:0.231 6:0.74 7:8.0 8:0.727 9:9.0 10:0.36 11:9.0 12:0.858 13:10.0 14:0.32 15:0.42 16:18.0 17:1.0 
1.1 0:0.737 1:0.765 2:0.783 3:0.0 4:0.207 5:0.545 6:0.404 7:4.0 8:0.235 9:24.0 10:0.828 11:24.0 12:0.569 13:30.0 14:0.759 15:0.828 16:32.0 17:1.0 
1.1 0:0.463 1:0.579 2:0.194 3:0.081 4:0.068 5:0.244 6:0.191 7:2.0 8:0.105 9:19.0 10:0.864 11:19.0 12:0.457 13:35.0 14:0.818 15:0.886 16:37.0 22:1.0 
1.1 0:0.461 1:0.434 2:0.799 3:0.104 4:0.093 5:0.359 6:0.6 7:6.0 8:0.429 9:13.0 10:0.464 11:13.0 12:0.708 13:17.0 14:0.429 15:0.482 16:23.0 24:1.0 
1.1 0:0.861 1:0.891 2:0.836 3:0.083 4:0.144 5:0.336 6:0.261 7:2.0 8:0.111 9:18.0 10:0.818 11:18.0 12:0.519 13:31.0 14:0.727 15:0.841 16:37.0 24:1.0 
1.1 0:0.675 1:0.751 2:0.684 3:0.0 4:0.471 5:0.7 6:0.548 7:3.0 8:0.375 9:6.0 10:0.462 11:6.0 12:0.761 13:9.0 14:0.385 15:0.5 16:13.0 23:1.0 
1.1 0:0.483 1:0.371 2:0.392 3:0.0 4:0.0 5:0.0 6:0.267 7:2.0 8:0.154 9:18.0 10:0.818 11:18.0 12:0.524 13:30.0 14:0.727 15:0.841 16:34.0 22:1.0 
1.1 0:0.928 1:0.899 2:0.494 3:0.341 4:0.351 5:0.31 6:0.252 7:2.0 8:0.143 9:14.0 10:0.583 11:14.0 12:0.667 13:24.0 14:0.5 15:0.563 16:26.0 25:1.0 
1.1 0:0.822 1:0.856 2:0.549 3:0.379 4:0.38 5:0.583 6:0.246 7:2.0 8:0.133 9:18.0 10:0.9 11:18.0 12:0.521 13:26.0 14:0.75 15:0.9 16:28.0 17:1.0 
1.1 0:0.425 1:0.649 2:0.346 3:0.08 4:0.262 5:0.178 6:0.192 7:2.0 8:0.105 9:27.0 10:1.0 11:27.0 12:0.359 13:42.0 14:0.815 15:1.0 16:44.0 22:1.0 
1.1 0:0.757 1:0.817 2:0.616 3:0.106 4:0.221 5:0.31 6:0.201 7:2.0 8:0.111 9:20.0 10:0.8 11:20.0 12:0.524 13:31.0 14:0.76 15:0.78 16:33.0 20:1.0 
1.1 0:0.57 1:0.382 2:0.372 3:0.049 4:0.224 5:0.254 6:0.239 7:2.0 8:0.133 9:27.0 10:0.844 11:27.0 12:0.497 13:37.0 14:0.844 15:0.844 16:39.0 17:1.0 
1.1 0:0.234 1:0.232 2:0.506 3:0.113 4:0.375 5:0.414 6:0.191 7:2.0 8:0.105 9:27.0 10:0.871 11:27.0 12:0.457 13:45.0 14:0.839 15:0.871 16:47.0 17:1.0 
1.1 0:0.197 1:0.109 2:0.684 3:0.212 4:0.482 5:0.55 6:0.091 7:1.0 8:0.048 9:17.0 10:0.68 11:17.0 12:0.623 13:24.0 14:0.56 15:0.68 16:28.0 24:1.0 
0.03197734281104769 0:0.292 1:0.271 2:0.354 3:0.934 4:0.585 5:0.533 6:0.228 7:2.0 8:0.125 9:20.0 10:0.87 11:20.0 12:0.429 13:36.0 14:0.87 15:0.848 16:36.0 17:1.0 
1.1 0:0.829 1:0.729 2:0.301 3:0.0 4:0.0 5:0.236 6:0.471 7:4.0 8:0.235 9:26.0 10:0.867 11:26.0 12:0.383 13:39.0 14:0.8 15:0.867 16:41.0 23:1.0 
1.1 0:0.933 1:0.919 2:0.325 3:0.207 4:0.286 5:0.28 6:0.289 7:2.0 8:0.167 9:17.0 10:0.739 11:17.0 12:0.517 13:29.0 14:0.739 15:0.717 16:31.0 23:1.0 
1.1 0:0.939 1:0.926 2:0.424 3:0.0 4:0.0 5:0.097 6:0.354 7:3.0 8:0.214 9:25.0 10:1.0 11:25.0 12:0.222 13:28.0 14:0.6 15:1.0 16:30.0 23:1.0 
1.1 0:0.542 1:0.575 2:0.166 3:0.07 4:0.086 5:0.12 6:0.189 7:2.0 8:0.118 9:28.0 10:1.0 11:28.0 12:0.479 13:43.0 14:0.786 15:1.0 16:47.0 23:1.0 
1.1 0:0.698 1:0.709 2:0.589 3:0.444 4:0.333 5:0.431 6:0.462 7:5.0 8:0.294 9:16.0 10:0.533 11:16.0 12:0.668 13:28.0 14:0.467 15:0.533 16:32.0 23:1.0 
1.1 0:0.66 1:0.724 2:0.31 3:0.037 4:0.025 5:0.041 6:0.174 7:2.0 8:0.095 9:30.0 10:1.0 11:30.0 12:0.38 13:43.0 14:0.767 15:1.0 16:43.0 23:1.0 
1.1 0:0.927 1:0.937 2:0.522 3:0.111 4:0.264 5:0.399 6:0.261 7:3.0 8:0.176 9:24.0 10:0.8 11:24.0 12:0.549 13:37.0 14:0.633 15:0.8 16:47.0 23:1.0 
1.1 0:0.448 1:0.536 2:0.38 3:0.256 4:0.203 5:0.176 6:0.354 7:3.0 8:0.214 9:24.0 10:0.857 11:24.0 12:0.554 13:31.0 14:0.75 15:0.857 16:35.0 25:1.0 
1.1 0:0.848 1:0.959 2:0.467 3:0.172 4:0.195 5:0.212 6:0.211 7:2.0 8:0.118 9:22.0 10:0.88 11:22.0 12:0.454 13:32.0 14:0.76 15:0.9 16:40.0 17:1.0 
1.1 0:0.07 1:0.066 2:0.476 3:0.478 4:0.681 5:0.818 6:0.263 7:3.0 8:0.176 9:15.0 10:0.536 11:15.0 12:0.639 13:23.0 14:0.536 15:0.571 16:27.0 26:1.0 
1.1 0:0.269 1:0.284 2:0.277 3:0.254 4:0.34 5:0.319 6:0.567 7:3.0 8:0.375 9:13.0 10:0.65 11:13.0 12:0.607 13:23.0 14:0.6 15:0.65 16:21.0 25:1.0 
1.1 0:0.881 1:0.855 2:0.653 3:0.175 4:0.256 5:0.21 6:0.338 7:4.0 8:0.2 9:19.0 10:0.76 11:19.0 12:0.43 13:30.0 14:0.76 15:0.78 16:32.0 18:1.0 
1.1 0:0.347 1:0.406 2:0.267 3:0.465 4:0.25 5:0.271 6:0.118 7:1.0 8:0.063 9:23.0 10:1.0 11:23.0 12:0.0 13:41.0 14:0.913 15:1.0 16:41.0 22:1.0 
1.1 0:0.743 1:0.724 2:0.528 3:0.174 4:0.176 5:0.289 6:0.455 7:5.0 8:0.294 9:19.0 10:0.792 11:19.0 12:0.484 13:31.0 14:0.667 15:0.813 16:33.0 17:1.0 
1.1 0:0.811 1:0.882 2:0.533 3:0.116 4:0.351 5:0.371 6:0.289 7:2.0 8:0.167 9:18.0 10:0.818 11:18.0 12:0.387 13:29.0 14:0.818 15:0.818 16:31.0 24:1.0 
1.1 0:0.974 1:0.981 2:0.632 3:0.108 4:0.263 5:0.281 6:0.408 7:3.0 8:0.25 9:24.0 10:1.0 11:24.0 12:0.319 13:38.0 14:0.917 15:1.0 16:36.0 23:1.0 
1.1 0:0.376 1:0.27 2:0.374 3:0.02 4:0.012 5:0.009 6:0.228 7:2.0 8:0.125 9:22.0 10:0.846 11:22.0 12:0.516 13:30.0 14:0.808 15:0.865 16:32.0 17:1.0 
1.1 0:0.443 1:0.585 2:0.33 3:0.606 4:0.396 5:0.327 6:0.289 7:2.0 8:0.143 9:19.0 10:0.826 11:19.0 12:0.423 13:26.0 14:0.826 15:0.848 16:28.0 22:1.0 
1.1 0:0.841 1:0.848 2:0.37 3:0.212 4:0.475 5:0.461 6:0.433 7:3.0 8:0.273 9:17.0 10:0.739 11:17.0 12:0.519 13:27.0 14:0.696 15:0.717 16:29.0 23:1.0 
1.1 0:0.257 1:0.408 2:0.378 3:0.271 4:0.302 5:0.27 6:0.222 7:2.0 8:0.125 9:22.0 10:0.88 11:22.0 12:0.612 13:28.0 14:0.6 15:0.9 16:32.0 21:1.0 
1.1 0:0.924 1:0.91 2:0.374 3:0.104 4:0.176 5:0.188 6:0.309 7:2.0 8:0.182 9:15.0 10:0.75 11:15.0 12:0.509 13:28.0 14:0.75 15:0.725 16:30.0 22:1.0 
1.1 0:0.137 1:0.216 2:0.301 3:0.0 4:0.0 5:0.205 6:0.463 7:3.0 8:0.3 9:12.0 10:0.706 11:12.0 12:0.56 13:16.0 14:0.588 15:0.735 16:18.0 33:1.0 
1.1 0:0.837 1:0.833 2:0.516 3:0.415 4:0.373 5:0.388 6:0.559 7:5.0 8:0.385 9:21.0 10:0.7 11:21.0 12:0.588 13:32.0 14:0.633 15:0.7 16:36.0 23:1.0 
1.1 0:0.922 1:0.917 2:0.825 3:0.022 4:0.056 5:0.082 6:0.37 7:4.0 8:0.222 9:25.0 10:0.862 11:25.0 12:0.492 13:33.0 14:0.759 15:0.862 16:33.0 24:1.0 
1.1 0:0.908 1:0.94 2:0.736 3:0.224 4:0.325 5:0.239 6:0.381 7:4.0 8:0.235 9:18.0 10:0.72 11:18.0 12:0.547 13:32.0 14:0.68 15:0.72 16:34.0 18:1.0 
1.1 0:0.451 1:0.528 2:0.291 3:0.263 4:0.316 5:0.329 6:0.201 7:2.0 8:0.111 9:29.0 10:1.0 11:29.0 12:0.497 13:43.0 14:0.759 15:1.0 16:47.0 23:1.0 
1.1 0:0.433 1:0.42 2:0.419 3:0.097 4:0.295 5:0.253 6:0.102 7:1.0 8:0.053 9:25.0 10:0.962 11:25.0 12:0.306 13:44.0 14:0.923 15:0.962 16:46.0 17:1.0 
1.1 0:0.982 1:0.982 2:0.563 3:0.264 4:0.244 5:0.338 6:0.311 7:4.0 8:0.182 9:28.0 10:0.966 11:28.0 12:0.357 13:48.0 14:0.862 15:0.966 16:44.0 23:1.0 
1.1 0:0.558 1:0.715 2:0.62 3:0.115 4:0.092 5:0.244 6:0.236 7:2.0 8:0.125 9:26.0 10:0.897 11:26.0 12:0.439 13:37.0 14:0.897 15:0.879 16:37.0 17:1.0 
1.1 0:0.947 1:0.914 2:0.963 3:0.949 4:0.716 5:0.527 6:0.949 7:9.0 8:0.9 9:4.0 10:0.148 11:4.0 12:0.974 13:4.0 14:0.148 15:0.185 16:8.0 17:1.0 
1.1 0:0.654 1:0.656 2:0.632 3:0.271 4:0.333 5:0.425 6:0.429 7:3.0 8:0.273 9:20.0 10:0.909 11:20.0 12:0.447 13:28.0 14:0.773 15:0.909 16:28.0 23:1.0 
1.1 0:0.163 1:0.222 2:0.174 3:0.131 4:0.133 5:0.116 6:0.091 7:1.0 8:0.048 9:23.0 10:0.767 11:23.0 12:0.521 13:41.0 14:0.7 15:0.767 16:51.0 22:1.0 
1.1 0:0.688 1:0.678 2:0.25 3:0.179 4:0.144 5:0.178 6:0.378 7:3.0 8:0.231 9:20.0 10:0.667 11:20.0 12:0.55 13:32.0 14:0.633 15:0.7 16:40.0 23:1.0 
1.1 0:0.995 1:0.993 2:0.504 3:0.063 4:0.239 5:0.421 6:0.385 7:4.0 8:0.235 9:22.0 10:0.733 11:22.0 12:0.573 13:36.0 14:0.667 15:0.75 16:40.0 23:1.0 
1.1 0:0.05 1:0.066 2:0.114 3:0.0 4:0.0 5:0.051 6:0.0 7:0.0 8:0.0 9:26.0 10:1.0 11:26.0 12:0.363 13:44.0 14:0.962 15:1.0 16:44.0 39:1.0 
1.1 0:0.609 1:0.617 2:0.257 3:0.0 4:0.0 5:0.051 6:0.245 7:2.0 8:0.1 9:23.0 10:0.852 11:23.0 12:0.439 13:40.0 14:0.815 15:0.833 16:44.0 23:1.0 
1.1 0:0.15 1:0.172 2:0.343 3:0.0 4:0.296 5:0.258 6:0.477 7:5.0 8:0.313 9:18.0 10:0.667 11:18.0 12:0.509 13:27.0 14:0.667 15:0.667 16:33.0 23:1.0 
1.1 0:0.07 1:0.061 2:0.23 3:0.199 4:0.152 5:0.14 6:0.439 7:5.0 8:0.278 9:21.0 10:0.7 11:21.0 12:0.589 13:33.0 14:0.667 15:0.733 16:39.0 23:1.0 
1.1 0:0.779 1:0.762 2:0.326 3:0.033 4:0.224 5:0.381 6:0.433 7:3.0 8:0.273 9:19.0 10:0.704 11:19.0 12:0.58 13:29.0 14:0.704 15:0.722 16:31.0 39:1.0 
1.1 0:0.895 1:0.957 2:0.502 3:0.241 4:0.232 5:0.409 6:0.455 7:5.0 8:0.294 9:16.0 10:0.667 11:16.0 12:0.646 13:25.0 14:0.542 15:0.688 16:31.0 23:1.0 
1.1 0:0.195 1:0.213 2:0.337 3:0.179 4:0.433 5:0.384 6:0.178 7:2.0 8:0.095 9:26.0 10:0.897 11:26.0 12:0.463 13:37.0 14:0.862 15:0.931 16:41.0 23:1.0 
1.1 0:0.903 1:0.89 2:0.871 3:0.239 4:0.662 5:0.581 6:0.528 7:5.0 8:0.313 9:15.0 10:0.652 11:15.0 12:0.676 13:21.0 14:0.522 15:0.674 16:25.0 17:1.0 
1.1 0:0.59 1:0.588 2:0.293 3:0.125 4:0.181 5:0.238 6:0.112 7:1.0 8:0.059 9:26.0 10:0.867 11:26.0 12:0.409 13:41.0 14:0.767 15:0.883 16:45.0 23:1.0 
1.1 0:0.567 1:0.718 2:0.597 3:0.254 4:0.313 5:0.383 6:0.342 7:3.0 8:0.2 9:22.0 10:0.88 11:22.0 12:0.43 13:33.0 14:0.84 15:0.9 16:31.0 20:1.0 
1.1 0:0.063 1:0.084 2:0.194 3:0.0 4:0.0 5:0.037 6:0.4 7:4.0 8:0.25 9:23.0 10:1.0 11:23.0 12:0.363 13:37.0 14:0.826 15:1.0 16:39.0 24:1.0 
1.1 0:0.844 1:0.891 2:0.558 3:0.211 4:0.352 5:0.449 6:0.222 7:2.0 8:0.125 9:16.0 10:0.8 11:16.0 12:0.573 13:25.0 14:0.65 15:0.8 16:31.0 17:1.0 
1.1 0:0.508 1:0.562 2:0.86 3:0.067 4:0.504 5:0.88 6:0.836 7:10.0 8:0.714 9:9.0 10:0.321 11:9.0 12:0.937 13:10.0 14:0.286 15:0.357 16:16.0 24:1.0 
1.1 0:0.744 1:0.74 2:0.422 3:0.0 4:0.34 5:0.259 6:0.612 7:6.0 8:0.429 9:30.0 10:0.882 11:30.0 12:0.494 13:34.0 14:0.676 15:0.912 16:32.0 36:1.0 
1.1 0:0.615 1:0.664 2:0.754 3:0.478 4:0.416 5:0.461 6:0.359 7:3.0 8:0.214 9:19.0 10:0.792 11:19.0 12:0.521 13:32.0 14:0.708 15:0.792 16:36.0 22:1.0 
1.1 0:0.757 1:0.617 2:0.437 3:0.09 4:0.129 5:0.147 6:0.169 7:1.0 8:0.091 9:16.0 10:0.8 11:16.0 12:0.495 13:26.0 14:0.8 15:0.8 16:26.0 22:1.0 
1.1 0:0.52 1:0.507 2:0.486 3:0.327 4:0.43 5:0.428 6:0.456 7:4.0 8:0.267 9:19.0 10:0.95 11:19.0 12:0.485 13:26.0 14:0.65 15:0.975 16:28.0 19:1.0 
1.1 0:0.941 1:0.874 2:0.173 3:0.189 4:0.129 5:0.088 6:0.316 7:4.0 8:0.182 9:25.0 10:0.833 11:25.0 12:0.528 13:36.0 14:0.767 15:0.817 16:38.0 17:1.0 
1.1 0:0.095 1:0.094 2:0.179 3:0.029 4:0.031 5:0.027 6:0.084 7:1.0 8:0.043 9:26.0 10:0.867 11:26.0 12:0.448 13:48.0 14:0.833 15:0.85 16:52.0 17:1.0 
1.1 0:0.829 1:0.79 2:0.541 3:0.115 4:0.393 5:0.509 6:0.516 7:4.0 8:0.267 9:31.0 10:0.816 11:31.0 12:0.574 13:37.0 14:0.816 15:0.842 16:33.0 17:1.0 
1.1 0:0.517 1:0.576 2:0.35 3:0.0 4:0.118 5:0.123 6:0.224 7:2.0 8:0.125 9:21.0 10:1.0 11:21.0 12:0.0 13:31.0 14:0.81 15:1.0 16:31.0 17:1.0 
1.1 0:0.154 1:0.267 2:0.13 3:0.0 4:0.176 5:0.242 6:0.0 7:0.0 8:0.0 9:23.0 10:1.0 11:23.0 12:0.0 13:43.0 14:0.957 15:1.0 16:43.0 22:1.0 
1.1 0:0.468 1:0.448 2:0.394 3:0.789 4:0.497 5:0.565 6:0.721 7:8.0 8:0.571 9:13.0 10:0.464 11:13.0 12:0.894 13:14.0 14:0.321 15:0.446 16:16.0 32:1.0 
1.1 0:0.957 1:0.907 2:0.439 3:0.0 4:0.094 5:0.182 6:0.354 7:3.0 8:0.214 9:23.0 10:1.0 11:23.0 12:0.404 13:33.0 14:0.739 15:1.0 16:31.0 25:1.0 
1.1 0:0.65 1:0.587 2:0.612 3:0.0 4:0.198 5:0.283 6:0.191 7:2.0 8:0.105 9:28.0 10:1.0 11:28.0 12:0.444 13:41.0 14:0.857 15:1.0 16:43.0 22:1.0 
1.1 0:0.264 1:0.245 2:0.379 3:0.139 4:0.065 5:0.072 6:0.463 7:3.0 8:0.3 9:9.0 10:0.643 11:9.0 12:0.667 13:14.0 14:0.5 15:0.643 16:16.0 23:1.0 
1.1 0:0.269 1:0.207 2:0.518 3:0.27 4:0.248 5:0.369 6:0.2 7:2.0 8:0.111 9:24.0 10:0.857 11:24.0 12:0.503 13:41.0 14:0.75 15:0.857 16:45.0 23:1.0 
1.1 0:0.531 1:0.434 2:0.294 3:0.371 4:0.341 5:0.274 6:0.289 7:2.0 8:0.167 9:18.0 10:0.857 11:18.0 12:0.505 13:29.0 14:0.762 15:0.833 16:31.0 39:1.0 
1.1 0:0.053 1:0.059 2:0.164 3:0.048 4:0.153 5:0.175 6:0.0 7:0.0 8:0.0 9:25.0 10:0.962 11:25.0 12:0.391 13:43.0 14:0.923 15:0.962 16:45.0 27:1.0 
1.1 0:0.532 1:0.475 2:0.131 3:0.262 4:0.176 5:0.196 6:0.112 7:1.0 8:0.059 9:18.0 10:0.818 11:18.0 12:0.535 13:28.0 14:0.727 15:0.818 16:30.0 23:1.0 
1.1 0:0.455 1:0.472 2:0.223 3:0.0 4:0.033 5:0.027 6:0.25 7:2.0 8:0.111 9:26.0 10:0.897 11:26.0 12:0.435 13:45.0 14:0.862 15:0.914 16:47.0 23:1.0 
1.1 0:0.55 1:0.667 2:0.229 3:0.0 4:0.0 5:0.029 6:0.201 7:2.0 8:0.111 9:26.0 10:0.897 11:26.0 12:0.408 13:45.0 14:0.828 15:0.879 16:47.0 23:1.0 
1.1 0:0.479 1:0.545 2:0.489 3:0.253 4:0.473 5:0.567 6:0.422 7:4.0 8:0.267 9:19.0 10:0.826 11:19.0 12:0.535 13:30.0 14:0.696 15:0.848 16:34.0 23:1.0 
1.1 0:0.933 1:0.928 2:0.527 3:0.0 4:0.243 5:0.388 6:0.316 7:2.0 8:0.167 9:14.0 10:0.737 11:14.0 12:0.525 13:25.0 14:0.737 15:0.711 16:27.0 23:1.0 
1.1 0:0.64 1:0.75 2:0.26 3:0.033 4:0.073 5:0.115 6:0.095 7:1.0 8:0.05 9:27.0 10:0.931 11:27.0 12:0.474 13:39.0 14:0.828 15:0.948 16:45.0 22:1.0 
1.1 0:0.904 1:0.923 2:0.569 3:0.074 4:0.29 5:0.267 6:0.351 7:3.0 8:0.176 9:17.0 10:0.607 11:17.0 12:0.656 13:30.0 14:0.571 15:0.607 16:38.0 17:1.0 
1.1 0:0.73 1:0.784 2:0.296 3:0.0 4:0.0 5:0.0 6:0.222 7:2.0 8:0.125 9:22.0 10:0.88 11:22.0 12:0.469 13:39.0 14:0.8 15:0.88 16:41.0 23:1.0 
1.1 0:0.621 1:0.672 2:0.258 3:0.171 4:0.203 5:0.172 6:0.261 7:3.0 8:0.15 9:23.0 10:0.793 11:23.0 12:0.524 13:40.0 14:0.724 15:0.793 16:44.0 23:1.0 
1.1 0:0.116 1:0.209 2:0.561 3:0.451 4:0.44 5:0.417 6:0.274 7:2.0 8:0.133 9:21.0 10:0.913 11:21.0 12:0.337 13:33.0 14:0.913 15:0.913 16:35.0 22:1.0 
1.1 0:0.698 1:0.699 2:0.392 3:0.085 4:0.081 5:0.174 6:0.236 7:2.0 8:0.125 9:27.0 10:0.9 11:27.0 12:0.425 13:37.0 14:0.833 15:0.9 16:39.0 23:1.0 
1.1 0:0.164 1:0.268 2:0.62 3:0.379 4:0.323 5:0.388 6:0.172 7:2.0 8:0.105 9:28.0 10:1.0 11:28.0 12:0.326 13:45.0 14:0.857 15:1.0 16:51.0 22:1.0 
1.1 0:0.999 1:0.998 2:0.985 3:0.84 4:0.909 5:0.943 6:0.783 7:7.0 8:0.636 9:4.0 10:0.174 11:4.0 12:0.894 13:8.0 14:0.174 15:0.174 16:12.0 18:1.0 
1.1 0:0.72 1:0.776 2:0.274 3:0.067 4:0.146 5:0.192 6:0.0 7:0.0 8:0.0 9:11.0 10:0.917 11:11.0 12:0.394 13:20.0 14:0.917 15:0.917 16:20.0 17:1.0 
1.1 0:0.908 1:0.909 2:0.461 3:0.105 4:0.142 5:0.095 6:0.3 7:3.0 8:0.176 9:25.0 10:0.833 11:25.0 12:0.45 13:38.0 14:0.733 15:0.833 16:40.0 23:1.0 
1.1 0:0.691 1:0.662 2:0.169 3:0.0 4:0.041 5:0.02 6:0.27 7:2.0 8:0.143 9:19.0 10:0.905 11:19.0 12:0.426 13:28.0 14:0.905 15:0.905 16:28.0 18:1.0 
1.1 0:0.941 1:0.938 2:0.842 3:0.588 4:0.414 5:0.371 6:0.32 7:3.0 8:0.188 9:23.0 10:0.852 11:23.0 12:0.49 13:34.0 14:0.667 15:0.87 16:42.0 22:1.0 
1.1 0:0.144 1:0.158 2:0.152 3:0.0 4:0.028 5:0.119 6:0.267 7:2.0 8:0.154 9:11.0 10:0.846 11:11.0 12:0.487 13:20.0 14:0.769 15:0.846 16:20.0 33:1.0 
1.1 0:0.934 1:0.94 2:0.464 3:0.4 4:0.495 5:0.628 6:0.566 7:4.0 8:0.364 9:18.0 10:0.783 11:18.0 12:0.563 13:25.0 14:0.739 15:0.761 16:29.0 23:1.0 
1.1 0:0.847 1:0.796 2:0.366 3:0.093 4:0.193 5:0.233 6:0.316 7:2.0 8:0.182 9:19.0 10:0.792 11:19.0 12:0.518 13:29.0 14:0.75 15:0.771 16:31.0 22:1.0 
1.1 0:0.869 1:0.872 2:0.24 3:0.129 4:0.253 5:0.206 6:0.252 7:2.0 8:0.143 9:20.0 10:0.833 11:20.0 12:0.524 13:32.0 14:0.708 15:0.813 16:36.0 23:1.0 
1.1 0:0.087 1:0.09 2:0.133 3:0.015 4:0.01 5:0.027 6:0.0 7:0.0 8:0.0 9:24.0 10:1.0 11:24.0 12:0.391 13:42.0 14:0.917 15:1.0 16:44.0 25:1.0 
1.1 0:0.46 1:0.462 2:0.377 3:0.09 4:0.262 5:0.238 6:0.5 7:5.0 8:0.333 9:21.0 10:0.875 11:21.0 12:0.511 13:30.0 14:0.625 15:0.896 16:34.0 23:1.0 
1.1 0:0.987 1:0.988 2:0.432 3:0.152 4:0.34 5:0.364 6:0.316 7:3.0 8:0.188 9:20.0 10:0.769 11:20.0 12:0.516 13:33.0 14:0.769 15:0.75 16:37.0 23:1.0 
1.1 0:0.795 1:0.685 2:0.325 3:0.0 4:0.055 5:0.049 6:0.095 7:1.0 8:0.05 9:30.0 10:1.0 11:30.0 12:0.369 13:45.0 14:0.833 15:1.0 16:49.0 39:1.0 
1.1 0:0.417 1:0.42 2:0.306 3:0.202 4:0.281 5:0.242 6:0.234 7:3.0 8:0.15 9:23.0 10:0.767 11:23.0 12:0.475 13:40.0 14:0.733 15:0.767 16:46.0 23:1.0 
1.1 0:0.885 1:0.904 2:0.512 3:0.101 4:0.081 5:0.088 6:0.335 7:3.0 8:0.25 9:20.0 10:0.909 11:20.0 12:0.405 13:34.0 14:0.909 15:0.909 16:32.0 22:1.0 
1.1 0:0.366 1:0.357 2:0.412 3:0.132 4:0.091 5:0.122 6:0.32 7:3.0 8:0.188 9:18.0 10:0.75 11:18.0 12:0.515 13:31.0 14:0.667 15:0.75 16:35.0 23:1.0 
1.1 0:0.636 1:0.705 2:0.236 3:0.201 4:0.312 5:0.286 6:0.201 7:2.0 8:0.111 9:20.0 10:0.87 11:20.0 12:0.489 13:33.0 14:0.783 15:0.848 16:37.0 23:1.0 
1.1 0:0.639 1:0.618 2:0.513 3:0.226 4:0.321 5:0.366 6:0.101 7:1.0 8:0.063 9:21.0 10:0.955 11:21.0 12:0.569 13:26.0 14:0.591 15:0.955 16:34.0 17:1.0 
1.1 0:0.739 1:0.753 2:0.463 3:0.18 4:0.42 5:0.515 6:0.252 7:2.0 8:0.143 9:14.0 10:0.737 11:14.0 12:0.631 13:20.0 14:0.579 15:0.789 16:28.0 22:1.0 
1.1 0:0.067 1:0.07 2:0.304 3:0.473 4:0.373 5:0.365 6:0.213 7:2.0 8:0.118 9:22.0 10:0.917 11:22.0 12:0.406 13:35.0 14:0.917 15:0.917 16:35.0 22:1.0 
1.1 0:0.32 1:0.27 2:0.305 3:0.316 4:0.313 5:0.295 6:0.381 7:4.0 8:0.235 9:17.0 10:0.708 11:17.0 12:0.591 13:23.0 14:0.5 15:0.708 16:27.0 21:1.0 
1.1 0:0.746 1:0.706 2:0.624 3:0.066 4:0.115 5:0.257 6:0.426 7:4.0 8:0.333 9:17.0 10:0.68 11:17.0 12:0.596 13:28.0 14:0.64 15:0.68 16:32.0 17:1.0 
1.1 0:0.116 1:0.141 2:0.117 3:0.0 4:0.028 5:0.033 6:0.0 7:0.0 8:0.0 9:15.0 10:0.833 11:15.0 12:0.466 13:25.0 14:0.833 15:0.833 16:25.0 33:1.0 
1.1 0:0.077 1:0.144 2:0.332 3:0.068 4:0.202 5:0.246 6:0.178 7:2.0 8:0.095 9:26.0 10:0.867 11:26.0 12:0.481 13:38.0 14:0.833 15:0.883 16:40.0 25:1.0 
1.1 0:0.561 1:0.501 2:0.473 3:0.293 4:0.424 5:0.49 6:0.272 7:2.0 8:0.154 9:22.0 10:0.917 11:22.0 12:0.51 13:25.0 14:0.708 15:0.958 16:31.0 26:1.0 
1.1 0:0.331 1:0.339 2:0.349 3:0.0 4:0.128 5:0.152 6:0.218 7:2.0 8:0.118 9:27.0 10:0.9 11:27.0 12:0.369 13:42.0 14:0.9 15:0.9 16:44.0 22:1.0 
1.1 0:0.986 1:0.985 2:0.573 3:0.079 4:0.133 5:0.206 6:0.196 7:2.0 8:0.105 9:27.0 10:1.0 11:27.0 12:0.397 13:36.0 14:0.852 15:1.0 16:38.0 22:1.0 
1.1 0:0.98 1:0.927 2:0.455 3:0.22 4:0.329 5:0.463 6:0.222 7:2.0 8:0.125 9:14.0 10:0.7 11:14.0 12:0.558 13:24.0 14:0.7 15:0.675 16:26.0 23:1.0 
1.1 0:0.428 1:0.415 2:0.569 3:0.159 4:0.136 5:0.133 6:0.335 7:3.0 8:0.2 9:17.0 10:0.81 11:17.0 12:0.484 13:29.0 14:0.762 15:0.786 16:33.0 22:1.0 
1.1 0:0.646 1:0.547 2:0.643 3:0.299 4:0.533 5:0.589 6:0.504 7:4.0 8:0.333 9:13.0 10:0.619 11:13.0 12:0.634 13:22.0 14:0.571 15:0.619 16:26.0 22:1.0 
1.1 0:0.456 1:0.521 2:0.257 3:0.236 4:0.289 5:0.279 6:0.12 7:1.0 8:0.063 9:21.0 10:0.75 11:21.0 12:0.533 13:34.0 14:0.75 15:0.732 16:36.0 23:1.0 
1.1 0:0.569 1:0.627 2:0.345 3:0.098 4:0.139 5:0.145 6:0.144 7:1.0 8:0.077 9:21.0 10:0.913 11:21.0 12:0.432 13:33.0 14:0.826 15:0.913 16:37.0 23:1.0 
1.1 0:0.617 1:0.431 2:0.215 3:0.06 4:0.096 5:0.091 6:0.258 7:2.0 8:0.143 9:23.0 10:0.885 11:23.0 12:0.502 13:32.0 14:0.808 15:0.885 16:34.0 23:1.0 
1.1 0:0.16 1:0.227 2:0.137 3:0.0 4:0.133 5:0.08 6:0.0 7:0.0 8:0.0 9:16.0 10:0.941 11:16.0 12:0.381 13:25.0 14:0.882 15:0.941 16:27.0 24:1.0 
1.1 0:0.204 1:0.197 2:0.612 3:0.063 4:0.076 5:0.278 6:0.527 7:5.0 8:0.357 9:21.0 10:0.778 11:21.0 12:0.414 13:32.0 14:0.778 15:0.778 16:32.0 23:1.0 
1.1 0:0.985 1:0.969 2:0.814 3:0.0 4:0.348 5:0.296 6:0.583 7:7.0 8:0.412 9:25.0 10:1.0 11:25.0 12:0.278 13:28.0 14:0.6 15:1.0 16:30.0 18:1.0 
1.1 0:0.463 1:0.467 2:0.4 3:0.367 4:0.352 5:0.278 6:0.105 7:1.0 8:0.056 9:24.0 10:0.889 11:24.0 12:0.337 13:39.0 14:0.815 15:0.889 16:43.0 22:1.0 
1.1 0:0.237 1:0.238 2:0.632 3:0.264 4:0.322 5:0.342 6:0.3 7:2.0 8:0.133 9:20.0 10:0.909 11:20.0 12:0.516 13:27.0 14:0.682 15:0.909 16:33.0 17:1.0 
1.1 0:0.86 1:0.841 2:0.42 3:0.137 4:0.346 5:0.474 6:0.63 7:5.0 8:0.455 9:14.0 10:0.583 11:14.0 12:0.7 13:20.0 14:0.5 15:0.604 16:26.0 23:1.0 
1.1 0:0.934 1:0.875 2:0.146 3:0.096 4:0.163 5:0.137 6:0.201 7:2.0 8:0.111 9:23.0 10:1.0 11:23.0 12:0.452 13:33.0 14:0.739 15:1.0 16:37.0 23:1.0 
1.1 0:0.968 1:0.975 2:0.363 3:0.194 4:0.283 5:0.289 6:0.178 7:2.0 8:0.095 9:36.0 10:0.9 11:36.0 12:0.397 13:54.0 14:0.8 15:0.9 16:58.0 23:1.0 
1.1 0:0.941 1:0.958 2:0.405 3:0.606 4:0.428 5:0.49 6:0.422 7:4.0 8:0.267 9:20.0 10:0.909 11:20.0 12:0.545 13:30.0 14:0.682 15:0.886 16:32.0 24:1.0 
1.1 0:0.115 1:0.125 2:0.28 3:0.119 4:0.072 5:0.377 6:0.273 7:3.0 8:0.158 9:27.0 10:1.0 11:27.0 12:0.468 13:40.0 14:0.815 15:1.0 16:40.0 24:1.0 
1.1 0:0.131 1:0.198 2:0.47 3:0.083 4:0.059 5:0.093 6:0.174 7:2.0 8:0.095 9:22.0 10:0.846 11:22.0 12:0.473 13:38.0 14:0.808 15:0.865 16:42.0 22:1.0 
1.1 0:0.843 1:0.854 2:0.198 3:0.229 4:0.178 5:0.165 6:0.354 7:3.0 8:0.214 9:21.0 10:0.875 11:21.0 12:0.448 13:37.0 14:0.792 15:0.854 16:41.0 23:1.0 
1.1 0:0.961 1:0.961 2:0.794 3:0.436 4:0.453 5:0.564 6:0.707 7:6.0 8:0.545 9:22.0 10:0.88 11:22.0 12:0.68 13:23.0 14:0.52 15:0.88 16:21.0 20:1.0 
1.1 0:0.234 1:0.384 2:0.383 3:0.45 4:0.421 5:0.334 6:0.191 7:2.0 8:0.105 9:24.0 10:0.96 11:24.0 12:0.346 13:40.0 14:0.88 15:0.96 16:40.0 22:1.0 
0.06906183283650172 0:0.971 1:0.969 2:0.693 3:0.0 4:0.524 5:0.58 6:0.667 7:7.0 8:0.5 9:22.0 10:0.647 11:22.0 12:0.658 13:26.0 14:0.529 15:0.662 16:28.0 18:1.0 
1.1 0:0.044 1:0.068 2:0.321 3:0.06 4:0.208 5:0.213 6:0.252 7:2.0 8:0.143 9:30.0 10:1.0 11:30.0 12:0.472 13:40.0 14:0.833 15:1.0 16:40.0 21:1.0 
1.1 0:0.72 1:0.69 2:0.515 3:0.079 4:0.167 5:0.216 6:0.196 7:2.0 8:0.105 9:23.0 10:0.885 11:23.0 12:0.481 13:36.0 14:0.808 15:0.885 16:40.0 22:1.0 
1.1 0:0.205 1:0.214 2:0.276 3:0.0 4:0.033 5:0.164 6:0.239 7:2.0 8:0.133 9:25.0 10:0.962 11:25.0 12:0.464 13:41.0 14:0.808 15:0.962 16:47.0 18:1.0 
1.1 0:0.388 1:0.43 2:0.282 3:0.237 4:0.291 5:0.302 6:0.272 7:2.0 8:0.154 9:16.0 10:0.727 11:16.0 12:0.542 13:27.0 14:0.727 15:0.727 16:29.0 22:1.0 
1.1 0:0.319 1:0.397 2:0.335 3:0.0 4:0.07 5:0.099 6:0.0 7:0.0 8:0.0 9:22.0 10:0.88 11:22.0 12:0.457 13:31.0 14:0.88 15:0.88 16:33.0 21:1.0 
1.1 0:0.085 1:0.106 2:0.175 3:0.0 4:0.079 5:0.177 6:0.175 7:2.0 8:0.095 9:28.0 10:0.966 11:28.0 12:0.443 13:42.0 14:0.862 15:0.983 16:46.0 18:1.0 
1.1 0:0.971 1:0.96 2:0.669 3:0.424 4:0.382 5:0.364 6:0.402 7:4.0 8:0.25 9:21.0 10:0.913 11:21.0 12:0.393 13:31.0 14:0.696 15:0.913 16:29.0 23:1.0 
1.1 0:0.61 1:0.562 2:0.239 3:0.0 4:0.052 5:0.167 6:0.27 7:2.0 8:0.143 9:17.0 10:0.68 11:17.0 12:0.633 13:25.0 14:0.6 15:0.7 16:31.0 23:1.0 
1.1 0:0.0 1:0.0 2:0.037 3:0.0 4:0.03 5:0.028 6:0.211 7:2.0 8:0.118 9:28.0 10:0.824 11:28.0 12:0.488 13:47.0 14:0.794 15:0.824 16:49.0 23:1.0 
1.1 0:0.924 1:0.927 2:0.56 3:0.168 4:0.247 5:0.344 6:0.335 7:3.0 8:0.2 9:22.0 10:0.733 11:22.0 12:0.571 13:38.0 14:0.633 15:0.75 16:44.0 23:1.0 
1.1 0:0.033 1:0.049 2:0.464 3:0.0 4:0.0 5:0.0 6:0.0 7:0.0 8:0.0 9:24.0 10:1.0 11:24.0 12:0.369 13:37.0 14:0.958 15:1.0 16:37.0 18:1.0 
1.1 0:0.069 1:0.047 2:0.111 3:0.147 4:0.155 5:0.128 6:0.289 7:3.0 8:0.167 9:26.0 10:0.867 11:26.0 12:0.511 13:44.0 14:0.733 15:0.867 16:52.0 23:1.0 
1.1 0:0.24 1:0.244 2:0.348 3:0.51 4:0.457 5:0.363 6:0.371 7:5.0 8:0.227 9:26.0 10:0.867 11:26.0 12:0.441 13:42.0 14:0.767 15:0.867 16:46.0 17:1.0 
1.1 0:0.732 1:0.872 2:0.401 3:0.286 4:0.297 5:0.413 6:0.224 7:2.0 8:0.125 9:19.0 10:1.0 11:19.0 12:0.442 13:27.0 14:0.737 15:1.0 16:27.0 18:1.0 
1.1 0:0.657 1:0.722 2:0.624 3:0.057 4:0.341 5:0.61 6:0.261 7:3.0 8:0.15 9:26.0 10:0.963 11:26.0 12:0.49 13:36.0 14:0.704 15:0.963 16:40.0 22:1.0 
1.1 0:0.892 1:0.892 2:0.486 3:0.196 4:0.196 5:0.237 6:0.32 7:3.0 8:0.158 9:18.0 10:0.783 11:17.0 12:0.51 13:30.0 14:0.739 15:0.761 16:34.0 22:1.0 
1.1 0:0.372 1:0.455 2:0.31 3:0.085 4:0.107 5:0.158 6:0.245 7:3.0 8:0.136 9:25.0 10:0.862 11:25.0 12:0.365 13:48.0 14:0.862 15:0.845 16:48.0 23:1.0 
1.1 0:0.109 1:0.106 2:0.245 3:0.36 4:0.266 5:0.255 6:0.316 7:3.0 8:0.188 9:24.0 10:0.889 11:24.0 12:0.392 13:38.0 14:0.815 15:0.889 16:36.0 23:1.0 
1.1 0:0.687 1:0.667 2:0.363 3:0.184 4:0.13 5:0.205 6:0.322 7:3.0 8:0.158 9:26.0 10:1.0 11:26.0 12:0.302 13:38.0 14:0.769 15:1.0 16:42.0 22:1.0 
1.1 0:0.499 1:0.503 2:0.362 3:0.204 4:0.229 5:0.32 6:0.289 7:3.0 8:0.167 9:14.0 10:0.609 11:14.0 12:0.63 13:25.0 14:0.565 15:0.652 16:31.0 22:1.0 
1.1 0:0.083 1:0.058 2:0.164 3:0.0 4:0.0 5:0.0 6:0.455 7:5.0 8:0.294 9:21.0 10:0.778 11:21.0 12:0.628 13:28.0 14:0.593 15:0.796 16:34.0 23:1.0 
1.1 0:0.193 1:0.283 2:0.421 3:0.571 4:0.387 5:0.307 6:0.429 7:3.0 8:0.273 9:14.0 10:0.56 11:14.0 12:0.84 13:21.0 14:0.44 15:0.56 16:29.0 21:1.0 
1.1 0:0.405 1:0.334 2:0.226 3:0.113 4:0.058 5:0.181 6:0.289 7:2.0 8:0.167 9:20.0 10:0.952 11:20.0 12:0.467 13:32.0 14:0.81 15:0.952 16:28.0 17:1.0 
1.1 0:0.887 1:0.859 2:0.946 3:0.231 4:0.351 5:0.604 6:0.7 7:7.0 8:0.538 9:12.0 10:0.429 11:12.0 12:0.76 13:16.0 14:0.393 15:0.446 16:20.0 24:1.0 
0.48487142493355934 0:0.996 1:0.993 2:0.643 3:0.494 4:0.503 5:0.458 6:0.236 7:2.0 8:0.125 9:15.0 10:0.714 11:15.0 12:0.726 13:15.0 14:0.571 15:0.762 16:19.0 22:1.0 
1.1 0:0.907 1:0.89 2:0.58 3:0.5 4:0.52 5:0.538 6:0.192 7:2.0 8:0.105 9:24.0 10:0.8 11:24.0 12:0.556 13:34.0 14:0.733 15:0.817 16:40.0 19:1.0 
1.1 0:0.094 1:0.108 2:0.425 3:0.182 4:0.185 5:0.231 6:0.077 7:1.0 8:0.04 9:29.0 10:0.967 11:29.0 12:0.36 13:50.0 14:0.867 15:0.967 16:54.0 22:1.0 
1.1 0:0.521 1:0.623 2:0.537 3:0.0 4:0.282 5:0.28 6:0.286 7:3.0 8:0.167 9:24.0 10:1.0 11:24.0 12:0.341 13:36.0 14:0.792 15:1.0 16:38.0 17:1.0 
1.1 0:0.883 1:0.885 2:0.412 3:0.92 4:0.723 5:0.476 6:0.401 7:3.0 8:0.25 9:13.0 10:0.619 11:13.0 12:0.626 13:23.0 14:0.571 15:0.595 16:25.0 23:1.0 
1.1 0:0.836 1:0.825 2:0.402 3:0.258 4:0.417 5:0.372 6:0.277 7:3.0 8:0.158 9:20.0 10:0.769 11:20.0 12:0.585 13:30.0 14:0.654 15:0.75 16:36.0 22:1.0 
1.1 0:0.116 1:0.127 2:0.357 3:0.0 4:0.126 5:0.089 6:0.134 7:1.0 8:0.071 9:23.0 10:0.958 11:23.0 12:0.479 13:34.0 14:0.75 15:0.958 16:38.0 22:1.0 
1.1 0:0.87 1:0.844 2:0.761 3:0.272 4:0.462 5:0.826 6:0.603 7:6.0 8:0.429 9:12.0 10:0.444 11:12.0 12:0.746 13:19.0 14:0.444 15:0.481 16:25.0 17:1.0 
1.1 0:0.699 1:0.806 2:0.297 3:0.16 4:0.173 5:0.21 6:0.272 7:2.0 8:0.154 9:14.0 10:0.778 11:14.0 12:0.519 13:26.0 14:0.722 15:0.778 16:28.0 23:1.0 
1.1 0:0.504 1:0.528 2:0.337 3:0.118 4:0.241 5:0.216 6:0.204 7:2.0 8:0.111 9:24.0 10:1.0 11:24.0 12:0.447 13:39.0 14:0.833 15:1.0 16:41.0 22:1.0 
1.1 0:0.804 1:0.809 2:0.786 3:0.205 4:0.239 5:0.278 6:0.667 7:7.0 8:0.5 9:12.0 10:0.4 11:12.0 12:0.778 13:21.0 14:0.4 15:0.417 16:19.0 17:1.0 
0.7236775762788243 0:0.922 1:0.903 2:0.368 3:0.168 4:0.202 5:0.167 6:0.213 7:2.0 8:0.118 9:26.0 10:0.867 11:26.0 12:0.483 13:42.0 14:0.8 15:0.85 16:50.0 23:1.0 
1.1 0:0.39 1:0.53 2:0.329 3:0.0 4:0.068 5:0.097 6:0.404 7:4.0 8:0.235 9:26.0 10:0.929 11:26.0 12:0.467 13:27.0 14:0.75 15:0.946 16:29.0 22:1.0 
1.1 0:0.068 1:0.151 2:0.152 3:0.401 4:0.248 5:0.204 6:0.224 7:2.0 8:0.125 9:29.0 10:1.0 11:29.0 12:0.479 13:38.0 14:0.828 15:1.0 16:38.0 23:1.0 
0.9465579339136385 0:0.971 1:0.951 2:0.59 3:0.441 4:0.867 5:0.706 6:0.456 7:5.0 8:0.294 9:16.0 10:0.667 11:16.0 12:0.578 13:28.0 14:0.667 15:0.646 16:28.0 23:1.0 
1.1 0:0.515 1:0.592 2:0.218 3:0.336 4:0.267 5:0.227 6:0.174 7:2.0 8:0.095 9:30.0 10:1.0 11:30.0 12:0.317 13:51.0 14:0.9 15:1.0 16:51.0 22:1.0 
1.1 0:0.31 1:0.249 2:0.277 3:0.0 4:0.0 5:0.094 6:0.143 7:1.0 8:0.077 9:13.0 10:0.65 11:13.0 12:0.65 13:20.0 14:0.55 15:0.65 16:22.0 21:1.0 
1.1 0:0.872 1:0.812 2:0.448 3:0.166 4:0.195 5:0.198 6:0.32 7:4.0 8:0.19 9:26.0 10:0.867 11:26.0 12:0.494 13:44.0 14:0.767 15:0.85 16:50.0 19:1.0 
1.1 0:0.059 1:0.149 2:0.308 3:0.0 4:0.0 5:0.041 6:0.098 7:1.0 8:0.048 9:30.0 10:1.0 11:30.0 12:0.452 13:40.0 14:0.867 15:1.0 16:42.0 21:1.0 
1.1 0:0.602 1:0.557 2:0.675 3:0.131 4:0.349 5:0.794 6:0.335 7:3.0 8:0.2 9:21.0 10:0.955 11:21.0 12:0.477 13:29.0 14:0.682 15:0.955 16:31.0 24:1.0 
1.1 0:0.942 1:0.938 2:0.451 3:0.38 4:0.335 5:0.384 6:0.289 7:3.0 8:0.167 9:22.0 10:0.846 11:22.0 12:0.54 13:32.0 14:0.731 15:0.827 16:38.0 23:1.0 
1.1 0:0.951 1:0.945 2:0.615 3:0.162 4:0.298 5:0.301 6:0.417 7:5.0 8:0.263 9:29.0 10:0.967 11:29.0 12:0.422 13:44.0 14:0.733 15:0.967 16:46.0 27:1.0 
1.1 0:0.93 1:0.911 2:0.487 3:0.0 4:0.081 5:0.178 6:0.228 7:2.0 8:0.125 9:22.0 10:0.917 11:22.0 12:0.317 13:32.0 14:0.875 15:0.917 16:34.0 22:1.0 
1.1 0:0.549 1:0.504 2:0.253 3:0.0 4:0.055 5:0.084 6:0.236 7:2.0 8:0.133 9:25.0 10:0.893 11:25.0 12:0.417 13:42.0 14:0.821 15:0.893 16:42.0 23:1.0 
1.1 0:0.095 1:0.111 2:0.154 3:0.049 4:0.094 5:0.083 6:0.0 7:0.0 8:0.0 9:22.0 10:1.0 11:22.0 12:0.315 13:37.0 14:0.864 15:1.0 16:41.0 21:1.0 
1.1 0:0.261 1:0.255 2:0.325 3:0.123 4:0.132 5:0.105 6:0.1 7:1.0 8:0.053 9:21.0 10:0.875 11:21.0 12:0.524 13:32.0 14:0.708 15:0.875 16:38.0 23:1.0 
1.1 0:0.843 1:0.877 2:0.796 3:0.505 4:0.627 5:0.661 6:0.435 7:5.0 8:0.278 9:30.0 10:0.769 11:30.0 12:0.552 13:37.0 14:0.667 15:0.795 16:47.0 24:1.0 
1.1 0:0.696 1:0.723 2:0.41 3:0.0 4:0.062 5:0.192 6:0.298 7:2.0 8:0.167 9:20.0 10:0.909 11:20.0 12:0.45 13:28.0 14:0.818 15:0.909 16:32.0 22:1.0 
1.1 0:0.967 1:0.958 2:0.344 3:0.348 4:0.323 5:0.267 6:0.3 7:3.0 8:0.176 9:26.0 10:0.963 11:26.0 12:0.535 13:37.0 14:0.704 15:0.981 16:39.0 23:1.0 
1.1 0:0.179 1:0.19 2:0.295 3:0.084 4:0.237 5:0.199 6:0.228 7:1.0 8:0.071 9:28.0 10:0.933 11:28.0 12:0.349 13:45.0 14:0.767 15:0.933 16:49.0 23:1.0 
1.1 0:0.303 1:0.213 2:0.429 3:0.241 4:0.239 5:0.44 6:0.472 7:3.0 8:0.231 9:20.0 10:0.952 11:20.0 12:0.437 13:33.0 14:0.857 15:0.952 16:29.0 23:1.0 
1.1 0:0.872 1:0.8 2:0.412 3:0.0 4:0.092 5:0.059 6:0.286 7:3.0 8:0.167 9:24.0 10:0.889 11:24.0 12:0.491 13:39.0 14:0.778 15:0.889 16:41.0 23:1.0 
1.1 0:0.434 1:0.479 2:0.239 3:0.042 4:0.136 5:0.185 6:0.252 7:2.0 8:0.143 9:17.0 10:1.0 11:17.0 12:0.55 13:21.0 14:0.706 15:1.0 16:25.0 22:1.0 
1.1 0:0.634 1:0.614 2:0.262 3:0.057 4:0.067 5:0.151 6:0.239 7:2.0 8:0.133 9:24.0 10:0.96 11:24.0 12:0.339 13:40.0 14:0.84 15:0.96 16:42.0 21:1.0 
1.1 0:0.381 1:0.621 2:0.293 3:0.439 4:0.533 5:0.526 6:0.183 7:2.0 8:0.1 9:28.0 10:1.0 11:28.0 12:0.365 13:44.0 14:0.786 15:1.0 16:50.0 22:1.0 
1.1 0:0.836 1:0.894 2:0.22 3:0.123 4:0.055 5:0.028 6:0.224 7:2.0 8:0.125 9:17.0 10:0.739 11:17.0 12:0.57 13:29.0 14:0.652 15:0.717 16:33.0 23:1.0 
1.1 0:0.624 1:0.673 2:0.326 3:0.236 4:0.356 5:0.339 6:0.224 7:2.0 8:0.125 9:20.0 10:0.87 11:20.0 12:0.427 13:32.0 14:0.826 15:0.87 16:34.0 22:1.0 
1.1 0:0.372 1:0.347 2:0.519 3:0.49 4:0.535 5:0.574 6:0.422 7:4.0 8:0.267 9:22.0 10:1.0 11:22.0 12:0.551 13:29.0 14:0.682 15:1.0 16:33.0 23:1.0 
1.1 0:0.115 1:0.108 2:0.547 3:0.664 4:0.558 5:0.533 6:0.444 7:4.0 8:0.286 9:20.0 10:0.909 11:20.0 12:0.461 13:28.0 14:0.682 15:0.909 16:28.0 17:1.0 
1.1 0:0.997 1:0.996 2:0.967 3:1.0 4:0.824 5:0.672 6:1.0 7:7.0 8:1.0 9:1.0 10:0.05 11:1.0 12:0.992 13:2.0 14:0.05 15:0.05 16:4.0 17:1.0 
1.1 0:0.37 1:0.429 2:0.177 3:0.049 4:0.081 5:0.068 6:0.143 7:1.0 8:0.077 9:15.0 10:0.833 11:15.0 12:0.537 13:23.0 14:0.722 15:0.889 16:29.0 33:1.0 
1.1 0:0.133 1:0.141 2:0.627 3:0.315 4:0.407 5:0.345 6:0.639 7:7.0 8:0.467 9:15.0 10:0.652 11:15.0 12:0.653 13:21.0 14:0.478 15:0.674 16:23.0 24:1.0 
1.1 0:0.194 1:0.275 2:0.3 3:0.516 4:0.318 5:0.161 6:0.191 7:2.0 8:0.105 9:26.0 10:1.0 11:26.0 12:0.302 13:46.0 14:0.923 15:1.0 16:46.0 22:1.0 
1.1 0:0.911 1:0.769 2:0.606 3:0.0 4:0.539 5:0.581 6:0.505 7:4.0 8:0.222 9:23.0 10:0.767 11:23.0 12:0.578 13:38.0 14:0.633 15:0.75 16:42.0 18:1.0 
1.1 0:0.898 1:0.94 2:0.536 3:0.243 4:0.429 5:0.305 6:0.535 7:4.0 8:0.364 9:20.0 10:0.87 11:20.0 12:0.458 13:34.0 14:0.783 15:0.87 16:32.0 22:1.0 
1.1 0:0.837 1:0.77 2:0.575 3:0.401 4:0.441 5:0.549 6:0.456 7:5.0 8:0.294 9:26.0 10:0.867 11:26.0 12:0.6 13:36.0 14:0.6 15:0.883 16:42.0 22:1.0 
1.1 0:0.663 1:0.67 2:0.465 3:0.237 4:0.147 5:0.113 6:0.283 7:2.0 8:0.154 9:11.0 10:0.786 11:11.0 12:0.479 13:16.0 14:0.714 15:0.821 16:18.0 17:1.0 
1.1 0:0.745 1:0.744 2:0.339 3:0.0 4:0.301 5:0.313 6:0.258 7:2.0 8:0.143 9:21.0 10:0.875 11:21.0 12:0.504 13:35.0 14:0.75 15:0.854 16:37.0 23:1.0 
1.1 0:0.974 1:0.941 2:0.616 3:0.419 4:0.205 5:0.41 6:0.589 7:5.0 8:0.417 9:16.0 10:0.727 11:16.0 12:0.595 13:23.0 14:0.545 15:0.75 16:25.0 18:1.0 
1.1 0:0.014 1:0.018 2:0.112 3:0.071 4:0.153 5:0.195 6:0.252 7:2.0 8:0.143 9:17.0 10:1.0 11:17.0 12:0.501 13:24.0 14:0.765 15:1.0 16:24.0 25:1.0 
1.1 0:0.639 1:0.762 2:0.392 3:0.139 4:0.284 5:0.232 6:0.456 7:3.0 8:0.25 9:17.0 10:0.68 11:17.0 12:0.655 13:24.0 14:0.56 15:0.66 16:30.0 22:1.0 
1.1 0:0.926 1:0.932 2:0.554 3:0.536 4:0.396 5:0.455 6:0.343 7:4.0 8:0.19 9:31.0 10:0.756 11:31.0 12:0.6 13:39.0 14:0.756 15:0.756 16:39.0 23:1.0 
1.1 0:0.788 1:0.782 2:0.464 3:0.144 4:0.168 5:0.293 6:0.433 7:3.0 8:0.273 9:19.0 10:0.826 11:19.0 12:0.53 13:25.0 14:0.652 15:0.87 16:31.0 17:1.0 
1.1 0:0.51 1:0.462 2:0.392 3:0.806 4:0.475 5:0.493 6:0.351 7:4.0 8:0.211 9:18.0 10:0.75 11:18.0 12:0.55 13:33.0 14:0.708 15:0.75 16:33.0 23:1.0 
1.1 0:0.016 1:0.023 2:0.448 3:0.348 4:0.358 5:0.474 6:0.359 7:3.0 8:0.214 9:18.0 10:0.947 11:18.0 12:0.631 13:20.0 14:0.579 15:0.947 16:22.0 25:1.0 
1.1 0:0.001 1:0.008 2:0.126 3:0.0 4:0.039 5:0.033 6:0.141 7:1.0 8:0.071 9:22.0 10:0.733 11:22.0 12:0.472 13:34.0 14:0.733 15:0.75 16:36.0 23:1.0 
1.1 0:0.196 1:0.248 2:0.332 3:0.127 4:0.135 5:0.162 6:0.125 7:1.0 8:0.067 9:22.0 10:0.957 11:22.0 12:0.482 13:35.0 14:0.783 15:0.957 16:39.0 17:1.0 
1.1 0:0.018 1:0.02 2:0.313 3:0.204 4:0.258 5:0.189 6:0.175 7:2.0 8:0.095 9:21.0 10:0.875 11:21.0 12:0.489 13:34.0 14:0.75 15:0.875 16:42.0 23:1.0 
1.1 0:0.363 1:0.363 2:0.24 3:0.149 4:0.142 5:0.193 6:0.196 7:2.0 8:0.105 9:29.0 10:0.967 11:29.0 12:0.439 13:42.0 14:0.767 15:0.967 16:44.0 23:1.0 
1.1 0:0.631 1:0.758 2:0.257 3:0.267 4:0.231 5:0.281 6:0.338 7:2.0 8:0.2 9:15.0 10:0.75 11:15.0 12:0.615 13:22.0 14:0.6 15:0.75 16:26.0 22:1.0 
1.1 0:0.286 1:0.43 2:0.329 3:0.22 4:0.239 5:0.327 6:0.236 7:2.0 8:0.125 9:26.0 10:0.929 11:26.0 12:0.488 13:40.0 14:0.786 15:0.929 16:44.0 17:1.0 
1.1 0:0.469 1:0.531 2:0.478 3:0.195 4:0.203 5:0.2 6:0.182 7:2.0 8:0.1 9:26.0 10:1.0 11:26.0 12:0.448 13:39.0 14:0.846 15:1.0 16:41.0 22:1.0 
1.1 0:0.826 1:0.837 2:0.643 3:0.464 4:0.355 5:0.524 6:0.471 7:4.0 8:0.308 9:16.0 10:0.667 11:16.0 12:0.646 13:22.0 14:0.625 15:0.688 16:28.0 23:1.0 
1.1 0:0.76 1:0.764 2:0.326 3:0.228 4:0.232 5:0.256 6:0.314 7:3.0 8:0.176 9:20.0 10:0.741 11:20.0 12:0.559 13:32.0 14:0.704 15:0.759 16:36.0 23:1.0 
1.1 0:0.434 1:0.419 2:0.229 3:0.101 4:0.079 5:0.136 6:0.302 7:3.0 8:0.176 9:21.0 10:0.808 11:21.0 12:0.547 13:34.0 14:0.692 15:0.827 16:36.0 23:1.0 
1.1 0:0.807 1:0.84 2:0.485 3:0.053 4:0.195 5:0.296 6:0.481 7:5.0 8:0.385 9:18.0 10:0.857 11:18.0 12:0.594 13:25.0 14:0.619 15:0.881 16:29.0 23:1.0 
1.1 0:0.715 1:0.63 2:0.353 3:0.228 4:0.198 5:0.198 6:0.333 7:3.0 8:0.2 9:20.0 10:0.714 11:20.0 12:0.509 13:37.0 14:0.679 15:0.696 16:41.0 22:1.0 
1.1 0:0.607 1:0.556 2:0.272 3:0.142 4:0.097 5:0.144 6:0.424 7:3.0 8:0.25 9:24.0 10:0.923 11:24.0 12:0.365 13:30.0 14:0.731 15:0.923 16:30.0 23:1.0 
1.1 0:0.953 1:0.961 2:0.506 3:0.11 4:0.254 5:0.266 6:0.32 7:3.0 8:0.188 9:23.0 10:0.852 11:23.0 12:0.517 13:37.0 14:0.741 15:0.833 16:39.0 23:1.0 
1.1 0:0.0 1:0.0 2:0.045 3:0.107 4:0.052 5:0.048 6:0.0 7:0.0 8:0.0 9:25.0 10:0.962 11:25.0 12:0.389 13:44.0 14:0.923 15:0.962 16:46.0 23:1.0 
1.1 0:0.887 1:0.839 2:0.436 3:0.186 4:0.542 5:0.593 6:0.224 7:2.0 8:0.125 9:28.0 10:0.966 11:28.0 12:0.316 13:38.0 14:0.862 15:0.966 16:40.0 30:1.0 
0.42452794191835824 0:0.632 1:0.742 2:0.302 3:0.0 4:0.106 5:0.273 6:0.283 7:2.0 8:0.118 9:25.0 10:0.893 11:25.0 12:0.335 13:44.0 14:0.893 15:0.893 16:42.0 23:1.0 
1.1 0:0.258 1:0.29 2:0.421 3:0.134 4:0.169 5:0.167 6:0.136 7:1.0 8:0.071 9:23.0 10:1.0 11:23.0 12:0.0 13:34.0 14:0.87 15:1.0 16:34.0 22:1.0 
1.1 0:0.149 1:0.162 2:0.603 3:0.089 4:0.272 5:0.283 6:0.48 7:6.0 8:0.316 9:27.0 10:0.931 11:27.0 12:0.365 13:36.0 14:0.655 15:0.931 16:28.0 22:1.0 
1.1 0:0.142 1:0.188 2:0.618 3:0.143 4:0.125 5:0.267 6:0.583 7:7.0 8:0.412 9:24.0 10:0.828 11:24.0 12:0.4 13:36.0 14:0.655 15:0.828 16:28.0 22:1.0 
1.1 0:0.376 1:0.486 2:0.398 3:0.29 4:0.44 5:0.41 6:0.365 7:4.0 8:0.222 9:18.0 10:0.75 11:18.0 12:0.631 13:25.0 14:0.583 15:0.75 16:29.0 22:1.0 
1.1 0:0.831 1:0.759 2:0.405 3:0.229 4:0.222 5:0.236 6:0.236 7:2.0 8:0.133 9:18.0 10:1.0 11:18.0 12:0.448 13:27.0 14:0.778 15:1.0 16:29.0 17:1.0 
1.1 0:0.509 1:0.522 2:0.47 3:0.055 4:0.107 5:0.21 6:0.228 7:2.0 8:0.125 9:21.0 10:0.955 11:21.0 12:0.368 13:30.0 14:0.773 15:0.955 16:32.0 17:1.0 
1.1 0:0.115 1:0.129 2:0.137 3:0.052 4:0.079 5:0.06 6:0.0 7:0.0 8:0.0 9:23.0 10:1.0 11:23.0 12:0.0 13:36.0 14:1.0 15:1.0 16:34.0 25:1.0 
1.1 0:0.648 1:0.731 2:0.512 3:0.493 4:0.399 5:0.424 6:0.444 7:3.0 8:0.25 9:21.0 10:0.955 11:21.0 12:0.464 13:35.0 14:0.818 15:0.955 16:33.0 23:1.0 
1.1 0:0.758 1:0.854 2:0.535 3:0.054 4:0.144 5:0.195 6:0.118 7:1.0 8:0.063 9:17.0 10:0.944 11:17.0 12:0.562 13:23.0 14:0.667 15:0.944 16:27.0 19:1.0 
1.1 0:0.481 1:0.459 2:0.345 3:0.129 4:0.206 5:0.311 6:0.191 7:2.0 8:0.105 9:28.0 10:0.933 11:28.0 12:0.431 13:47.0 14:0.8 15:0.95 16:51.0 23:1.0 
1.1 0:0.4 1:0.47 2:0.619 3:0.28 4:0.418 5:0.247 6:0.174 7:2.0 8:0.095 9:24.0 10:1.0 11:24.0 12:0.393 13:37.0 14:0.792 15:1.0 16:39.0 22:1.0 
1.1 0:0.758 1:0.749 2:0.353 3:0.392 4:0.324 5:0.228 6:0.463 7:3.0 8:0.3 9:20.0 10:0.952 11:20.0 12:0.492 13:32.0 14:0.762 15:0.952 16:32.0 22:1.0 
1.1 0:0.992 1:0.991 2:0.64 3:0.384 4:0.286 5:0.226 6:0.456 7:4.0 8:0.267 9:15.0 10:0.6 11:15.0 12:0.714 13:21.0 14:0.44 15:0.62 16:29.0 17:1.0 
1.1 0:0.011 1:0.047 2:0.183 3:0.03 4:0.077 5:0.065 6:0.0 7:0.0 8:0.0 9:19.0 10:0.95 11:19.0 12:0.402 13:35.0 14:0.9 15:0.95 16:37.0 21:1.0 
1.1 0:0.809 1:0.83 2:0.415 3:0.165 4:0.302 5:0.387 6:0.452 7:4.0 8:0.19 9:20.0 10:0.87 11:20.0 12:0.536 13:32.0 14:0.696 15:0.87 16:38.0 22:1.0 
1.1 0:0.147 1:0.161 2:0.259 3:0.033 4:0.015 5:0.009 6:0.0 7:0.0 8:0.0 9:28.0 10:1.0 11:28.0 12:0.465 13:41.0 14:0.821 15:1.0 16:43.0 39:1.0 
1.1 0:0.981 1:0.983 2:1.0 3:1.0 4:1.0 5:1.0 6:0.894 7:4.0 8:0.8 9:4.0 10:0.333 11:4.0 12:0.903 13:4.0 14:0.25 15:0.375 16:6.0 17:1.0 
1.1 0:0.163 1:0.183 2:0.43 3:0.0 4:0.268 5:0.254 6:0.277 7:3.0 8:0.158 9:25.0 10:0.862 11:25.0 12:0.448 13:37.0 14:0.828 15:0.879 16:39.0 24:1.0 
1.1 0:0.063 1:0.099 2:0.325 3:0.122 4:0.092 5:0.106 6:0.102 7:1.0 8:0.053 9:23.0 10:1.0 11:23.0 12:0.478 13:36.0 14:0.783 15:1.0 16:38.0 21:1.0 
1.1 0:0.936 1:0.936 2:0.73 3:0.057 4:0.098 5:0.177 6:0.258 7:2.0 8:0.167 9:22.0 10:0.815 11:22.0 12:0.506 13:32.0 14:0.815 15:0.815 16:36.0 25:1.0 
1.1 0:0.139 1:0.135 2:0.155 3:0.237 4:0.171 5:0.164 6:0.158 7:2.0 8:0.095 9:26.0 10:0.963 11:26.0 12:0.37 13:44.0 14:0.852 15:0.963 16:44.0 23:1.0 
1.1 0:0.896 1:0.886 2:0.555 3:0.306 4:0.165 5:0.485 6:0.481 7:5.0 8:0.313 9:19.0 10:0.731 11:19.0 12:0.59 13:26.0 14:0.731 15:0.712 16:26.0 23:1.0 
1.1 0:0.771 1:0.771 2:0.304 3:0.166 4:0.267 5:0.281 6:0.455 7:4.0 8:0.267 9:26.0 10:0.897 11:26.0 12:0.456 13:40.0 14:0.793 15:0.897 16:38.0 23:1.0 
1.1 0:0.949 1:0.944 2:0.634 3:0.871 4:0.871 5:0.769 6:0.481 7:4.0 8:0.286 9:20.0 10:0.8 11:20.0 12:0.503 13:32.0 14:0.72 15:0.84 16:30.0 17:1.0 
1.1 0:0.403 1:0.397 2:0.132 3:0.167 4:0.047 5:0.038 6:0.401 7:3.0 8:0.25 9:17.0 10:0.708 11:17.0 12:0.547 13:30.0 14:0.708 15:0.688 16:32.0 22:1.0 
1.1 0:0.438 1:0.44 2:0.657 3:0.302 4:0.262 5:0.445 6:0.429 7:3.0 8:0.273 9:17.0 10:0.85 11:17.0 12:0.483 13:29.0 14:0.75 15:0.825 16:31.0 17:1.0 
1.1 0:0.761 1:0.711 2:0.594 3:0.579 4:0.378 5:0.354 6:0.381 7:4.0 8:0.235 9:19.0 10:0.679 11:19.0 12:0.578 13:34.0 14:0.643 15:0.661 16:34.0 25:1.0 
1.1 0:0.495 1:0.45 2:0.597 3:0.55 4:0.472 5:0.456 6:0.655 7:6.0 8:0.429 9:25.0 10:0.806 11:25.0 12:0.459 13:37.0 14:0.806 15:0.806 16:35.0 17:1.0 
1.1 0:0.626 1:0.568 2:0.276 3:0.153 4:0.232 5:0.236 6:0.316 7:3.0 8:0.188 9:22.0 10:0.733 11:22.0 12:0.563 13:33.0 14:0.733 15:0.733 16:37.0 23:1.0 
1.1 0:0.601 1:0.687 2:0.444 3:0.149 4:0.166 5:0.263 6:0.263 7:3.0 8:0.15 9:22.0 10:0.846 11:22.0 12:0.434 13:36.0 14:0.769 15:0.827 16:40.0 22:1.0 
1.1 0:0.718 1:0.713 2:0.328 3:0.205 4:0.209 5:0.187 6:0.144 7:1.0 8:0.077 9:16.0 10:0.762 11:16.0 12:0.524 13:26.0 14:0.762 15:0.738 16:26.0 23:1.0 
1.1 0:0.094 1:0.153 2:0.378 3:0.365 4:0.313 5:0.356 6:0.471 7:4.0 8:0.308 9:12.0 10:0.667 11:12.0 12:0.667 13:18.0 14:0.5 15:0.694 16:20.0 21:1.0 
1.1 0:0.186 1:0.263 2:0.429 3:0.0 4:0.0 5:0.103 6:0.179 7:3.0 8:0.12 9:29.0 10:0.967 11:29.0 12:0.389 13:49.0 14:0.833 15:0.967 16:47.0 22:1.0 
1.1 0:0.672 1:0.783 2:0.592 3:0.4 4:0.457 5:0.464 6:0.302 7:3.0 8:0.176 9:21.0 10:0.913 11:21.0 12:0.398 13:35.0 14:0.783 15:0.913 16:37.0 17:1.0 
1.1 0:0.894 1:0.755 2:0.834 3:0.671 4:0.801 5:0.744 6:0.356 7:3.0 8:0.176 9:19.0 10:0.826 11:19.0 12:0.508 13:27.0 14:0.609 15:0.848 16:37.0 17:1.0 
1.1 0:0.188 1:0.247 2:0.189 3:0.105 4:0.22 5:0.178 6:0.252 7:2.0 8:0.143 9:11.0 10:0.733 11:11.0 12:0.525 13:20.0 14:0.733 15:0.733 16:22.0 33:1.0 
1.1 0:0.724 1:0.707 2:0.091 3:0.112 4:0.089 5:0.15 6:0.27 7:2.0 8:0.143 9:19.0 10:0.76 11:19.0 12:0.606 13:24.0 14:0.72 15:0.76 16:28.0 23:1.0 
1.1 0:0.092 1:0.302 2:0.446 3:0.347 4:0.397 5:0.428 6:0.252 7:2.0 8:0.143 9:23.0 10:1.0 11:23.0 12:0.489 13:33.0 14:0.783 15:1.0 16:33.0 21:1.0 
1.1 0:0.368 1:0.371 2:0.726 3:1.0 4:0.912 5:0.986 6:0.674 7:6.0 8:0.5 9:12.0 10:0.387 11:12.0 12:0.786 13:19.0 14:0.355 15:0.387 16:21.0 17:1.0 
1.1 0:0.948 1:0.931 2:0.53 3:0.277 4:0.275 5:0.428 6:0.356 7:4.0 8:0.211 9:24.0 10:0.857 11:24.0 12:0.539 13:33.0 14:0.75 15:0.875 16:37.0 22:1.0 
1.1 0:1.0 1:1.0 2:1.0 3:1.0 4:1.0 5:1.0 6:1.0 7:7.0 8:1.0 9:1.0 10:0.053 11:1.0 12:0.986 13:1.0 14:0.053 15:0.079 16:3.0 17:1.0 
1.1 0:0.694 1:0.578 2:0.312 3:0.239 4:0.25 5:0.195 6:0.309 7:2.0 8:0.182 9:15.0 10:0.882 11:15.0 12:0.328 13:27.0 14:0.824 15:0.882 16:25.0 22:1.0 
1.1 0:0.909 1:0.908 2:0.541 3:0.0 4:0.0 5:0.071 6:0.258 7:2.0 8:0.143 9:19.0 10:1.0 11:19.0 12:0.32 13:31.0 14:0.895 15:1.0 16:29.0 22:1.0 
1.1 0:0.733 1:0.699 2:0.548 3:0.171 4:0.368 5:0.382 6:0.422 7:4.0 8:0.267 9:18.0 10:0.783 11:18.0 12:0.653 13:21.0 14:0.478 15:0.826 16:23.0 22:1.0 
1.1 0:0.849 1:0.736 2:0.512 3:0.16 4:0.295 5:0.302 6:0.3 7:2.0 8:0.133 9:20.0 10:0.833 11:20.0 12:0.48 13:34.0 14:0.708 15:0.813 16:40.0 22:1.0 
1.1 0:0.59 1:0.577 2:0.407 3:0.081 4:0.323 5:0.432 6:0.258 7:2.0 8:0.133 9:21.0 10:0.84 11:21.0 12:0.52 13:27.0 14:0.84 15:0.84 16:29.0 22:1.0 
1.1 0:0.759 1:0.728 2:0.438 3:0.087 4:0.138 5:0.193 6:0.354 7:3.0 8:0.214 9:19.0 10:0.76 11:19.0 12:0.578 13:31.0 14:0.64 15:0.76 16:37.0 23:1.0 
1.1 0:0.893 1:0.878 2:0.424 3:0.375 4:0.38 5:0.345 6:0.418 7:5.0 8:0.263 9:22.0 10:0.786 11:22.0 12:0.631 13:28.0 14:0.607 15:0.786 16:34.0 23:1.0 
1.1 0:0.277 1:0.253 2:0.318 3:0.094 4:0.525 5:0.402 6:0.535 7:4.0 8:0.364 9:16.0 10:0.8 11:16.0 12:0.642 13:20.0 14:0.6 15:0.775 16:24.0 24:1.0 
1.1 0:0.245 1:0.255 2:0.251 3:0.29 4:0.35 5:0.383 6:0.191 7:2.0 8:0.105 9:20.0 10:0.833 11:20.0 12:0.472 13:36.0 14:0.75 15:0.813 16:40.0 23:1.0 
1.1 0:0.18 1:0.157 2:0.269 3:0.298 4:0.34 5:0.324 6:0.246 7:2.0 8:0.133 9:17.0 10:0.739 11:17.0 12:0.516 13:32.0 14:0.739 15:0.717 16:32.0 21:1.0 
1.1 0:0.594 1:0.656 2:0.225 3:0.245 4:0.233 5:0.227 6:0.422 7:4.0 8:0.267 9:23.0 10:0.958 11:23.0 12:0.617 13:27.0 14:0.583 15:1.0 16:33.0 22:1.0 
1.1 0:0.618 1:0.664 2:0.502 3:0.087 4:0.495 5:0.469 6:0.4 7:4.0 8:0.25 9:14.0 10:0.667 11:14.0 12:0.655 13:18.0 14:0.524 15:0.69 16:24.0 20:1.0 
1.1 0:0.771 1:0.716 2:0.47 3:0.342 4:0.44 5:0.426 6:0.252 7:2.0 8:0.143 9:20.0 10:0.714 11:20.0 12:0.598 13:29.0 14:0.679 15:0.696 16:33.0 25:1.0 
1.1 0:0.708 1:0.768 2:0.918 3:0.297 4:0.432 5:0.76 6:0.455 7:4.0 8:0.267 9:22.0 10:0.815 11:22.0 12:0.526 13:31.0 14:0.667 15:0.796 16:33.0 24:1.0 
1.1 0:0.206 1:0.254 2:0.256 3:0.228 4:0.214 5:0.214 6:0.286 7:2.0 8:0.167 9:17.0 10:0.68 11:17.0 12:0.633 13:27.0 14:0.56 15:0.7 16:37.0 24:1.0 
1.1 0:0.221 1:0.258 2:0.258 3:0.051 4:0.078 5:0.131 6:0.213 7:2.0 8:0.118 9:19.0 10:0.826 11:19.0 12:0.478 13:36.0 14:0.783 15:0.826 16:38.0 22:1.0 
1.1 0:0.763 1:0.852 2:0.707 3:0.155 4:0.193 5:0.208 6:0.477 7:5.0 8:0.313 9:17.0 10:0.708 11:17.0 12:0.6 13:21.0 14:0.458 15:0.708 16:27.0 31:1.0 
1.1 0:0.004 1:0.003 2:0.062 3:0.0 4:0.0 5:0.0 6:0.0 7:0.0 8:0.0 9:27.0 10:1.0 11:27.0 12:0.0 13:42.0 14:0.963 15:1.0 16:42.0 18:1.0 
1.1 0:0.892 1:0.876 2:0.558 3:0.25 4:0.211 5:0.68 6:0.402 7:3.0 8:0.214 9:24.0 10:0.8 11:24.0 12:0.549 13:35.0 14:0.733 15:0.817 16:39.0 34:1.0 
1.1 0:0.784 1:0.756 2:0.483 3:0.303 4:0.521 5:0.506 6:0.371 7:5.0 8:0.263 9:27.0 10:1.0 11:27.0 12:0.267 13:37.0 14:0.704 15:1.0 16:33.0 22:1.0 
1.1 0:0.386 1:0.403 2:0.311 3:0.0 4:0.0 5:0.111 6:0.302 7:3.0 8:0.176 9:21.0 10:0.875 11:21.0 12:0.5 13:36.0 14:0.75 15:0.854 16:40.0 30:1.0 
1.1 0:0.397 1:0.347 2:0.705 3:0.404 4:0.354 5:0.481 6:0.358 7:3.0 8:0.158 9:25.0 10:0.893 11:25.0 12:0.514 13:36.0 14:0.679 15:0.893 16:44.0 18:1.0 
1.1 0:0.199 1:0.313 2:0.455 3:0.0 4:0.0 5:0.0 6:0.2 7:2.0 8:0.111 9:27.0 10:0.9 11:27.0 12:0.473 13:43.0 14:0.733 15:0.883 16:49.0 22:1.0 
1.1 0:0.54 1:0.565 2:0.395 3:0.217 4:0.194 5:0.309 6:0.439 7:4.0 8:0.25 9:28.0 10:0.933 11:28.0 12:0.413 13:44.0 14:0.833 15:0.933 16:44.0 22:1.0 
1.1 0:0.959 1:0.968 2:0.976 3:0.874 4:0.921 5:0.946 6:1.0 7:7.0 8:1.0 9:1.0 10:0.067 11:1.0 12:0.961 13:2.0 14:0.067 15:0.067 16:4.0 17:1.0 
1.1 0:0.095 1:0.096 2:0.228 3:0.149 4:0.194 5:0.209 6:0.267 7:3.0 8:0.15 9:24.0 10:0.828 11:24.0 12:0.5 13:40.0 14:0.724 15:0.81 16:46.0 27:1.0 
0.9488917975830162 0:0.825 1:0.529 2:0.975 3:0.867 4:0.937 5:0.961 6:0.62 7:4.0 8:0.364 9:11.0 10:0.5 11:11.0 12:0.917 13:11.0 14:0.5 15:0.5 16:11.0 17:1.0 
1.1 0:0.046 1:0.056 2:0.458 3:0.0 4:0.02 5:0.063 6:0.267 7:2.0 8:0.154 9:21.0 10:1.0 11:21.0 12:0.567 13:26.0 14:0.667 15:1.0 16:26.0 25:1.0 
1.1 0:0.218 1:0.227 2:0.346 3:0.0 4:0.166 5:0.225 6:0.273 7:3.0 8:0.158 9:24.0 10:0.923 11:24.0 12:0.419 13:41.0 14:0.885 15:0.942 16:41.0 18:1.0 
0.10651904910000233 0:0.934 1:0.778 2:0.44 3:0.162 4:0.431 5:0.495 6:0.258 7:2.0 8:0.133 9:24.0 10:0.857 11:24.0 12:0.53 13:32.0 14:0.786 15:0.857 16:36.0 39:1.0 
1.1 0:0.243 1:0.508 2:0.488 3:0.329 4:0.407 5:0.442 6:0.201 7:2.0 8:0.111 9:26.0 10:1.0 11:26.0 12:0.331 13:45.0 14:0.885 15:1.0 16:43.0 22:1.0 
1.1 0:0.682 1:0.656 2:0.21 3:0.12 4:0.104 5:0.106 6:0.08 7:1.0 8:0.042 9:26.0 10:0.867 11:26.0 12:0.448 13:48.0 14:0.833 15:0.85 16:52.0 23:1.0 
1.1 0:0.255 1:0.364 2:0.304 3:0.152 4:0.147 5:0.168 6:0.286 7:4.0 8:0.19 9:23.0 10:0.793 11:23.0 12:0.467 13:41.0 14:0.724 15:0.81 16:45.0 22:1.0 
1.1 0:0.514 1:0.456 2:0.466 3:0.355 4:0.368 5:0.477 6:0.548 7:3.0 8:0.375 9:12.0 10:0.632 11:12.0 12:0.777 13:15.0 14:0.474 15:0.632 16:21.0 23:1.0 
