svm_type c_svc
kernel_type rbf
gamma 0.025
nr_class 2
total_sv 275
rho -0.24652870837057766
label 1 -1
nr_sv 107 168
SV
1.6 0:0.546 1:0.578 2:0.593 3:0.087 4:0.327 5:0.457 6:0.0 7:1.0 8:0.063 9:20.0 10:0.952 11:20.0 12:0.294 13:36.0 14:0.857 15:0.952 16:36.0 17:1.0 
1.6 0:0.64 1:0.613 2:0.581 3:0.319 4:0.39 5:0.423 6:0.0 7:3.0 8:0.158 9:21.0 10:0.875 11:21.0 12:0.453 13:33.0 14:0.75 15:0.875 16:35.0 17:1.0 
1.6 0:0.416 1:0.382 2:0.553 3:0.229 4:0.393 5:0.361 6:0.0 7:2.0 8:0.118 9:24.0 10:1.0 11:24.0 12:0.452 13:37.0 14:0.833 15:1.0 16:39.0 17:1.0 
1.6 0:0.928 1:0.961 2:0.904 3:0.186 4:0.686 5:0.693 6:0.0 7:3.0 8:0.176 9:22.0 10:0.957 11:22.0 12:0.4 13:35.0 14:0.783 15:0.957 16:33.0 17:1.0 
0.43159027159499197 0:0.986 1:0.984 2:0.999 3:1.0 4:1.0 5:1.0 6:0.0 7:7.0 8:0.636 9:11.0 10:0.524 11:11.0 12:0.69 13:17.0 14:0.476 15:0.571 16:21.0 17:1.0 
1.6 0:0.45 1:0.436 2:0.75 3:0.25 4:0.121 5:0.286 6:0.0 7:3.0 8:0.167 9:20.0 10:0.87 11:20.0 12:0.538 13:28.0 14:0.739 15:0.87 16:34.0 18:1.0 
1.6 0:0.52 1:0.489 2:0.824 3:0.0 4:0.112 5:0.201 6:0.0 7:1.0 8:0.043 9:22.0 10:0.846 11:22.0 12:0.469 13:35.0 14:0.731 15:0.846 16:41.0 18:1.0 
0.7418166641633708 0:0.789 1:0.798 2:0.99 3:0.35 4:0.843 5:0.817 6:0.0 7:3.0 8:0.158 9:16.0 10:0.696 11:16.0 12:0.625 13:22.0 14:0.565 15:0.761 16:32.0 18:1.0 
1.6 0:0.397 1:0.377 2:0.784 3:0.0 4:0.216 5:0.472 6:0.0 7:1.0 8:0.05 9:20.0 10:0.769 11:20.0 12:0.426 13:31.0 14:0.769 15:0.769 16:29.0 18:1.0 
1.6 0:0.578 1:0.554 2:0.749 3:0.0 4:0.092 5:0.29 6:0.0 7:1.0 8:0.056 9:19.0 10:1.0 11:19.0 12:0.37 13:32.0 14:0.895 15:1.0 16:34.0 18:1.0 
1.6 0:0.556 1:0.49 2:0.825 3:0.075 4:0.139 5:0.292 6:0.0 7:0.0 8:0.0 9:24.0 10:0.923 11:24.0 12:0.451 13:37.0 14:0.846 15:0.942 16:43.0 18:1.0 
1.6 0:0.694 1:0.759 2:0.18 3:0.061 4:0.165 5:0.171 6:0.0 7:2.0 8:0.111 9:22.0 10:0.917 11:22.0 12:0.447 13:39.0 14:0.833 15:0.917 16:41.0 22:1.0 
1.6 0:0.782 1:0.758 2:0.475 3:0.277 4:0.401 5:0.463 6:0.0 7:1.0 8:0.048 9:28.0 10:0.933 11:28.0 12:0.461 13:43.0 14:0.833 15:0.917 16:45.0 22:1.0 
1.6 0:0.879 1:0.871 2:0.427 3:0.334 4:0.379 5:0.32 6:0.0 7:1.0 8:0.043 9:27.0 10:0.9 11:27.0 12:0.458 13:44.0 14:0.833 15:0.883 16:50.0 22:1.0 
1.6 0:0.887 1:0.858 2:0.444 3:0.26 4:0.289 5:0.241 6:0.0 7:2.0 8:0.1 9:28.0 10:0.933 11:28.0 12:0.487 13:41.0 14:0.8 15:0.917 16:45.0 22:1.0 
1.6 0:0.439 1:0.434 2:0.364 3:0.531 4:0.375 5:0.262 6:0.0 7:0.0 8:0.0 9:21.0 10:0.875 11:21.0 12:0.448 13:37.0 14:0.792 15:0.854 16:41.0 22:1.0 
1.6 0:0.943 1:0.945 2:0.571 3:0.31 4:0.29 5:0.181 6:0.0 7:2.0 8:0.125 9:21.0 10:0.913 11:21.0 12:0.582 13:30.0 14:0.652 15:0.891 16:28.0 22:1.0 
1.6 0:0.625 1:0.618 2:0.32 3:0.264 4:0.229 5:0.146 6:0.0 7:1.0 8:0.053 9:21.0 10:0.875 11:21.0 12:0.475 13:37.0 14:0.792 15:0.854 16:43.0 22:1.0 
0.5180752725002725 0:0.957 1:0.947 2:0.549 3:0.058 4:0.241 5:0.333 6:0.0 7:3.0 8:0.136 9:21.0 10:0.808 11:21.0 12:0.482 13:36.0 14:0.769 15:0.788 16:40.0 23:1.0 
1.6 0:0.98 1:0.975 2:0.577 3:0.0 4:0.218 5:0.211 6:0.0 7:3.0 8:0.136 9:22.0 10:0.846 11:22.0 12:0.497 13:37.0 14:0.769 15:0.827 16:41.0 23:1.0 
0.3103384112978048 0:0.979 1:0.975 2:0.542 3:0.269 4:0.252 5:0.375 6:0.0 7:6.0 8:0.375 9:12.0 10:0.522 11:12.0 12:0.659 13:23.0 14:0.522 15:0.5 16:23.0 23:1.0 
1.6 0:0.253 1:0.225 2:0.75 3:0.0 4:0.198 5:0.163 6:0.0 7:6.0 8:0.273 9:23.0 10:0.821 11:23.0 12:0.547 13:34.0 14:0.643 15:0.804 16:34.0 22:1.0 
1.6 0:0.632 1:0.651 2:0.342 3:0.373 4:0.195 5:0.276 6:0.0 7:1.0 8:0.063 9:23.0 10:1.0 11:23.0 12:0.42 13:40.0 14:0.87 15:1.0 16:40.0 22:1.0 
1.263454277704258 0:0.255 1:0.349 2:0.211 3:0.577 4:0.204 5:0.217 6:0.0 7:2.0 8:0.111 9:20.0 10:0.833 11:20.0 12:0.532 13:33.0 14:0.708 15:0.813 16:41.0 22:1.0 
1.6 0:0.784 1:0.84 2:0.587 3:0.243 4:0.393 5:0.279 6:0.0 7:3.0 8:0.143 9:24.0 10:0.857 11:24.0 12:0.492 13:39.0 14:0.786 15:0.839 16:43.0 22:1.0 
1.6 0:0.822 1:0.797 2:0.632 3:0.387 4:0.426 5:0.536 6:0.0 7:2.0 8:0.133 9:23.0 10:0.958 11:23.0 12:0.447 13:39.0 14:0.833 15:0.958 16:35.0 22:1.0 
1.6 0:0.521 1:0.58 2:0.4 3:0.262 4:0.218 5:0.295 6:0.0 7:1.0 8:0.056 9:27.0 10:0.871 11:27.0 12:0.326 13:46.0 14:0.871 15:0.871 16:48.0 22:1.0 
0.6226313915779338 0:0.944 1:0.964 2:0.87 3:0.545 4:0.711 5:0.817 6:0.0 7:4.0 8:0.211 9:21.0 10:0.955 11:21.0 12:0.485 13:30.0 14:0.682 15:0.955 16:34.0 22:1.0 
0.915312246907589 0:0.751 1:0.719 2:0.276 3:0.243 4:0.259 5:0.324 6:0.0 7:3.0 8:0.214 9:25.0 10:1.0 11:25.0 12:0.395 13:30.0 14:0.72 15:1.0 16:28.0 23:1.0 
1.6 0:0.806 1:0.782 2:0.361 3:0.293 4:0.175 5:0.27 6:0.0 7:3.0 8:0.13 9:19.0 10:0.731 11:19.0 12:0.543 13:35.0 14:0.692 15:0.712 16:39.0 23:1.0 
1.6 0:0.711 1:0.82 2:0.613 3:0.38 4:0.49 5:0.48 6:0.0 7:1.0 8:0.063 9:20.0 10:0.87 11:20.0 12:0.427 13:30.0 14:0.739 15:0.87 16:32.0 17:1.0 
1.6 0:0.656 1:0.736 2:0.654 3:0.0 4:0.165 5:0.189 6:0.0 7:1.0 8:0.063 9:23.0 10:0.92 11:23.0 12:0.354 13:36.0 14:0.84 15:0.92 16:36.0 17:1.0 
0.1982933796876232 0:0.548 1:0.651 2:0.672 3:0.0 4:0.18 5:0.246 6:0.0 7:6.0 8:0.375 9:17.0 10:0.68 11:17.0 12:0.662 13:18.0 14:0.4 15:0.74 16:24.0 17:1.0 
0.4208122776073876 0:1.0 1:0.999 2:0.999 3:0.875 4:0.935 5:0.963 6:0.0 7:10.0 8:0.909 9:2.0 10:0.087 11:2.0 12:0.989 13:2.0 14:0.087 15:0.109 16:4.0 25:1.0 
1.6 0:0.766 1:0.798 2:0.337 3:0.185 4:0.203 5:0.318 6:0.0 7:3.0 8:0.2 9:20.0 10:0.769 11:20.0 12:0.518 13:31.0 14:0.692 15:0.769 16:35.0 23:1.0 
0.177932254664301 0:0.777 1:0.814 2:0.383 3:0.162 4:0.194 5:0.368 6:0.0 7:2.0 8:0.111 9:21.0 10:0.808 11:21.0 12:0.455 13:38.0 14:0.731 15:0.827 16:42.0 23:1.0 
1.6 0:0.759 1:0.797 2:0.263 3:0.194 4:0.118 5:0.259 6:0.0 7:2.0 8:0.125 9:23.0 10:0.885 11:23.0 12:0.355 13:38.0 14:0.885 15:0.904 16:38.0 23:1.0 
1.6 0:0.861 1:0.878 2:0.522 3:0.09 4:0.07 5:0.113 6:0.0 7:2.0 8:0.105 9:26.0 10:0.929 11:26.0 12:0.411 13:42.0 14:0.786 15:0.929 16:44.0 23:1.0 
1.6 0:0.79 1:0.822 2:0.503 3:0.161 4:0.184 5:0.396 6:0.0 7:5.0 8:0.313 9:17.0 10:0.654 11:17.0 12:0.6 13:30.0 14:0.615 15:0.673 16:32.0 23:1.0 
1.3791981995643159 0:0.766 1:0.806 2:0.526 3:0.177 4:0.206 5:0.523 6:0.0 7:2.0 8:0.118 9:24.0 10:0.8 11:24.0 12:0.506 13:40.0 14:0.733 15:0.817 16:46.0 23:1.0 
1.6 0:0.83 1:0.856 2:0.268 3:0.22 4:0.247 5:0.204 6:0.0 7:1.0 8:0.048 9:26.0 10:0.897 11:26.0 12:0.415 13:42.0 14:0.862 15:0.879 16:44.0 23:1.0 
1.6 0:0.89 1:0.902 2:0.409 3:0.124 4:0.189 5:0.194 6:0.0 7:2.0 8:0.091 9:26.0 10:0.897 11:26.0 12:0.456 13:43.0 14:0.793 15:0.879 16:47.0 23:1.0 
1.6 0:0.877 1:0.895 2:0.398 3:0.262 4:0.275 5:0.295 6:0.0 7:2.0 8:0.1 9:26.0 10:0.897 11:26.0 12:0.453 13:44.0 14:0.793 15:0.879 16:44.0 23:1.0 
1.6 0:0.857 1:0.884 2:0.281 3:0.115 4:0.238 5:0.211 6:0.0 7:2.0 8:0.1 9:26.0 10:0.897 11:26.0 12:0.287 13:41.0 14:0.897 15:0.897 16:41.0 23:1.0 
0.10949527091131774 0:0.791 1:0.826 2:0.315 3:0.082 4:0.192 5:0.196 6:0.0 7:1.0 8:0.048 9:25.0 10:0.862 11:25.0 12:0.421 13:46.0 14:0.828 15:0.845 16:50.0 23:1.0 
1.6 0:0.825 1:0.849 2:0.375 3:0.24 4:0.224 5:0.26 6:0.0 7:1.0 8:0.042 9:26.0 10:0.897 11:26.0 12:0.409 13:47.0 14:0.897 15:0.879 16:47.0 23:1.0 
1.6 0:0.882 1:0.898 2:0.434 3:0.185 4:0.229 5:0.239 6:0.0 7:1.0 8:0.038 9:26.0 10:0.897 11:26.0 12:0.45 13:47.0 14:0.828 15:0.879 16:51.0 23:1.0 
1.6 0:0.975 1:0.97 2:0.405 3:0.41 4:0.418 5:0.377 6:0.0 7:2.0 8:0.125 9:20.0 10:0.769 11:20.0 12:0.534 13:33.0 14:0.731 15:0.75 16:37.0 23:1.0 
1.6 0:0.985 1:0.982 2:0.431 3:0.123 4:0.222 5:0.188 6:0.0 7:3.0 8:0.167 9:26.0 10:0.897 11:26.0 12:0.443 13:34.0 14:0.724 15:0.897 16:38.0 23:1.0 
1.6 0:0.983 1:0.98 2:0.442 3:0.324 4:0.406 5:0.433 6:0.0 7:2.0 8:0.143 9:21.0 10:0.778 11:21.0 12:0.531 13:34.0 14:0.741 15:0.759 16:38.0 23:1.0 
0.9996897022768333 0:0.99 1:0.98 2:0.591 3:0.191 4:0.282 5:0.351 6:0.0 7:2.0 8:0.143 9:15.0 10:0.714 11:15.0 12:0.54 13:23.0 14:0.619 15:0.738 16:25.0 23:1.0 
1.0873930911861307 0:0.989 1:0.984 2:0.487 3:0.337 4:0.411 5:0.429 6:0.0 7:3.0 8:0.231 9:18.0 10:0.667 11:18.0 12:0.587 13:30.0 14:0.667 15:0.648 16:36.0 23:1.0 
0.090527054046865 0:0.986 1:0.975 2:0.386 3:0.267 4:0.351 5:0.411 6:0.0 7:4.0 8:0.286 9:22.0 10:0.815 11:22.0 12:0.0 13:24.0 14:0.556 15:0.833 16:28.0 23:1.0 
0.5920199029221707 0:0.559 1:0.614 2:0.284 3:0.0 4:0.128 5:0.2 6:0.0 7:4.0 8:0.286 9:18.0 10:0.643 11:18.0 12:0.611 13:29.0 14:0.643 15:0.625 16:33.0 23:1.0 
1.6 0:0.975 1:0.972 2:0.447 3:0.267 4:0.222 5:0.157 6:0.0 7:2.0 8:0.118 9:22.0 10:0.786 11:22.0 12:0.433 13:37.0 14:0.786 15:0.768 16:39.0 23:1.0 
1.6 0:0.987 1:0.982 2:0.422 3:0.277 4:0.368 5:0.411 6:0.0 7:3.0 8:0.188 9:18.0 10:0.75 11:18.0 12:0.571 13:29.0 14:0.667 15:0.729 16:33.0 23:1.0 
1.6 0:0.973 1:0.97 2:0.341 3:0.421 4:0.358 5:0.334 6:0.0 7:3.0 8:0.167 9:20.0 10:0.714 11:20.0 12:0.544 13:31.0 14:0.679 15:0.696 16:35.0 23:1.0 
1.6 0:0.975 1:0.958 2:0.354 3:0.174 4:0.438 5:0.377 6:0.0 7:1.0 8:0.063 9:27.0 10:0.9 11:27.0 12:0.441 13:43.0 14:0.867 15:0.883 16:45.0 23:1.0 
1.6 0:0.967 1:0.971 2:0.46 3:0.046 4:0.096 5:0.106 6:0.0 7:2.0 8:0.095 9:29.0 10:1.0 11:29.0 12:0.388 13:41.0 14:0.759 15:1.0 16:45.0 23:1.0 
1.6 0:0.983 1:0.984 2:0.579 3:0.244 4:0.35 5:0.514 6:0.0 7:1.0 8:0.059 9:24.0 10:0.889 11:24.0 12:0.434 13:45.0 14:0.852 15:0.87 16:47.0 23:1.0 
1.6 0:0.978 1:0.976 2:0.396 3:0.143 4:0.323 5:0.432 6:0.0 7:2.0 8:0.125 9:23.0 10:0.885 11:23.0 12:0.355 13:38.0 14:0.885 15:0.904 16:36.0 23:1.0 
1.6 0:0.974 1:0.979 2:0.498 3:0.234 4:0.349 5:0.52 6:0.0 7:2.0 8:0.111 9:27.0 10:1.0 11:27.0 12:0.358 13:39.0 14:0.741 15:1.0 16:43.0 23:1.0 
1.6 0:0.963 1:0.964 2:0.468 3:0.134 4:0.12 5:0.148 6:0.0 7:3.0 8:0.167 9:22.0 10:0.786 11:22.0 12:0.481 13:36.0 14:0.679 15:0.768 16:40.0 23:1.0 
1.6 0:0.994 1:0.992 2:0.803 3:0.575 4:0.503 5:0.621 6:0.0 7:3.0 8:0.15 9:25.0 10:0.893 11:25.0 12:0.519 13:38.0 14:0.714 15:0.875 16:42.0 23:1.0 
1.6 0:0.976 1:0.979 2:0.697 3:0.146 4:0.232 5:0.198 6:0.0 7:2.0 8:0.105 9:29.0 10:1.0 11:29.0 12:0.429 13:44.0 14:0.793 15:1.0 16:46.0 23:1.0 
0.17685177379076622 0:0.982 1:0.983 2:0.37 3:0.129 4:0.097 5:0.117 6:0.0 7:2.0 8:0.105 9:29.0 10:1.0 11:29.0 12:0.423 13:41.0 14:0.897 15:1.0 16:41.0 23:1.0 
1.6 0:0.974 1:0.967 2:0.574 3:0.118 4:0.169 5:0.161 6:0.0 7:2.0 8:0.1 9:29.0 10:0.967 11:29.0 12:0.444 13:45.0 14:0.767 15:0.967 16:51.0 23:1.0 
1.6 0:0.985 1:0.98 2:0.381 3:0.302 4:0.314 5:0.411 6:0.0 7:1.0 8:0.067 9:24.0 10:0.889 11:24.0 12:0.29 13:39.0 14:0.889 15:0.889 16:39.0 23:1.0 
1.6 0:0.551 1:0.614 2:0.341 3:0.0 4:0.129 5:0.289 6:0.0 7:1.0 8:0.059 9:21.0 10:0.75 11:21.0 12:0.503 13:41.0 14:0.75 15:0.732 16:45.0 23:1.0 
1.6 0:0.992 1:0.994 2:0.969 3:0.973 4:0.983 5:0.991 6:0.0 7:2.0 8:0.118 9:22.0 10:0.815 11:22.0 12:0.465 13:41.0 14:0.815 15:0.815 16:43.0 23:1.0 
1.6 0:0.964 1:0.961 2:0.679 3:0.552 4:0.481 5:0.622 6:0.0 7:1.0 8:0.063 9:26.0 10:0.867 11:26.0 12:0.451 13:47.0 14:0.833 15:0.85 16:51.0 23:1.0 
1.6 0:0.983 1:0.977 2:0.362 3:0.141 4:0.33 5:0.365 6:0.0 7:1.0 8:0.067 9:26.0 10:0.963 11:26.0 12:0.29 13:39.0 14:0.889 15:0.963 16:39.0 23:1.0 
1.6 0:0.979 1:0.968 2:0.336 3:0.373 4:0.305 5:0.412 6:0.0 7:1.0 8:0.059 9:24.0 10:0.889 11:24.0 12:0.457 13:37.0 14:0.852 15:0.889 16:39.0 23:1.0 
1.6 0:0.555 1:0.615 2:0.207 3:0.0 4:0.089 5:0.148 6:0.0 7:2.0 8:0.125 9:26.0 10:0.929 11:26.0 12:0.349 13:40.0 14:0.893 15:0.946 16:40.0 23:1.0 
1.6 0:0.972 1:0.975 2:0.394 3:0.093 4:0.121 5:0.145 6:0.0 7:2.0 8:0.118 9:26.0 10:0.929 11:26.0 12:0.352 13:40.0 14:0.893 15:0.929 16:38.0 23:1.0 
1.6 0:0.982 1:0.972 2:0.366 3:0.249 4:0.277 5:0.385 6:0.0 7:2.0 8:0.118 9:23.0 10:0.958 11:23.0 12:0.362 13:36.0 14:0.875 15:0.958 16:36.0 23:1.0 
1.6 0:0.977 1:0.978 2:0.355 3:0.161 4:0.41 5:0.388 6:0.0 7:2.0 8:0.105 9:25.0 10:0.893 11:25.0 12:0.403 13:38.0 14:0.857 15:0.893 16:36.0 23:1.0 
1.6 0:0.965 1:0.953 2:0.342 3:0.365 4:0.381 5:0.406 6:0.0 7:1.0 8:0.063 9:29.0 10:0.967 11:29.0 12:0.348 13:42.0 14:0.9 15:0.967 16:42.0 23:1.0 
1.2133469927322946 0:0.983 1:0.98 2:0.552 3:0.198 4:0.228 5:0.19 6:0.0 7:3.0 8:0.188 9:23.0 10:0.821 11:23.0 12:0.509 13:39.0 14:0.714 15:0.804 16:43.0 23:1.0 
1.6 0:0.976 1:0.963 2:0.481 3:0.129 4:0.353 5:0.426 6:0.0 7:1.0 8:0.063 9:26.0 10:0.867 11:26.0 12:0.433 13:47.0 14:0.833 15:0.85 16:51.0 23:1.0 
1.6 0:0.555 1:0.616 2:0.301 3:0.0 4:0.128 5:0.273 6:0.0 7:3.0 8:0.176 9:28.0 10:1.0 11:28.0 12:0.409 13:37.0 14:0.679 15:1.0 16:41.0 23:1.0 
1.6 0:0.963 1:0.958 2:0.458 3:0.174 4:0.139 5:0.194 6:0.0 7:3.0 8:0.167 9:28.0 10:1.0 11:28.0 12:0.408 13:43.0 14:0.786 15:1.0 16:43.0 23:1.0 
1.6 0:0.976 1:0.968 2:0.521 3:0.426 4:0.438 5:0.577 6:0.0 7:1.0 8:0.056 9:29.0 10:0.967 11:29.0 12:0.317 13:49.0 14:0.867 15:0.983 16:51.0 23:1.0 
1.6 0:0.608 1:0.659 2:0.41 3:0.232 4:0.264 5:0.231 6:0.0 7:2.0 8:0.105 9:25.0 10:0.893 11:25.0 12:0.44 13:42.0 14:0.75 15:0.875 16:46.0 23:1.0 
1.6 0:0.974 1:0.972 2:0.58 3:0.271 4:0.202 5:0.247 6:0.0 7:2.0 8:0.1 9:25.0 10:0.893 11:25.0 12:0.488 13:40.0 14:0.786 15:0.875 16:42.0 23:1.0 
1.6 0:0.953 1:0.952 2:0.491 3:0.44 4:0.574 5:0.572 6:0.0 7:1.0 8:0.048 9:26.0 10:0.867 11:26.0 12:0.416 13:48.0 14:0.833 15:0.85 16:52.0 23:1.0 
0.19712690185159626 0:0.978 1:0.988 2:0.98 3:0.0 4:0.073 5:0.382 6:0.0 7:4.0 8:0.286 9:21.0 10:0.913 11:21.0 12:0.498 13:26.0 14:0.739 15:0.957 16:30.0 18:1.0 
0.29052025832950534 0:0.926 1:0.908 2:0.97 3:1.0 4:1.0 5:0.836 6:0.0 7:6.0 8:0.429 9:26.0 10:0.684 11:26.0 12:0.677 13:29.0 14:0.684 15:0.711 16:35.0 18:1.0 
0.27044203055688537 0:0.936 1:0.911 2:0.985 3:0.0 4:0.073 5:0.122 6:0.0 7:5.0 8:0.294 9:29.0 10:0.763 11:29.0 12:0.61 13:35.0 14:0.658 15:0.776 16:43.0 18:1.0 
0.267845378121611 0:0.843 1:0.827 2:0.649 3:0.449 4:0.495 5:0.357 6:0.0 7:5.0 8:0.313 9:32.0 10:0.941 11:32.0 12:0.416 13:42.0 14:0.794 15:0.941 16:40.0 23:1.0 
1.4991702818790729 0:0.898 1:0.876 2:0.652 3:0.484 4:0.523 5:0.365 6:0.0 7:3.0 8:0.176 9:20.0 10:0.87 11:20.0 12:0.526 13:31.0 14:0.696 15:0.87 16:31.0 23:1.0 
1.6 0:0.947 1:0.957 2:0.453 3:0.234 4:0.257 5:0.364 6:0.0 7:1.0 8:0.059 9:19.0 10:0.905 11:19.0 12:0.492 13:32.0 14:0.762 15:0.881 16:34.0 22:1.0 
1.6 0:0.907 1:0.902 2:0.791 3:0.563 4:0.518 5:0.728 6:0.0 7:4.0 8:0.222 9:32.0 10:0.8 11:32.0 12:0.561 13:45.0 14:0.725 15:0.813 16:49.0 17:1.0 
1.3555221264518977 0:0.859 1:0.869 2:0.664 3:0.306 4:0.325 5:0.555 6:0.0 7:4.0 8:0.267 9:27.0 10:1.0 11:27.0 12:0.457 13:34.0 14:0.667 15:1.0 16:36.0 17:1.0 
1.3276732743623316 0:0.885 1:0.872 2:0.626 3:0.332 4:0.562 5:0.536 6:0.0 7:3.0 8:0.15 9:39.0 10:0.975 11:39.0 12:0.417 13:47.0 14:0.775 15:0.975 16:47.0 17:1.0 
1.6 0:0.602 1:0.602 2:0.635 3:0.252 4:0.316 5:0.296 6:0.0 7:1.0 8:0.071 9:26.0 10:0.963 11:26.0 12:0.226 13:42.0 14:0.926 15:0.963 16:42.0 21:1.0 
1.6 0:0.889 1:0.9 2:0.298 3:0.27 4:0.319 5:0.376 6:0.0 7:2.0 8:0.125 9:26.0 10:0.963 11:26.0 12:0.374 13:45.0 14:0.889 15:0.963 16:43.0 17:1.0 
1.6 0:0.886 1:0.914 2:0.709 3:0.208 4:0.13 5:0.35 6:0.0 7:3.0 8:0.188 9:25.0 10:1.0 11:25.0 12:0.342 13:39.0 14:0.84 15:1.0 16:35.0 40:1.0 
1.3269638232161731 0:0.988 1:0.993 2:0.841 3:0.142 4:0.114 5:0.121 6:0.0 7:4.0 8:0.167 9:29.0 10:0.829 11:29.0 12:0.475 13:43.0 14:0.771 15:0.843 16:51.0 40:1.0 
1.6 0:0.989 1:0.993 2:0.809 3:0.192 4:0.117 5:0.123 6:0.0 7:4.0 8:0.182 9:27.0 10:0.771 11:27.0 12:0.5 13:39.0 14:0.771 15:0.771 16:47.0 40:1.0 
0.2598817230331888 0:0.999 1:0.999 2:0.986 3:0.739 4:0.975 5:0.983 6:0.0 7:12.0 8:0.857 9:4.0 10:0.167 11:4.0 12:0.944 13:4.0 14:0.167 15:0.188 16:4.0 40:1.0 
0.3033404328677907 0:0.841 1:0.83 2:0.974 3:0.914 4:0.963 5:0.969 6:0.0 7:5.0 8:0.417 9:22.0 10:0.688 11:22.0 12:0.683 13:23.0 14:0.531 15:0.672 16:25.0 26:1.0 
1.6 0:0.314 1:0.279 2:0.727 3:0.574 4:0.636 5:0.644 6:0.0 7:2.0 8:0.154 9:17.0 10:0.85 11:17.0 12:0.536 13:24.0 14:0.75 15:0.875 16:28.0 17:1.0 
0.6478608980361485 0:0.999 1:0.999 2:0.993 3:0.399 4:0.577 5:0.763 6:0.0 7:7.0 8:0.636 9:8.0 10:0.381 11:8.0 12:0.907 13:15.0 14:0.381 15:0.357 16:15.0 18:1.0 
0.477592323890577 0:1.0 1:1.0 2:1.0 3:1.0 4:1.0 5:1.0 6:0.0 7:8.0 8:0.8 9:5.0 10:0.217 11:5.0 12:0.95 13:5.0 14:0.217 15:0.239 16:7.0 24:1.0 
1.6 0:0.968 1:0.979 2:0.762 3:0.653 4:0.359 5:0.502 6:0.0 7:3.0 8:0.167 9:22.0 10:0.815 11:22.0 12:0.531 13:32.0 14:0.741 15:0.815 16:38.0 17:1.0 
0.7962499505357206 0:0.952 1:0.971 2:0.609 3:0.398 4:0.437 5:0.379 6:0.0 7:4.0 8:0.182 9:25.0 10:0.862 11:25.0 12:0.601 13:33.0 14:0.621 15:0.862 16:41.0 18:1.0 
-0.30552922283276407 0:0.741 1:0.823 2:0.332 3:0.128 4:0.105 5:0.08 6:0.0 7:0.0 8:0.0 9:24.0 10:1.0 11:24.0 12:0.0 13:47.0 14:1.0 15:1.0 16:45.0 22:1.0 
-0.3674136561891997 0:0.65 1:0.71 2:0.272 3:0.144 4:0.096 5:0.053 6:0.0 7:2.0 8:0.118 9:23.0 10:0.958 11:23.0 12:0.364 13:36.0 14:0.833 15:0.958 16:40.0 22:1.0 
-0.12910743187962262 0:0.109 1:0.123 2:0.151 3:0.0 4:0.039 5:0.056 6:0.0 7:2.0 8:0.154 9:21.0 10:1.0 11:21.0 12:0.431 13:35.0 14:0.857 15:1.0 16:33.0 22:1.0 
-1.0 0:0.906 1:0.939 2:0.441 3:0.123 4:0.109 5:0.201 6:0.0 7:2.0 8:0.125 9:21.0 10:0.913 11:21.0 12:0.446 13:35.0 14:0.783 15:0.913 16:39.0 22:1.0 
-1.0 0:0.301 1:0.425 2:0.137 3:0.039 4:0.06 5:0.115 6:0.0 7:2.0 8:0.095 9:28.0 10:0.966 11:28.0 12:0.405 13:46.0 14:0.828 15:0.983 16:50.0 22:1.0 
-0.10372584794253241 0:0.582 1:0.678 2:0.293 3:0.0 4:0.0 5:0.054 6:0.0 7:1.0 8:0.045 9:28.0 10:0.966 11:28.0 12:0.384 13:49.0 14:0.862 15:0.983 16:53.0 22:1.0 
-1.0 0:0.428 1:0.533 2:0.445 3:0.251 4:0.287 5:0.286 6:0.0 7:2.0 8:0.105 9:28.0 10:0.966 11:28.0 12:0.446 13:41.0 14:0.862 15:0.966 16:45.0 22:1.0 
-1.0 0:0.667 1:0.712 2:0.463 3:0.0 4:0.0 5:0.162 6:0.0 7:1.0 8:0.056 9:28.0 10:1.0 11:28.0 12:0.36 13:43.0 14:0.857 15:1.0 16:43.0 22:1.0 
-0.5988460437047998 0:0.337 1:0.422 2:0.321 3:0.032 4:0.196 5:0.185 6:0.0 7:1.0 8:0.063 9:21.0 10:0.913 11:21.0 12:0.391 13:42.0 14:0.913 15:0.913 16:42.0 22:1.0 
-1.0 0:0.485 1:0.566 2:0.227 3:0.036 4:0.048 5:0.055 6:0.0 7:2.0 8:0.105 9:21.0 10:0.875 11:21.0 12:0.312 13:39.0 14:0.875 15:0.875 16:41.0 22:1.0 
-1.0 0:0.251 1:0.385 2:0.242 3:0.0 4:0.0 5:0.053 6:0.0 7:1.0 8:0.053 9:26.0 10:0.929 11:26.0 12:0.43 13:47.0 14:0.857 15:0.946 16:51.0 22:1.0 
-0.039994436130077214 0:0.926 1:0.908 2:0.299 3:0.324 4:0.294 5:0.29 6:0.0 7:1.0 8:0.056 9:30.0 10:1.0 11:30.0 12:0.389 13:44.0 14:0.9 15:1.0 16:46.0 22:1.0 
-1.0 0:0.693 1:0.737 2:0.282 3:0.309 4:0.181 5:0.253 6:0.0 7:2.0 8:0.111 9:23.0 10:1.0 11:23.0 12:0.288 13:40.0 14:0.913 15:1.0 16:38.0 22:1.0 
-1.0 0:0.749 1:0.802 2:0.527 3:0.333 4:0.286 5:0.389 6:0.0 7:2.0 8:0.091 9:25.0 10:0.893 11:25.0 12:0.413 13:45.0 14:0.893 15:0.893 16:45.0 22:1.0 
-1.0 0:0.924 1:0.934 2:0.646 3:0.487 4:0.292 5:0.223 6:0.0 7:4.0 8:0.25 9:20.0 10:0.87 11:20.0 12:0.483 13:30.0 14:0.652 15:0.891 16:32.0 22:1.0 
-1.0 0:0.72 1:0.791 2:0.361 3:0.136 4:0.116 5:0.248 6:0.0 7:3.0 8:0.167 9:18.0 10:0.783 11:18.0 12:0.516 13:32.0 14:0.739 15:0.761 16:36.0 22:1.0 
-1.0 0:0.689 1:0.758 2:0.449 3:0.192 4:0.143 5:0.319 6:0.0 7:2.0 8:0.125 9:18.0 10:0.783 11:18.0 12:0.6 13:27.0 14:0.609 15:0.761 16:33.0 22:1.0 
-0.22072195691813107 0:0.843 1:0.859 2:0.401 3:0.275 4:0.267 5:0.235 6:0.0 7:2.0 8:0.091 9:26.0 10:0.929 11:26.0 12:0.389 13:39.0 14:0.821 15:0.929 16:43.0 22:1.0 
-1.0 0:0.826 1:0.784 2:0.477 3:0.275 4:0.262 5:0.319 6:0.0 7:3.0 8:0.167 9:20.0 10:0.952 11:20.0 12:0.46 13:34.0 14:0.81 15:0.952 16:36.0 22:1.0 
-1.0 0:0.51 1:0.601 2:0.389 3:0.273 4:0.286 5:0.326 6:0.0 7:3.0 8:0.176 9:18.0 10:0.818 11:18.0 12:0.519 13:31.0 14:0.727 15:0.795 16:33.0 22:1.0 
-0.5858482246411206 0:0.631 1:0.663 2:0.445 3:0.373 4:0.336 5:0.365 6:0.0 7:0.0 8:0.0 9:28.0 10:1.0 11:28.0 12:0.413 13:45.0 14:0.893 15:1.0 16:49.0 22:1.0 
-1.0 0:0.53 1:0.635 2:0.355 3:0.294 4:0.236 5:0.245 6:0.0 7:4.0 8:0.2 9:26.0 10:0.929 11:26.0 12:0.427 13:40.0 14:0.821 15:0.929 16:44.0 22:1.0 
-1.0 0:0.901 1:0.933 2:0.504 3:0.572 4:0.462 5:0.36 6:0.0 7:2.0 8:0.08 9:28.0 10:1.0 11:28.0 12:0.442 13:42.0 14:0.857 15:1.0 16:44.0 22:1.0 
-1.0 0:0.904 1:0.932 2:0.49 3:0.289 4:0.362 5:0.329 6:0.0 7:2.0 8:0.091 9:28.0 10:1.0 11:28.0 12:0.303 13:46.0 14:0.929 15:1.0 16:44.0 22:1.0 
-1.0 0:0.666 1:0.687 2:0.233 3:0.0 4:0.0 5:0.0 6:0.0 7:1.0 8:0.053 9:28.0 10:1.0 11:28.0 12:0.0 13:40.0 14:0.893 15:1.0 16:40.0 22:1.0 
-1.0 0:0.754 1:0.806 2:0.291 3:0.0 4:0.193 5:0.203 6:0.0 7:1.0 8:0.043 9:28.0 10:0.966 11:28.0 12:0.427 13:49.0 14:0.862 15:0.966 16:53.0 22:1.0 
-0.945867018234454 0:0.851 1:0.882 2:0.484 3:0.068 4:0.275 5:0.313 6:0.0 7:2.0 8:0.087 9:26.0 10:0.929 11:26.0 12:0.306 13:45.0 14:0.929 15:0.929 16:43.0 22:1.0 
-1.0 0:0.67 1:0.818 2:0.528 3:0.36 4:0.42 5:0.473 6:0.0 7:1.0 8:0.043 9:27.0 10:0.964 11:27.0 12:0.409 13:47.0 14:0.893 15:0.964 16:49.0 22:1.0 
-1.0 0:0.719 1:0.804 2:0.447 3:0.063 4:0.162 5:0.222 6:0.0 7:3.0 8:0.15 9:26.0 10:0.929 11:26.0 12:0.451 13:39.0 14:0.857 15:0.929 16:39.0 22:1.0 
-0.13511114156421303 0:0.063 1:0.181 2:0.307 3:0.231 4:0.218 5:0.235 6:0.0 7:0.0 8:0.0 9:35.0 10:1.0 11:35.0 12:0.215 13:52.0 14:0.914 15:1.0 16:56.0 22:1.0 
-1.0 0:0.099 1:0.124 2:0.181 3:0.0 4:0.021 5:0.091 6:0.0 7:0.0 8:0.0 9:21.0 10:0.913 11:21.0 12:0.422 13:35.0 14:0.826 15:0.913 16:41.0 22:1.0 
-1.0 0:0.668 1:0.72 2:0.524 3:0.337 4:0.264 5:0.358 6:0.0 7:1.0 8:0.083 9:18.0 10:0.783 11:18.0 12:0.485 13:32.0 14:0.739 15:0.761 16:36.0 22:1.0 
-1.0 0:0.649 1:0.638 2:0.331 3:0.385 4:0.296 5:0.222 6:0.0 7:3.0 8:0.167 9:23.0 10:0.958 11:23.0 12:0.401 13:35.0 14:0.792 15:0.958 16:33.0 22:1.0 
-1.0 0:0.457 1:0.475 2:0.264 3:0.249 4:0.177 5:0.191 6:0.0 7:2.0 8:0.095 9:28.0 10:0.903 11:28.0 12:0.466 13:42.0 14:0.839 15:0.903 16:46.0 22:1.0 
-1.0 0:0.295 1:0.358 2:0.254 3:0.057 4:0.057 5:0.033 6:0.0 7:1.0 8:0.056 9:21.0 10:1.0 11:21.0 12:0.5 13:30.0 14:0.762 15:1.0 16:32.0 22:1.0 
-0.0986978490990268 0:0.082 1:0.1 2:0.275 3:0.0 4:0.119 5:0.065 6:0.0 7:0.0 8:0.0 9:32.0 10:0.914 11:32.0 12:0.405 13:52.0 14:0.914 15:0.914 16:56.0 22:1.0 
-1.0 0:0.619 1:0.703 2:0.533 3:0.0 4:0.164 5:0.153 6:0.0 7:4.0 8:0.222 9:26.0 10:0.839 11:26.0 12:0.46 13:38.0 14:0.742 15:0.855 16:40.0 22:1.0 
-1.0 0:0.599 1:0.697 2:0.297 3:0.0 4:0.131 5:0.095 6:0.0 7:1.0 8:0.053 9:26.0 10:0.897 11:26.0 12:0.411 13:46.0 14:0.897 15:0.931 16:48.0 22:1.0 
-0.6682253297801837 0:0.662 1:0.75 2:0.404 3:0.0 4:0.136 5:0.117 6:0.0 7:2.0 8:0.105 9:23.0 10:1.0 11:23.0 12:0.394 13:40.0 14:0.913 15:1.0 16:38.0 22:1.0 
-1.0 0:0.111 1:0.191 2:0.224 3:0.417 4:0.247 5:0.238 6:0.0 7:1.0 8:0.053 9:22.0 10:0.917 11:22.0 12:0.444 13:40.0 14:0.833 15:0.896 16:44.0 22:1.0 
-1.0 0:0.305 1:0.39 2:0.295 3:0.431 4:0.299 5:0.278 6:0.0 7:3.0 8:0.158 9:28.0 10:0.903 11:28.0 12:0.446 13:39.0 14:0.742 15:0.903 16:43.0 22:1.0 
-1.0 0:0.476 1:0.526 2:0.333 3:0.102 4:0.189 5:0.163 6:0.0 7:1.0 8:0.05 9:23.0 10:0.852 11:23.0 12:0.465 13:41.0 14:0.815 15:0.833 16:47.0 22:1.0 
-1.0 0:0.378 1:0.452 2:0.359 3:0.118 4:0.248 5:0.245 6:0.0 7:3.0 8:0.167 9:19.0 10:0.792 11:19.0 12:0.512 13:33.0 14:0.75 15:0.771 16:35.0 22:1.0 
-1.0 0:0.248 1:0.36 2:0.247 3:0.0 4:0.053 5:0.077 6:0.0 7:1.0 8:0.053 9:22.0 10:0.917 11:22.0 12:0.409 13:39.0 14:0.833 15:0.896 16:43.0 22:1.0 
-0.8377584650992399 0:0.123 1:0.154 2:0.28 3:0.358 4:0.292 5:0.288 6:0.0 7:1.0 8:0.045 9:31.0 10:0.886 11:31.0 12:0.435 13:56.0 14:0.857 15:0.871 16:62.0 22:1.0 
-1.0 0:0.04 1:0.068 2:0.224 3:0.176 4:0.234 5:0.225 6:0.0 7:0.0 8:0.0 9:35.0 10:1.0 11:35.0 12:0.0 13:68.0 14:0.971 15:1.0 16:68.0 22:1.0 
-0.02719596193210364 0:0.15 1:0.195 2:0.206 3:0.035 4:0.224 5:0.185 6:0.0 7:1.0 8:0.05 9:34.0 10:0.971 11:34.0 12:0.338 13:54.0 14:0.857 15:0.971 16:60.0 22:1.0 
-1.0 0:0.142 1:0.206 2:0.198 3:0.069 4:0.09 5:0.212 6:0.0 7:1.0 8:0.05 9:34.0 10:0.971 11:34.0 12:0.464 13:45.0 14:0.857 15:0.971 16:49.0 22:1.0 
-0.37821348596951726 0:0.835 1:0.903 2:0.35 3:0.061 4:0.057 5:0.06 6:0.0 7:1.0 8:0.05 9:25.0 10:0.926 11:25.0 12:0.414 13:44.0 14:0.889 15:0.907 16:46.0 22:1.0 
-1.0 0:0.035 1:0.039 2:0.218 3:0.284 4:0.29 5:0.308 6:0.0 7:1.0 8:0.059 9:22.0 10:1.0 11:22.0 12:0.485 13:34.0 14:0.773 15:1.0 16:40.0 22:1.0 
-0.054477345438071846 0:0.244 1:0.306 2:0.219 3:0.058 4:0.13 5:0.151 6:0.0 7:0.0 8:0.0 9:35.0 10:1.0 11:35.0 12:0.0 13:59.0 14:1.0 15:1.0 16:57.0 22:1.0 
-0.5765025989420722 0:0.475 1:0.617 2:0.314 3:0.087 4:0.107 5:0.181 6:0.0 7:1.0 8:0.043 9:34.0 10:0.971 11:34.0 12:0.374 13:62.0 14:0.943 15:0.971 16:62.0 22:1.0 
-1.0 0:0.7 1:0.768 2:0.407 3:0.131 4:0.178 5:0.326 6:0.0 7:2.0 8:0.095 9:30.0 10:0.968 11:30.0 12:0.466 13:42.0 14:0.839 15:0.968 16:46.0 22:1.0 
-1.0 0:0.711 1:0.768 2:0.359 3:0.219 4:0.223 5:0.33 6:0.0 7:2.0 8:0.1 9:29.0 10:0.935 11:29.0 12:0.466 13:42.0 14:0.839 15:0.919 16:46.0 22:1.0 
-1.0 0:0.742 1:0.792 2:0.376 3:0.193 4:0.211 5:0.337 6:0.0 7:1.0 8:0.059 9:29.0 10:0.935 11:29.0 12:0.4 13:42.0 14:0.839 15:0.952 16:48.0 22:1.0 
-1.0 0:0.883 1:0.898 2:0.362 3:0.047 4:0.251 5:0.215 6:0.0 7:2.0 8:0.125 9:24.0 10:0.828 11:24.0 12:0.479 13:38.0 14:0.828 15:0.81 16:42.0 22:1.0 
-0.7470719036740658 0:0.817 1:0.864 2:0.379 3:0.13 4:0.118 5:0.098 6:0.0 7:1.0 8:0.063 9:19.0 10:1.0 11:19.0 12:0.474 13:30.0 14:0.789 15:1.0 16:34.0 22:1.0 
-1.0 0:0.277 1:0.441 2:0.461 3:0.442 4:0.349 5:0.316 6:0.0 7:3.0 8:0.2 9:22.0 10:1.0 11:22.0 12:0.394 13:34.0 14:0.773 15:1.0 16:38.0 22:1.0 
-0.2358159613691375 0:0.807 1:0.87 2:0.381 3:0.065 4:0.126 5:0.115 6:0.0 7:2.0 8:0.1 9:18.0 10:0.818 11:18.0 12:0.464 13:33.0 14:0.818 15:0.818 16:35.0 22:1.0 
-0.025551804820024927 0:0.703 1:0.811 2:0.43 3:0.048 4:0.113 5:0.137 6:0.0 7:2.0 8:0.095 9:35.0 10:1.0 11:35.0 12:0.377 13:58.0 14:0.943 15:1.0 16:56.0 22:1.0 
-0.4064759952524567 0:0.441 1:0.618 2:0.365 3:0.454 4:0.316 5:0.268 6:0.0 7:0.0 8:0.0 9:35.0 10:1.0 11:35.0 12:0.0 13:57.0 14:1.0 15:1.0 16:55.0 22:1.0 
-1.0 0:0.763 1:0.785 2:0.381 3:0.083 4:0.381 5:0.305 6:0.0 7:2.0 8:0.125 9:21.0 10:0.955 11:21.0 12:0.485 13:34.0 14:0.773 15:0.955 16:38.0 22:1.0 
-1.0 0:0.55 1:0.701 2:0.405 3:0.433 4:0.328 5:0.257 6:0.0 7:0.0 8:0.0 9:21.0 10:0.955 11:21.0 12:0.313 13:40.0 14:0.909 15:0.955 16:42.0 22:1.0 
-1.0 0:0.731 1:0.817 2:0.308 3:0.109 4:0.163 5:0.141 6:0.0 7:2.0 8:0.118 9:22.0 10:1.0 11:22.0 12:0.399 13:37.0 14:0.909 15:1.0 16:35.0 22:1.0 
-1.0 0:0.675 1:0.682 2:0.224 3:0.0 4:0.031 5:0.018 6:0.0 7:2.0 8:0.143 9:28.0 10:0.966 11:28.0 12:0.363 13:41.0 14:0.897 15:0.966 16:43.0 22:1.0 
-1.0 0:0.913 1:0.937 2:0.247 3:0.0 4:0.213 5:0.216 6:0.0 7:2.0 8:0.111 9:25.0 10:0.862 11:25.0 12:0.404 13:40.0 14:0.828 15:0.862 16:44.0 22:1.0 
-0.5725897231859399 0:0.636 1:0.767 2:0.375 3:0.0 4:0.25 5:0.246 6:0.0 7:2.0 8:0.111 9:27.0 10:0.931 11:27.0 12:0.316 13:46.0 14:0.862 15:0.948 16:48.0 22:1.0 
-0.4894289750086265 0:0.864 1:0.906 2:0.481 3:0.067 4:0.099 5:0.122 6:0.0 7:1.0 8:0.053 9:27.0 10:1.0 11:27.0 12:0.393 13:42.0 14:0.926 15:1.0 16:42.0 22:1.0 
-0.013472612336655065 0:0.92 1:0.915 2:0.479 3:0.0 4:0.275 5:0.367 6:0.0 7:1.0 8:0.056 9:20.0 10:0.909 11:20.0 12:0.395 13:39.0 14:0.909 15:0.886 16:39.0 22:1.0 
-1.0 0:0.372 1:0.372 2:0.197 3:0.0 4:0.194 5:0.143 6:0.0 7:2.0 8:0.1 9:27.0 10:0.73 11:27.0 12:0.624 13:41.0 14:0.568 15:0.743 16:49.0 17:1.0 
-1.0 0:0.493 1:0.66 2:0.267 3:0.0 4:0.156 5:0.12 6:0.0 7:2.0 8:0.1 9:30.0 10:0.833 11:30.0 12:0.589 13:44.0 14:0.611 15:0.833 16:50.0 17:1.0 
-1.0 0:0.289 1:0.38 2:0.237 3:0.144 4:0.279 5:0.269 6:0.0 7:4.0 8:0.2 9:26.0 10:0.703 11:26.0 12:0.682 13:35.0 14:0.486 15:0.703 16:45.0 17:1.0 
-1.0 0:0.596 1:0.584 2:0.312 3:0.0 4:0.0 5:0.065 6:0.0 7:2.0 8:0.105 9:22.0 10:0.88 11:22.0 12:0.479 13:36.0 14:0.8 15:0.9 16:40.0 23:1.0 
-1.0 0:0.738 1:0.708 2:0.395 3:0.251 4:0.156 5:0.12 6:0.0 7:2.0 8:0.08 9:23.0 10:0.885 11:23.0 12:0.477 13:37.0 14:0.808 15:0.904 16:41.0 23:1.0 
-1.0 0:0.339 1:0.305 2:0.157 3:0.03 4:0.064 5:0.063 6:0.0 7:2.0 8:0.143 9:19.0 10:1.0 11:19.0 12:0.41 13:31.0 14:0.895 15:1.0 16:29.0 23:1.0 
-1.0 0:0.753 1:0.772 2:0.477 3:0.246 4:0.361 5:0.354 6:0.0 7:2.0 8:0.095 9:24.0 10:0.923 11:24.0 12:0.455 13:37.0 14:0.846 15:0.923 16:39.0 23:1.0 
-1.0 0:0.252 1:0.256 2:0.136 3:0.0 4:0.0 5:0.012 6:0.0 7:2.0 8:0.087 9:25.0 10:0.962 11:25.0 12:0.434 13:36.0 14:0.885 15:0.962 16:36.0 23:1.0 
-1.0 0:0.981 1:0.987 2:0.697 3:0.063 4:0.071 5:0.119 6:0.0 7:1.0 8:0.05 9:23.0 10:0.92 11:23.0 12:0.445 13:38.0 14:0.8 15:0.92 16:42.0 36:1.0 
-1.0 0:0.976 1:0.979 2:0.694 3:0.411 4:0.497 5:0.472 6:0.0 7:1.0 8:0.04 9:27.0 10:0.964 11:27.0 12:0.388 13:47.0 14:0.857 15:0.964 16:51.0 20:1.0 
-1.0 0:0.861 1:0.907 2:0.508 3:0.069 4:0.15 5:0.245 6:0.0 7:1.0 8:0.048 9:26.0 10:0.963 11:26.0 12:0.28 13:42.0 14:0.889 15:0.963 16:44.0 20:1.0 
-1.0 0:0.959 1:0.951 2:0.551 3:0.153 4:0.238 5:0.314 6:0.0 7:1.0 8:0.038 9:26.0 10:0.929 11:26.0 12:0.405 13:50.0 14:0.893 15:0.911 16:52.0 20:1.0 
-1.0 0:0.854 1:0.909 2:0.583 3:0.075 4:0.165 5:0.173 6:0.0 7:2.0 8:0.1 9:25.0 10:0.893 11:25.0 12:0.361 13:43.0 14:0.893 15:0.875 16:45.0 20:1.0 
-1.0 0:0.841 1:0.872 2:0.431 3:0.103 4:0.238 5:0.298 6:0.0 7:1.0 8:0.045 9:26.0 10:0.929 11:26.0 12:0.417 13:43.0 14:0.893 15:0.911 16:45.0 20:1.0 
-1.0 0:0.859 1:0.835 2:0.379 3:0.269 4:0.303 5:0.286 6:0.0 7:5.0 8:0.25 9:25.0 10:0.926 11:25.0 12:0.374 13:41.0 14:0.815 15:0.926 16:39.0 20:1.0 
-0.7037817038743704 0:0.179 1:0.149 2:0.157 3:0.089 4:0.062 5:0.088 6:0.0 7:1.0 8:0.056 9:25.0 10:0.926 11:25.0 12:0.409 13:36.0 14:0.926 15:0.926 16:36.0 20:1.0 
-1.0 0:0.745 1:0.786 2:0.255 3:0.091 4:0.179 5:0.322 6:0.0 7:1.0 8:0.059 9:23.0 10:0.885 11:23.0 12:0.459 13:36.0 14:0.846 15:0.885 16:38.0 23:1.0 
-1.0 0:0.851 1:0.877 2:0.219 3:0.082 4:0.217 5:0.195 6:0.0 7:1.0 8:0.048 9:26.0 10:0.897 11:26.0 12:0.453 13:39.0 14:0.862 15:0.879 16:41.0 23:1.0 
-1.0 0:0.97 1:0.962 2:0.259 3:0.202 4:0.263 5:0.279 6:0.0 7:1.0 8:0.067 9:18.0 10:0.857 11:18.0 12:0.437 13:33.0 14:0.857 15:0.833 16:33.0 23:1.0 
-1.0 0:0.971 1:0.967 2:0.311 3:0.279 4:0.283 5:0.267 6:0.0 7:1.0 8:0.059 9:22.0 10:0.846 11:22.0 12:0.459 13:36.0 14:0.846 15:0.827 16:38.0 23:1.0 
-1.0 0:0.961 1:0.964 2:0.319 3:0.046 4:0.152 5:0.146 6:0.0 7:1.0 8:0.05 9:26.0 10:0.897 11:26.0 12:0.453 13:39.0 14:0.862 15:0.897 16:41.0 23:1.0 
-1.0 0:0.969 1:0.964 2:0.326 3:0.187 4:0.33 5:0.367 6:0.0 7:1.0 8:0.067 9:24.0 10:0.889 11:24.0 12:0.426 13:39.0 14:0.889 15:0.87 16:39.0 23:1.0 
-1.0 0:0.981 1:0.983 2:0.28 3:0.283 4:0.329 5:0.331 6:0.0 7:1.0 8:0.067 9:18.0 10:1.0 11:18.0 12:0.0 13:30.0 14:0.833 15:1.0 16:30.0 23:1.0 
-1.0 0:0.962 1:0.96 2:0.265 3:0.15 4:0.212 5:0.26 6:0.0 7:1.0 8:0.067 9:24.0 10:0.889 11:24.0 12:0.426 13:39.0 14:0.889 15:0.87 16:39.0 23:1.0 
-1.0 0:0.959 1:0.951 2:0.283 3:0.132 4:0.279 5:0.341 6:0.0 7:1.0 8:0.059 9:27.0 10:1.0 11:27.0 12:0.364 13:39.0 14:0.889 15:1.0 16:39.0 23:1.0 
-1.0 0:0.544 1:0.606 2:0.166 3:0.0 4:0.078 5:0.131 6:0.0 7:1.0 8:0.059 9:25.0 10:0.893 11:25.0 12:0.425 13:40.0 14:0.893 15:0.875 16:40.0 23:1.0 
-1.0 0:0.951 1:0.956 2:0.283 3:0.033 4:0.068 5:0.087 6:0.0 7:1.0 8:0.056 9:25.0 10:0.893 11:25.0 12:0.425 13:40.0 14:0.893 15:0.875 16:40.0 23:1.0 
-1.0 0:0.962 1:0.955 2:0.309 3:0.147 4:0.283 5:0.338 6:0.0 7:1.0 8:0.056 9:21.0 10:0.875 11:21.0 12:0.431 13:36.0 14:0.875 15:0.854 16:36.0 23:1.0 
-1.0 0:0.969 1:0.969 2:0.328 3:0.369 4:0.287 5:0.274 6:0.0 7:2.0 8:0.105 9:25.0 10:0.893 11:25.0 12:0.455 13:38.0 14:0.857 15:0.875 16:40.0 23:1.0 
-1.0 0:0.946 1:0.939 2:0.295 3:0.194 4:0.3 5:0.352 6:0.0 7:1.0 8:0.063 9:26.0 10:0.867 11:26.0 12:0.452 13:40.0 14:0.867 15:0.85 16:42.0 23:1.0 
-0.037050984438246115 0:0.611 1:0.672 2:0.285 3:0.112 4:0.137 5:0.242 6:0.0 7:1.0 8:0.043 9:28.0 10:0.966 11:28.0 12:0.406 13:49.0 14:0.897 15:0.966 16:49.0 23:1.0 
-1.0 0:0.807 1:0.843 2:0.379 3:0.075 4:0.113 5:0.096 6:0.0 7:2.0 8:0.08 9:29.0 10:1.0 11:29.0 12:0.351 13:48.0 14:0.828 15:1.0 16:50.0 23:1.0 
-1.0 0:0.826 1:0.847 2:0.314 3:0.269 4:0.247 5:0.278 6:0.0 7:1.0 8:0.043 9:28.0 10:0.966 11:28.0 12:0.429 13:48.0 14:0.862 15:0.966 16:50.0 23:1.0 
-1.0 0:0.666 1:0.703 2:0.252 3:0.0 4:0.13 5:0.134 6:0.0 7:1.0 8:0.043 9:26.0 10:0.897 11:26.0 12:0.427 13:49.0 14:0.862 15:0.879 16:51.0 23:1.0 
-1.0 0:0.81 1:0.845 2:0.343 3:0.162 4:0.113 5:0.074 6:0.0 7:1.0 8:0.042 9:26.0 10:0.897 11:26.0 12:0.427 13:49.0 14:0.862 15:0.879 16:51.0 23:1.0 
-1.0 0:0.265 1:0.25 2:0.17 3:0.0 4:0.01 5:0.007 6:0.0 7:1.0 8:0.04 9:46.0 10:0.939 11:46.0 12:0.395 13:67.0 14:0.939 15:0.949 16:69.0 27:1.0 
-1.0 0:0.539 1:0.521 2:0.258 3:0.179 4:0.194 5:0.181 6:0.0 7:1.0 8:0.05 9:21.0 10:0.808 11:21.0 12:0.473 13:38.0 14:0.808 15:0.788 16:38.0 23:1.0 
-1.0 0:0.353 1:0.322 2:0.255 3:0.222 4:0.216 5:0.21 6:0.0 7:3.0 8:0.167 9:24.0 10:0.923 11:24.0 12:0.44 13:31.0 14:0.654 15:0.923 16:33.0 23:1.0 
-0.2935677767953254 0:0.902 1:0.91 2:0.994 3:0.928 4:0.945 5:0.978 6:0.0 7:1.0 8:0.05 9:31.0 10:0.912 11:31.0 12:0.295 13:51.0 14:0.912 15:0.912 16:51.0 23:1.0 
-1.0 0:0.557 1:0.577 2:0.364 3:0.127 4:0.138 5:0.226 6:0.0 7:1.0 8:0.063 9:25.0 10:0.962 11:25.0 12:0.301 13:43.0 14:0.846 15:0.962 16:47.0 22:1.0 
-1.0 0:0.885 1:0.902 2:0.534 3:0.183 4:0.232 5:0.295 6:0.0 7:2.0 8:0.118 9:26.0 10:0.963 11:26.0 12:0.438 13:43.0 14:0.852 15:0.963 16:43.0 17:1.0 
-0.5420256493620614 0:0.755 1:0.706 2:0.416 3:0.392 4:0.248 5:0.325 6:0.0 7:2.0 8:0.133 9:23.0 10:0.852 11:23.0 12:0.457 13:37.0 14:0.852 15:0.852 16:37.0 17:1.0 
-0.46597862800281864 0:0.732 1:0.702 2:0.39 3:0.0 4:0.0 5:0.162 6:0.0 7:1.0 8:0.043 9:25.0 10:0.926 11:25.0 12:0.513 13:38.0 14:0.741 15:0.926 16:44.0 17:1.0 
-1.0 0:0.909 1:0.92 2:0.522 3:0.243 4:0.389 5:0.401 6:0.0 7:2.0 8:0.118 9:23.0 10:0.852 11:23.0 12:0.478 13:37.0 14:0.815 15:0.852 16:39.0 17:1.0 
-1.0 0:0.703 1:0.691 2:0.419 3:0.0 4:0.257 5:0.268 6:0.0 7:3.0 8:0.214 9:25.0 10:0.926 11:25.0 12:0.539 13:36.0 14:0.704 15:0.926 16:42.0 17:1.0 
-1.0 0:0.758 1:0.71 2:0.484 3:0.322 4:0.269 5:0.296 6:0.0 7:2.0 8:0.118 9:27.0 10:0.964 11:27.0 12:0.455 13:45.0 14:0.821 15:0.964 16:47.0 17:1.0 
-1.0 0:0.804 1:0.749 2:0.65 3:0.143 4:0.129 5:0.312 6:0.0 7:2.0 8:0.125 9:23.0 10:0.958 11:23.0 12:0.463 13:34.0 14:0.833 15:0.958 16:34.0 17:1.0 
-0.0933434873325673 0:0.921 1:0.919 2:0.633 3:0.183 4:0.307 5:0.332 6:0.0 7:2.0 8:0.095 9:36.0 10:0.9 11:36.0 12:0.422 13:56.0 14:0.9 15:0.9 16:56.0 17:1.0 
-1.0 0:0.974 1:0.979 2:0.675 3:0.237 4:0.406 5:0.438 6:0.0 7:2.0 8:0.111 9:22.0 10:0.917 11:22.0 12:0.486 13:34.0 14:0.792 15:0.917 16:36.0 17:1.0 
-0.8559073554773264 0:0.743 1:0.727 2:0.578 3:0.0 4:0.268 5:0.303 6:0.0 7:2.0 8:0.125 9:22.0 10:0.88 11:22.0 12:0.442 13:41.0 14:0.84 15:0.88 16:41.0 17:1.0 
-1.0 0:0.826 1:0.775 2:0.712 3:0.235 4:0.362 5:0.369 6:0.0 7:2.0 8:0.111 9:24.0 10:0.857 11:24.0 12:0.488 13:40.0 14:0.786 15:0.857 16:44.0 17:1.0 
-0.4508210189558439 0:0.884 1:0.892 2:0.553 3:0.224 4:0.378 5:0.385 6:0.0 7:2.0 8:0.111 9:25.0 10:1.0 11:25.0 12:0.0 13:39.0 14:0.8 15:1.0 16:41.0 17:1.0 
-1.0 0:0.788 1:0.721 2:0.519 3:0.245 4:0.212 5:0.329 6:0.0 7:2.0 8:0.105 9:36.0 10:0.9 11:36.0 12:0.441 13:50.0 14:0.9 15:0.9 16:50.0 17:1.0 
-0.7870084999813434 0:0.827 1:0.765 2:0.565 3:0.191 4:0.217 5:0.345 6:0.0 7:2.0 8:0.125 9:17.0 10:0.85 11:17.0 12:0.474 13:30.0 14:0.8 15:0.85 16:30.0 17:1.0 
-1.0 0:0.693 1:0.594 2:0.579 3:0.253 4:0.15 5:0.274 6:0.0 7:2.0 8:0.125 9:25.0 10:0.893 11:25.0 12:0.485 13:36.0 14:0.821 15:0.893 16:38.0 17:1.0 
-1.0 0:0.749 1:0.699 2:0.487 3:0.24 4:0.242 5:0.327 6:0.0 7:2.0 8:0.125 9:24.0 10:0.96 11:24.0 12:0.365 13:35.0 14:0.84 15:0.96 16:35.0 17:1.0 
-1.0 0:0.773 1:0.737 2:0.327 3:0.041 4:0.02 5:0.139 6:0.0 7:2.0 8:0.087 9:21.0 10:0.84 11:21.0 12:0.483 13:35.0 14:0.8 15:0.84 16:39.0 17:1.0 
-0.25170810376834823 0:0.939 1:0.929 2:0.588 3:0.243 4:0.393 5:0.401 6:0.0 7:2.0 8:0.095 9:36.0 10:0.9 11:36.0 12:0.458 13:50.0 14:0.875 15:0.9 16:52.0 17:1.0 
-0.022328121404638735 0:0.761 1:0.723 2:0.506 3:0.0 4:0.339 5:0.285 6:0.0 7:2.0 8:0.105 9:36.0 10:0.9 11:36.0 12:0.442 13:55.0 14:0.875 15:0.9 16:57.0 17:1.0 
-0.4165591232274539 0:0.786 1:0.721 2:0.572 3:0.322 4:0.335 5:0.315 6:0.0 7:2.0 8:0.095 9:36.0 10:0.9 11:36.0 12:0.435 13:58.0 14:0.875 15:0.9 16:60.0 17:1.0 
-1.0 0:0.764 1:0.744 2:0.553 3:0.0 4:0.337 5:0.324 6:0.0 7:2.0 8:0.125 9:21.0 10:0.84 11:21.0 12:0.483 13:35.0 14:0.8 15:0.84 16:37.0 17:1.0 
-1.0 0:0.848 1:0.792 2:0.684 3:0.508 4:0.455 5:0.443 6:0.0 7:3.0 8:0.176 9:24.0 10:0.857 11:24.0 12:0.338 13:40.0 14:0.857 15:0.857 16:38.0 17:1.0 
-1.0 0:0.903 1:0.907 2:0.506 3:0.397 4:0.427 5:0.404 6:0.0 7:2.0 8:0.111 9:25.0 10:1.0 11:25.0 12:0.0 13:37.0 14:0.84 15:1.0 16:37.0 17:1.0 
-1.0 0:0.636 1:0.574 2:0.547 3:0.0 4:0.311 5:0.262 6:0.0 7:2.0 8:0.125 9:24.0 10:0.857 11:24.0 12:0.46 13:43.0 14:0.821 15:0.857 16:45.0 17:1.0 
-1.0 0:0.743 1:0.692 2:0.496 3:0.451 4:0.388 5:0.336 6:0.0 7:2.0 8:0.111 9:28.0 10:1.0 11:28.0 12:0.298 13:45.0 14:0.857 15:1.0 16:45.0 17:1.0 
-1.0 0:0.883 1:0.858 2:0.49 3:0.395 4:0.261 5:0.328 6:0.0 7:2.0 8:0.2 9:16.0 10:0.941 11:16.0 12:0.396 13:26.0 14:0.765 15:0.941 16:26.0 18:1.0 
-0.5189085189244724 0:0.846 1:0.838 2:0.499 3:0.151 4:0.316 5:0.323 6:0.0 7:1.0 8:0.077 9:20.0 10:0.952 11:20.0 12:0.329 13:34.0 14:0.905 15:0.952 16:34.0 18:1.0 
-1.0 0:0.626 1:0.614 2:0.38 3:0.138 4:0.303 5:0.337 6:0.0 7:2.0 8:0.154 9:18.0 10:0.818 11:18.0 12:0.431 13:29.0 14:0.773 15:0.818 16:31.0 18:1.0 
-1.0 0:0.679 1:0.677 2:0.383 3:0.1 4:0.129 5:0.241 6:0.0 7:2.0 8:0.133 9:21.0 10:0.955 11:21.0 12:0.507 13:29.0 14:0.773 15:0.955 16:31.0 18:1.0 
-0.06330713706194967 0:0.945 1:0.956 2:0.55 3:0.0 4:0.156 5:0.256 6:0.0 7:2.0 8:0.133 9:23.0 10:0.958 11:23.0 12:0.393 13:37.0 14:0.792 15:0.979 16:39.0 21:1.0 
-1.0 0:0.918 1:0.898 2:0.52 3:0.0 4:0.173 5:0.213 6:0.0 7:2.0 8:0.143 9:17.0 10:0.708 11:17.0 12:0.506 13:29.0 14:0.708 15:0.729 16:35.0 21:1.0 
-1.0 0:0.98 1:0.963 2:0.482 3:0.09 4:0.136 5:0.19 6:0.0 7:2.0 8:0.133 9:24.0 10:0.96 11:24.0 12:0.469 13:39.0 14:0.8 15:0.98 16:41.0 21:1.0 
-1.0 0:0.871 1:0.86 2:0.561 3:0.114 4:0.226 5:0.235 6:0.0 7:2.0 8:0.182 9:21.0 10:0.913 11:21.0 12:0.494 13:32.0 14:0.783 15:0.935 16:34.0 21:1.0 
-1.0 0:0.929 1:0.923 2:0.46 3:0.1 4:0.213 5:0.241 6:0.0 7:2.0 8:0.167 9:22.0 10:0.88 11:22.0 12:0.431 13:32.0 14:0.68 15:0.9 16:38.0 21:1.0 
-1.0 0:0.903 1:0.863 2:0.64 3:0.119 4:0.157 5:0.266 6:0.0 7:3.0 8:0.231 9:23.0 10:1.0 11:23.0 12:0.404 13:32.0 14:0.739 15:1.0 16:34.0 21:1.0 
-1.0 0:0.899 1:0.861 2:0.462 3:0.125 4:0.214 5:0.314 6:0.0 7:2.0 8:0.182 9:21.0 10:0.84 11:21.0 12:0.519 13:32.0 14:0.76 15:0.86 16:36.0 21:1.0 
-1.0 0:0.408 1:0.357 2:0.585 3:0.248 4:0.114 5:0.146 6:0.0 7:1.0 8:0.059 9:27.0 10:1.0 11:27.0 12:0.0 13:44.0 14:0.926 15:1.0 16:44.0 21:1.0 
-1.0 0:0.979 1:0.972 2:0.435 3:0.196 4:0.223 5:0.267 6:0.0 7:3.0 8:0.231 9:20.0 10:0.8 11:20.0 12:0.509 13:34.0 14:0.76 15:0.8 16:36.0 21:1.0 
-1.0 0:0.555 1:0.554 2:0.22 3:0.174 4:0.203 5:0.191 6:0.0 7:1.0 8:0.067 9:21.0 10:0.913 11:21.0 12:0.424 13:38.0 14:0.87 15:0.913 16:40.0 25:1.0 
-1.0 0:0.481 1:0.478 2:0.406 3:0.098 4:0.098 5:0.191 6:0.0 7:3.0 8:0.2 9:26.0 10:0.963 11:26.0 12:0.346 13:36.0 14:0.815 15:0.963 16:34.0 25:1.0 
-1.0 0:0.461 1:0.458 2:0.536 3:0.066 4:0.169 5:0.231 6:0.0 7:1.0 8:0.083 9:20.0 10:0.909 11:20.0 12:0.53 13:29.0 14:0.727 15:0.932 16:35.0 25:1.0 
-1.0 0:0.456 1:0.484 2:0.551 3:0.082 4:0.196 5:0.195 6:0.0 7:3.0 8:0.214 9:22.0 10:1.0 11:22.0 12:0.364 13:36.0 14:0.818 15:1.0 16:36.0 25:1.0 
-1.0 0:0.448 1:0.462 2:0.522 3:0.09 4:0.11 5:0.288 6:0.0 7:2.0 8:0.118 9:27.0 10:1.0 11:27.0 12:0.443 13:41.0 14:0.852 15:1.0 16:41.0 25:1.0 
-1.0 0:0.37 1:0.392 2:0.279 3:0.087 4:0.089 5:0.213 6:0.0 7:1.0 8:0.056 9:25.0 10:0.926 11:25.0 12:0.387 13:46.0 14:0.926 15:0.926 16:46.0 25:1.0 
-1.0 0:0.936 1:0.935 2:0.426 3:0.088 4:0.181 5:0.212 6:0.0 7:1.0 8:0.077 9:22.0 10:0.957 11:22.0 12:0.311 13:39.0 14:0.87 15:0.957 16:41.0 25:1.0 
-1.0 0:0.328 1:0.577 2:0.196 3:0.04 4:0.046 5:0.1 6:0.0 7:1.0 8:0.077 9:19.0 10:0.826 11:19.0 12:0.434 13:27.0 14:0.739 15:0.87 16:33.0 21:1.0 
-1.0 0:0.248 1:0.462 2:0.435 3:0.302 4:0.278 5:0.311 6:0.0 7:1.0 8:0.071 9:25.0 10:0.962 11:25.0 12:0.276 13:41.0 14:0.846 15:0.962 16:45.0 21:1.0 
-1.0 0:0.089 1:0.126 2:0.238 3:0.0 4:0.024 5:0.052 6:0.0 7:1.0 8:0.091 9:19.0 10:0.95 11:19.0 12:0.46 13:27.0 14:0.85 15:0.95 16:29.0 17:1.0 
-0.6492442288163913 0:0.355 1:0.526 2:0.2 3:0.062 4:0.1 5:0.118 6:0.0 7:1.0 8:0.077 9:23.0 10:0.958 11:23.0 12:0.398 13:29.0 14:0.833 15:0.958 16:33.0 17:1.0 
-0.5965504595166193 0:0.033 1:0.075 2:0.173 3:0.075 4:0.057 5:0.067 6:0.0 7:1.0 8:0.083 9:21.0 10:0.875 11:21.0 12:0.341 13:31.0 14:0.875 15:0.875 16:33.0 17:1.0 
-1.0 0:0.186 1:0.284 2:0.224 3:0.0 4:0.032 5:0.027 6:0.0 7:1.0 8:0.111 9:16.0 10:0.842 11:16.0 12:0.463 13:26.0 14:0.842 15:0.842 16:28.0 17:1.0 
-0.3181470311274213 0:0.264 1:0.501 2:0.334 3:0.122 4:0.095 5:0.208 6:0.0 7:1.0 8:0.063 9:26.0 10:0.963 11:26.0 12:0.301 13:45.0 14:0.889 15:0.963 16:47.0 17:1.0 
-1.0 0:0.868 1:0.927 2:0.41 3:0.0 4:0.0 5:0.093 6:0.0 7:1.0 8:0.048 9:30.0 10:0.857 11:30.0 12:0.398 13:45.0 14:0.857 15:0.871 16:51.0 40:1.0 
-1.0 0:0.907 1:0.951 2:0.571 3:0.0 4:0.025 5:0.104 6:0.0 7:2.0 8:0.1 9:22.0 10:0.917 11:22.0 12:0.372 13:38.0 14:0.875 15:0.917 16:40.0 40:1.0 
-1.0 0:0.892 1:0.944 2:0.576 3:0.0 4:0.025 5:0.105 6:0.0 7:2.0 8:0.111 9:18.0 10:0.9 11:18.0 12:0.433 13:34.0 14:0.85 15:0.875 16:36.0 40:1.0 
-1.0 0:0.175 1:0.17 2:0.103 3:0.025 4:0.023 5:0.018 6:0.0 7:1.0 8:0.053 9:29.0 10:0.906 11:29.0 12:0.427 13:42.0 14:0.906 15:0.906 16:44.0 26:1.0 
-1.0 0:0.22 1:0.197 2:0.083 3:0.0 4:0.0 5:0.0 6:0.0 7:2.0 8:0.095 9:25.0 10:0.926 11:25.0 12:0.436 13:44.0 14:0.852 15:0.907 16:48.0 17:1.0 
-0.23908701825749903 0:0.321 1:0.31 2:0.208 3:0.059 4:0.064 5:0.041 6:0.0 7:1.0 8:0.048 9:26.0 10:0.897 11:26.0 12:0.446 13:41.0 14:0.862 15:0.897 16:45.0 18:1.0 
-1.0 0:0.214 1:0.196 2:0.176 3:0.036 4:0.069 5:0.108 6:0.0 7:1.0 8:0.048 9:26.0 10:1.0 11:26.0 12:0.368 13:38.0 14:0.846 15:1.0 16:44.0 18:1.0 
