svm_type c_svc
kernel_type rbf
gamma 0.022727272727272728
nr_class 2
total_sv 4062
rho -0.2888660629535847
label 1 -1
nr_sv 1918 2144
SV
1.1 0:0.13 1:0.16 2:0.096 3:0.0 4:0.017 5:0.014 6:0.102 7:1.0 8:0.053 9:25.0 10:0.926 11:25.0 12:0.453 13:38.0 14:0.852 15:0.926 16:40.0 23:1.0 
1.1 0:0.02 1:0.025 2:0.37 3:0.0 4:0.066 5:0.132 6:0.0 7:0.0 8:0.0 9:22.0 10:1.0 11:22.0 12:0.364 13:37.0 14:0.864 15:1.0 16:37.0 17:1.0 
1.1 0:0.103 1:0.212 2:0.127 3:0.067 4:0.03 5:0.061 6:0.0 7:0.0 8:0.0 9:16.0 10:1.0 11:16.0 12:0.0 13:27.0 14:1.0 15:1.0 16:25.0 22:1.0 
1.1 0:0.068 1:0.095 2:0.245 3:0.136 4:0.101 5:0.162 6:0.112 7:1.0 8:0.059 9:23.0 10:0.958 11:23.0 12:0.314 13:34.0 14:0.792 15:0.938 16:34.0 18:1.0 
1.1 0:0.028 1:0.066 2:0.131 3:0.167 4:0.11 5:0.156 6:0.191 7:2.0 8:0.105 9:29.0 10:1.0 11:29.0 12:0.433 13:46.0 14:0.862 15:1.0 16:46.0 22:1.0 
1.1 0:0.264 1:0.363 2:0.274 3:0.079 4:0.174 5:0.201 6:0.0 7:0.0 8:0.0 9:25.0 10:0.962 11:25.0 12:0.387 13:46.0 14:0.923 15:0.962 16:48.0 22:1.0 
1.1 0:0.148 1:0.252 2:0.371 3:0.157 4:0.137 5:0.134 6:0.0 7:0.0 8:0.0 9:22.0 10:0.917 11:22.0 12:0.409 13:34.0 14:0.917 15:0.917 16:34.0 22:1.0 
0.8086040185537442 0:0.071 1:0.081 2:0.251 3:0.0 4:0.201 5:0.184 6:0.213 7:2.0 8:0.118 9:23.0 10:0.885 11:23.0 12:0.386 13:38.0 14:0.808 15:0.885 16:40.0 22:1.0 
1.1 0:0.065 1:0.094 2:0.161 3:0.167 4:0.163 5:0.108 6:0.0 7:0.0 8:0.0 9:24.0 10:1.0 11:24.0 12:0.389 13:44.0 14:0.917 15:1.0 16:46.0 21:1.0 
0.4649608288249141 0:0.309 1:0.345 2:0.302 3:0.036 4:0.224 5:0.307 6:0.0 7:0.0 8:0.0 9:24.0 10:0.923 11:24.0 12:0.44 13:42.0 14:0.846 15:0.923 16:48.0 17:1.0 
1.1 0:0.13 1:0.221 2:0.17 3:0.044 4:0.036 5:0.028 6:0.075 7:1.0 8:0.05 9:36.0 10:1.0 11:36.0 12:0.381 13:55.0 14:0.944 15:1.0 16:55.0 22:1.0 
1.1 0:0.206 1:0.195 2:0.1 3:0.151 4:0.14 5:0.163 6:0.0 7:0.0 8:0.0 9:33.0 10:1.0 11:33.0 12:0.0 13:55.0 14:1.0 15:1.0 16:53.0 17:1.0 
1.1 0:0.0 1:0.0 2:0.033 3:0.0 4:0.029 5:0.025 6:0.0 7:0.0 8:0.0 9:23.0 10:1.0 11:23.0 12:0.0 13:41.0 14:1.0 15:1.0 16:39.0 23:1.0 
1.1 0:0.021 1:0.047 2:0.093 3:0.0 4:0.0 5:0.072 6:0.0 7:0.0 8:0.0 9:14.0 10:1.0 11:14.0 12:0.0 13:28.0 14:1.0 15:1.0 16:26.0 22:1.0 
1.1 0:0.198 1:0.172 2:0.139 3:0.0 4:0.0 5:0.0 6:0.0 7:0.0 8:0.0 9:17.0 10:0.944 11:17.0 12:0.448 13:29.0 14:0.833 15:0.944 16:33.0 18:1.0 
1.1 0:0.338 1:0.481 2:0.198 3:0.085 4:0.128 5:0.25 6:0.0 7:0.0 8:0.0 9:21.0 10:1.0 11:21.0 12:0.0 13:39.0 14:0.952 15:1.0 16:39.0 17:1.0 
1.1 0:0.0 1:0.0 2:0.111 3:0.0 4:0.02 5:0.03 6:0.0 7:0.0 8:0.0 9:18.0 10:1.0 11:18.0 12:0.0 13:34.0 14:1.0 15:1.0 16:32.0 17:1.0 
1.1 0:0.133 1:0.196 2:0.171 3:0.0 4:0.0 5:0.019 6:0.167 7:2.0 8:0.105 9:22.0 10:0.88 11:22.0 12:0.406 13:38.0 14:0.8 15:0.9 16:42.0 22:1.0 
1.1 0:0.175 1:0.182 2:0.02 3:0.0 4:0.0 5:0.038 6:0.0 7:0.0 8:0.0 9:18.0 10:1.0 11:18.0 12:0.0 13:35.0 14:1.0 15:1.0 16:33.0 17:1.0 
1.1 0:0.446 1:0.468 2:0.49 3:0.04 4:0.116 5:0.099 6:0.072 7:1.0 8:0.037 9:32.0 10:0.889 11:32.0 12:0.42 13:49.0 14:0.861 15:0.875 16:51.0 20:1.0 
1.1 0:0.021 1:0.041 2:0.068 3:0.0 4:0.11 5:0.079 6:0.183 7:1.0 8:0.1 9:16.0 10:0.941 11:16.0 12:0.495 13:25.0 14:0.765 15:0.941 16:25.0 22:1.0 
1.1 0:0.038 1:0.083 2:0.221 3:0.0 4:0.0 5:0.053 6:0.123 7:1.0 8:0.063 9:28.0 10:0.966 11:28.0 12:0.341 13:40.0 14:0.862 15:0.966 16:44.0 23:1.0 
1.1 0:0.146 1:0.259 2:0.2 3:0.196 4:0.181 5:0.174 6:0.125 7:1.0 8:0.067 9:23.0 10:0.92 11:23.0 12:0.29 13:38.0 14:0.88 15:0.94 16:40.0 23:1.0 
1.1 0:0.187 1:0.209 2:0.375 3:0.0 4:0.0 5:0.24 6:0.129 7:1.0 8:0.037 9:29.0 10:0.967 11:29.0 12:0.411 13:48.0 14:0.8 15:0.967 16:56.0 20:1.0 
1.1 0:0.252 1:0.459 2:0.222 3:0.0 4:0.0 5:0.06 6:0.109 7:1.0 8:0.056 9:28.0 10:1.0 11:28.0 12:0.413 13:45.0 14:0.893 15:1.0 16:47.0 22:1.0 
1.1 0:0.664 1:0.703 2:0.229 3:0.046 4:0.139 5:0.174 6:0.079 7:1.0 8:0.048 9:40.0 10:0.93 11:40.0 12:0.355 13:55.0 14:0.93 15:0.93 16:55.0 23:1.0 
1.1 0:0.174 1:0.213 2:0.119 3:0.0 4:0.152 5:0.226 6:0.0 7:0.0 8:0.0 9:22.0 10:1.0 11:22.0 12:0.364 13:41.0 14:0.955 15:1.0 16:41.0 24:1.0 
1.1 0:0.297 1:0.362 2:0.413 3:0.0 4:0.0 5:0.034 6:0.167 7:2.0 8:0.091 9:31.0 10:1.0 11:31.0 12:0.46 13:44.0 14:0.839 15:1.0 16:44.0 20:1.0 
1.1 0:0.297 1:0.362 2:0.413 3:0.0 4:0.0 5:0.034 6:0.167 7:2.0 8:0.091 9:31.0 10:1.0 11:31.0 12:0.46 13:44.0 14:0.839 15:1.0 16:44.0 20:1.0 
1.1 0:0.038 1:0.102 2:0.288 3:0.0 4:0.0 5:0.0 6:0.0 7:0.0 8:0.0 9:24.0 10:1.0 11:24.0 12:0.0 13:43.0 14:0.958 15:1.0 16:43.0 21:1.0 
1.1 0:0.077 1:0.078 2:0.326 3:0.027 4:0.068 5:0.063 6:0.105 7:1.0 8:0.056 9:24.0 10:1.0 11:24.0 12:0.42 13:40.0 14:0.875 15:1.0 16:42.0 24:1.0 
1.1 0:0.17 1:0.256 2:0.452 3:0.276 4:0.326 5:0.311 6:0.123 7:1.0 8:0.037 9:35.0 10:0.921 11:35.0 12:0.403 13:55.0 14:0.921 15:0.921 16:57.0 22:1.0 
1.1 0:0.211 1:0.166 2:0.157 3:0.0 4:0.167 5:0.125 6:0.2 7:2.0 8:0.111 9:24.0 10:0.923 11:24.0 12:0.44 13:42.0 14:0.846 15:0.904 16:44.0 22:1.0 
1.1 0:0.697 1:0.656 2:0.299 3:0.075 4:0.067 5:0.052 6:0.0 7:0.0 8:0.0 9:21.0 10:0.955 11:21.0 12:0.376 13:32.0 14:0.955 15:0.955 16:32.0 25:1.0 
1.1 0:0.434 1:0.494 2:0.115 3:0.077 4:0.098 5:0.104 6:0.071 7:1.0 8:0.045 9:40.0 10:0.952 11:40.0 12:0.381 13:59.0 14:0.952 15:0.952 16:59.0 24:1.0 
0.8423717400417978 0:0.794 1:0.768 2:0.378 3:0.0 4:0.0 5:0.17 6:0.0 7:0.0 8:0.0 9:17.0 10:0.895 11:17.0 12:0.42 13:28.0 14:0.895 15:0.895 16:28.0 17:1.0 
1.1 0:0.282 1:0.271 2:0.217 3:0.315 4:0.375 5:0.294 6:0.083 7:1.0 8:0.043 9:23.0 10:1.0 11:23.0 12:0.362 13:42.0 14:0.913 15:1.0 16:42.0 22:1.0 
1.1 0:0.148 1:0.156 2:0.204 3:0.047 4:0.089 5:0.093 6:0.089 7:1.0 8:0.053 9:25.0 10:0.926 11:25.0 12:0.387 13:42.0 14:0.852 15:0.926 16:44.0 25:1.0 
1.1 0:0.158 1:0.273 2:0.436 3:0.294 4:0.394 5:0.38 6:0.0 7:0.0 8:0.0 9:24.0 10:1.0 11:24.0 12:0.0 13:46.0 14:0.958 15:1.0 16:46.0 22:1.0 
0.4485367005986858 0:0.717 1:0.738 2:0.537 3:0.21 4:0.181 5:0.19 6:0.0 7:0.0 8:0.0 9:27.0 10:0.931 11:27.0 12:0.327 13:45.0 14:0.897 15:0.931 16:45.0 22:1.0 
1.1 0:0.109 1:0.097 2:0.464 3:0.101 4:0.1 5:0.099 6:0.086 7:1.0 8:0.042 9:36.0 10:0.923 11:36.0 12:0.434 13:51.0 14:0.897 15:0.923 16:51.0 20:1.0 
1.1 0:0.0 1:0.0 2:0.121 3:0.0 4:0.041 5:0.036 6:0.135 7:1.0 8:0.083 9:23.0 10:0.767 11:23.0 12:0.528 13:36.0 14:0.767 15:0.75 16:36.0 23:1.0 
0.35446057331439673 0:0.1 1:0.11 2:0.291 3:0.495 4:0.501 5:0.56 6:0.359 7:2.0 8:0.143 9:31.0 10:0.795 11:31.0 12:0.631 13:35.0 14:0.718 15:0.821 16:43.0 25:1.0 
1.1 0:0.183 1:0.196 2:0.233 3:0.052 4:0.067 5:0.101 6:0.143 7:1.0 8:0.077 9:21.0 10:1.0 11:21.0 12:0.41 13:32.0 14:0.905 15:1.0 16:32.0 20:1.0 
1.1 0:0.007 1:0.006 2:0.039 3:0.0 4:0.014 5:0.075 6:0.0 7:0.0 8:0.0 9:17.0 10:1.0 11:17.0 12:0.0 13:31.0 14:0.941 15:1.0 16:31.0 17:1.0 
1.1 0:0.207 1:0.261 2:0.415 3:0.263 4:0.294 5:0.225 6:0.0 7:0.0 8:0.0 9:23.0 10:1.0 11:23.0 12:0.226 13:43.0 14:0.957 15:1.0 16:43.0 24:1.0 
1.1 0:0.392 1:0.464 2:0.165 3:0.04 4:0.025 5:0.047 6:0.0 7:0.0 8:0.0 9:15.0 10:1.0 11:15.0 12:0.425 13:23.0 14:0.8 15:1.0 16:25.0 33:1.0 
1.1 0:0.22 1:0.332 2:0.118 3:0.0 4:0.124 5:0.07 6:0.144 7:1.0 8:0.077 9:23.0 10:1.0 11:23.0 12:0.0 13:32.0 14:0.913 15:1.0 16:32.0 21:1.0 
1.1 0:0.019 1:0.064 2:0.15 3:0.0 4:0.0 5:0.065 6:0.126 7:1.0 8:0.067 9:19.0 10:0.905 11:19.0 12:0.407 13:33.0 14:0.905 15:0.905 16:33.0 21:1.0 
1.1 0:0.029 1:0.063 2:0.153 3:0.0 4:0.0 5:0.042 6:0.0 7:0.0 8:0.0 9:28.0 10:1.0 11:28.0 12:0.0 13:52.0 14:1.0 15:1.0 16:50.0 24:1.0 
1.1 0:0.076 1:0.147 2:0.102 3:0.167 4:0.138 5:0.135 6:0.0 7:0.0 8:0.0 9:35.0 10:1.0 11:35.0 12:0.0 13:46.0 14:0.971 15:1.0 16:46.0 22:1.0 
1.1 0:0.035 1:0.049 2:0.133 3:0.0 4:0.073 5:0.052 6:0.0 7:0.0 8:0.0 9:31.0 10:1.0 11:31.0 12:0.22 13:48.0 14:0.935 15:1.0 16:50.0 17:1.0 
1.1 0:0.002 1:0.001 2:0.062 3:0.0 4:0.015 5:0.008 6:0.0 7:0.0 8:0.0 9:22.0 10:1.0 11:22.0 12:0.0 13:43.0 14:1.0 15:1.0 16:41.0 31:1.0 
1.1 0:0.287 1:0.379 2:0.138 3:0.229 4:0.21 5:0.14 6:0.0 7:0.0 8:0.0 9:29.0 10:1.0 11:29.0 12:0.36 13:49.0 14:0.966 15:1.0 16:49.0 20:1.0 
1.1 0:0.0 1:0.0 2:0.189 3:0.066 4:0.056 5:0.029 6:0.111 7:1.0 8:0.059 9:18.0 10:0.857 11:18.0 12:0.437 13:33.0 14:0.857 15:0.833 16:35.0 17:1.0 
1.1 0:0.077 1:0.122 2:0.174 3:0.025 4:0.027 5:0.058 6:0.167 7:2.0 8:0.091 9:27.0 10:0.9 11:27.0 12:0.317 13:49.0 14:0.867 15:0.9 16:51.0 22:1.0 
1.1 0:0.014 1:0.022 2:0.195 3:0.0 4:0.196 5:0.16 6:0.0 7:0.0 8:0.0 9:19.0 10:1.0 11:19.0 12:0.0 13:30.0 14:1.0 15:1.0 16:28.0 38:1.0 
1.1 0:0.221 1:0.351 2:0.301 3:0.26 4:0.223 5:0.268 6:0.0 7:0.0 8:0.0 9:24.0 10:1.0 11:24.0 12:0.0 13:44.0 14:1.0 15:1.0 16:42.0 21:1.0 
1.1 0:0.156 1:0.37 2:0.304 3:0.043 4:0.072 5:0.049 6:0.092 7:1.0 8:0.048 9:26.0 10:0.963 11:26.0 12:0.412 13:45.0 14:0.889 15:0.981 16:49.0 22:1.0 
0.7022976628278028 0:0.018 1:0.024 2:0.131 3:0.044 4:0.067 5:0.046 6:0.125 7:1.0 8:0.067 9:21.0 10:0.808 11:21.0 12:0.505 13:36.0 14:0.731 15:0.808 16:42.0 25:1.0 
1.1 0:0.227 1:0.285 2:0.331 3:0.389 4:0.226 5:0.215 6:0.0 7:0.0 8:0.0 9:27.0 10:1.0 11:27.0 12:0.358 13:49.0 14:0.926 15:1.0 16:49.0 22:1.0 
1.1 0:0.067 1:0.095 2:0.068 3:0.0 4:0.0 5:0.0 6:0.0 7:0.0 8:0.0 9:43.0 10:1.0 11:43.0 12:0.0 13:64.0 14:1.0 15:1.0 16:62.0 17:1.0 
1.1 0:0.146 1:0.283 2:0.127 3:0.035 4:0.057 5:0.051 6:0.096 7:1.0 8:0.05 9:35.0 10:1.0 11:35.0 12:0.383 13:53.0 14:0.943 15:1.0 16:53.0 22:1.0 
1.1 0:0.038 1:0.083 2:0.221 3:0.0 4:0.0 5:0.053 6:0.123 7:1.0 8:0.063 9:28.0 10:0.966 11:28.0 12:0.341 13:40.0 14:0.862 15:0.966 16:44.0 23:1.0 
1.1 0:0.32 1:0.394 2:0.242 3:0.081 4:0.068 5:0.092 6:0.0 7:0.0 8:0.0 9:21.0 10:1.0 11:21.0 12:0.398 13:35.0 14:0.857 15:1.0 16:39.0 24:1.0 
1.1 0:0.359 1:0.4 2:0.171 3:0.0 4:0.015 5:0.008 6:0.0 7:0.0 8:0.0 9:33.0 10:1.0 11:33.0 12:0.213 13:55.0 14:0.939 15:1.0 16:57.0 17:1.0 
1.1 0:0.039 1:0.072 2:0.117 3:0.0 4:0.0 5:0.021 6:0.0 7:0.0 8:0.0 9:27.0 10:1.0 11:27.0 12:0.0 13:50.0 14:1.0 15:1.0 16:48.0 17:1.0 
1.1 0:0.001 1:0.004 2:0.255 3:0.0 4:0.068 5:0.117 6:0.0 7:0.0 8:0.0 9:26.0 10:0.963 11:26.0 12:0.388 13:45.0 14:0.926 15:0.963 16:47.0 17:1.0 
1.1 0:0.077 1:0.122 2:0.372 3:0.111 4:0.158 5:0.188 6:0.095 7:1.0 8:0.059 9:24.0 10:0.96 11:24.0 12:0.364 13:41.0 14:0.88 15:0.96 16:43.0 20:1.0 
1.1 0:0.147 1:0.136 2:0.135 3:0.0 4:0.0 5:0.0 6:0.191 7:2.0 8:0.105 9:24.0 10:1.0 11:24.0 12:0.425 13:38.0 14:0.875 15:1.0 16:40.0 18:1.0 
0.10559376285736906 0:0.365 1:0.541 2:0.205 3:0.272 4:0.297 5:0.463 6:0.516 7:6.0 8:0.333 9:39.0 10:0.848 11:39.0 12:0.589 13:49.0 14:0.804 15:0.87 16:47.0 17:1.0 
1.1 0:0.183 1:0.227 2:0.239 3:0.113 4:0.245 5:0.151 6:0.0 7:0.0 8:0.0 9:21.0 10:0.84 11:21.0 12:0.473 13:36.0 14:0.76 15:0.84 16:40.0 17:1.0 
1.1 0:0.167 1:0.237 2:0.153 3:0.0 4:0.0 5:0.0 6:0.0 7:0.0 8:0.0 9:42.0 10:0.977 11:42.0 12:0.404 13:51.0 14:0.953 15:0.977 16:53.0 18:1.0 
1.1 0:0.202 1:0.247 2:0.372 3:0.201 4:0.096 5:0.153 6:0.0 7:0.0 8:0.0 9:25.0 10:1.0 11:25.0 12:0.4 13:42.0 14:0.84 15:1.0 16:46.0 20:1.0 
1.1 0:0.252 1:0.459 2:0.222 3:0.0 4:0.0 5:0.06 6:0.109 7:1.0 8:0.056 9:28.0 10:1.0 11:28.0 12:0.413 13:45.0 14:0.893 15:1.0 16:47.0 22:1.0 
1.1 0:0.127 1:0.164 2:0.146 3:0.0 4:0.0 5:0.017 6:0.183 7:2.0 8:0.1 9:26.0 10:0.929 11:26.0 12:0.368 13:43.0 14:0.786 15:0.946 16:47.0 23:1.0 
1.1 0:0.046 1:0.083 2:0.146 3:0.039 4:0.051 5:0.107 6:0.0 7:0.0 8:0.0 9:22.0 10:0.957 11:22.0 12:0.396 13:39.0 14:0.913 15:0.935 16:41.0 17:1.0 
1.1 0:0.035 1:0.128 2:0.268 3:0.113 4:0.082 5:0.209 6:0.0 7:0.0 8:0.0 9:26.0 10:1.0 11:26.0 12:0.361 13:45.0 14:0.923 15:1.0 16:47.0 21:1.0 
1.1 0:0.252 1:0.273 2:0.254 3:0.255 4:0.169 5:0.195 6:0.077 7:1.0 8:0.045 9:26.0 10:0.963 11:26.0 12:0.409 13:47.0 14:0.889 15:0.963 16:49.0 22:1.0 
1.1 0:0.088 1:0.33 2:0.229 3:0.2 4:0.183 5:0.287 6:0.0 7:0.0 8:0.0 9:23.0 10:1.0 11:23.0 12:0.0 13:35.0 14:1.0 15:1.0 16:33.0 19:1.0 
1.1 0:0.565 1:0.679 2:0.281 3:0.0 4:0.0 5:0.0 6:0.0 7:0.0 8:0.0 9:34.0 10:1.0 11:34.0 12:0.422 13:53.0 14:0.882 15:1.0 16:55.0 20:1.0 
1.1 0:0.288 1:0.287 2:0.287 3:0.099 4:0.073 5:0.092 6:0.0 7:0.0 8:0.0 9:27.0 10:0.964 11:27.0 12:0.369 13:40.0 14:0.964 15:0.964 16:40.0 23:1.0 
1.1 0:0.01 1:0.026 2:0.201 3:0.0 4:0.016 5:0.012 6:0.0 7:0.0 8:0.0 9:14.0 10:1.0 11:14.0 12:0.0 13:22.0 14:1.0 15:1.0 16:20.0 22:1.0 
1.1 0:0.061 1:0.111 2:0.157 3:0.041 4:0.035 5:0.058 6:0.178 7:2.0 8:0.095 9:34.0 10:1.0 11:34.0 12:0.386 13:50.0 14:0.941 15:1.0 16:48.0 20:1.0 
1.1 0:0.047 1:0.052 2:0.209 3:0.101 4:0.057 5:0.033 6:0.189 7:1.0 8:0.1 9:19.0 10:0.95 11:19.0 12:0.372 13:29.0 14:0.85 15:0.975 16:31.0 22:1.0 
1.1 0:0.206 1:0.265 2:0.414 3:0.0 4:0.0 5:0.0 6:0.112 7:1.0 8:0.059 9:30.0 10:1.0 11:30.0 12:0.342 13:50.0 14:0.867 15:1.0 16:52.0 22:1.0 
1.1 0:0.029 1:0.041 2:0.171 3:0.088 4:0.112 5:0.182 6:0.1 7:1.0 8:0.053 9:18.0 10:0.9 11:18.0 12:0.436 13:33.0 14:0.85 15:0.875 16:35.0 37:1.0 
1.1 0:0.013 1:0.012 2:0.13 3:0.068 4:0.134 5:0.115 6:0.096 7:1.0 8:0.05 9:22.0 10:1.0 11:22.0 12:0.365 13:38.0 14:0.909 15:1.0 16:38.0 22:1.0 
0.430533285583823 0:0.118 1:0.131 2:0.129 3:0.055 4:0.037 5:0.075 6:0.267 7:2.0 8:0.154 9:23.0 10:1.0 11:23.0 12:0.427 13:37.0 14:0.87 15:1.0 16:33.0 22:1.0 
1.1 0:0.0 1:0.0 2:0.038 3:0.0 4:0.0 5:0.0 6:0.0 7:0.0 8:0.0 9:21.0 10:1.0 11:21.0 12:0.366 13:39.0 14:0.952 15:1.0 16:39.0 25:1.0 
1.1 0:0.161 1:0.257 2:0.141 3:0.101 4:0.111 5:0.104 6:0.0 7:0.0 8:0.0 9:23.0 10:0.958 11:23.0 12:0.371 13:36.0 14:0.958 15:0.958 16:36.0 22:1.0 
1.1 0:0.019 1:0.032 2:0.157 3:0.0 4:0.089 5:0.079 6:0.074 7:1.0 8:0.038 9:26.0 10:1.0 11:26.0 12:0.36 13:48.0 14:0.962 15:1.0 16:48.0 20:1.0 
1.1 0:0.042 1:0.12 2:0.231 3:0.138 4:0.13 5:0.176 6:0.0 7:0.0 8:0.0 9:20.0 10:1.0 11:20.0 12:0.0 13:36.0 14:1.0 15:1.0 16:34.0 21:1.0 
1.0901916439427242 0:0.258 1:0.286 2:0.182 3:0.0 4:0.106 5:0.105 6:0.112 7:1.0 8:0.059 9:19.0 10:0.864 11:19.0 12:0.426 13:37.0 14:0.864 15:0.841 16:37.0 25:1.0 
1.1 0:0.152 1:0.224 2:0.25 3:0.0 4:0.024 5:0.032 6:0.0 7:0.0 8:0.0 9:23.0 10:0.92 11:23.0 12:0.413 13:44.0 14:0.88 15:0.9 16:46.0 23:1.0 
1.1 0:0.046 1:0.108 2:0.203 3:0.412 4:0.229 5:0.145 6:0.0 7:0.0 8:0.0 9:24.0 10:1.0 11:24.0 12:0.0 13:46.0 14:1.0 15:1.0 16:44.0 21:1.0 
1.1 0:0.219 1:0.307 2:0.247 3:0.057 4:0.055 5:0.098 6:0.082 7:1.0 8:0.048 9:29.0 10:0.967 11:29.0 12:0.38 13:51.0 14:0.867 15:0.95 16:55.0 22:1.0 
1.1 0:0.477 1:0.491 2:0.22 3:0.21 4:0.097 5:0.065 6:0.0 7:0.0 8:0.0 9:19.0 10:0.905 11:19.0 12:0.463 13:33.0 14:0.81 15:0.881 16:35.0 22:1.0 
0.6481284893594892 0:0.542 1:0.545 2:0.179 3:0.034 4:0.022 5:0.098 6:0.087 7:1.0 8:0.045 9:27.0 10:0.9 11:27.0 12:0.489 13:46.0 14:0.767 15:0.9 16:50.0 23:1.0 
1.1 0:0.475 1:0.507 2:0.307 3:0.102 4:0.153 5:0.14 6:0.0 7:0.0 8:0.0 9:21.0 10:0.913 11:21.0 12:0.427 13:37.0 14:0.87 15:0.891 16:41.0 22:1.0 
1.1 0:0.016 1:0.02 2:0.101 3:0.205 4:0.257 5:0.139 6:0.0 7:0.0 8:0.0 9:29.0 10:0.967 11:29.0 12:0.308 13:45.0 14:0.933 15:0.967 16:47.0 25:1.0 
1.1 0:0.312 1:0.351 2:0.202 3:0.0 4:0.058 5:0.128 6:0.089 7:1.0 8:0.045 9:28.0 10:0.933 11:28.0 12:0.343 13:43.0 14:0.9 15:0.933 16:45.0 22:1.0 
1.1 0:0.012 1:0.042 2:0.186 3:0.337 4:0.277 5:0.24 6:0.0 7:0.0 8:0.0 9:33.0 10:0.971 11:33.0 12:0.295 13:51.0 14:0.912 15:0.971 16:55.0 22:1.0 
0.008548349977719694 0:0.179 1:0.289 2:0.253 3:0.095 4:0.275 5:0.254 6:0.118 7:1.0 8:0.063 9:20.0 10:1.0 11:20.0 12:0.383 13:34.0 14:0.85 15:1.0 16:36.0 22:1.0 
1.1 0:0.079 1:0.096 2:0.29 3:0.153 4:0.275 5:0.251 6:0.125 7:1.0 8:0.067 9:24.0 10:0.96 11:24.0 12:0.417 13:42.0 14:0.88 15:0.98 16:44.0 22:1.0 
1.1 0:0.282 1:0.271 2:0.217 3:0.315 4:0.375 5:0.294 6:0.083 7:1.0 8:0.043 9:23.0 10:1.0 11:23.0 12:0.362 13:42.0 14:0.913 15:1.0 16:42.0 22:1.0 
1.1 0:0.044 1:0.147 2:0.085 3:0.091 4:0.086 5:0.107 6:0.084 7:1.0 8:0.043 9:25.0 10:1.0 11:25.0 12:0.39 13:41.0 14:0.88 15:1.0 16:43.0 18:1.0 
1.1 0:0.0 1:0.0 2:0.087 3:0.0 4:0.0 5:0.0 6:0.0 7:0.0 8:0.0 9:24.0 10:1.0 11:24.0 12:0.363 13:43.0 14:0.958 15:1.0 16:43.0 23:1.0 
1.1 0:0.034 1:0.051 2:0.246 3:0.0 4:0.04 5:0.022 6:0.123 7:1.0 8:0.063 9:19.0 10:0.905 11:19.0 12:0.426 13:28.0 14:0.905 15:0.905 16:28.0 22:1.0 
1.1 0:0.172 1:0.189 2:0.061 3:0.0 4:0.0 5:0.047 6:0.105 7:1.0 8:0.056 9:21.0 10:1.0 11:21.0 12:0.365 13:38.0 14:0.905 15:1.0 16:38.0 32:1.0 
1.1 0:0.087 1:0.103 2:0.067 3:0.0 4:0.0 5:0.0 6:0.062 7:1.0 8:0.042 9:41.0 10:0.953 11:41.0 12:0.378 13:62.0 14:0.953 15:0.953 16:62.0 24:1.0 
1.1 0:0.056 1:0.075 2:0.152 3:0.0 4:0.125 5:0.059 6:0.222 7:2.0 8:0.125 9:26.0 10:1.0 11:26.0 12:0.316 13:40.0 14:0.923 15:1.0 16:40.0 22:1.0 
1.1 0:0.031 1:0.049 2:0.22 3:0.113 4:0.072 5:0.144 6:0.171 7:2.0 8:0.1 9:28.0 10:0.933 11:28.0 12:0.438 13:44.0 14:0.867 15:0.917 16:46.0 22:1.0 
1.1 0:0.01 1:0.034 2:0.102 3:0.0 4:0.093 5:0.106 6:0.0 7:0.0 8:0.0 9:27.0 10:1.0 11:27.0 12:0.0 13:41.0 14:1.0 15:1.0 16:39.0 38:1.0 
1.1 0:0.057 1:0.066 2:0.195 3:0.125 4:0.131 5:0.189 6:0.098 7:1.0 8:0.05 9:24.0 10:1.0 11:24.0 12:0.371 13:36.0 14:0.958 15:1.0 16:36.0 22:1.0 
1.1 0:0.109 1:0.129 2:0.137 3:0.052 4:0.079 5:0.06 6:0.0 7:0.0 8:0.0 9:23.0 10:1.0 11:23.0 12:0.0 13:36.0 14:1.0 15:1.0 16:34.0 17:1.0 
1.1 0:0.742 1:0.848 2:0.094 3:0.0 4:0.0 5:0.0 6:0.0 7:0.0 8:0.0 9:13.0 10:1.0 11:13.0 12:0.0 13:25.0 14:1.0 15:1.0 16:23.0 24:1.0 
0.34393410617933473 0:0.064 1:0.062 2:0.275 3:0.113 4:0.112 5:0.125 6:0.139 7:2.0 8:0.083 9:27.0 10:0.931 11:27.0 12:0.319 13:47.0 14:0.897 15:0.931 16:49.0 22:1.0 
1.1 0:0.021 1:0.057 2:0.219 3:0.411 4:0.193 5:0.158 6:0.105 7:1.0 8:0.056 9:24.0 10:1.0 11:24.0 12:0.372 13:38.0 14:0.875 15:1.0 16:36.0 21:1.0 
1.1 0:0.163 1:0.243 2:0.256 3:0.275 4:0.316 5:0.257 6:0.101 7:1.0 8:0.053 9:23.0 10:0.958 11:23.0 12:0.312 13:41.0 14:0.917 15:0.958 16:41.0 22:1.0 
1.1 0:0.295 1:0.419 2:0.116 3:0.064 4:0.116 5:0.155 6:0.0 7:0.0 8:0.0 9:18.0 10:0.857 11:18.0 12:0.452 13:29.0 14:0.857 15:0.857 16:31.0 17:1.0 
0.3932657329957564 0:0.187 1:0.195 2:0.651 3:0.0 4:0.076 5:0.097 6:0.505 7:7.0 8:0.333 9:38.0 10:0.95 11:38.0 12:0.527 13:45.0 14:0.8 15:0.962 16:43.0 18:1.0 
1.1 0:0.178 1:0.251 2:0.297 3:0.0 4:0.051 5:0.073 6:0.087 7:1.0 8:0.053 9:20.0 10:0.909 11:20.0 12:0.424 13:38.0 14:0.864 15:0.886 16:40.0 24:1.0 
1.1 0:0.047 1:0.052 2:0.209 3:0.101 4:0.057 5:0.033 6:0.189 7:1.0 8:0.1 9:19.0 10:0.95 11:19.0 12:0.372 13:29.0 14:0.85 15:0.975 16:31.0 22:1.0 
1.1 0:0.054 1:0.074 2:0.175 3:0.272 4:0.197 5:0.152 6:0.0 7:0.0 8:0.0 9:24.0 10:1.0 11:24.0 12:0.0 13:46.0 14:1.0 15:1.0 16:44.0 21:1.0 
1.1 0:0.0 1:0.0 2:0.353 3:0.0 4:0.193 5:0.172 6:0.091 7:1.0 8:0.048 9:19.0 10:0.864 11:19.0 12:0.431 13:35.0 14:0.864 15:0.841 16:37.0 17:1.0 
1.1 0:0.006 1:0.027 2:0.156 3:0.084 4:0.071 5:0.059 6:0.0 7:0.0 8:0.0 9:24.0 10:1.0 11:24.0 12:0.362 13:44.0 14:0.958 15:1.0 16:44.0 21:1.0 
1.1 0:0.933 1:0.96 2:0.598 3:0.269 4:0.238 5:0.289 6:0.0 7:0.0 8:0.0 9:35.0 10:1.0 11:35.0 12:0.0 13:63.0 14:1.0 15:1.0 16:61.0 18:1.0 
1.1 0:0.009 1:0.033 2:0.075 3:0.412 4:0.268 5:0.171 6:0.0 7:0.0 8:0.0 9:23.0 10:1.0 11:23.0 12:0.397 13:38.0 14:0.913 15:1.0 16:40.0 21:1.0 
1.1 0:0.023 1:0.039 2:0.171 3:0.161 4:0.106 5:0.087 6:0.0 7:0.0 8:0.0 9:14.0 10:1.0 11:14.0 12:0.383 13:23.0 14:0.857 15:1.0 16:23.0 26:1.0 
1.1 0:0.044 1:0.057 2:0.294 3:0.035 4:0.185 5:0.242 6:0.265 7:2.0 8:0.105 9:28.0 10:0.933 11:28.0 12:0.299 13:49.0 14:0.933 15:0.933 16:47.0 22:1.0 
1.1 0:0.048 1:0.068 2:0.293 3:0.056 4:0.213 5:0.291 6:0.167 7:2.0 8:0.091 9:22.0 10:0.917 11:22.0 12:0.418 13:41.0 14:0.875 15:0.917 16:43.0 22:1.0 
1.1 0:0.264 1:0.426 2:0.349 3:0.22 4:0.21 5:0.18 6:0.0 7:0.0 8:0.0 9:20.0 10:1.0 11:20.0 12:0.0 13:38.0 14:1.0 15:1.0 16:36.0 21:1.0 
1.1 0:0.183 1:0.227 2:0.239 3:0.113 4:0.245 5:0.151 6:0.0 7:0.0 8:0.0 9:21.0 10:0.84 11:21.0 12:0.473 13:36.0 14:0.76 15:0.84 16:40.0 17:1.0 
0.6506143746850506 0:0.09 1:0.087 2:0.057 3:0.109 4:0.06 5:0.038 6:0.054 7:1.0 8:0.043 9:48.0 10:0.941 11:48.0 12:0.423 13:64.0 14:0.922 15:0.941 16:68.0 17:1.0 
1.1 0:0.338 1:0.481 2:0.198 3:0.085 4:0.128 5:0.25 6:0.0 7:0.0 8:0.0 9:21.0 10:1.0 11:21.0 12:0.0 13:39.0 14:0.952 15:1.0 16:39.0 17:1.0 
1.1 0:0.014 1:0.024 2:0.15 3:0.087 4:0.093 5:0.081 6:0.0 7:0.0 8:0.0 9:19.0 10:0.95 11:19.0 12:0.378 13:30.0 14:0.95 15:0.95 16:30.0 21:1.0 
1.1 0:0.022 1:0.059 2:0.341 3:0.193 4:0.132 5:0.094 6:0.134 7:1.0 8:0.071 9:16.0 10:1.0 11:16.0 12:0.463 13:25.0 14:0.813 15:1.0 16:27.0 21:1.0 
1.1 0:0.01 1:0.03 2:0.106 3:0.0 4:0.0 5:0.032 6:0.0 7:0.0 8:0.0 9:17.0 10:1.0 11:17.0 12:0.0 13:33.0 14:1.0 15:1.0 16:31.0 21:1.0 
1.1 0:0.121 1:0.141 2:0.285 3:0.028 4:0.091 5:0.128 6:0.125 7:1.0 8:0.067 9:25.0 10:0.833 11:25.0 12:0.441 13:44.0 14:0.8 15:0.85 16:48.0 17:1.0 
1.1 0:0.28 1:0.506 2:0.234 3:0.256 4:0.145 5:0.125 6:0.0 7:0.0 8:0.0 9:20.0 10:1.0 11:20.0 12:0.0 13:38.0 14:1.0 15:1.0 16:36.0 21:1.0 
1.1 0:0.0 1:0.0 2:0.121 3:0.0 4:0.041 5:0.036 6:0.135 7:1.0 8:0.083 9:23.0 10:0.767 11:23.0 12:0.528 13:36.0 14:0.767 15:0.75 16:36.0 23:1.0 
1.1 0:0.309 1:0.487 2:0.215 3:0.267 4:0.295 5:0.159 6:0.0 7:0.0 8:0.0 9:26.0 10:1.0 11:26.0 12:0.355 13:47.0 14:0.923 15:1.0 16:49.0 21:1.0 
1.1 0:0.037 1:0.035 2:0.064 3:0.12 4:0.086 5:0.084 6:0.091 7:1.0 8:0.056 9:23.0 10:0.92 11:23.0 12:0.395 13:40.0 14:0.92 15:0.92 16:40.0 17:1.0 
1.1 0:0.258 1:0.341 2:0.241 3:0.062 4:0.079 5:0.106 6:0.111 7:1.0 8:0.059 9:22.0 10:0.917 11:22.0 12:0.442 13:33.0 14:0.875 15:0.917 16:35.0 22:1.0 
1.1 0:0.343 1:0.389 2:0.451 3:0.024 4:0.073 5:0.218 6:0.0 7:0.0 8:0.0 9:22.0 10:0.957 11:22.0 12:0.313 13:40.0 14:0.913 15:0.957 16:42.0 20:1.0 
1.1 0:0.057 1:0.066 2:0.195 3:0.125 4:0.131 5:0.189 6:0.098 7:1.0 8:0.05 9:24.0 10:1.0 11:24.0 12:0.371 13:36.0 14:0.958 15:1.0 16:36.0 22:1.0 
1.1 0:0.149 1:0.426 2:0.402 3:0.035 4:0.027 5:0.13 6:0.154 7:2.0 8:0.083 9:23.0 10:0.742 11:23.0 12:0.511 13:44.0 14:0.742 15:0.742 16:46.0 20:1.0 
1.1 0:0.0 1:0.0 2:0.037 3:0.0 4:0.0 5:0.014 6:0.0 7:0.0 8:0.0 9:23.0 10:1.0 11:23.0 12:0.0 13:35.0 14:1.0 15:1.0 16:33.0 17:1.0 
1.1 0:0.005 1:0.012 2:0.133 3:0.546 4:0.366 5:0.314 6:0.0 7:0.0 8:0.0 9:22.0 10:0.917 11:22.0 12:0.39 13:43.0 14:0.917 15:0.917 16:45.0 20:1.0 
1.1 0:0.011 1:0.014 2:0.236 3:0.0 4:0.127 5:0.116 6:0.154 7:1.0 8:0.083 9:19.0 10:0.905 11:19.0 12:0.416 13:30.0 14:0.905 15:0.905 16:30.0 22:1.0 
1.1 0:0.508 1:0.591 2:0.427 3:0.181 4:0.209 5:0.162 6:0.0 7:0.0 8:0.0 9:29.0 10:0.935 11:29.0 12:0.344 13:49.0 14:0.871 15:0.952 16:55.0 17:1.0 
1.1 0:0.008 1:0.03 2:0.082 3:0.097 4:0.064 5:0.045 6:0.0 7:0.0 8:0.0 9:25.0 10:0.962 11:25.0 12:0.311 13:42.0 14:0.923 15:0.962 16:44.0 21:1.0 
1.1 0:0.09 1:0.137 2:0.431 3:0.134 4:0.182 5:0.248 6:0.0 7:0.0 8:0.0 9:14.0 10:1.0 11:14.0 12:0.0 13:25.0 14:1.0 15:1.0 16:23.0 38:1.0 
1.1 0:0.002 1:0.004 2:0.118 3:0.099 4:0.068 5:0.046 6:0.0 7:0.0 8:0.0 9:18.0 10:1.0 11:18.0 12:0.376 13:30.0 14:0.944 15:1.0 16:30.0 25:1.0 
1.1 0:0.107 1:0.122 2:0.185 3:0.239 4:0.123 5:0.089 6:0.0 7:0.0 8:0.0 9:23.0 10:1.0 11:23.0 12:0.362 13:44.0 14:0.957 15:1.0 16:44.0 39:1.0 
1.1 0:0.039 1:0.064 2:0.093 3:0.087 4:0.03 5:0.049 6:0.101 7:1.0 8:0.053 9:22.0 10:0.917 11:22.0 12:0.396 13:39.0 14:0.917 15:0.917 16:39.0 22:1.0 
1.1 0:0.0 1:0.0 2:0.025 3:0.088 4:0.046 5:0.025 6:0.0 7:0.0 8:0.0 9:22.0 10:1.0 11:22.0 12:0.0 13:43.0 14:1.0 15:1.0 16:41.0 23:1.0 
1.1 0:0.297 1:0.504 2:0.262 3:0.064 4:0.152 5:0.182 6:0.0 7:0.0 8:0.0 9:31.0 10:1.0 11:31.0 12:0.0 13:43.0 14:1.0 15:1.0 16:41.0 24:1.0 
1.1 0:0.017 1:0.019 2:0.202 3:0.139 4:0.114 5:0.077 6:0.236 7:2.0 8:0.133 9:23.0 10:0.885 11:23.0 12:0.467 13:40.0 14:0.808 15:0.865 16:42.0 22:1.0 
1.1 0:0.0 1:0.0 2:0.378 3:0.0 4:0.192 5:0.182 6:0.0 7:0.0 8:0.0 9:20.0 10:0.952 11:20.0 12:0.24 13:35.0 14:0.952 15:0.952 16:35.0 22:1.0 
1.1 0:0.019 1:0.02 2:0.29 3:0.096 4:0.163 5:0.139 6:0.0 7:0.0 8:0.0 9:40.0 10:0.93 11:40.0 12:0.402 13:59.0 14:0.93 15:0.93 16:63.0 25:1.0 
1.1 0:0.029 1:0.091 2:0.108 3:0.0 4:0.017 5:0.032 6:0.0 7:0.0 8:0.0 9:23.0 10:0.958 11:23.0 12:0.225 13:44.0 14:0.958 15:0.958 16:44.0 21:1.0 
1.1 0:0.178 1:0.166 2:0.287 3:0.0 4:0.0 5:0.295 6:0.182 7:2.0 8:0.1 9:26.0 10:1.0 11:26.0 12:0.279 13:44.0 14:0.923 15:1.0 16:42.0 22:1.0 
1.1 0:0.074 1:0.114 2:0.123 3:0.29 4:0.277 5:0.255 6:0.0 7:0.0 8:0.0 9:23.0 10:1.0 11:23.0 12:0.391 13:42.0 14:0.913 15:1.0 16:42.0 21:1.0 
1.1 0:0.0 1:0.0 2:0.073 3:0.0 4:0.06 5:0.06 6:0.143 7:1.0 8:0.048 9:26.0 10:0.897 11:26.0 12:0.4 13:43.0 14:0.862 15:0.879 16:47.0 17:1.0 
1.1 0:0.385 1:0.55 2:0.424 3:0.197 4:0.145 5:0.122 6:0.0 7:0.0 8:0.0 9:22.0 10:0.957 11:22.0 12:0.364 13:41.0 14:0.957 15:0.957 16:41.0 22:1.0 
1.1 0:0.012 1:0.042 2:0.111 3:0.194 4:0.14 5:0.15 6:0.0 7:0.0 8:0.0 9:19.0 10:0.95 11:19.0 12:0.374 13:32.0 14:0.95 15:0.95 16:32.0 21:1.0 
1.1 0:0.133 1:0.196 2:0.171 3:0.0 4:0.0 5:0.019 6:0.167 7:2.0 8:0.105 9:22.0 10:0.88 11:22.0 12:0.406 13:38.0 14:0.8 15:0.9 16:42.0 22:1.0 
1.1 0:0.012 1:0.02 2:0.126 3:0.0 4:0.036 5:0.029 6:0.0 7:0.0 8:0.0 9:14.0 10:1.0 11:14.0 12:0.383 13:25.0 14:0.929 15:1.0 16:25.0 24:1.0 
1.1 0:0.313 1:0.407 2:0.071 3:0.168 4:0.117 5:0.113 6:0.0 7:0.0 8:0.0 9:21.0 10:1.0 11:21.0 12:0.48 13:29.0 14:0.81 15:1.0 16:31.0 21:1.0 
1.1 0:0.392 1:0.273 2:0.261 3:0.198 4:0.234 5:0.193 6:0.0 7:0.0 8:0.0 9:16.0 10:0.941 11:16.0 12:0.375 13:30.0 14:0.941 15:0.971 16:30.0 23:1.0 
1.1 0:0.029 1:0.028 2:0.128 3:0.0 4:0.021 5:0.018 6:0.0 7:0.0 8:0.0 9:23.0 10:0.958 11:23.0 12:0.364 13:39.0 14:0.833 15:0.958 16:45.0 25:1.0 
1.1 0:0.037 1:0.036 2:0.14 3:0.22 4:0.147 5:0.183 6:0.125 7:1.0 8:0.067 9:16.0 10:0.889 11:16.0 12:0.41 13:31.0 14:0.889 15:0.861 16:31.0 22:1.0 
0.8023422389139416 0:0.851 1:0.819 2:0.431 3:0.0 4:0.118 5:0.196 6:0.0 7:0.0 8:0.0 9:14.0 10:0.933 11:14.0 12:0.379 13:27.0 14:0.933 15:0.933 16:27.0 25:1.0 
1.1 0:0.0 1:0.0 2:0.113 3:0.0 4:0.024 5:0.039 6:0.0 7:0.0 8:0.0 9:28.0 10:0.966 11:28.0 12:0.22 13:47.0 14:0.931 15:0.966 16:49.0 17:1.0 
1.1 0:0.549 1:0.603 2:0.2 3:0.0 4:0.082 5:0.167 6:0.0 7:0.0 8:0.0 9:22.0 10:1.0 11:22.0 12:0.372 13:34.0 14:0.955 15:1.0 16:34.0 24:1.0 
1.1 0:0.0 1:0.0 2:0.036 3:0.0 4:0.0 5:0.0 6:0.158 7:1.0 8:0.083 9:23.0 10:0.958 11:23.0 12:0.378 13:33.0 14:0.958 15:0.979 16:33.0 19:1.0 
1.1 0:0.441 1:0.491 2:0.34 3:0.313 4:0.339 5:0.334 6:0.0 7:0.0 8:0.0 9:18.0 10:1.0 11:18.0 12:0.0 13:33.0 14:0.944 15:1.0 16:33.0 22:1.0 
1.1 0:0.0 1:0.0 2:0.036 3:0.0 4:0.0 5:0.0 6:0.158 7:1.0 8:0.083 9:23.0 10:0.958 11:23.0 12:0.378 13:33.0 14:0.958 15:0.979 16:33.0 19:1.0 
1.1 0:0.536 1:0.536 2:0.243 3:0.147 4:0.222 5:0.191 6:0.0 7:0.0 8:0.0 9:21.0 10:0.955 11:21.0 12:0.318 13:38.0 14:0.909 15:0.932 16:40.0 22:1.0 
0.8999999999999999 0:0.231 1:0.372 2:0.092 3:0.069 4:0.063 5:0.039 6:0.126 7:1.0 8:0.067 9:20.0 10:0.909 11:20.0 12:0.394 13:32.0 14:0.864 15:0.909 16:32.0 25:1.0 
1.1 0:0.367 1:0.375 2:0.263 3:0.0 4:0.0 5:0.066 6:0.0 7:0.0 8:0.0 9:20.0 10:0.833 11:20.0 12:0.429 13:34.0 14:0.833 15:0.854 16:38.0 25:1.0 
1.1 0:0.035 1:0.049 2:0.133 3:0.0 4:0.073 5:0.052 6:0.0 7:0.0 8:0.0 9:31.0 10:1.0 11:31.0 12:0.22 13:48.0 14:0.935 15:1.0 16:50.0 17:1.0 
1.1 0:0.021 1:0.032 2:0.086 3:0.045 4:0.121 5:0.119 6:0.0 7:0.0 8:0.0 9:28.0 10:1.0 11:28.0 12:0.419 13:42.0 14:0.893 15:1.0 16:44.0 25:1.0 
1.1 0:0.16 1:0.328 2:0.303 3:0.15 4:0.175 5:0.227 6:0.0 7:0.0 8:0.0 9:20.0 10:1.0 11:20.0 12:0.0 13:37.0 14:0.95 15:1.0 16:37.0 21:1.0 
1.1 0:0.018 1:0.017 2:0.653 3:0.448 4:0.502 5:0.43 6:0.0 7:0.0 8:0.0 9:18.0 10:0.947 11:18.0 12:0.439 13:32.0 14:0.842 15:0.947 16:32.0 22:1.0 
1.1 0:0.143 1:0.1 2:0.059 3:0.0 4:0.011 5:0.008 6:0.101 7:1.0 8:0.053 9:23.0 10:1.0 11:23.0 12:0.0 13:39.0 14:0.913 15:1.0 16:39.0 17:1.0 
1.1 0:0.344 1:0.563 2:0.318 3:0.029 4:0.064 5:0.079 6:0.073 7:1.0 8:0.037 9:37.0 10:0.925 11:37.0 12:0.422 13:56.0 14:0.9 15:0.95 16:60.0 20:1.0 
1.1 0:0.048 1:0.084 2:0.1 3:0.029 4:0.107 5:0.084 6:0.0 7:0.0 8:0.0 9:15.0 10:1.0 11:15.0 12:0.383 13:25.0 14:0.933 15:1.0 16:25.0 24:1.0 
1.1 0:0.005 1:0.008 2:0.152 3:0.0 4:0.0 5:0.159 6:0.0 7:0.0 8:0.0 9:24.0 10:0.923 11:24.0 12:0.422 13:40.0 14:0.885 15:0.942 16:44.0 31:1.0 
1.1 0:0.337 1:0.348 2:0.217 3:0.118 4:0.061 5:0.088 6:0.0 7:0.0 8:0.0 9:24.0 10:1.0 11:24.0 12:0.0 13:48.0 14:1.0 15:1.0 16:46.0 17:1.0 
1.1 0:0.076 1:0.087 2:0.161 3:0.254 4:0.206 5:0.164 6:0.144 7:1.0 8:0.077 9:18.0 10:0.947 11:18.0 12:0.37 13:32.0 14:0.895 15:0.947 16:32.0 22:1.0 
1.1 0:0.033 1:0.059 2:0.117 3:0.0 4:0.094 5:0.055 6:0.0 7:0.0 8:0.0 9:24.0 10:1.0 11:24.0 12:0.39 13:43.0 14:0.917 15:1.0 16:45.0 21:1.0 
1.1 0:0.122 1:0.161 2:0.176 3:0.075 4:0.107 5:0.092 6:0.102 7:1.0 8:0.063 9:21.0 10:0.875 11:21.0 12:0.389 13:39.0 14:0.833 15:0.875 16:41.0 25:1.0 
1.1 0:0.03 1:0.122 2:0.235 3:0.0 4:0.0 5:0.014 6:0.0 7:0.0 8:0.0 9:23.0 10:0.958 11:23.0 12:0.406 13:38.0 14:0.792 15:0.958 16:44.0 21:1.0 
1.1 0:0.046 1:0.108 2:0.203 3:0.412 4:0.229 5:0.145 6:0.0 7:0.0 8:0.0 9:24.0 10:1.0 11:24.0 12:0.0 13:46.0 14:1.0 15:1.0 16:44.0 21:1.0 
1.1 0:0.018 1:0.026 2:0.193 3:0.098 4:0.098 5:0.061 6:0.0 7:0.0 8:0.0 9:21.0 10:1.0 11:21.0 12:0.0 13:36.0 14:1.0 15:1.0 16:34.0 22:1.0 
1.1 0:0.208 1:0.206 2:0.38 3:0.095 4:0.163 5:0.17 6:0.0 7:0.0 8:0.0 9:15.0 10:1.0 11:15.0 12:0.0 13:27.0 14:1.0 15:1.0 16:25.0 18:1.0 
1.1 0:0.032 1:0.029 2:0.072 3:0.0 4:0.025 5:0.033 6:0.0 7:0.0 8:0.0 9:24.0 10:1.0 11:24.0 12:0.364 13:41.0 14:0.875 15:1.0 16:41.0 25:1.0 
1.1 0:0.003 1:0.005 2:0.143 3:0.1 4:0.122 5:0.073 6:0.105 7:1.0 8:0.056 9:22.0 10:1.0 11:22.0 12:0.315 13:37.0 14:0.864 15:1.0 16:41.0 17:1.0 
1.1 0:0.0 1:0.0 2:0.023 3:0.0 4:0.013 5:0.016 6:0.0 7:0.0 8:0.0 9:23.0 10:1.0 11:23.0 12:0.402 13:36.0 14:0.913 15:1.0 16:38.0 17:1.0 
1.1 0:0.169 1:0.157 2:0.153 3:0.012 4:0.037 5:0.057 6:0.151 7:1.0 8:0.071 9:27.0 10:0.9 11:27.0 12:0.425 13:39.0 14:0.867 15:0.9 16:41.0 25:1.0 
1.1 0:0.075 1:0.099 2:0.157 3:0.062 4:0.091 5:0.073 6:0.134 7:1.0 8:0.071 9:24.0 10:1.0 11:24.0 12:0.345 13:37.0 14:0.833 15:1.0 16:41.0 25:1.0 
1.1 0:0.392 1:0.273 2:0.261 3:0.198 4:0.234 5:0.193 6:0.0 7:0.0 8:0.0 9:16.0 10:0.941 11:16.0 12:0.375 13:30.0 14:0.941 15:0.971 16:30.0 23:1.0 
1.1 0:0.14 1:0.129 2:0.092 3:0.173 4:0.18 5:0.135 6:0.118 7:1.0 8:0.063 9:21.0 10:0.955 11:21.0 12:0.441 13:32.0 14:0.864 15:0.955 16:34.0 24:1.0 
1.1 0:0.096 1:0.062 2:0.249 3:0.385 4:0.337 5:0.311 6:0.085 7:1.0 8:0.043 9:27.0 10:0.9 11:27.0 12:0.281 13:41.0 14:0.867 15:0.9 16:43.0 22:1.0 
1.1 0:0.167 1:0.237 2:0.153 3:0.0 4:0.0 5:0.0 6:0.0 7:0.0 8:0.0 9:42.0 10:0.977 11:42.0 12:0.404 13:51.0 14:0.953 15:0.977 16:53.0 18:1.0 
1.1 0:0.01 1:0.031 2:0.04 3:0.0 4:0.052 5:0.04 6:0.236 7:2.0 8:0.133 9:19.0 10:0.826 11:19.0 12:0.452 13:37.0 14:0.826 15:0.826 16:37.0 21:1.0 
1.1 0:0.287 1:0.379 2:0.138 3:0.229 4:0.21 5:0.14 6:0.0 7:0.0 8:0.0 9:29.0 10:1.0 11:29.0 12:0.36 13:49.0 14:0.966 15:1.0 16:49.0 20:1.0 
1.1 0:0.0 1:0.0 2:0.044 3:0.01 4:0.041 5:0.048 6:0.07 7:1.0 8:0.036 9:40.0 10:0.976 11:40.0 12:0.357 13:60.0 14:0.976 15:0.976 16:60.0 18:1.0 
1.1 0:0.542 1:0.545 2:0.179 3:0.034 4:0.022 5:0.098 6:0.087 7:1.0 8:0.045 9:27.0 10:0.9 11:27.0 12:0.489 13:46.0 14:0.767 15:0.9 16:50.0 23:1.0 
1.1 0:0.036 1:0.089 2:0.02 3:0.067 4:0.032 5:0.028 6:0.0 7:0.0 8:0.0 9:22.0 10:0.957 11:22.0 12:0.366 13:37.0 14:0.913 15:0.957 16:39.0 21:1.0 
1.1 0:0.414 1:0.534 2:0.384 3:0.388 4:0.308 5:0.262 6:0.0 7:0.0 8:0.0 9:31.0 10:0.912 11:31.0 12:0.382 13:51.0 14:0.882 15:0.926 16:57.0 20:1.0 
1.1 0:0.0 1:0.0 2:0.022 3:0.054 4:0.03 5:0.019 6:0.0 7:0.0 8:0.0 9:24.0 10:1.0 11:24.0 12:0.0 13:46.0 14:1.0 15:1.0 16:44.0 23:1.0 
0.6757405187168096 0:0.187 1:0.303 2:0.199 3:0.094 4:0.063 5:0.039 6:0.2 7:2.0 8:0.111 9:31.0 10:1.0 11:31.0 12:0.0 13:46.0 14:0.871 15:1.0 16:46.0 21:1.0 
1.1 0:0.004 1:0.003 2:0.062 3:0.0 4:0.0 5:0.0 6:0.0 7:0.0 8:0.0 9:35.0 10:1.0 11:35.0 12:0.0 13:50.0 14:0.971 15:1.0 16:50.0 18:1.0 
1.1 0:0.309 1:0.479 2:0.184 3:0.167 4:0.132 5:0.129 6:0.0 7:0.0 8:0.0 9:23.0 10:1.0 11:23.0 12:0.226 13:43.0 14:0.957 15:1.0 16:43.0 21:1.0 
1.1 0:0.111 1:0.11 2:0.295 3:0.201 4:0.335 5:0.36 6:0.0 7:0.0 8:0.0 9:34.0 10:0.895 11:34.0 12:0.417 13:51.0 14:0.868 15:0.895 16:57.0 25:1.0 
1.1 0:0.387 1:0.374 2:0.241 3:0.13 4:0.155 5:0.22 6:0.112 7:1.0 8:0.059 9:24.0 10:1.0 11:24.0 12:0.0 13:44.0 14:0.917 15:1.0 16:44.0 22:1.0 
1.1 0:0.006 1:0.006 2:0.056 3:0.187 4:0.164 5:0.106 6:0.0 7:0.0 8:0.0 9:29.0 10:0.935 11:29.0 12:0.384 13:50.0 14:0.935 15:0.935 16:52.0 25:1.0 
1.1 0:0.625 1:0.545 2:0.189 3:0.245 4:0.205 5:0.201 6:0.0 7:0.0 8:0.0 9:23.0 10:1.0 11:23.0 12:0.0 13:35.0 14:1.0 15:1.0 16:33.0 22:1.0 
1.1 0:0.21 1:0.325 2:0.282 3:0.129 4:0.187 5:0.17 6:0.074 7:1.0 8:0.038 9:29.0 10:1.0 11:29.0 12:0.292 13:53.0 14:0.931 15:1.0 16:53.0 22:1.0 
1.1 0:0.201 1:0.242 2:0.38 3:0.122 4:0.254 5:0.279 6:0.0 7:0.0 8:0.0 9:21.0 10:0.913 11:21.0 12:0.432 13:35.0 14:0.87 15:0.913 16:37.0 17:1.0 
1.1 0:0.794 1:0.768 2:0.378 3:0.0 4:0.0 5:0.17 6:0.0 7:0.0 8:0.0 9:17.0 10:0.895 11:17.0 12:0.42 13:28.0 14:0.895 15:0.895 16:28.0 17:1.0 
1.1 0:0.015 1:0.017 2:0.301 3:0.0 4:0.0 5:0.0 6:0.0 7:0.0 8:0.0 9:24.0 10:0.889 11:24.0 12:0.442 13:35.0 14:0.889 15:0.889 16:37.0 17:1.0 
0.03256361380758794 0:0.352 1:0.469 2:0.405 3:0.0 4:0.0 5:0.0 6:0.101 7:1.0 8:0.053 9:25.0 10:1.0 11:25.0 12:0.361 13:40.0 14:0.84 15:1.0 16:40.0 20:1.0 
1.1 0:0.338 1:0.313 2:0.09 3:0.068 4:0.128 5:0.09 6:0.0 7:0.0 8:0.0 9:24.0 10:1.0 11:24.0 12:0.0 13:40.0 14:1.0 15:1.0 16:38.0 22:1.0 
0.49586661861109 0:0.164 1:0.163 2:0.11 3:0.0 4:0.0 5:0.023 6:0.236 7:2.0 8:0.133 9:23.0 10:0.958 11:23.0 12:0.394 13:39.0 14:0.833 15:0.958 16:37.0 25:1.0 
1.1 0:0.742 1:0.848 2:0.094 3:0.0 4:0.0 5:0.0 6:0.0 7:0.0 8:0.0 9:13.0 10:1.0 11:13.0 12:0.0 13:25.0 14:1.0 15:1.0 16:23.0 24:1.0 
0.9898947198169424 0:0.333 1:0.331 2:0.338 3:0.242 4:0.18 5:0.192 6:0.101 7:1.0 8:0.053 9:24.0 10:0.923 11:24.0 12:0.281 13:43.0 14:0.923 15:0.923 16:39.0 22:1.0 
1.1 0:0.058 1:0.091 2:0.339 3:0.0 4:0.051 5:0.157 6:0.149 7:2.0 8:0.091 9:29.0 10:0.967 11:29.0 12:0.38 13:46.0 14:0.9 15:0.967 16:50.0 22:1.0 
1.1 0:0.064 1:0.062 2:0.275 3:0.113 4:0.112 5:0.125 6:0.139 7:2.0 8:0.083 9:27.0 10:0.931 11:27.0 12:0.319 13:47.0 14:0.897 15:0.931 16:49.0 22:1.0 
1.1 0:0.011 1:0.014 2:0.236 3:0.0 4:0.127 5:0.116 6:0.154 7:1.0 8:0.083 9:19.0 10:0.905 11:19.0 12:0.416 13:30.0 14:0.905 15:0.905 16:30.0 22:1.0 
1.1 0:0.017 1:0.027 2:0.071 3:0.0 4:0.0 5:0.0 6:0.0 7:0.0 8:0.0 9:12.0 10:0.923 11:12.0 12:0.389 13:22.0 14:0.923 15:0.923 16:22.0 33:1.0 
1.1 0:0.037 1:0.035 2:0.064 3:0.12 4:0.086 5:0.084 6:0.091 7:1.0 8:0.056 9:23.0 10:0.92 11:23.0 12:0.395 13:40.0 14:0.92 15:0.92 16:40.0 17:1.0 
0.13037191780208224 0:0.539 1:0.649 2:0.54 3:0.0 4:0.18 5:0.201 6:0.1 7:1.0 8:0.048 9:43.0 10:0.956 11:43.0 12:0.409 13:52.0 14:0.956 15:0.956 16:52.0 24:1.0 
1.0416983701038864 0:0.699 1:0.677 2:0.408 3:0.347 4:0.311 5:0.409 6:0.0 7:0.0 8:0.0 9:15.0 10:1.0 11:15.0 12:0.0 13:28.0 14:1.0 15:1.0 16:26.0 25:1.0 
1.1 0:0.077 1:0.111 2:0.222 3:0.082 4:0.247 5:0.199 6:0.163 7:1.0 8:0.048 9:27.0 10:0.931 11:27.0 12:0.262 13:48.0 14:0.862 15:0.948 16:54.0 22:1.0 
1.1 0:0.051 1:0.13 2:0.23 3:0.0 4:0.0 5:0.0 6:0.0 7:0.0 8:0.0 9:24.0 10:1.0 11:24.0 12:0.0 13:40.0 14:0.958 15:1.0 16:40.0 21:1.0 
1.1 0:0.338 1:0.313 2:0.09 3:0.068 4:0.128 5:0.09 6:0.0 7:0.0 8:0.0 9:24.0 10:1.0 11:24.0 12:0.0 13:40.0 14:1.0 15:1.0 16:38.0 22:1.0 
1.1 0:0.0 1:0.0 2:0.037 3:0.0 4:0.0 5:0.014 6:0.0 7:0.0 8:0.0 9:23.0 10:1.0 11:23.0 12:0.0 13:35.0 14:1.0 15:1.0 16:33.0 17:1.0 
1.1 0:0.197 1:0.38 2:0.462 3:0.0 4:0.132 5:0.121 6:0.0 7:0.0 8:0.0 9:19.0 10:1.0 11:19.0 12:0.0 13:29.0 14:0.947 15:1.0 16:29.0 21:1.0 
1.1 0:0.202 1:0.247 2:0.372 3:0.201 4:0.096 5:0.153 6:0.0 7:0.0 8:0.0 9:25.0 10:1.0 11:25.0 12:0.4 13:42.0 14:0.84 15:1.0 16:46.0 20:1.0 
1.1 0:0.0 1:0.0 2:0.038 3:0.0 4:0.0 5:0.0 6:0.0 7:0.0 8:0.0 9:24.0 10:1.0 11:24.0 12:0.0 13:36.0 14:0.958 15:1.0 16:36.0 23:1.0 
1.1 0:0.309 1:0.434 2:0.342 3:0.0 4:0.085 5:0.135 6:0.0 7:0.0 8:0.0 9:22.0 10:1.0 11:22.0 12:0.0 13:42.0 14:1.0 15:1.0 16:40.0 17:1.0 
1.1 0:0.617 1:0.616 2:0.249 3:0.065 4:0.163 5:0.128 6:0.0 7:0.0 8:0.0 9:26.0 10:1.0 11:26.0 12:0.0 13:48.0 14:0.962 15:1.0 16:48.0 25:1.0 
1.1 0:0.011 1:0.012 2:0.311 3:0.138 4:0.187 5:0.204 6:0.089 7:1.0 8:0.045 9:27.0 10:0.931 11:27.0 12:0.383 13:50.0 14:0.931 15:0.931 16:48.0 22:1.0 
1.1 0:0.147 1:0.194 2:0.512 3:0.138 4:0.113 5:0.421 6:0.0 7:0.0 8:0.0 9:24.0 10:1.0 11:24.0 12:0.364 13:40.0 14:0.917 15:1.0 16:42.0 20:1.0 
0.8251792831099583 0:0.084 1:0.102 2:0.333 3:0.092 4:0.245 5:0.22 6:0.218 7:2.0 8:0.118 9:27.0 10:0.964 11:27.0 12:0.413 13:45.0 14:0.893 15:0.964 16:45.0 22:1.0 
0.1533557221425525 0:0.963 1:0.961 2:0.957 3:0.0 4:0.536 5:0.724 6:0.096 7:1.0 8:0.05 9:30.0 10:0.938 11:30.0 12:0.485 13:43.0 14:0.719 15:0.953 16:57.0 18:1.0 
1.1 0:0.012 1:0.024 2:0.239 3:0.0 4:0.0 5:0.128 6:0.167 7:2.0 8:0.091 9:27.0 10:0.931 11:27.0 12:0.352 13:47.0 14:0.897 15:0.914 16:49.0 22:1.0 
1.1 0:0.254 1:0.351 2:0.193 3:0.056 4:0.08 5:0.054 6:0.0 7:0.0 8:0.0 9:20.0 10:1.0 11:20.0 12:0.0 13:36.0 14:0.9 15:1.0 16:36.0 22:1.0 
1.1 0:0.097 1:0.1 2:0.337 3:0.0 4:0.0 5:0.0 6:0.118 7:1.0 8:0.063 9:24.0 10:1.0 11:24.0 12:0.418 13:41.0 14:0.875 15:1.0 16:43.0 17:1.0 
1.1 0:0.01 1:0.021 2:0.065 3:0.151 4:0.118 5:0.116 6:0.0 7:0.0 8:0.0 9:22.0 10:0.957 11:22.0 12:0.372 13:33.0 14:0.913 15:0.957 16:35.0 21:1.0 
1.1 0:0.023 1:0.025 2:0.059 3:0.0 4:0.0 5:0.0 6:0.0 7:0.0 8:0.0 9:21.0 10:1.0 11:21.0 12:0.0 13:33.0 14:1.0 15:1.0 16:31.0 17:1.0 
1.1 0:0.044 1:0.091 2:0.194 3:0.304 4:0.307 5:0.298 6:0.0 7:0.0 8:0.0 9:22.0 10:1.0 11:22.0 12:0.0 13:34.0 14:1.0 15:1.0 16:32.0 21:1.0 
1.1 0:0.038 1:0.083 2:0.221 3:0.0 4:0.0 5:0.053 6:0.123 7:1.0 8:0.063 9:28.0 10:0.966 11:28.0 12:0.341 13:40.0 14:0.862 15:0.966 16:44.0 23:1.0 
1.1 0:0.029 1:0.068 2:0.077 3:0.0 4:0.088 5:0.071 6:0.0 7:0.0 8:0.0 9:22.0 10:0.957 11:22.0 12:0.24 13:36.0 14:0.957 15:0.957 16:36.0 21:1.0 
1.1 0:0.199 1:0.278 2:0.328 3:0.083 4:0.11 5:0.105 6:0.082 7:1.0 8:0.048 9:32.0 10:0.941 11:32.0 12:0.385 13:48.0 14:0.853 15:0.926 16:48.0 17:1.0 
1.1 0:0.0 1:0.0 2:0.054 3:0.0 4:0.015 5:0.009 6:0.0 7:0.0 8:0.0 9:24.0 10:1.0 11:24.0 12:0.0 13:48.0 14:1.0 15:1.0 16:46.0 23:1.0 
1.1 0:0.077 1:0.078 2:0.326 3:0.027 4:0.068 5:0.063 6:0.105 7:1.0 8:0.056 9:24.0 10:1.0 11:24.0 12:0.42 13:40.0 14:0.875 15:1.0 16:42.0 24:1.0 
1.1 0:0.118 1:0.131 2:0.129 3:0.055 4:0.037 5:0.075 6:0.267 7:2.0 8:0.154 9:23.0 10:1.0 11:23.0 12:0.427 13:37.0 14:0.87 15:1.0 16:33.0 22:1.0 
1.1 0:0.304 1:0.436 2:0.225 3:0.092 4:0.117 5:0.188 6:0.083 7:1.0 8:0.043 9:29.0 10:1.0 11:29.0 12:0.214 13:50.0 14:0.897 15:1.0 16:52.0 23:1.0 
1.1 0:0.002 1:0.005 2:0.096 3:0.034 4:0.074 5:0.089 6:0.0 7:0.0 8:0.0 9:20.0 10:1.0 11:20.0 12:0.402 13:35.0 14:0.9 15:1.0 16:37.0 25:1.0 
0.817993072239945 0:0.094 1:0.113 2:0.251 3:0.245 4:0.247 5:0.331 6:0.153 7:2.0 8:0.091 9:29.0 10:0.967 11:29.0 12:0.356 13:52.0 14:0.867 15:0.967 16:54.0 22:1.0 
1.1 0:0.131 1:0.114 2:0.253 3:0.129 4:0.136 5:0.168 6:0.0 7:0.0 8:0.0 9:13.0 10:0.929 11:13.0 12:0.385 13:24.0 14:0.929 15:0.929 16:24.0 22:1.0 
1.1 0:0.361 1:0.292 2:0.138 3:0.0 4:0.051 5:0.088 6:0.096 7:1.0 8:0.05 9:25.0 10:1.0 11:25.0 12:0.442 13:41.0 14:0.84 15:1.0 16:43.0 17:1.0 
1.1 0:0.011 1:0.012 2:0.102 3:0.0 4:0.025 5:0.017 6:0.149 7:1.0 8:0.077 9:21.0 10:0.913 11:21.0 12:0.429 13:34.0 14:0.826 15:0.913 16:36.0 23:1.0 
1.1 0:0.185 1:0.187 2:0.275 3:0.067 4:0.161 5:0.138 6:0.0 7:0.0 8:0.0 9:20.0 10:0.952 11:20.0 12:0.366 13:39.0 14:0.952 15:0.952 16:39.0 23:1.0 
1.1 0:0.115 1:0.244 2:0.043 3:0.333 4:0.088 5:0.084 6:0.0 7:0.0 8:0.0 9:22.0 10:0.957 11:22.0 12:0.366 13:39.0 14:0.957 15:0.957 16:39.0 21:1.0 
1.1 0:0.419 1:0.367 2:0.26 3:0.097 4:0.062 5:0.194 6:0.112 7:1.0 8:0.059 9:28.0 10:1.0 11:28.0 12:0.385 13:48.0 14:0.929 15:1.0 16:48.0 17:1.0 
1.1 0:0.285 1:0.449 2:0.132 3:0.16 4:0.182 5:0.194 6:0.0 7:0.0 8:0.0 9:18.0 10:1.0 11:18.0 12:0.0 13:30.0 14:1.0 15:1.0 16:28.0 21:1.0 
1.1 0:0.167 1:0.276 2:0.251 3:0.0 4:0.092 5:0.091 6:0.105 7:1.0 8:0.056 9:26.0 10:0.963 11:26.0 12:0.423 13:40.0 14:0.889 15:0.963 16:42.0 17:1.0 
1.1 0:0.014 1:0.047 2:0.253 3:0.226 4:0.157 5:0.13 6:0.112 7:1.0 8:0.059 9:24.0 10:1.0 11:24.0 12:0.419 13:36.0 14:0.833 15:1.0 16:36.0 21:1.0 
1.1 0:0.002 1:0.004 2:0.05 3:0.034 4:0.015 5:0.011 6:0.0 7:0.0 8:0.0 9:20.0 10:1.0 11:20.0 12:0.369 13:36.0 14:0.95 15:1.0 16:36.0 24:1.0 
1.1 0:0.093 1:0.097 2:0.156 3:0.0 4:0.097 5:0.097 6:0.0 7:0.0 8:0.0 9:28.0 10:1.0 11:28.0 12:0.0 13:42.0 14:0.964 15:1.0 16:42.0 23:1.0 
1.1 0:0.008 1:0.024 2:0.026 3:0.0 4:0.0 5:0.025 6:0.272 7:2.0 8:0.154 9:29.0 10:1.0 11:29.0 12:0.437 13:44.0 14:0.862 15:1.0 16:44.0 21:1.0 
0.006656009516282808 0:0.864 1:0.814 2:0.631 3:0.604 4:0.473 5:0.48 6:0.12 7:1.0 8:0.056 9:28.0 10:0.933 11:28.0 12:0.554 13:31.0 14:0.8 15:0.933 16:35.0 22:1.0 
1.1 0:0.002 1:0.004 2:0.05 3:0.034 4:0.015 5:0.011 6:0.0 7:0.0 8:0.0 9:20.0 10:1.0 11:20.0 12:0.369 13:36.0 14:0.95 15:1.0 16:36.0 24:1.0 
1.1 0:0.198 1:0.172 2:0.139 3:0.0 4:0.0 5:0.0 6:0.0 7:0.0 8:0.0 9:17.0 10:0.944 11:17.0 12:0.448 13:29.0 14:0.833 15:0.944 16:33.0 18:1.0 
1.1 0:0.001 1:0.002 2:0.041 3:0.069 4:0.057 5:0.032 6:0.0 7:0.0 8:0.0 9:27.0 10:1.0 11:27.0 12:0.358 13:51.0 14:0.963 15:1.0 16:51.0 22:1.0 
0.12940296919867705 0:1.0 1:1.0 2:0.993 3:0.981 4:0.938 5:0.955 6:0.885 7:12.0 8:0.8 9:9.0 10:0.31 11:9.0 12:0.968 13:9.0 14:0.31 15:0.31 16:9.0 18:1.0 
0.04545201824869376 0:0.209 1:0.088 2:0.254 3:0.056 4:0.11 5:0.171 6:0.095 7:1.0 8:0.05 9:23.0 10:0.92 11:23.0 12:0.468 13:35.0 14:0.72 15:0.92 16:41.0 17:1.0 
1.1 0:0.087 1:0.069 2:0.377 3:0.208 4:0.217 5:0.263 6:0.091 7:1.0 8:0.048 9:20.0 10:0.909 11:20.0 12:0.318 13:38.0 14:0.909 15:0.909 16:38.0 22:1.0 
1.1 0:0.152 1:0.224 2:0.25 3:0.0 4:0.024 5:0.032 6:0.0 7:0.0 8:0.0 9:23.0 10:0.92 11:23.0 12:0.413 13:44.0 14:0.88 15:0.9 16:46.0 23:1.0 
1.1 0:0.053 1:0.136 2:0.251 3:0.087 4:0.126 5:0.142 6:0.0 7:0.0 8:0.0 9:28.0 10:0.933 11:28.0 12:0.331 13:48.0 14:0.933 15:0.933 16:50.0 23:1.0 
1.1 0:0.064 1:0.062 2:0.275 3:0.113 4:0.112 5:0.125 6:0.139 7:2.0 8:0.083 9:27.0 10:0.931 11:27.0 12:0.319 13:47.0 14:0.897 15:0.931 16:49.0 22:1.0 
1.1 0:0.14 1:0.129 2:0.092 3:0.173 4:0.18 5:0.135 6:0.118 7:1.0 8:0.063 9:21.0 10:0.955 11:21.0 12:0.441 13:32.0 14:0.864 15:0.955 16:34.0 24:1.0 
1.1 0:0.137 1:0.183 2:0.324 3:0.0 4:0.0 5:0.052 6:0.0 7:0.0 8:0.0 9:25.0 10:1.0 11:25.0 12:0.363 13:43.0 14:0.96 15:1.0 16:43.0 20:1.0 
1.1 0:0.036 1:0.042 2:0.17 3:0.0 4:0.0 5:0.0 6:0.098 7:1.0 8:0.05 9:22.0 10:0.88 11:22.0 12:0.426 13:38.0 14:0.88 15:0.86 16:38.0 25:1.0 
1.1 0:0.009 1:0.012 2:0.154 3:0.0 4:0.0 5:0.097 6:0.123 7:1.0 8:0.063 9:27.0 10:0.964 11:27.0 12:0.329 13:38.0 14:0.929 15:0.964 16:38.0 22:1.0 
1.1 0:0.092 1:0.092 2:0.297 3:0.141 4:0.228 5:0.19 6:0.0 7:0.0 8:0.0 9:35.0 10:0.921 11:35.0 12:0.358 13:52.0 14:0.895 15:0.921 16:58.0 25:1.0 
1.1 0:0.392 1:0.273 2:0.261 3:0.198 4:0.234 5:0.193 6:0.0 7:0.0 8:0.0 9:16.0 10:0.941 11:16.0 12:0.375 13:30.0 14:0.941 15:0.971 16:30.0 23:1.0 
1.1 0:0.121 1:0.141 2:0.285 3:0.028 4:0.091 5:0.128 6:0.125 7:1.0 8:0.067 9:25.0 10:0.833 11:25.0 12:0.441 13:44.0 14:0.8 15:0.85 16:48.0 17:1.0 
0.334013704855426 0:0.794 1:0.768 2:0.378 3:0.0 4:0.0 5:0.17 6:0.0 7:0.0 8:0.0 9:17.0 10:0.895 11:17.0 12:0.42 13:28.0 14:0.895 15:0.895 16:28.0 17:1.0 
1.1 0:0.386 1:0.605 2:0.359 3:0.0 4:0.116 5:0.189 6:0.0 7:0.0 8:0.0 9:39.0 10:0.975 11:39.0 12:0.392 13:52.0 14:0.95 15:0.975 16:54.0 20:1.0 
1.1 0:0.153 1:0.269 2:0.072 3:0.126 4:0.077 5:0.072 6:0.0 7:0.0 8:0.0 9:23.0 10:1.0 11:23.0 12:0.0 13:40.0 14:1.0 15:1.0 16:38.0 21:1.0 
1.1 0:0.002 1:0.005 2:0.096 3:0.034 4:0.074 5:0.089 6:0.0 7:0.0 8:0.0 9:20.0 10:1.0 11:20.0 12:0.402 13:35.0 14:0.9 15:1.0 16:37.0 25:1.0 
1.1 0:0.788 1:0.799 2:0.538 3:0.125 4:0.077 5:0.101 6:0.0 7:0.0 8:0.0 9:32.0 10:0.941 11:32.0 12:0.425 13:44.0 14:0.912 15:0.956 16:46.0 19:1.0 
1.1 0:0.097 1:0.093 2:0.362 3:0.0 4:0.1 5:0.182 6:0.236 7:2.0 8:0.125 9:28.0 10:1.0 11:28.0 12:0.413 13:45.0 14:0.893 15:1.0 16:45.0 23:1.0 
1.1 0:0.012 1:0.02 2:0.126 3:0.0 4:0.036 5:0.029 6:0.0 7:0.0 8:0.0 9:14.0 10:1.0 11:14.0 12:0.383 13:25.0 14:0.929 15:1.0 16:25.0 24:1.0 
1.1 0:0.075 1:0.071 2:0.273 3:0.051 4:0.188 5:0.252 6:0.118 7:1.0 8:0.063 9:22.0 10:1.0 11:22.0 12:0.464 13:33.0 14:0.818 15:1.0 16:35.0 17:1.0 
1.1 0:0.0 1:0.0 2:0.025 3:0.088 4:0.046 5:0.025 6:0.0 7:0.0 8:0.0 9:22.0 10:1.0 11:22.0 12:0.0 13:43.0 14:1.0 15:1.0 16:41.0 23:1.0 
1.1 0:0.08 1:0.182 2:0.172 3:0.09 4:0.057 5:0.094 6:0.16 7:2.0 8:0.087 9:22.0 10:0.88 11:22.0 12:0.4 13:40.0 14:0.8 15:0.86 16:44.0 22:1.0 
1.1 0:0.048 1:0.069 2:0.105 3:0.073 4:0.074 5:0.058 6:0.0 7:0.0 8:0.0 9:19.0 10:0.792 11:19.0 12:0.491 13:27.0 14:0.75 15:0.813 16:35.0 25:1.0 
1.1 0:0.666 1:0.666 2:0.092 3:0.0 4:0.0 5:0.051 6:0.118 7:1.0 8:0.059 9:26.0 10:0.963 11:26.0 12:0.322 13:39.0 14:0.926 15:0.963 16:39.0 22:1.0 
1.1 0:0.0 1:0.0 2:0.424 3:0.336 4:0.586 5:0.542 6:0.112 7:1.0 8:0.059 9:32.0 10:1.0 11:32.0 12:0.384 13:48.0 14:0.906 15:1.0 16:50.0 17:1.0 
1.1 0:0.141 1:0.166 2:0.145 3:0.0 4:0.03 5:0.022 6:0.0 7:0.0 8:0.0 9:23.0 10:1.0 11:23.0 12:0.364 13:42.0 14:0.957 15:1.0 16:42.0 23:1.0 
1.1 0:0.087 1:0.088 2:0.166 3:0.0 4:0.141 5:0.205 6:0.0 7:0.0 8:0.0 9:25.0 10:0.962 11:25.0 12:0.368 13:39.0 14:0.962 15:0.962 16:39.0 39:1.0 
1.1 0:0.133 1:0.156 2:0.151 3:0.223 4:0.175 5:0.136 6:0.0 7:0.0 8:0.0 9:24.0 10:1.0 11:24.0 12:0.0 13:47.0 14:1.0 15:1.0 16:45.0 22:1.0 
1.1 0:0.788 1:0.799 2:0.538 3:0.125 4:0.077 5:0.101 6:0.0 7:0.0 8:0.0 9:32.0 10:0.941 11:32.0 12:0.425 13:44.0 14:0.912 15:0.956 16:46.0 19:1.0 
1.1 0:0.01 1:0.03 2:0.106 3:0.0 4:0.0 5:0.032 6:0.0 7:0.0 8:0.0 9:17.0 10:1.0 11:17.0 12:0.0 13:33.0 14:1.0 15:1.0 16:31.0 21:1.0 
1.1 0:0.171 1:0.162 2:0.116 3:0.0 4:0.023 5:0.036 6:0.134 7:1.0 8:0.071 9:38.0 10:0.95 11:38.0 12:0.0 13:49.0 14:0.9 15:0.95 16:51.0 25:1.0 
1.1 0:0.003 1:0.005 2:0.143 3:0.1 4:0.122 5:0.073 6:0.105 7:1.0 8:0.056 9:22.0 10:1.0 11:22.0 12:0.315 13:37.0 14:0.864 15:1.0 16:41.0 17:1.0 
1.1 0:0.088 1:0.33 2:0.229 3:0.2 4:0.183 5:0.287 6:0.0 7:0.0 8:0.0 9:23.0 10:1.0 11:23.0 12:0.0 13:35.0 14:1.0 15:1.0 16:33.0 19:1.0 
1.1 0:0.09 1:0.087 2:0.057 3:0.109 4:0.06 5:0.038 6:0.054 7:1.0 8:0.043 9:48.0 10:0.941 11:48.0 12:0.423 13:64.0 14:0.922 15:0.941 16:68.0 17:1.0 
1.1 0:0.493 1:0.507 2:0.164 3:0.0 4:0.087 5:0.104 6:0.0 7:0.0 8:0.0 9:23.0 10:1.0 11:23.0 12:0.373 13:34.0 14:0.957 15:1.0 16:34.0 23:1.0 
1.1 0:0.185 1:0.187 2:0.275 3:0.067 4:0.161 5:0.138 6:0.0 7:0.0 8:0.0 9:20.0 10:0.952 11:20.0 12:0.366 13:39.0 14:0.952 15:0.952 16:39.0 23:1.0 
1.1 0:0.213 1:0.194 2:0.323 3:0.05 4:0.241 5:0.304 6:0.085 7:1.0 8:0.043 9:22.0 10:0.957 11:22.0 12:0.422 13:39.0 14:0.87 15:0.957 16:39.0 22:1.0 
1.1 0:0.045 1:0.074 2:0.224 3:0.0 4:0.0 5:0.104 6:0.0 7:0.0 8:0.0 9:24.0 10:1.0 11:24.0 12:0.364 13:42.0 14:0.958 15:1.0 16:42.0 21:1.0 
1.1 0:0.198 1:0.2 2:0.221 3:0.152 4:0.236 5:0.212 6:0.0 7:0.0 8:0.0 9:19.0 10:1.0 11:19.0 12:0.415 13:25.0 14:0.789 15:1.0 16:25.0 22:1.0 
1.1 0:0.0 1:0.0 2:0.111 3:0.0 4:0.02 5:0.03 6:0.0 7:0.0 8:0.0 9:18.0 10:1.0 11:18.0 12:0.0 13:34.0 14:1.0 15:1.0 16:32.0 17:1.0 
1.1 0:0.112 1:0.117 2:0.215 3:0.146 4:0.27 5:0.223 6:0.0 7:0.0 8:0.0 9:23.0 10:0.852 11:23.0 12:0.454 13:33.0 14:0.778 15:0.889 16:39.0 17:1.0 
1.1 0:0.013 1:0.019 2:0.24 3:0.279 4:0.236 5:0.272 6:0.105 7:1.0 8:0.056 9:21.0 10:0.955 11:21.0 12:0.365 13:40.0 14:0.955 15:0.955 16:40.0 22:1.0 
1.1 0:0.023 1:0.025 2:0.162 3:0.0 4:0.061 5:0.072 6:0.183 7:1.0 8:0.1 9:16.0 10:0.762 11:16.0 12:0.571 13:23.0 14:0.714 15:0.762 16:25.0 17:1.0 
1.1 0:0.016 1:0.042 2:0.169 3:0.0 4:0.028 5:0.031 6:0.0 7:0.0 8:0.0 9:17.0 10:1.0 11:17.0 12:0.0 13:32.0 14:1.0 15:1.0 16:30.0 21:1.0 
1.1 0:0.113 1:0.117 2:0.252 3:0.0 4:0.043 5:0.045 6:0.118 7:1.0 8:0.063 9:21.0 10:1.0 11:21.0 12:0.23 13:40.0 14:0.952 15:1.0 16:40.0 17:1.0 
0.48774846847238873 0:0.219 1:0.296 2:0.7 3:0.049 4:0.067 5:0.506 6:0.21 7:1.0 8:0.063 9:28.0 10:0.966 11:28.0 12:0.366 13:43.0 14:0.966 15:0.966 16:43.0 22:1.0 
1.1 0:0.014 1:0.015 2:0.133 3:0.0 4:0.0 5:0.0 6:0.0 7:0.0 8:0.0 9:24.0 10:0.923 11:24.0 12:0.334 13:44.0 14:0.885 15:0.923 16:48.0 17:1.0 
1.1 0:0.003 1:0.002 2:0.069 3:0.0 4:0.0 5:0.0 6:0.0 7:0.0 8:0.0 9:18.0 10:1.0 11:18.0 12:0.0 13:31.0 14:1.0 15:1.0 16:29.0 17:1.0 
1.1 0:0.006 1:0.018 2:0.087 3:0.137 4:0.071 5:0.116 6:0.0 7:0.0 8:0.0 9:19.0 10:1.0 11:19.0 12:0.0 13:32.0 14:1.0 15:1.0 16:30.0 21:1.0 
1.1 0:0.249 1:0.242 2:0.432 3:0.229 4:0.202 5:0.291 6:0.0 7:0.0 8:0.0 9:22.0 10:1.0 11:22.0 12:0.441 13:32.0 14:0.864 15:1.0 16:34.0 18:1.0 
1.1 0:0.029 1:0.079 2:0.126 3:0.047 4:0.05 5:0.038 6:0.0 7:0.0 8:0.0 9:20.0 10:1.0 11:20.0 12:0.0 13:40.0 14:1.0 15:1.0 16:38.0 21:1.0 
1.1 0:0.058 1:0.047 2:0.15 3:0.0 4:0.017 5:0.066 6:0.0 7:0.0 8:0.0 9:18.0 10:1.0 11:18.0 12:0.0 13:30.0 14:1.0 15:1.0 16:28.0 17:1.0 
1.1 0:0.175 1:0.182 2:0.02 3:0.0 4:0.0 5:0.038 6:0.0 7:0.0 8:0.0 9:18.0 10:1.0 11:18.0 12:0.0 13:35.0 14:1.0 15:1.0 16:33.0 17:1.0 
1.1 0:0.045 1:0.04 2:0.094 3:0.023 4:0.071 5:0.05 6:0.114 7:1.0 8:0.059 9:20.0 10:0.952 11:20.0 12:0.4 13:36.0 14:0.905 15:0.952 16:36.0 24:1.0 
1.1 0:0.074 1:0.14 2:0.173 3:0.0 4:0.0 5:0.0 6:0.118 7:1.0 8:0.059 9:25.0 10:0.926 11:25.0 12:0.414 13:35.0 14:0.926 15:0.944 16:37.0 20:1.0 
1.1 0:0.014 1:0.032 2:0.085 3:0.056 4:0.039 5:0.042 6:0.0 7:0.0 8:0.0 9:20.0 10:1.0 11:20.0 12:0.374 13:32.0 14:0.95 15:1.0 16:32.0 21:1.0 
1.0991216601116922 0:0.872 1:0.914 2:0.475 3:0.553 4:0.469 5:0.407 6:0.067 7:1.0 8:0.034 9:38.0 10:0.95 11:38.0 12:0.485 13:61.0 14:0.775 15:0.95 16:67.0 20:1.0 
1.1 0:0.0 1:0.0 2:0.038 3:0.0 4:0.0 5:0.0 6:0.0 7:0.0 8:0.0 9:24.0 10:1.0 11:24.0 12:0.0 13:36.0 14:0.958 15:1.0 16:36.0 23:1.0 
1.1 0:0.0 1:0.0 2:0.209 3:0.144 4:0.113 5:0.112 6:0.0 7:0.0 8:0.0 9:19.0 10:0.905 11:19.0 12:0.407 13:33.0 14:0.905 15:0.905 16:33.0 22:1.0 
1.1 0:0.017 1:0.023 2:0.184 3:0.19 4:0.127 5:0.163 6:0.0 7:0.0 8:0.0 9:25.0 10:0.926 11:25.0 12:0.398 13:43.0 14:0.852 15:0.907 16:47.0 18:1.0 
0.43634762544506434 0:0.813 1:0.803 2:0.813 3:0.322 4:0.24 5:0.682 6:0.815 7:10.0 8:0.714 9:28.0 10:0.875 11:28.0 12:0.538 13:28.0 14:0.531 15:0.922 16:26.0 18:1.0 
1.1 0:0.163 1:0.391 2:0.257 3:0.142 4:0.169 5:0.169 6:0.101 7:1.0 8:0.053 9:27.0 10:0.964 11:27.0 12:0.339 13:43.0 14:0.893 15:0.964 16:43.0 22:1.0 
1.1 0:0.003 1:0.002 2:0.146 3:0.047 4:0.104 5:0.153 6:0.0 7:0.0 8:0.0 9:25.0 10:0.926 11:25.0 12:0.37 13:40.0 14:0.889 15:0.944 16:42.0 31:1.0 
1.1 0:0.002 1:0.004 2:0.118 3:0.099 4:0.068 5:0.046 6:0.0 7:0.0 8:0.0 9:18.0 10:1.0 11:18.0 12:0.376 13:30.0 14:0.944 15:1.0 16:30.0 25:1.0 
1.1 0:0.002 1:0.004 2:0.05 3:0.034 4:0.015 5:0.011 6:0.0 7:0.0 8:0.0 9:20.0 10:1.0 11:20.0 12:0.369 13:36.0 14:0.95 15:1.0 16:36.0 24:1.0 
1.1 0:0.141 1:0.224 2:0.137 3:0.0 4:0.0 5:0.01 6:0.0 7:0.0 8:0.0 9:21.0 10:0.955 11:21.0 12:0.315 13:39.0 14:0.909 15:0.955 16:41.0 20:1.0 
1.1 0:0.327 1:0.412 2:0.295 3:0.775 4:0.4 5:0.405 6:0.0 7:0.0 8:0.0 9:26.0 10:0.963 11:26.0 12:0.387 13:46.0 14:0.926 15:0.963 16:48.0 20:1.0 
1.1 0:0.244 1:0.332 2:0.21 3:0.082 4:0.211 5:0.197 6:0.091 7:1.0 8:0.063 9:22.0 10:1.0 11:22.0 12:0.0 13:36.0 14:0.818 15:1.0 16:36.0 22:1.0 
1.1 0:0.151 1:0.126 2:0.184 3:0.0 4:0.018 5:0.012 6:0.102 7:1.0 8:0.053 9:26.0 10:1.0 11:26.0 12:0.302 13:46.0 14:0.923 15:1.0 16:46.0 23:1.0 
1.1 0:0.096 1:0.062 2:0.249 3:0.385 4:0.337 5:0.311 6:0.085 7:1.0 8:0.043 9:27.0 10:0.9 11:27.0 12:0.281 13:41.0 14:0.867 15:0.9 16:43.0 22:1.0 
1.1 0:0.148 1:0.249 2:0.116 3:0.0 4:0.074 5:0.054 6:0.0 7:0.0 8:0.0 9:22.0 10:0.957 11:22.0 12:0.37 13:36.0 14:0.957 15:0.957 16:36.0 21:1.0 
1.1 0:0.135 1:0.153 2:0.149 3:0.096 4:0.076 5:0.071 6:0.0 7:0.0 8:0.0 9:20.0 10:1.0 11:20.0 12:0.0 13:32.0 14:1.0 15:1.0 16:30.0 22:1.0 
1.1 0:0.0 1:0.0 2:0.007 3:0.0 4:0.0 5:0.0 6:0.0 7:0.0 8:0.0 9:25.0 10:1.0 11:25.0 12:0.221 13:47.0 14:0.96 15:1.0 16:47.0 23:1.0 
1.1 0:0.178 1:0.251 2:0.297 3:0.0 4:0.051 5:0.073 6:0.087 7:1.0 8:0.053 9:20.0 10:0.909 11:20.0 12:0.424 13:38.0 14:0.864 15:0.886 16:40.0 24:1.0 
0.029542740901597385 0:0.724 1:0.644 2:0.549 3:0.0 4:0.072 5:0.307 6:0.0 7:0.0 8:0.0 9:4.0 10:0.5 11:4.0 12:0.69 13:7.0 14:0.5 15:0.5 16:7.0 40:1.0 
1.1 0:0.211 1:0.166 2:0.157 3:0.0 4:0.167 5:0.125 6:0.2 7:2.0 8:0.111 9:24.0 10:0.923 11:24.0 12:0.44 13:42.0 14:0.846 15:0.904 16:44.0 22:1.0 
1.1 0:0.0 1:0.0 2:0.036 3:0.0 4:0.0 5:0.0 6:0.158 7:1.0 8:0.083 9:23.0 10:0.958 11:23.0 12:0.378 13:33.0 14:0.958 15:0.979 16:33.0 38:1.0 
1.1 0:0.252 1:0.459 2:0.222 3:0.0 4:0.0 5:0.06 6:0.109 7:1.0 8:0.056 9:28.0 10:1.0 11:28.0 12:0.413 13:45.0 14:0.893 15:1.0 16:47.0 22:1.0 
1.1 0:0.279 1:0.299 2:0.119 3:0.028 4:0.04 5:0.153 6:0.101 7:1.0 8:0.053 9:22.0 10:0.917 11:22.0 12:0.398 13:38.0 14:0.917 15:0.896 16:38.0 17:1.0 
1.1 0:0.107 1:0.122 2:0.185 3:0.239 4:0.123 5:0.089 6:0.0 7:0.0 8:0.0 9:23.0 10:1.0 11:23.0 12:0.362 13:44.0 14:0.957 15:1.0 16:44.0 23:1.0 
1.1 0:0.156 1:0.37 2:0.304 3:0.043 4:0.072 5:0.049 6:0.092 7:1.0 8:0.048 9:26.0 10:0.963 11:26.0 12:0.412 13:45.0 14:0.889 15:0.981 16:49.0 22:1.0 
1.1 0:0.051 1:0.047 2:0.189 3:0.0 4:0.065 5:0.066 6:0.185 7:2.0 8:0.1 9:22.0 10:0.88 11:22.0 12:0.421 13:40.0 14:0.88 15:0.88 16:42.0 22:1.0 
0.08517395586216196 0:0.01 1:0.031 2:0.313 3:0.04 4:0.046 5:0.052 6:0.333 7:2.0 8:0.154 9:22.0 10:1.0 11:22.0 12:0.431 13:35.0 14:0.864 15:1.0 16:39.0 22:1.0 
1.1 0:0.001 1:0.005 2:0.125 3:0.058 4:0.026 5:0.042 6:0.0 7:0.0 8:0.0 9:40.0 10:0.976 11:40.0 12:0.367 13:52.0 14:0.976 15:0.976 16:52.0 21:1.0 
1.1 0:0.0 1:0.0 2:0.016 3:0.0 4:0.0 5:0.008 6:0.0 7:0.0 8:0.0 9:18.0 10:0.947 11:18.0 12:0.257 13:29.0 14:0.947 15:0.947 16:29.0 31:1.0 
1.1 0:0.177 1:0.223 2:0.244 3:0.104 4:0.209 5:0.189 6:0.174 7:2.0 8:0.095 9:30.0 10:1.0 11:30.0 12:0.387 13:47.0 14:0.933 15:1.0 16:45.0 22:1.0 
1.1 0:0.152 1:0.257 2:0.063 3:0.115 4:0.129 5:0.129 6:0.252 7:2.0 8:0.143 9:24.0 10:0.96 11:24.0 12:0.392 13:40.0 14:0.88 15:0.96 16:38.0 22:1.0 
1.1 0:0.017 1:0.027 2:0.071 3:0.0 4:0.0 5:0.0 6:0.0 7:0.0 8:0.0 9:12.0 10:0.923 11:12.0 12:0.389 13:22.0 14:0.923 15:0.923 16:22.0 33:1.0 
1.1 0:0.047 1:0.069 2:0.149 3:0.068 4:0.05 5:0.061 6:0.096 7:1.0 8:0.05 9:26.0 10:0.929 11:26.0 12:0.419 13:42.0 14:0.893 15:0.929 16:44.0 20:1.0 
1.1 0:0.033 1:0.026 2:0.081 3:0.0 4:0.0 5:0.023 6:0.0 7:0.0 8:0.0 9:23.0 10:1.0 11:23.0 12:0.251 13:33.0 14:0.957 15:1.0 16:33.0 17:1.0 
1.1 0:0.075 1:0.111 2:0.176 3:0.028 4:0.057 5:0.064 6:0.087 7:1.0 8:0.053 9:23.0 10:1.0 11:23.0 12:0.369 13:39.0 14:0.87 15:1.0 16:39.0 17:1.0 
1.1 0:0.051 1:0.047 2:0.189 3:0.0 4:0.065 5:0.066 6:0.185 7:2.0 8:0.1 9:22.0 10:0.88 11:22.0 12:0.421 13:40.0 14:0.88 15:0.88 16:42.0 22:1.0 
0.4534499530564491 0:0.213 1:0.263 2:0.176 3:0.0 4:0.0 5:0.022 6:0.5 7:2.0 8:0.333 9:13.0 10:1.0 11:13.0 12:0.0 13:18.0 14:0.692 15:1.0 16:18.0 33:1.0 
1.1 0:0.003 1:0.002 2:0.069 3:0.0 4:0.0 5:0.0 6:0.0 7:0.0 8:0.0 9:18.0 10:1.0 11:18.0 12:0.0 13:31.0 14:1.0 15:1.0 16:29.0 17:1.0 
1.1 0:0.528 1:0.392 2:0.316 3:0.238 4:0.198 5:0.184 6:0.0 7:0.0 8:0.0 9:20.0 10:1.0 11:20.0 12:0.376 13:31.0 14:0.95 15:1.0 16:31.0 19:1.0 
1.1 0:0.333 1:0.331 2:0.338 3:0.242 4:0.18 5:0.192 6:0.101 7:1.0 8:0.053 9:24.0 10:0.923 11:24.0 12:0.281 13:43.0 14:0.923 15:0.923 16:39.0 22:1.0 
1.1 0:0.06 1:0.079 2:0.188 3:0.091 4:0.133 5:0.26 6:0.105 7:1.0 8:0.056 9:22.0 10:1.0 11:22.0 12:0.397 13:38.0 14:0.909 15:1.0 16:38.0 17:1.0 
1.1 0:0.013 1:0.027 2:0.15 3:0.0 4:0.06 5:0.095 6:0.0 7:0.0 8:0.0 9:24.0 10:0.96 11:24.0 12:0.366 13:40.0 14:0.96 15:0.96 16:40.0 20:1.0 
1.1 0:0.077 1:0.224 2:0.213 3:0.079 4:0.048 5:0.061 6:0.0 7:0.0 8:0.0 9:21.0 10:1.0 11:21.0 12:0.0 13:38.0 14:0.952 15:1.0 16:38.0 21:1.0 
1.1 0:0.209 1:0.226 2:0.245 3:0.0 4:0.137 5:0.112 6:0.0 7:0.0 8:0.0 9:29.0 10:0.967 11:29.0 12:0.372 13:40.0 14:0.967 15:0.967 16:40.0 25:1.0 
1.1 0:0.027 1:0.046 2:0.172 3:0.132 4:0.087 5:0.084 6:0.0 7:0.0 8:0.0 9:26.0 10:1.0 11:26.0 12:0.0 13:47.0 14:0.962 15:1.0 16:47.0 20:1.0 
1.1 0:0.187 1:0.335 2:0.092 3:0.099 4:0.111 5:0.093 6:0.101 7:1.0 8:0.053 9:35.0 10:1.0 11:35.0 12:0.381 13:54.0 14:0.943 15:1.0 16:54.0 22:1.0 
1.1 0:0.299 1:0.367 2:0.106 3:0.04 4:0.025 5:0.053 6:0.091 7:1.0 8:0.048 9:28.0 10:1.0 11:28.0 12:0.437 13:44.0 14:0.857 15:1.0 16:48.0 17:1.0 
1.1 0:0.0 1:0.0 2:0.03 3:0.0 4:0.0 5:0.0 6:0.098 7:1.0 8:0.059 9:24.0 10:1.0 11:24.0 12:0.306 13:42.0 14:0.875 15:1.0 16:46.0 23:1.0 
1.1 0:0.086 1:0.109 2:0.169 3:0.101 4:0.148 5:0.131 6:0.0 7:0.0 8:0.0 9:21.0 10:0.913 11:21.0 12:0.337 13:33.0 14:0.913 15:0.913 16:33.0 23:1.0 
1.1 0:0.0 1:0.0 2:0.024 3:0.0 4:0.0 5:0.02 6:0.0 7:0.0 8:0.0 9:23.0 10:1.0 11:23.0 12:0.0 13:44.0 14:1.0 15:1.0 16:42.0 18:1.0 
1.1 0:0.034 1:0.051 2:0.246 3:0.0 4:0.04 5:0.022 6:0.123 7:1.0 8:0.063 9:19.0 10:0.905 11:19.0 12:0.426 13:28.0 14:0.905 15:0.905 16:28.0 22:1.0 
1.1 0:0.011 1:0.012 2:0.311 3:0.138 4:0.187 5:0.204 6:0.089 7:1.0 8:0.045 9:27.0 10:0.931 11:27.0 12:0.383 13:50.0 14:0.931 15:0.931 16:48.0 22:1.0 
1.1 0:0.0 1:0.0 2:0.011 3:0.0 4:0.0 5:0.0 6:0.0 7:0.0 8:0.0 9:20.0 10:0.909 11:20.0 12:0.397 13:38.0 14:0.909 15:0.909 16:40.0 25:1.0 
1.1 0:0.017 1:0.012 2:0.18 3:0.0 4:0.0 5:0.033 6:0.107 7:1.0 8:0.056 9:20.0 10:0.909 11:20.0 12:0.431 13:35.0 14:0.864 15:0.909 16:37.0 17:1.0 
1.1 0:0.253 1:0.265 2:0.379 3:0.0 4:0.197 5:0.189 6:0.0 7:0.0 8:0.0 9:24.0 10:1.0 11:24.0 12:0.396 13:39.0 14:0.917 15:1.0 16:41.0 22:1.0 
1.1 0:0.002 1:0.009 2:0.08 3:0.0 4:0.079 5:0.075 6:0.0 7:0.0 8:0.0 9:22.0 10:1.0 11:22.0 12:0.0 13:40.0 14:1.0 15:1.0 16:38.0 21:1.0 
1.1 0:0.139 1:0.174 2:0.289 3:0.0 4:0.069 5:0.171 6:0.0 7:0.0 8:0.0 9:14.0 10:1.0 11:14.0 12:0.381 13:26.0 14:0.929 15:1.0 16:26.0 20:1.0 
1.1 0:0.013 1:0.035 2:0.127 3:0.039 4:0.098 5:0.155 6:0.0 7:0.0 8:0.0 9:22.0 10:0.957 11:22.0 12:0.394 13:40.0 14:0.913 15:0.957 16:42.0 21:1.0 
1.1 0:0.044 1:0.057 2:0.294 3:0.035 4:0.185 5:0.242 6:0.265 7:2.0 8:0.105 9:28.0 10:0.933 11:28.0 12:0.299 13:49.0 14:0.933 15:0.933 16:47.0 22:1.0 
1.1 0:0.01 1:0.008 2:0.063 3:0.0 4:0.016 5:0.028 6:0.07 7:1.0 8:0.045 9:36.0 10:1.0 11:36.0 12:0.356 13:59.0 14:0.972 15:1.0 16:59.0 17:1.0 
1.1 0:0.081 1:0.101 2:0.052 3:0.129 4:0.089 5:0.069 6:0.0 7:0.0 8:0.0 9:24.0 10:1.0 11:24.0 12:0.39 13:43.0 14:0.917 15:1.0 16:45.0 17:1.0 
1.1 0:0.133 1:0.196 2:0.171 3:0.0 4:0.0 5:0.019 6:0.167 7:2.0 8:0.105 9:22.0 10:0.88 11:22.0 12:0.406 13:38.0 14:0.8 15:0.9 16:42.0 22:1.0 
1.1 0:0.23 1:0.32 2:0.246 3:0.063 4:0.047 5:0.043 6:0.086 7:1.0 8:0.043 9:37.0 10:0.925 11:37.0 12:0.356 13:58.0 14:0.925 15:0.925 16:60.0 20:1.0 
1.1 0:0.056 1:0.162 2:0.093 3:0.08 4:0.079 5:0.063 6:0.136 7:1.0 8:0.071 9:16.0 10:0.889 11:16.0 12:0.422 13:27.0 14:0.889 15:0.889 16:27.0 21:1.0 
1.1 0:0.19 1:0.134 2:0.115 3:0.0 4:0.129 5:0.107 6:0.12 7:1.0 8:0.063 9:16.0 10:0.842 11:16.0 12:0.474 13:30.0 14:0.789 15:0.816 16:32.0 17:1.0 
1.1 0:0.008 1:0.02 2:0.202 3:0.0 4:0.0 5:0.0 6:0.0 7:0.0 8:0.0 9:20.0 10:0.952 11:20.0 12:0.434 13:34.0 14:0.857 15:0.952 16:38.0 21:1.0 
1.1 0:0.794 1:0.851 2:0.24 3:0.186 4:0.159 5:0.189 6:0.0 7:0.0 8:0.0 9:33.0 10:0.917 11:33.0 12:0.373 13:49.0 14:0.889 15:0.931 16:53.0 25:1.0 
1.1 0:0.48 1:0.559 2:0.162 3:0.1 4:0.114 5:0.089 6:0.0 7:0.0 8:0.0 9:17.0 10:1.0 11:17.0 12:0.0 13:29.0 14:1.0 15:1.0 16:27.0 21:1.0 
1.1 0:0.036 1:0.046 2:0.304 3:0.081 4:0.071 5:0.078 6:0.0 7:0.0 8:0.0 9:28.0 10:1.0 11:28.0 12:0.0 13:49.0 14:0.929 15:1.0 16:51.0 17:1.0 
1.1 0:0.182 1:0.171 2:0.249 3:0.09 4:0.079 5:0.074 6:0.118 7:1.0 8:0.063 9:27.0 10:0.9 11:27.0 12:0.372 13:46.0 14:0.867 15:0.9 16:50.0 23:1.0 
1.1 0:0.508 1:0.591 2:0.427 3:0.181 4:0.209 5:0.162 6:0.0 7:0.0 8:0.0 9:29.0 10:0.935 11:29.0 12:0.344 13:49.0 14:0.871 15:0.952 16:55.0 17:1.0 
1.1 0:0.131 1:0.158 2:0.17 3:0.0 4:0.161 5:0.116 6:0.0 7:0.0 8:0.0 9:23.0 10:1.0 11:23.0 12:0.316 13:39.0 14:0.913 15:1.0 16:41.0 22:1.0 
1.1 0:0.163 1:0.391 2:0.257 3:0.142 4:0.169 5:0.169 6:0.101 7:1.0 8:0.053 9:27.0 10:0.964 11:27.0 12:0.339 13:43.0 14:0.893 15:0.964 16:43.0 22:1.0 
1.1 0:0.118 1:0.278 2:0.14 3:0.286 4:0.146 5:0.143 6:0.0 7:0.0 8:0.0 9:23.0 10:0.92 11:23.0 12:0.393 13:41.0 14:0.92 15:0.92 16:43.0 21:1.0 
1.1 0:0.258 1:0.341 2:0.241 3:0.062 4:0.079 5:0.106 6:0.111 7:1.0 8:0.059 9:22.0 10:0.917 11:22.0 12:0.442 13:33.0 14:0.875 15:0.917 16:35.0 22:1.0 
1.1 0:0.106 1:0.15 2:0.158 3:0.052 4:0.07 5:0.094 6:0.2 7:2.0 8:0.111 9:20.0 10:0.909 11:20.0 12:0.397 13:38.0 14:0.909 15:0.909 16:38.0 22:1.0 
1.1 0:0.433 1:0.495 2:0.252 3:0.135 4:0.22 5:0.198 6:0.064 7:1.0 8:0.048 9:38.0 10:0.884 11:38.0 12:0.418 13:61.0 14:0.86 15:0.884 16:67.0 25:1.0 
0.5195132670924946 0:0.115 1:0.138 2:0.343 3:0.173 4:0.16 5:0.151 6:0.213 7:2.0 8:0.118 9:26.0 10:0.929 11:26.0 12:0.347 13:49.0 14:0.893 15:0.946 16:49.0 22:1.0 
1.1 0:0.035 1:0.079 2:0.251 3:0.105 4:0.146 5:0.153 6:0.213 7:2.0 8:0.118 9:28.0 10:0.933 11:28.0 12:0.366 13:46.0 14:0.833 15:0.933 16:48.0 22:1.0 
1.1 0:0.009 1:0.012 2:0.154 3:0.0 4:0.0 5:0.097 6:0.123 7:1.0 8:0.063 9:27.0 10:0.964 11:27.0 12:0.329 13:38.0 14:0.929 15:0.964 16:38.0 22:1.0 
1.1 0:0.008 1:0.025 2:0.113 3:0.072 4:0.036 5:0.082 6:0.0 7:0.0 8:0.0 9:24.0 10:1.0 11:24.0 12:0.403 13:36.0 14:0.917 15:1.0 16:38.0 21:1.0 
1.1 0:0.108 1:0.086 2:0.314 3:0.06 4:0.18 5:0.199 6:0.0 7:0.0 8:0.0 9:30.0 10:1.0 11:30.0 12:0.0 13:45.0 14:0.933 15:1.0 16:45.0 17:1.0 
1.1 0:0.081 1:0.133 2:0.238 3:0.132 4:0.191 5:0.222 6:0.171 7:2.0 8:0.1 9:25.0 10:0.862 11:25.0 12:0.429 13:48.0 14:0.862 15:0.862 16:48.0 22:1.0 
1.1 0:0.482 1:0.536 2:0.457 3:0.0 4:0.222 5:0.319 6:0.0 7:0.0 8:0.0 9:24.0 10:0.889 11:24.0 12:0.277 13:43.0 14:0.889 15:0.889 16:45.0 22:1.0 
1.1 0:0.1 1:0.063 2:0.167 3:0.047 4:0.068 5:0.154 6:0.16 7:2.0 8:0.087 9:23.0 10:0.958 11:23.0 12:0.345 13:38.0 14:0.833 15:0.979 16:44.0 22:1.0 
1.1 0:0.069 1:0.073 2:0.142 3:0.243 4:0.276 5:0.223 6:0.0 7:0.0 8:0.0 9:20.0 10:0.87 11:20.0 12:0.432 13:33.0 14:0.826 15:0.891 16:39.0 17:1.0 
1.1 0:0.315 1:0.415 2:0.372 3:0.0 4:0.133 5:0.134 6:0.092 7:1.0 8:0.056 9:25.0 10:1.0 11:25.0 12:0.389 13:44.0 14:0.92 15:1.0 16:44.0 20:1.0 
1.1 0:0.329 1:0.352 2:0.071 3:0.0 4:0.0 5:0.0 6:0.0 7:0.0 8:0.0 9:24.0 10:1.0 11:24.0 12:0.0 13:47.0 14:1.0 15:1.0 16:45.0 17:1.0 
1.1 0:0.028 1:0.093 2:0.204 3:0.185 4:0.216 5:0.194 6:0.136 7:1.0 8:0.071 9:22.0 10:0.957 11:22.0 12:0.397 13:38.0 14:0.913 15:0.957 16:38.0 21:1.0 
1.1 0:0.015 1:0.018 2:0.078 3:0.0 4:0.019 5:0.015 6:0.0 7:0.0 8:0.0 9:25.0 10:0.962 11:25.0 12:0.394 13:41.0 14:0.923 15:0.962 16:43.0 25:1.0 
1.1 0:0.226 1:0.299 2:0.304 3:0.133 4:0.114 5:0.141 6:0.0 7:0.0 8:0.0 9:19.0 10:1.0 11:19.0 12:0.368 13:32.0 14:0.842 15:1.0 16:34.0 17:1.0 
1.1 0:0.347 1:0.361 2:0.287 3:0.048 4:0.042 5:0.183 6:0.091 7:1.0 8:0.048 9:31.0 10:0.969 11:31.0 12:0.319 13:47.0 14:0.844 15:0.969 16:51.0 25:1.0 
1.1 0:0.079 1:0.096 2:0.29 3:0.153 4:0.275 5:0.251 6:0.125 7:1.0 8:0.067 9:24.0 10:0.96 11:24.0 12:0.417 13:42.0 14:0.88 15:0.98 16:44.0 22:1.0 
1.1 0:0.034 1:0.045 2:0.163 3:0.103 4:0.186 5:0.166 6:0.0 7:0.0 8:0.0 9:21.0 10:0.955 11:21.0 12:0.241 13:35.0 14:0.955 15:0.955 16:35.0 17:1.0 
1.1 0:0.022 1:0.024 2:0.129 3:0.041 4:0.099 5:0.071 6:0.0 7:0.0 8:0.0 9:18.0 10:0.947 11:18.0 12:0.375 13:31.0 14:0.947 15:0.947 16:31.0 21:1.0 
1.1 0:0.172 1:0.189 2:0.061 3:0.0 4:0.0 5:0.047 6:0.105 7:1.0 8:0.056 9:21.0 10:1.0 11:21.0 12:0.365 13:38.0 14:0.905 15:1.0 16:38.0 17:1.0 
1.1 0:0.077 1:0.078 2:0.326 3:0.027 4:0.068 5:0.063 6:0.105 7:1.0 8:0.056 9:24.0 10:1.0 11:24.0 12:0.42 13:40.0 14:0.875 15:1.0 16:42.0 24:1.0 
1.1 0:0.0 1:0.0 2:0.017 3:0.0 4:0.049 5:0.051 6:0.0 7:0.0 8:0.0 9:26.0 10:1.0 11:26.0 12:0.0 13:43.0 14:1.0 15:1.0 16:41.0 18:1.0 
1.1 0:0.039 1:0.072 2:0.117 3:0.0 4:0.0 5:0.021 6:0.0 7:0.0 8:0.0 9:27.0 10:1.0 11:27.0 12:0.0 13:50.0 14:1.0 15:1.0 16:48.0 17:1.0 
1.1 0:0.055 1:0.059 2:0.347 3:0.076 4:0.14 5:0.156 6:0.0 7:0.0 8:0.0 9:22.0 10:0.88 11:22.0 12:0.392 13:34.0 14:0.88 15:0.9 16:38.0 25:1.0 
1.1 0:0.021 1:0.047 2:0.093 3:0.0 4:0.0 5:0.072 6:0.0 7:0.0 8:0.0 9:14.0 10:1.0 11:14.0 12:0.0 13:28.0 14:1.0 15:1.0 16:26.0 20:1.0 
1.1 0:0.476 1:0.439 2:0.399 3:0.0 4:0.08 5:0.062 6:0.154 7:2.0 8:0.083 9:27.0 10:0.964 11:27.0 12:0.345 13:52.0 14:0.929 15:0.964 16:50.0 22:1.0 
1.1 0:0.112 1:0.15 2:0.052 3:0.133 4:0.096 5:0.098 6:0.0 7:0.0 8:0.0 9:19.0 10:1.0 11:19.0 12:0.41 13:31.0 14:0.895 15:1.0 16:33.0 21:1.0 
1.1 0:0.037 1:0.032 2:0.193 3:0.0 4:0.125 5:0.201 6:0.0 7:0.0 8:0.0 9:21.0 10:1.0 11:21.0 12:0.0 13:35.0 14:1.0 15:1.0 16:33.0 17:1.0 
1.1 0:0.788 1:0.799 2:0.538 3:0.125 4:0.077 5:0.101 6:0.0 7:0.0 8:0.0 9:32.0 10:0.941 11:32.0 12:0.425 13:44.0 14:0.912 15:0.956 16:46.0 19:1.0 
1.1 0:0.028 1:0.066 2:0.131 3:0.167 4:0.11 5:0.156 6:0.191 7:2.0 8:0.105 9:29.0 10:1.0 11:29.0 12:0.433 13:46.0 14:0.862 15:1.0 16:46.0 22:1.0 
1.1 0:0.028 1:0.059 2:0.384 3:0.194 4:0.16 5:0.178 6:0.154 7:2.0 8:0.083 9:25.0 10:0.962 11:25.0 12:0.221 13:47.0 14:0.962 15:0.962 16:47.0 22:1.0 
1.1 0:0.128 1:0.128 2:0.444 3:0.0 4:0.22 5:0.301 6:0.0 7:0.0 8:0.0 9:20.0 10:0.909 11:20.0 12:0.374 13:31.0 14:0.818 15:0.909 16:35.0 22:1.0 
1.1 0:0.069 1:0.181 2:0.313 3:0.285 4:0.181 5:0.16 6:0.0 7:0.0 8:0.0 9:23.0 10:1.0 11:23.0 12:0.225 13:42.0 14:0.913 15:1.0 16:44.0 21:1.0 
1.1 0:0.023 1:0.039 2:0.087 3:0.0 4:0.0 5:0.041 6:0.0 7:0.0 8:0.0 9:24.0 10:1.0 11:24.0 12:0.0 13:47.0 14:1.0 15:1.0 16:45.0 20:1.0 
1.1 0:0.107 1:0.122 2:0.185 3:0.239 4:0.123 5:0.089 6:0.0 7:0.0 8:0.0 9:23.0 10:1.0 11:23.0 12:0.362 13:44.0 14:0.957 15:1.0 16:44.0 23:1.0 
1.1 0:0.166 1:0.261 2:0.094 3:0.0 4:0.235 5:0.203 6:0.0 7:0.0 8:0.0 9:21.0 10:0.875 11:21.0 12:0.38 13:36.0 14:0.875 15:0.875 16:40.0 21:1.0 
1.1 0:0.008 1:0.013 2:0.187 3:0.452 4:0.433 5:0.383 6:0.0 7:0.0 8:0.0 9:24.0 10:1.0 11:24.0 12:0.4 13:35.0 14:0.875 15:1.0 16:37.0 38:1.0 
1.1 0:0.051 1:0.052 2:0.11 3:0.057 4:0.04 5:0.082 6:0.118 7:1.0 8:0.063 9:22.0 10:1.0 11:22.0 12:0.403 13:35.0 14:0.909 15:1.0 16:35.0 23:1.0 
0.13318419090961997 0:0.623 1:0.629 2:0.285 3:0.0 4:0.0 5:0.0 6:0.2 7:1.0 8:0.111 9:22.0 10:1.0 11:22.0 12:0.395 13:28.0 14:0.818 15:1.0 16:28.0 38:1.0 
1.1 0:0.116 1:0.154 2:0.078 3:0.108 4:0.064 5:0.065 6:0.0 7:0.0 8:0.0 9:16.0 10:1.0 11:16.0 12:0.378 13:28.0 14:0.938 15:1.0 16:28.0 22:1.0 
1.1 0:0.281 1:0.337 2:0.422 3:0.089 4:0.082 5:0.066 6:0.092 7:1.0 8:0.048 9:29.0 10:0.906 11:29.0 12:0.438 13:45.0 14:0.875 15:0.922 16:49.0 20:1.0 
1.1 0:0.141 1:0.224 2:0.137 3:0.0 4:0.0 5:0.01 6:0.0 7:0.0 8:0.0 9:21.0 10:0.955 11:21.0 12:0.315 13:39.0 14:0.909 15:0.955 16:41.0 20:1.0 
1.1 0:0.261 1:0.269 2:0.161 3:0.076 4:0.101 5:0.321 6:0.0 7:0.0 8:0.0 9:20.0 10:0.952 11:20.0 12:0.37 13:35.0 14:0.952 15:0.952 16:35.0 25:1.0 
1.1 0:0.011 1:0.012 2:0.311 3:0.138 4:0.187 5:0.204 6:0.089 7:1.0 8:0.045 9:27.0 10:0.931 11:27.0 12:0.383 13:50.0 14:0.931 15:0.931 16:48.0 22:1.0 
1.1 0:0.023 1:0.039 2:0.171 3:0.161 4:0.106 5:0.087 6:0.0 7:0.0 8:0.0 9:14.0 10:1.0 11:14.0 12:0.383 13:23.0 14:0.857 15:1.0 16:23.0 19:1.0 
1.1 0:0.007 1:0.018 2:0.037 3:0.0 4:0.0 5:0.0 6:0.309 7:2.0 8:0.182 9:29.0 10:1.0 11:29.0 12:0.458 13:38.0 14:0.862 15:1.0 16:38.0 21:1.0 
1.1 0:0.385 1:0.55 2:0.424 3:0.197 4:0.145 5:0.122 6:0.0 7:0.0 8:0.0 9:22.0 10:0.957 11:22.0 12:0.364 13:41.0 14:0.957 15:0.957 16:41.0 22:1.0 
1.1 0:0.032 1:0.079 2:0.152 3:0.163 4:0.079 5:0.069 6:0.0 7:0.0 8:0.0 9:20.0 10:1.0 11:20.0 12:0.0 13:32.0 14:1.0 15:1.0 16:30.0 21:1.0 
1.078885870514194 0:0.609 1:0.696 2:0.713 3:0.0 4:0.0 5:0.0 6:0.187 7:2.0 8:0.133 9:35.0 10:0.921 11:35.0 12:0.398 13:46.0 14:0.895 15:0.921 16:46.0 25:1.0 
1.1 0:0.0 1:0.002 2:0.064 3:0.318 4:0.194 5:0.132 6:0.0 7:0.0 8:0.0 9:20.0 10:1.0 11:20.0 12:0.367 13:38.0 14:0.95 15:1.0 16:38.0 22:1.0 
1.1 0:0.209 1:0.182 2:0.494 3:0.335 4:0.351 5:0.269 6:0.111 7:1.0 8:0.059 9:22.0 10:0.917 11:22.0 12:0.39 13:43.0 14:0.917 15:0.917 16:43.0 22:1.0 
1.1 0:0.29 1:0.301 2:0.177 3:0.106 4:0.09 5:0.075 6:0.0 7:0.0 8:0.0 9:24.0 10:1.0 11:24.0 12:0.361 13:46.0 14:0.958 15:1.0 16:46.0 17:1.0 
1.1 0:0.0 1:0.0 2:0.028 3:0.12 4:0.055 5:0.023 6:0.0 7:0.0 8:0.0 9:19.0 10:1.0 11:19.0 12:0.0 13:34.0 14:1.0 15:1.0 16:32.0 34:1.0 
1.1 0:0.074 1:0.083 2:0.167 3:0.0 4:0.0 5:0.0 6:0.1 7:1.0 8:0.053 9:23.0 10:1.0 11:23.0 12:0.393 13:41.0 14:0.913 15:1.0 16:41.0 20:1.0 
1.1 0:0.071 1:0.054 2:0.557 3:0.099 4:0.084 5:0.086 6:0.092 7:1.0 8:0.056 9:21.0 10:0.913 11:21.0 12:0.427 13:37.0 14:0.87 15:0.891 16:39.0 24:1.0 
1.1 0:0.506 1:0.441 2:0.183 3:0.0 4:0.038 5:0.048 6:0.0 7:0.0 8:0.0 9:14.0 10:1.0 11:14.0 12:0.0 13:26.0 14:1.0 15:1.0 16:24.0 18:1.0 
1.1 0:0.07 1:0.095 2:0.194 3:0.065 4:0.13 5:0.107 6:0.0 7:0.0 8:0.0 9:28.0 10:1.0 11:28.0 12:0.362 13:46.0 14:0.964 15:1.0 16:46.0 20:1.0 
1.1 0:0.028 1:0.066 2:0.131 3:0.167 4:0.11 5:0.156 6:0.191 7:2.0 8:0.105 9:29.0 10:1.0 11:29.0 12:0.433 13:46.0 14:0.862 15:1.0 16:46.0 22:1.0 
1.1 0:0.003 1:0.005 2:0.143 3:0.1 4:0.122 5:0.073 6:0.105 7:1.0 8:0.056 9:22.0 10:1.0 11:22.0 12:0.315 13:37.0 14:0.864 15:1.0 16:41.0 17:1.0 
1.1 0:0.16 1:0.159 2:0.169 3:0.182 4:0.219 5:0.24 6:0.0 7:0.0 8:0.0 9:26.0 10:0.929 11:26.0 12:0.405 13:38.0 14:0.929 15:0.946 16:40.0 20:1.0 
1.1 0:0.159 1:0.251 2:0.336 3:0.0 4:0.0 5:0.091 6:0.105 7:1.0 8:0.056 9:23.0 10:0.885 11:23.0 12:0.462 13:42.0 14:0.808 15:0.865 16:44.0 20:1.0 
1.1 0:0.475 1:0.507 2:0.307 3:0.102 4:0.153 5:0.14 6:0.0 7:0.0 8:0.0 9:21.0 10:0.913 11:21.0 12:0.427 13:37.0 14:0.87 15:0.891 16:41.0 22:1.0 
1.1 0:0.004 1:0.013 2:0.146 3:0.04 4:0.151 5:0.145 6:0.0 7:0.0 8:0.0 9:21.0 10:1.0 11:21.0 12:0.369 13:36.0 14:0.952 15:1.0 16:36.0 21:1.0 
1.1 0:0.009 1:0.012 2:0.154 3:0.0 4:0.0 5:0.097 6:0.123 7:1.0 8:0.063 9:27.0 10:0.964 11:27.0 12:0.329 13:38.0 14:0.929 15:0.964 16:38.0 22:1.0 
1.1 0:0.234 1:0.286 2:0.465 3:0.06 4:0.053 5:0.039 6:0.0 7:0.0 8:0.0 9:29.0 10:0.967 11:29.0 12:0.387 13:47.0 14:0.933 15:0.967 16:49.0 20:1.0 
1.1 0:0.005 1:0.004 2:0.189 3:0.0 4:0.024 5:0.065 6:0.141 7:1.0 8:0.071 9:22.0 10:0.733 11:22.0 12:0.556 13:34.0 14:0.733 15:0.733 16:36.0 23:1.0 
1.1 0:0.01 1:0.008 2:0.063 3:0.0 4:0.016 5:0.028 6:0.101 7:1.0 8:0.053 9:22.0 10:1.0 11:22.0 12:0.0 13:41.0 14:0.955 15:1.0 16:41.0 17:1.0 
1.1 0:0.0 1:0.0 2:0.032 3:0.0 4:0.019 5:0.029 6:0.0 7:0.0 8:0.0 9:41.0 10:1.0 11:41.0 12:0.374 13:64.0 14:0.951 15:1.0 16:66.0 17:1.0 
1.1 0:0.062 1:0.078 2:0.156 3:0.171 4:0.129 5:0.093 6:0.0 7:0.0 8:0.0 9:25.0 10:0.962 11:25.0 12:0.357 13:44.0 14:0.885 15:0.962 16:48.0 25:1.0 
1.1 0:0.207 1:0.261 2:0.415 3:0.263 4:0.294 5:0.225 6:0.0 7:0.0 8:0.0 9:23.0 10:1.0 11:23.0 12:0.226 13:43.0 14:0.957 15:1.0 16:43.0 24:1.0 
1.1 0:0.0 1:0.0 2:0.016 3:0.0 4:0.0 5:0.016 6:0.0 7:0.0 8:0.0 9:22.0 10:1.0 11:22.0 12:0.0 13:42.0 14:1.0 15:1.0 16:40.0 18:1.0 
1.1 0:0.013 1:0.012 2:0.13 3:0.068 4:0.134 5:0.115 6:0.096 7:1.0 8:0.05 9:22.0 10:1.0 11:22.0 12:0.365 13:38.0 14:0.909 15:1.0 16:38.0 22:1.0 
1.1 0:0.254 1:0.323 2:0.275 3:0.0 4:0.152 5:0.278 6:0.144 7:1.0 8:0.077 9:29.0 10:0.967 11:29.0 12:0.383 13:39.0 14:0.9 15:0.967 16:39.0 25:1.0 
1.1 0:0.178 1:0.251 2:0.297 3:0.0 4:0.051 5:0.073 6:0.087 7:1.0 8:0.053 9:20.0 10:0.909 11:20.0 12:0.424 13:38.0 14:0.864 15:0.886 16:40.0 24:1.0 
1.1 0:0.132 1:0.246 2:0.102 3:0.165 4:0.122 5:0.099 6:0.0 7:0.0 8:0.0 9:25.0 10:1.0 11:25.0 12:0.0 13:38.0 14:1.0 15:1.0 16:36.0 21:1.0 
1.1 0:0.392 1:0.45 2:0.411 3:0.0 4:0.051 5:0.041 6:0.105 7:1.0 8:0.056 9:32.0 10:1.0 11:32.0 12:0.357 13:49.0 14:0.875 15:1.0 16:45.0 20:1.0 
1.1 0:0.187 1:0.209 2:0.375 3:0.0 4:0.0 5:0.24 6:0.129 7:1.0 8:0.037 9:29.0 10:0.967 11:29.0 12:0.411 13:48.0 14:0.8 15:0.967 16:56.0 20:1.0 
1.1 0:0.697 1:0.656 2:0.299 3:0.075 4:0.067 5:0.052 6:0.0 7:0.0 8:0.0 9:21.0 10:0.955 11:21.0 12:0.376 13:32.0 14:0.955 15:0.955 16:32.0 25:1.0 
1.1 0:0.003 1:0.002 2:0.039 3:0.0 4:0.054 5:0.007 6:0.196 7:1.0 8:0.059 9:26.0 10:0.929 11:26.0 12:0.358 13:44.0 14:0.893 15:0.929 16:46.0 24:1.0 
1.1 0:0.088 1:0.33 2:0.229 3:0.2 4:0.183 5:0.287 6:0.0 7:0.0 8:0.0 9:23.0 10:1.0 11:23.0 12:0.0 13:35.0 14:1.0 15:1.0 16:33.0 19:1.0 
1.1 0:0.001 1:0.005 2:0.249 3:0.057 4:0.071 5:0.087 6:0.0 7:0.0 8:0.0 9:27.0 10:1.0 11:27.0 12:0.353 13:44.0 14:0.852 15:1.0 16:50.0 31:1.0 
1.1 0:0.027 1:0.082 2:0.2 3:0.042 4:0.088 5:0.233 6:0.0 7:0.0 8:0.0 9:28.0 10:1.0 11:28.0 12:0.3 13:48.0 14:0.929 15:1.0 16:50.0 20:1.0 
1.1 0:0.027 1:0.066 2:0.142 3:0.219 4:0.183 5:0.173 6:0.0 7:0.0 8:0.0 9:18.0 10:1.0 11:18.0 12:0.0 13:30.0 14:1.0 15:1.0 16:28.0 21:1.0 
1.1 0:0.493 1:0.503 2:0.297 3:0.0 4:0.027 5:0.162 6:0.0 7:0.0 8:0.0 9:18.0 10:1.0 11:18.0 12:0.0 13:33.0 14:1.0 15:1.0 16:31.0 25:1.0 
1.1 0:0.264 1:0.473 2:0.099 3:0.138 4:0.103 5:0.088 6:0.0 7:0.0 8:0.0 9:25.0 10:0.962 11:25.0 12:0.44 13:42.0 14:0.846 15:0.962 16:48.0 21:1.0 
0.2786447452885805 0:0.05 1:0.07 2:0.216 3:0.22 4:0.286 5:0.324 6:0.378 7:3.0 8:0.231 9:21.0 10:0.955 11:21.0 12:0.606 13:22.0 14:0.682 15:0.955 16:24.0 20:1.0 
1.1 0:0.443 1:0.459 2:0.301 3:0.208 4:0.117 5:0.182 6:0.0 7:0.0 8:0.0 9:25.0 10:1.0 11:25.0 12:0.0 13:48.0 14:0.96 15:1.0 16:48.0 21:1.0 
1.1 0:0.097 1:0.093 2:0.362 3:0.0 4:0.1 5:0.182 6:0.236 7:2.0 8:0.125 9:28.0 10:1.0 11:28.0 12:0.413 13:45.0 14:0.893 15:1.0 16:45.0 23:1.0 
1.1 0:0.397 1:0.523 2:0.304 3:0.045 4:0.053 5:0.065 6:0.088 7:1.0 8:0.045 9:33.0 10:0.868 11:33.0 12:0.449 13:49.0 14:0.842 15:0.868 16:51.0 20:1.0 
1.1 0:0.433 1:0.539 2:0.365 3:0.164 4:0.181 5:0.147 6:0.0 7:0.0 8:0.0 9:27.0 10:0.931 11:27.0 12:0.387 13:47.0 14:0.931 15:0.931 16:49.0 22:1.0 
1.1 0:0.01 1:0.013 2:0.097 3:0.0 4:0.0 5:0.0 6:0.0 7:0.0 8:0.0 9:27.0 10:1.0 11:27.0 12:0.438 13:43.0 14:0.852 15:1.0 16:49.0 25:1.0 
1.1 0:0.0 1:0.0 2:0.066 3:0.023 4:0.027 5:0.018 6:0.0 7:0.0 8:0.0 9:14.0 10:1.0 11:14.0 12:0.0 13:28.0 14:1.0 15:1.0 16:26.0 17:1.0 
1.1 0:0.072 1:0.09 2:0.136 3:0.0 4:0.012 5:0.2 6:0.0 7:0.0 8:0.0 9:24.0 10:1.0 11:24.0 12:0.375 13:34.0 14:0.958 15:1.0 16:34.0 17:1.0 
1.1 0:0.253 1:0.265 2:0.379 3:0.0 4:0.197 5:0.189 6:0.0 7:0.0 8:0.0 9:24.0 10:1.0 11:24.0 12:0.396 13:39.0 14:0.917 15:1.0 16:41.0 22:1.0 
1.1 0:0.63 1:0.587 2:0.284 3:0.0 4:0.025 5:0.038 6:0.0 7:0.0 8:0.0 9:19.0 10:1.0 11:19.0 12:0.0 13:32.0 14:0.947 15:1.0 16:32.0 17:1.0 
1.1 0:0.028 1:0.043 2:0.107 3:0.139 4:0.051 5:0.068 6:0.0 7:0.0 8:0.0 9:22.0 10:0.917 11:22.0 12:0.412 13:33.0 14:0.917 15:0.938 16:35.0 18:1.0 
1.1 0:0.045 1:0.04 2:0.094 3:0.023 4:0.071 5:0.05 6:0.114 7:1.0 8:0.059 9:20.0 10:0.952 11:20.0 12:0.4 13:36.0 14:0.905 15:0.952 16:36.0 24:1.0 
1.1 0:0.03 1:0.122 2:0.235 3:0.0 4:0.0 5:0.014 6:0.0 7:0.0 8:0.0 9:23.0 10:0.958 11:23.0 12:0.406 13:38.0 14:0.792 15:0.958 16:44.0 21:1.0 
1.1 0:0.248 1:0.398 2:0.189 3:0.021 4:0.069 5:0.118 6:0.101 7:1.0 8:0.053 9:19.0 10:0.864 11:19.0 12:0.323 13:34.0 14:0.864 15:0.864 16:34.0 17:1.0 
1.1 0:0.017 1:0.057 2:0.087 3:0.144 4:0.12 5:0.137 6:0.0 7:0.0 8:0.0 9:20.0 10:1.0 11:20.0 12:0.0 13:32.0 14:1.0 15:1.0 16:30.0 21:1.0 
1.1 0:0.0 1:0.0 2:0.03 3:0.0 4:0.0 5:0.0 6:0.098 7:1.0 8:0.059 9:24.0 10:1.0 11:24.0 12:0.306 13:42.0 14:0.875 15:1.0 16:46.0 23:1.0 
1.1 0:0.032 1:0.106 2:0.123 3:0.095 4:0.041 5:0.023 6:0.0 7:0.0 8:0.0 9:24.0 10:0.889 11:24.0 12:0.331 13:43.0 14:0.852 15:0.907 16:49.0 21:1.0 
1.1 0:0.03 1:0.061 2:0.11 3:0.178 4:0.15 5:0.125 6:0.0 7:0.0 8:0.0 9:24.0 10:0.96 11:24.0 12:0.372 13:36.0 14:0.96 15:0.96 16:36.0 22:1.0 
1.1 0:0.762 1:0.718 2:0.376 3:0.392 4:0.331 5:0.281 6:0.0 7:0.0 8:0.0 9:18.0 10:1.0 11:18.0 12:0.0 13:26.0 14:1.0 15:1.0 16:24.0 17:1.0 
1.1 0:0.185 1:0.187 2:0.275 3:0.067 4:0.161 5:0.138 6:0.0 7:0.0 8:0.0 9:20.0 10:0.952 11:20.0 12:0.366 13:39.0 14:0.952 15:0.952 16:39.0 23:1.0 
1.1 0:0.71 1:0.818 2:0.456 3:0.0 4:0.079 5:0.098 6:0.0 7:0.0 8:0.0 9:20.0 10:1.0 11:20.0 12:0.0 13:25.0 14:0.85 15:1.0 16:29.0 22:1.0 
1.1 0:0.15 1:0.227 2:0.137 3:0.0 4:0.133 5:0.08 6:0.0 7:0.0 8:0.0 9:16.0 10:0.941 11:16.0 12:0.381 13:25.0 14:0.882 15:0.941 16:27.0 24:1.0 
1.1 0:0.0 1:0.0 2:0.038 3:0.0 4:0.0 5:0.0 6:0.0 7:0.0 8:0.0 9:21.0 10:1.0 11:21.0 12:0.366 13:39.0 14:0.952 15:1.0 16:39.0 25:1.0 
1.1 0:0.044 1:0.057 2:0.294 3:0.035 4:0.185 5:0.242 6:0.265 7:2.0 8:0.105 9:28.0 10:0.933 11:28.0 12:0.299 13:49.0 14:0.933 15:0.933 16:47.0 22:1.0 
1.1 0:0.209 1:0.182 2:0.494 3:0.335 4:0.351 5:0.269 6:0.111 7:1.0 8:0.059 9:22.0 10:0.917 11:22.0 12:0.39 13:43.0 14:0.917 15:0.917 16:43.0 22:1.0 
1.1 0:0.003 1:0.002 2:0.039 3:0.0 4:0.054 5:0.007 6:0.196 7:1.0 8:0.059 9:26.0 10:0.929 11:26.0 12:0.358 13:44.0 14:0.893 15:0.929 16:46.0 24:1.0 
1.1 0:0.29 1:0.267 2:0.289 3:0.562 4:0.321 5:0.361 6:0.175 7:2.0 8:0.095 9:31.0 10:0.912 11:30.0 12:0.364 13:55.0 14:0.824 15:0.912 16:59.0 22:1.0 
1.1 0:0.004 1:0.016 2:0.32 3:0.151 4:0.124 5:0.162 6:0.0 7:0.0 8:0.0 9:19.0 10:1.0 11:19.0 12:0.0 13:32.0 14:0.947 15:1.0 16:32.0 21:1.0 
1.1 0:0.565 1:0.679 2:0.281 3:0.0 4:0.0 5:0.0 6:0.0 7:0.0 8:0.0 9:34.0 10:1.0 11:34.0 12:0.422 13:53.0 14:0.882 15:1.0 16:55.0 20:1.0 
1.1 0:0.104 1:0.129 2:0.177 3:0.127 4:0.188 5:0.207 6:0.0 7:0.0 8:0.0 9:27.0 10:0.964 11:27.0 12:0.369 13:38.0 14:0.929 15:0.964 16:40.0 20:1.0 
1.1 0:0.074 1:0.083 2:0.167 3:0.0 4:0.0 5:0.0 6:0.1 7:1.0 8:0.053 9:23.0 10:1.0 11:23.0 12:0.393 13:41.0 14:0.913 15:1.0 16:41.0 20:1.0 
1.1 0:0.028 1:0.066 2:0.131 3:0.167 4:0.11 5:0.156 6:0.191 7:2.0 8:0.105 9:29.0 10:1.0 11:29.0 12:0.433 13:46.0 14:0.862 15:1.0 16:46.0 22:1.0 
1.1 0:0.686 1:0.785 2:0.181 3:0.0 4:0.0 5:0.053 6:0.0 7:0.0 8:0.0 9:23.0 10:1.0 11:23.0 12:0.0 13:35.0 14:1.0 15:1.0 16:33.0 17:1.0 
1.1 0:0.22 1:0.255 2:0.338 3:0.059 4:0.201 5:0.183 6:0.0 7:0.0 8:0.0 9:27.0 10:0.964 11:27.0 12:0.301 13:45.0 14:0.893 15:0.982 16:49.0 24:1.0 
1.1 0:0.0 1:0.0 2:0.011 3:0.0 4:0.0 5:0.0 6:0.0 7:0.0 8:0.0 9:20.0 10:0.909 11:20.0 12:0.397 13:38.0 14:0.909 15:0.909 16:40.0 25:1.0 
1.1 0:0.176 1:0.288 2:0.268 3:0.118 4:0.118 5:0.154 6:0.112 7:1.0 8:0.059 9:26.0 10:0.897 11:26.0 12:0.431 13:47.0 14:0.862 15:0.879 16:51.0 22:1.0 
1.1 0:0.005 1:0.009 2:0.301 3:0.082 4:0.072 5:0.362 6:0.095 7:1.0 8:0.05 9:23.0 10:1.0 11:23.0 12:0.362 13:42.0 14:0.913 15:1.0 16:42.0 24:1.0 
1.1 0:0.413 1:0.429 2:0.682 3:0.0 4:0.051 5:0.076 6:0.098 7:1.0 8:0.048 9:40.0 10:0.93 11:40.0 12:0.381 13:57.0 14:0.884 15:0.93 16:55.0 17:1.0 
1.1 0:0.003 1:0.011 2:0.065 3:0.036 4:0.042 5:0.058 6:0.0 7:0.0 8:0.0 9:27.0 10:1.0 11:27.0 12:0.0 13:48.0 14:1.0 15:1.0 16:46.0 18:1.0 
1.1 0:0.717 1:0.738 2:0.537 3:0.21 4:0.181 5:0.19 6:0.0 7:0.0 8:0.0 9:27.0 10:0.931 11:27.0 12:0.327 13:45.0 14:0.897 15:0.931 16:45.0 22:1.0 
1.1 0:0.089 1:0.098 2:0.161 3:0.059 4:0.084 5:0.09 6:0.143 7:1.0 8:0.077 9:16.0 10:0.889 11:16.0 12:0.415 13:29.0 14:0.889 15:0.861 16:29.0 17:1.0 
1.1 0:0.186 1:0.226 2:0.389 3:0.0 4:0.0 5:0.024 6:0.083 7:1.0 8:0.043 9:21.0 10:0.913 11:21.0 12:0.482 13:35.0 14:0.783 15:0.913 16:41.0 20:1.0 
1.1 0:0.175 1:0.289 2:0.103 3:0.0 4:0.182 5:0.133 6:0.0 7:0.0 8:0.0 9:24.0 10:1.0 11:24.0 12:0.0 13:48.0 14:1.0 15:1.0 16:46.0 21:1.0 
0.6319309088435517 0:0.245 1:0.287 2:0.381 3:0.0 4:0.0 5:0.0 6:0.163 7:2.0 8:0.087 9:40.0 10:0.93 11:40.0 12:0.377 13:58.0 14:0.884 15:0.93 16:58.0 17:1.0 
1.1 0:0.07 1:0.071 2:0.118 3:0.019 4:0.015 5:0.042 6:0.0 7:0.0 8:0.0 9:23.0 10:1.0 11:23.0 12:0.0 13:45.0 14:1.0 15:1.0 16:43.0 23:1.0 
1.1 0:0.077 1:0.091 2:0.159 3:0.114 4:0.102 5:0.045 6:0.111 7:1.0 8:0.059 9:23.0 10:1.0 11:23.0 12:0.412 13:38.0 14:0.826 15:1.0 16:40.0 25:1.0 
1.1 0:0.231 1:0.235 2:0.159 3:0.0 4:0.049 5:0.044 6:0.183 7:1.0 8:0.1 9:19.0 10:0.905 11:19.0 12:0.404 13:34.0 14:0.905 15:0.905 16:34.0 34:1.0 
1.1 0:0.392 1:0.464 2:0.165 3:0.04 4:0.025 5:0.047 6:0.0 7:0.0 8:0.0 9:15.0 10:1.0 11:15.0 12:0.425 13:23.0 14:0.8 15:1.0 16:25.0 33:1.0 
1.1 0:0.13 1:0.205 2:0.115 3:0.0 4:0.018 5:0.076 6:0.0 7:0.0 8:0.0 9:26.0 10:1.0 11:26.0 12:0.0 13:36.0 14:1.0 15:1.0 16:34.0 17:1.0 
1.1 0:0.044 1:0.147 2:0.085 3:0.091 4:0.086 5:0.107 6:0.084 7:1.0 8:0.043 9:25.0 10:1.0 11:25.0 12:0.39 13:41.0 14:0.88 15:1.0 16:43.0 18:1.0 
1.1 0:0.441 1:0.491 2:0.34 3:0.313 4:0.339 5:0.334 6:0.0 7:0.0 8:0.0 9:18.0 10:1.0 11:18.0 12:0.0 13:33.0 14:0.944 15:1.0 16:33.0 22:1.0 
1.1 0:0.0 1:0.0 2:0.089 3:0.037 4:0.016 5:0.025 6:0.0 7:0.0 8:0.0 9:18.0 10:1.0 11:18.0 12:0.0 13:31.0 14:1.0 15:1.0 16:29.0 25:1.0 
1.1 0:0.081 1:0.098 2:0.101 3:0.0 4:0.0 5:0.053 6:0.0 7:0.0 8:0.0 9:33.0 10:0.917 11:33.0 12:0.259 13:52.0 14:0.889 15:0.917 16:54.0 17:1.0 
1.1 0:0.051 1:0.069 2:0.133 3:0.072 4:0.049 5:0.072 6:0.0 7:0.0 8:0.0 9:30.0 10:1.0 11:30.0 12:0.0 13:51.0 14:1.0 15:1.0 16:49.0 20:1.0 
1.1 0:0.06 1:0.172 2:0.18 3:0.08 4:0.093 5:0.1 6:0.0 7:0.0 8:0.0 9:24.0 10:1.0 11:24.0 12:0.0 13:43.0 14:1.0 15:1.0 16:41.0 21:1.0 
1.1 0:0.002 1:0.005 2:0.096 3:0.034 4:0.074 5:0.089 6:0.0 7:0.0 8:0.0 9:20.0 10:1.0 11:20.0 12:0.402 13:35.0 14:0.9 15:1.0 16:37.0 25:1.0 
1.1 0:0.011 1:0.008 2:0.096 3:0.0 4:0.0 5:0.023 6:0.118 7:1.0 8:0.063 9:20.0 10:0.909 11:20.0 12:0.431 13:35.0 14:0.864 15:0.909 16:37.0 17:1.0 
1.1 0:0.161 1:0.257 2:0.141 3:0.101 4:0.111 5:0.104 6:0.0 7:0.0 8:0.0 9:23.0 10:0.958 11:23.0 12:0.371 13:36.0 14:0.958 15:0.958 16:36.0 22:1.0 
0.5113302971756541 0:0.678 1:0.737 2:0.732 3:0.0 4:0.0 5:0.115 6:0.139 7:1.0 8:0.063 9:24.0 10:0.828 11:24.0 12:0.557 13:29.0 14:0.828 15:0.81 16:29.0 26:1.0 
1.1 0:0.033 1:0.036 2:0.292 3:0.0 4:0.22 5:0.185 6:0.105 7:1.0 8:0.056 9:23.0 10:0.958 11:23.0 12:0.444 13:40.0 14:0.833 15:0.958 16:44.0 25:1.0 
1.1 0:0.0 1:0.0 2:0.028 3:0.112 4:0.14 5:0.119 6:0.118 7:1.0 8:0.063 9:20.0 10:0.87 11:20.0 12:0.432 13:35.0 14:0.87 15:0.848 16:37.0 17:1.0 
1.1 0:0.04 1:0.046 2:0.161 3:0.0 4:0.12 5:0.074 6:0.309 7:2.0 8:0.182 9:14.0 10:0.875 11:14.0 12:0.426 13:25.0 14:0.875 15:0.875 16:25.0 20:1.0 
1.1 0:0.565 1:0.679 2:0.281 3:0.0 4:0.0 5:0.0 6:0.0 7:0.0 8:0.0 9:34.0 10:1.0 11:34.0 12:0.422 13:53.0 14:0.882 15:1.0 16:55.0 20:1.0 
1.1 0:0.414 1:0.37 2:0.13 3:0.074 4:0.084 5:0.1 6:0.0 7:0.0 8:0.0 9:23.0 10:1.0 11:23.0 12:0.0 13:40.0 14:1.0 15:1.0 16:38.0 22:1.0 
1.1 0:0.143 1:0.1 2:0.059 3:0.0 4:0.011 5:0.008 6:0.101 7:1.0 8:0.053 9:23.0 10:1.0 11:23.0 12:0.0 13:39.0 14:0.913 15:1.0 16:39.0 17:1.0 
1.1 0:0.266 1:0.264 2:0.432 3:0.224 4:0.207 5:0.168 6:0.0 7:0.0 8:0.0 9:24.0 10:1.0 11:24.0 12:0.0 13:48.0 14:1.0 15:1.0 16:46.0 17:1.0 
1.1 0:0.017 1:0.019 2:0.202 3:0.139 4:0.114 5:0.077 6:0.236 7:2.0 8:0.133 9:23.0 10:0.885 11:23.0 12:0.467 13:40.0 14:0.808 15:0.865 16:42.0 22:1.0 
1.1 0:0.0 1:0.0 2:0.016 3:0.0 4:0.0 5:0.008 6:0.0 7:0.0 8:0.0 9:16.0 10:0.941 11:16.0 12:0.261 13:27.0 14:0.941 15:0.941 16:27.0 17:1.0 
1.1 0:0.178 1:0.166 2:0.287 3:0.0 4:0.0 5:0.295 6:0.182 7:2.0 8:0.1 9:26.0 10:1.0 11:26.0 12:0.279 13:44.0 14:0.923 15:1.0 16:42.0 22:1.0 
1.1 0:0.066 1:0.174 2:0.173 3:0.202 4:0.215 5:0.209 6:0.0 7:0.0 8:0.0 9:24.0 10:0.96 11:24.0 12:0.365 13:41.0 14:0.96 15:0.96 16:41.0 21:1.0 
1.1 0:0.021 1:0.047 2:0.093 3:0.0 4:0.0 5:0.072 6:0.0 7:0.0 8:0.0 9:14.0 10:1.0 11:14.0 12:0.0 13:28.0 14:1.0 15:1.0 16:26.0 22:1.0 
1.1 0:0.0 1:0.0 2:0.022 3:0.054 4:0.03 5:0.019 6:0.0 7:0.0 8:0.0 9:24.0 10:1.0 11:24.0 12:0.0 13:46.0 14:1.0 15:1.0 16:44.0 23:1.0 
1.1 0:0.007 1:0.008 2:0.353 3:0.314 4:0.229 5:0.207 6:0.087 7:1.0 8:0.045 9:28.0 10:0.966 11:28.0 12:0.399 13:48.0 14:0.828 15:0.966 16:50.0 17:1.0 
0.9106954798029147 0:0.028 1:0.032 2:0.019 3:0.0 4:0.022 5:0.02 6:0.218 7:2.0 8:0.143 9:22.0 10:0.917 11:22.0 12:0.401 13:33.0 14:0.75 15:0.917 16:37.0 23:1.0 
1.1 0:0.931 1:0.959 2:0.599 3:0.334 4:0.267 5:0.316 6:0.0 7:0.0 8:0.0 9:35.0 10:1.0 11:35.0 12:0.0 13:57.0 14:1.0 15:1.0 16:55.0 18:1.0 
1.1 0:0.177 1:0.466 2:0.218 3:0.042 4:0.026 5:0.02 6:0.105 7:1.0 8:0.056 9:21.0 10:1.0 11:21.0 12:0.0 13:38.0 14:0.952 15:1.0 16:38.0 19:1.0 
1.1 0:0.091 1:0.136 2:0.415 3:0.217 4:0.242 5:0.257 6:0.111 7:1.0 8:0.059 9:23.0 10:0.958 11:23.0 12:0.42 13:40.0 14:0.875 15:0.958 16:42.0 22:1.0 
1.1 0:0.003 1:0.004 2:0.503 3:0.081 4:0.077 5:0.132 6:0.0 7:0.0 8:0.0 9:21.0 10:0.913 11:21.0 12:0.525 13:27.0 14:0.783 15:0.913 16:33.0 17:1.0 
0.1285910839395711 0:0.037 1:0.058 2:0.146 3:0.0 4:0.06 5:0.114 6:0.25 7:2.0 8:0.143 9:26.0 10:0.963 11:26.0 12:0.36 13:34.0 14:0.704 15:0.981 16:38.0 22:1.0 
1.1 0:0.198 1:0.199 2:0.428 3:0.023 4:0.019 5:0.057 6:0.096 7:1.0 8:0.05 9:22.0 10:0.917 11:22.0 12:0.309 13:42.0 14:0.917 15:0.917 16:42.0 20:1.0 
1.1 0:0.104 1:0.128 2:0.314 3:0.329 4:0.293 5:0.26 6:0.08 7:1.0 8:0.042 9:30.0 10:1.0 11:30.0 12:0.257 13:53.0 14:0.9 15:1.0 16:55.0 22:1.0 
1.1 0:0.174 1:0.213 2:0.119 3:0.0 4:0.152 5:0.226 6:0.0 7:0.0 8:0.0 9:22.0 10:1.0 11:22.0 12:0.364 13:41.0 14:0.955 15:1.0 16:41.0 24:1.0 
0.8063566583524523 0:0.544 1:0.568 2:0.377 3:0.063 4:0.039 5:0.167 6:0.134 7:1.0 8:0.071 9:22.0 10:1.0 11:22.0 12:0.438 13:33.0 14:0.864 15:1.0 16:29.0 23:1.0 
1.1 0:0.09 1:0.087 2:0.057 3:0.109 4:0.06 5:0.038 6:0.054 7:1.0 8:0.043 9:48.0 10:0.941 11:48.0 12:0.423 13:64.0 14:0.922 15:0.941 16:68.0 17:1.0 
1.1 0:0.021 1:0.032 2:0.086 3:0.045 4:0.121 5:0.119 6:0.0 7:0.0 8:0.0 9:28.0 10:1.0 11:28.0 12:0.419 13:42.0 14:0.893 15:1.0 16:44.0 25:1.0 
1.1 0:0.0 1:0.0 2:0.064 3:0.0 4:0.024 5:0.022 6:0.0 7:0.0 8:0.0 9:30.0 10:1.0 11:30.0 12:0.0 13:51.0 14:1.0 15:1.0 16:49.0 17:1.0 
1.1 0:0.312 1:0.351 2:0.202 3:0.0 4:0.058 5:0.128 6:0.089 7:1.0 8:0.045 9:28.0 10:0.933 11:28.0 12:0.343 13:43.0 14:0.9 15:0.933 16:45.0 22:1.0 
1.1 0:0.527 1:0.627 2:0.085 3:0.225 4:0.123 5:0.112 6:0.0 7:0.0 8:0.0 9:22.0 10:0.917 11:22.0 12:0.406 13:35.0 14:0.917 15:0.917 16:35.0 17:1.0 
1.1 0:0.361 1:0.462 2:0.083 3:0.029 4:0.091 5:0.097 6:0.095 7:1.0 8:0.05 9:19.0 10:0.905 11:19.0 12:0.398 13:37.0 14:0.905 15:0.881 16:37.0 24:1.0 
1.1 0:0.446 1:0.468 2:0.49 3:0.04 4:0.116 5:0.099 6:0.072 7:1.0 8:0.037 9:32.0 10:0.889 11:32.0 12:0.42 13:49.0 14:0.861 15:0.875 16:51.0 20:1.0 
1.1 0:0.094 1:0.094 2:0.179 3:0.029 4:0.031 5:0.027 6:0.084 7:1.0 8:0.043 9:26.0 10:0.867 11:26.0 12:0.448 13:48.0 14:0.833 15:0.85 16:52.0 17:1.0 
1.1 0:0.118 1:0.131 2:0.129 3:0.055 4:0.037 5:0.075 6:0.267 7:2.0 8:0.154 9:23.0 10:1.0 11:23.0 12:0.427 13:37.0 14:0.87 15:1.0 16:33.0 22:1.0 
1.1 0:0.002 1:0.004 2:0.05 3:0.034 4:0.015 5:0.011 6:0.0 7:0.0 8:0.0 9:20.0 10:1.0 11:20.0 12:0.369 13:36.0 14:0.95 15:1.0 16:36.0 24:1.0 
0.7991002596607626 0:0.029 1:0.115 2:0.217 3:0.266 4:0.134 5:0.121 6:0.0 7:0.0 8:0.0 9:21.0 10:0.913 11:21.0 12:0.536 13:32.0 14:0.696 15:0.913 16:44.0 21:1.0 
1.1 0:0.267 1:0.287 2:0.373 3:0.087 4:0.08 5:0.087 6:0.114 7:1.0 8:0.059 9:24.0 10:0.96 11:24.0 12:0.44 13:34.0 14:0.88 15:0.96 16:36.0 22:1.0 
1.1 0:0.083 1:0.239 2:0.315 3:0.121 4:0.091 5:0.123 6:0.105 7:1.0 8:0.056 9:22.0 10:0.917 11:22.0 12:0.398 13:38.0 14:0.917 15:0.917 16:38.0 21:1.0 
1.1 0:0.009 1:0.013 2:0.184 3:0.0 4:0.03 5:0.043 6:0.0 7:0.0 8:0.0 9:21.0 10:1.0 11:21.0 12:0.421 13:29.0 14:0.905 15:1.0 16:31.0 17:1.0 
1.1 0:0.068 1:0.074 2:0.072 3:0.023 4:0.069 5:0.077 6:0.0 7:0.0 8:0.0 9:39.0 10:0.929 11:39.0 12:0.396 13:62.0 14:0.929 15:0.929 16:66.0 44:1.0 
0.12005660332076362 0:0.283 1:0.346 2:0.281 3:0.081 4:0.062 5:0.119 6:0.096 7:1.0 8:0.059 9:17.0 10:0.773 11:17.0 12:0.488 13:33.0 14:0.773 15:0.773 16:35.0 20:1.0 
1.1 0:0.118 1:0.216 2:0.074 3:0.0 4:0.078 5:0.102 6:0.0 7:0.0 8:0.0 9:20.0 10:1.0 11:20.0 12:0.0 13:33.0 14:1.0 15:1.0 16:31.0 17:1.0 
1.1 0:0.523 1:0.6 2:0.574 3:0.111 4:0.172 5:0.211 6:0.138 7:2.0 8:0.074 9:33.0 10:0.971 11:33.0 12:0.284 13:62.0 14:0.912 15:0.971 16:62.0 18:1.0 
1.1 0:0.0 1:0.0 2:0.073 3:0.0 4:0.06 5:0.06 6:0.143 7:1.0 8:0.048 9:26.0 10:0.897 11:26.0 12:0.4 13:43.0 14:0.862 15:0.879 16:47.0 17:1.0 
1.1 0:0.206 1:0.283 2:0.323 3:0.0 4:0.0 5:0.023 6:0.096 7:1.0 8:0.05 9:22.0 10:0.815 11:22.0 12:0.503 13:36.0 14:0.778 15:0.815 16:42.0 20:1.0 
1.1 0:0.381 1:0.392 2:0.241 3:0.101 4:0.158 5:0.15 6:0.0 7:0.0 8:0.0 9:20.0 10:0.952 11:20.0 12:0.368 13:37.0 14:0.952 15:0.952 16:37.0 25:1.0 
1.1 0:0.113 1:0.202 2:0.145 3:0.1 4:0.059 5:0.125 6:0.0 7:0.0 8:0.0 9:23.0 10:0.958 11:23.0 12:0.357 13:35.0 14:0.833 15:0.958 16:39.0 25:1.0 
1.1 0:0.057 1:0.11 2:0.15 3:0.0 4:0.028 5:0.139 6:0.0 7:0.0 8:0.0 9:25.0 10:0.962 11:25.0 12:0.445 13:40.0 14:0.846 15:0.962 16:46.0 31:1.0 
1.1 0:0.073 1:0.106 2:0.181 3:0.548 4:0.225 5:0.221 6:0.0 7:0.0 8:0.0 9:24.0 10:1.0 11:24.0 12:0.0 13:35.0 14:1.0 15:1.0 16:33.0 22:1.0 
1.1 0:0.02 1:0.039 2:0.136 3:0.0 4:0.029 5:0.023 6:0.0 7:0.0 8:0.0 9:20.0 10:0.952 11:20.0 12:0.377 13:31.0 14:0.952 15:0.952 16:31.0 20:1.0 
1.1 0:0.286 1:0.449 2:0.332 3:0.161 4:0.144 5:0.241 6:0.0 7:0.0 8:0.0 9:15.0 10:1.0 11:15.0 12:0.379 13:27.0 14:0.933 15:1.0 16:27.0 22:1.0 
1.1 0:0.014 1:0.039 2:0.059 3:0.0 4:0.0 5:0.013 6:0.0 7:0.0 8:0.0 9:32.0 10:1.0 11:32.0 12:0.0 13:58.0 14:1.0 15:1.0 16:56.0 17:1.0 
1.1 0:0.118 1:0.216 2:0.074 3:0.0 4:0.078 5:0.102 6:0.0 7:0.0 8:0.0 9:20.0 10:1.0 11:20.0 12:0.0 13:33.0 14:1.0 15:1.0 16:31.0 17:1.0 
1.1 0:0.057 1:0.11 2:0.15 3:0.0 4:0.028 5:0.139 6:0.0 7:0.0 8:0.0 9:25.0 10:0.962 11:25.0 12:0.445 13:40.0 14:0.846 15:0.962 16:46.0 31:1.0 
1.1 0:0.08 1:0.182 2:0.172 3:0.09 4:0.057 5:0.094 6:0.16 7:2.0 8:0.087 9:22.0 10:0.88 11:22.0 12:0.4 13:40.0 14:0.8 15:0.86 16:44.0 22:1.0 
1.1 0:0.003 1:0.005 2:0.143 3:0.1 4:0.122 5:0.073 6:0.105 7:1.0 8:0.056 9:22.0 10:1.0 11:22.0 12:0.315 13:37.0 14:0.864 15:1.0 16:41.0 17:1.0 
1.1 0:0.076 1:0.147 2:0.102 3:0.167 4:0.138 5:0.135 6:0.0 7:0.0 8:0.0 9:35.0 10:1.0 11:35.0 12:0.0 13:46.0 14:0.971 15:1.0 16:46.0 22:1.0 
1.1 0:0.007 1:0.006 2:0.039 3:0.0 4:0.014 5:0.075 6:0.0 7:0.0 8:0.0 9:17.0 10:1.0 11:17.0 12:0.0 13:31.0 14:0.941 15:1.0 16:31.0 17:1.0 
1.1 0:0.001 1:0.002 2:0.021 3:0.0 4:0.009 5:0.013 6:0.0 7:0.0 8:0.0 9:29.0 10:0.967 11:29.0 12:0.363 13:46.0 14:0.967 15:0.967 16:46.0 23:1.0 
1.1 0:0.115 1:0.138 2:0.343 3:0.173 4:0.16 5:0.151 6:0.213 7:2.0 8:0.118 9:26.0 10:0.929 11:26.0 12:0.347 13:49.0 14:0.893 15:0.946 16:49.0 22:1.0 
0.982805642595438 0:0.585 1:0.68 2:0.288 3:0.11 4:0.171 5:0.126 6:0.109 7:1.0 8:0.063 9:27.0 10:1.0 11:27.0 12:0.0 13:35.0 14:0.889 15:1.0 16:35.0 18:1.0 
1.1 0:0.293 1:0.302 2:0.103 3:0.0 4:0.097 5:0.064 6:0.129 7:1.0 8:0.067 9:20.0 10:1.0 11:20.0 12:0.0 13:32.0 14:0.9 15:1.0 16:32.0 17:1.0 
1.1 0:0.159 1:0.202 2:0.144 3:0.123 4:0.144 5:0.138 6:0.0 7:0.0 8:0.0 9:18.0 10:1.0 11:18.0 12:0.0 13:30.0 14:1.0 15:1.0 16:28.0 22:1.0 
1.1 0:0.203 1:0.398 2:0.409 3:0.361 4:0.289 5:0.27 6:0.0 7:0.0 8:0.0 9:16.0 10:1.0 11:16.0 12:0.0 13:32.0 14:1.0 15:1.0 16:30.0 22:1.0 
1.1 0:0.076 1:0.087 2:0.161 3:0.254 4:0.206 5:0.164 6:0.144 7:1.0 8:0.077 9:18.0 10:0.947 11:18.0 12:0.37 13:32.0 14:0.895 15:0.947 16:32.0 22:1.0 
1.1 0:0.053 1:0.052 2:0.088 3:0.0 4:0.145 5:0.123 6:0.0 7:0.0 8:0.0 9:27.0 10:0.9 11:27.0 12:0.456 13:39.0 14:0.867 15:0.883 16:43.0 22:1.0 
1.1 0:0.198 1:0.2 2:0.221 3:0.152 4:0.236 5:0.212 6:0.0 7:0.0 8:0.0 9:19.0 10:1.0 11:19.0 12:0.415 13:25.0 14:0.789 15:1.0 16:25.0 22:1.0 
1.1 0:0.023 1:0.046 2:0.194 3:0.0 4:0.0 5:0.099 6:0.107 7:1.0 8:0.056 9:25.0 10:0.893 11:25.0 12:0.432 13:38.0 14:0.893 15:0.893 16:40.0 22:1.0 
1.1 0:0.012 1:0.02 2:0.126 3:0.0 4:0.036 5:0.029 6:0.0 7:0.0 8:0.0 9:14.0 10:1.0 11:14.0 12:0.383 13:25.0 14:0.929 15:1.0 16:25.0 24:1.0 
1.1 0:0.149 1:0.213 2:0.394 3:0.017 4:0.011 5:0.038 6:0.087 7:1.0 8:0.045 9:26.0 10:0.929 11:26.0 12:0.332 13:45.0 14:0.893 15:0.929 16:47.0 20:1.0 
1.1 0:0.169 1:0.163 2:0.225 3:0.0 4:0.022 5:0.034 6:0.102 7:1.0 8:0.053 9:21.0 10:0.955 11:21.0 12:0.397 13:38.0 14:0.909 15:0.955 16:36.0 20:1.0 
1.1 0:0.029 1:0.041 2:0.171 3:0.082 4:0.106 5:0.176 6:0.105 7:1.0 8:0.056 9:20.0 10:1.0 11:20.0 12:0.4 13:36.0 14:0.9 15:1.0 16:36.0 37:1.0 
1.1 0:0.009 1:0.026 2:0.134 3:0.025 4:0.046 5:0.048 6:0.192 7:2.0 8:0.105 9:26.0 10:0.929 11:26.0 12:0.387 13:38.0 14:0.786 15:0.911 16:42.0 22:1.0 
1.1 0:0.107 1:0.107 2:0.138 3:0.066 4:0.166 5:0.212 6:0.0 7:0.0 8:0.0 9:28.0 10:0.966 11:28.0 12:0.384 13:47.0 14:0.897 15:0.966 16:51.0 25:1.0 
1.1 0:0.0 1:0.0 2:0.028 3:0.0 4:0.034 5:0.03 6:0.0 7:0.0 8:0.0 9:22.0 10:1.0 11:22.0 12:0.0 13:40.0 14:1.0 15:1.0 16:38.0 18:1.0 
1.1 0:0.271 1:0.268 2:0.231 3:0.0 4:0.0 5:0.054 6:0.0 7:0.0 8:0.0 9:21.0 10:0.955 11:21.0 12:0.405 13:34.0 14:0.909 15:0.955 16:34.0 25:1.0 
1.1 0:0.082 1:0.216 2:0.267 3:0.33 4:0.259 5:0.2 6:0.0 7:0.0 8:0.0 9:22.0 10:0.957 11:22.0 12:0.424 13:38.0 14:0.87 15:0.957 16:40.0 22:1.0 
1.1 0:0.301 1:0.315 2:0.252 3:0.0 4:0.0 5:0.104 6:0.091 7:1.0 8:0.048 9:27.0 10:0.931 11:27.0 12:0.415 13:44.0 14:0.897 15:0.931 16:46.0 24:1.0 
1.1 0:0.048 1:0.04 2:0.361 3:0.083 4:0.132 5:0.114 6:0.0 7:0.0 8:0.0 9:22.0 10:0.917 11:22.0 12:0.39 13:41.0 14:0.875 15:0.896 16:43.0 17:1.0 
1.1 0:0.0 1:0.0 2:0.038 3:0.0 4:0.0 5:0.0 6:0.0 7:0.0 8:0.0 9:21.0 10:1.0 11:21.0 12:0.366 13:39.0 14:0.952 15:1.0 16:39.0 31:1.0 
1.1 0:0.736 1:0.65 2:0.796 3:0.483 4:0.499 5:0.5 6:0.0 7:0.0 8:0.0 9:14.0 10:1.0 11:14.0 12:0.0 13:21.0 14:1.0 15:1.0 16:19.0 26:1.0 
1.1 0:0.14 1:0.129 2:0.092 3:0.173 4:0.18 5:0.135 6:0.118 7:1.0 8:0.063 9:21.0 10:0.955 11:21.0 12:0.441 13:32.0 14:0.864 15:0.955 16:34.0 24:1.0 
1.1 0:0.309 1:0.434 2:0.342 3:0.0 4:0.085 5:0.135 6:0.0 7:0.0 8:0.0 9:22.0 10:1.0 11:22.0 12:0.0 13:42.0 14:1.0 15:1.0 16:40.0 17:1.0 
0.7611169279075479 0:0.206 1:0.173 2:0.482 3:0.153 4:0.257 5:0.209 6:0.107 7:1.0 8:0.056 9:24.0 10:0.857 11:24.0 12:0.569 13:31.0 14:0.714 15:0.893 16:39.0 22:1.0 
1.1 0:0.093 1:0.134 2:0.198 3:0.024 4:0.025 5:0.027 6:0.149 7:1.0 8:0.077 9:18.0 10:0.9 11:18.0 12:0.418 13:29.0 14:0.9 15:0.9 16:29.0 22:1.0 
1.1 0:0.62 1:0.687 2:0.351 3:0.213 4:0.098 5:0.058 6:0.0 7:0.0 8:0.0 9:22.0 10:0.917 11:22.0 12:0.307 13:43.0 14:0.917 15:0.917 16:45.0 20:1.0 
1.1 0:0.704 1:0.751 2:0.207 3:0.208 4:0.336 5:0.294 6:0.0 7:0.0 8:0.0 9:37.0 10:0.86 11:37.0 12:0.398 13:51.0 14:0.837 15:0.86 16:57.0 23:1.0 
1.1 0:0.041 1:0.112 2:0.056 3:0.063 4:0.036 5:0.022 6:0.0 7:0.0 8:0.0 9:26.0 10:1.0 11:26.0 12:0.299 13:46.0 14:0.885 15:1.0 16:50.0 21:1.0 
1.1 0:0.076 1:0.214 2:0.288 3:0.27 4:0.197 5:0.206 6:0.0 7:0.0 8:0.0 9:34.0 10:0.971 11:34.0 12:0.237 13:46.0 14:0.971 15:0.971 16:46.0 22:1.0 
1.1 0:0.013 1:0.018 2:0.039 3:0.0 4:0.0 5:0.03 6:0.0 7:0.0 8:0.0 9:35.0 10:0.921 11:35.0 12:0.38 13:54.0 14:0.895 15:0.921 16:60.0 17:1.0 
1.1 0:0.029 1:0.063 2:0.153 3:0.0 4:0.0 5:0.042 6:0.0 7:0.0 8:0.0 9:28.0 10:1.0 11:28.0 12:0.0 13:52.0 14:1.0 15:1.0 16:50.0 24:1.0 
1.1 0:0.147 1:0.194 2:0.512 3:0.138 4:0.113 5:0.421 6:0.0 7:0.0 8:0.0 9:24.0 10:1.0 11:24.0 12:0.364 13:40.0 14:0.917 15:1.0 16:42.0 20:1.0 
1.1 0:0.461 1:0.447 2:0.239 3:0.092 4:0.103 5:0.162 6:0.092 7:1.0 8:0.048 9:27.0 10:0.9 11:27.0 12:0.427 13:49.0 14:0.867 15:0.9 16:53.0 22:1.0 
1.1 0:0.003 1:0.003 2:0.125 3:0.0 4:0.074 5:0.124 6:0.107 7:1.0 8:0.056 9:18.0 10:0.857 11:18.0 12:0.467 13:32.0 14:0.81 15:0.881 16:36.0 25:1.0 
1.1 0:0.116 1:0.154 2:0.078 3:0.108 4:0.064 5:0.065 6:0.0 7:0.0 8:0.0 9:16.0 10:1.0 11:16.0 12:0.378 13:28.0 14:0.938 15:1.0 16:28.0 22:1.0 
1.1 0:0.08 1:0.042 2:0.432 3:0.0 4:0.0 5:0.088 6:0.112 7:1.0 8:0.071 9:21.0 10:1.0 11:21.0 12:0.463 13:33.0 14:0.81 15:1.0 16:37.0 17:1.0 
1.1 0:0.021 1:0.069 2:0.116 3:0.066 4:0.045 5:0.091 6:0.126 7:1.0 8:0.067 9:21.0 10:0.913 11:21.0 12:0.475 13:31.0 14:0.826 15:0.913 16:35.0 21:1.0 
1.1 0:0.25 1:0.278 2:0.077 3:0.06 4:0.069 5:0.017 6:0.134 7:1.0 8:0.071 9:15.0 10:0.882 11:15.0 12:0.414 13:29.0 14:0.882 15:0.853 16:29.0 22:1.0 
1.1 0:0.158 1:0.273 2:0.436 3:0.294 4:0.394 5:0.38 6:0.0 7:0.0 8:0.0 9:24.0 10:1.0 11:24.0 12:0.0 13:46.0 14:0.958 15:1.0 16:46.0 22:1.0 
1.1 0:0.211 1:0.166 2:0.157 3:0.0 4:0.167 5:0.125 6:0.2 7:2.0 8:0.111 9:24.0 10:0.923 11:24.0 12:0.44 13:42.0 14:0.846 15:0.904 16:44.0 22:1.0 
0.7571546222068414 0:0.113 1:0.204 2:0.243 3:0.052 4:0.219 5:0.229 6:0.096 7:1.0 8:0.05 9:27.0 10:1.0 11:27.0 12:0.478 13:37.0 14:0.815 15:1.0 16:41.0 17:1.0 
1.1 0:0.625 1:0.545 2:0.189 3:0.245 4:0.205 5:0.201 6:0.0 7:0.0 8:0.0 9:23.0 10:1.0 11:23.0 12:0.0 13:35.0 14:1.0 15:1.0 16:33.0 22:1.0 
1.1 0:0.25 1:0.278 2:0.077 3:0.06 4:0.069 5:0.017 6:0.134 7:1.0 8:0.071 9:15.0 10:0.882 11:15.0 12:0.414 13:29.0 14:0.882 15:0.853 16:29.0 22:1.0 
1.1 0:0.686 1:0.785 2:0.181 3:0.0 4:0.0 5:0.053 6:0.0 7:0.0 8:0.0 9:23.0 10:1.0 11:23.0 12:0.0 13:35.0 14:1.0 15:1.0 16:33.0 17:1.0 
1.1 0:0.034 1:0.045 2:0.163 3:0.103 4:0.186 5:0.166 6:0.0 7:0.0 8:0.0 9:21.0 10:0.955 11:21.0 12:0.241 13:35.0 14:0.955 15:0.955 16:35.0 17:1.0 
1.1 0:0.37 1:0.454 2:0.168 3:0.0 4:0.0 5:0.062 6:0.0 7:0.0 8:0.0 9:19.0 10:0.95 11:19.0 12:0.402 13:35.0 14:0.9 15:0.95 16:35.0 25:1.0 
1.1 0:0.653 1:0.681 2:0.102 3:0.0 4:0.0 5:0.0 6:0.0 7:0.0 8:0.0 9:24.0 10:1.0 11:24.0 12:0.306 13:44.0 14:0.917 15:1.0 16:44.0 23:1.0 
1.1 0:0.566 1:0.696 2:0.309 3:0.186 4:0.156 5:0.157 6:0.0 7:0.0 8:0.0 9:31.0 10:0.939 11:31.0 12:0.315 13:43.0 14:0.909 15:0.939 16:47.0 17:1.0 
1.1 0:0.23 1:0.265 2:0.183 3:0.199 4:0.181 5:0.178 6:0.169 7:1.0 8:0.091 9:27.0 10:0.931 11:27.0 12:0.445 13:36.0 14:0.897 15:0.931 16:38.0 17:1.0 
1.1 0:0.116 1:0.156 2:0.161 3:0.223 4:0.151 5:0.153 6:0.0 7:0.0 8:0.0 9:25.0 10:1.0 11:25.0 12:0.0 13:47.0 14:1.0 15:1.0 16:45.0 22:1.0 
1.1 0:0.258 1:0.341 2:0.241 3:0.062 4:0.079 5:0.106 6:0.111 7:1.0 8:0.059 9:22.0 10:0.917 11:22.0 12:0.442 13:33.0 14:0.875 15:0.917 16:35.0 22:1.0 
1.1 0:0.023 1:0.025 2:0.059 3:0.0 4:0.0 5:0.0 6:0.0 7:0.0 8:0.0 9:21.0 10:1.0 11:21.0 12:0.0 13:33.0 14:1.0 15:1.0 16:31.0 19:1.0 
0.9255364582870049 0:0.231 1:0.372 2:0.092 3:0.069 4:0.063 5:0.039 6:0.126 7:1.0 8:0.067 9:20.0 10:0.909 11:20.0 12:0.394 13:32.0 14:0.864 15:0.909 16:32.0 25:1.0 
1.1 0:0.133 1:0.156 2:0.151 3:0.223 4:0.175 5:0.136 6:0.0 7:0.0 8:0.0 9:24.0 10:1.0 11:24.0 12:0.0 13:47.0 14:1.0 15:1.0 16:45.0 22:1.0 
1.1 0:0.068 1:0.078 2:0.134 3:0.028 4:0.027 5:0.032 6:0.095 7:1.0 8:0.05 9:33.0 10:0.917 11:33.0 12:0.335 13:58.0 14:0.917 15:0.917 16:60.0 25:1.0 
1.1 0:0.024 1:0.011 2:0.046 3:0.02 4:0.059 5:0.09 6:0.118 7:1.0 8:0.063 9:19.0 10:0.905 11:19.0 12:0.48 13:29.0 14:0.81 15:0.905 16:31.0 17:1.0 
1.1 0:0.269 1:0.193 2:0.177 3:0.0 4:0.129 5:0.101 6:0.0 7:0.0 8:0.0 9:18.0 10:0.947 11:18.0 12:0.373 13:32.0 14:0.947 15:0.921 16:32.0 25:1.0 
1.1 0:0.062 1:0.111 2:0.086 3:0.106 4:0.115 5:0.106 6:0.0 7:0.0 8:0.0 9:23.0 10:1.0 11:23.0 12:0.0 13:38.0 14:0.957 15:1.0 16:38.0 21:1.0 
1.1 0:0.155 1:0.088 2:0.124 3:0.062 4:0.029 5:0.122 6:0.0 7:0.0 8:0.0 9:30.0 10:1.0 11:30.0 12:0.405 13:50.0 14:0.9 15:1.0 16:54.0 17:1.0 
1.1 0:0.179 1:0.241 2:0.161 3:0.0 4:0.065 5:0.063 6:0.0 7:0.0 8:0.0 9:15.0 10:1.0 11:15.0 12:0.0 13:30.0 14:1.0 15:1.0 16:28.0 21:1.0 
1.1 0:0.458 1:0.496 2:0.416 3:0.094 4:0.109 5:0.173 6:0.072 7:1.0 8:0.042 9:39.0 10:0.951 11:39.0 12:0.302 13:60.0 14:0.902 15:0.951 16:62.0 22:1.0 
1.1 0:0.01 1:0.026 2:0.201 3:0.0 4:0.016 5:0.012 6:0.0 7:0.0 8:0.0 9:14.0 10:1.0 11:14.0 12:0.0 13:22.0 14:1.0 15:1.0 16:20.0 22:1.0 
1.1 0:0.087 1:0.069 2:0.377 3:0.208 4:0.217 5:0.263 6:0.091 7:1.0 8:0.048 9:20.0 10:0.909 11:20.0 12:0.318 13:38.0 14:0.909 15:0.909 16:38.0 22:1.0 
1.1 0:0.01 1:0.031 2:0.313 3:0.04 4:0.046 5:0.052 6:0.333 7:2.0 8:0.154 9:22.0 10:1.0 11:22.0 12:0.431 13:35.0 14:0.864 15:1.0 16:39.0 22:1.0 
1.1 0:0.013 1:0.012 2:0.13 3:0.068 4:0.134 5:0.115 6:0.096 7:1.0 8:0.05 9:22.0 10:1.0 11:22.0 12:0.365 13:38.0 14:0.909 15:1.0 16:38.0 22:1.0 
1.1 0:0.103 1:0.212 2:0.127 3:0.067 4:0.03 5:0.061 6:0.0 7:0.0 8:0.0 9:16.0 10:1.0 11:16.0 12:0.0 13:27.0 14:1.0 15:1.0 16:25.0 22:1.0 
1.1 0:0.004 1:0.003 2:0.062 3:0.0 4:0.0 5:0.0 6:0.0 7:0.0 8:0.0 9:35.0 10:1.0 11:35.0 12:0.0 13:50.0 14:0.971 15:1.0 16:50.0 18:1.0 
1.1 0:0.163 1:0.243 2:0.256 3:0.275 4:0.316 5:0.257 6:0.101 7:1.0 8:0.053 9:23.0 10:0.958 11:23.0 12:0.312 13:41.0 14:0.917 15:0.958 16:41.0 22:1.0 
1.1 0:0.076 1:0.147 2:0.102 3:0.167 4:0.138 5:0.135 6:0.0 7:0.0 8:0.0 9:35.0 10:1.0 11:35.0 12:0.0 13:46.0 14:0.971 15:1.0 16:46.0 22:1.0 
1.1 0:0.177 1:0.466 2:0.218 3:0.042 4:0.026 5:0.02 6:0.105 7:1.0 8:0.056 9:21.0 10:1.0 11:21.0 12:0.0 13:38.0 14:0.952 15:1.0 16:38.0 19:1.0 
1.1 0:0.202 1:0.247 2:0.372 3:0.201 4:0.096 5:0.153 6:0.0 7:0.0 8:0.0 9:25.0 10:1.0 11:25.0 12:0.4 13:42.0 14:0.84 15:1.0 16:46.0 20:1.0 
0.5854455601689766 0:0.059 1:0.157 2:0.105 3:0.188 4:0.139 5:0.107 6:0.136 7:1.0 8:0.071 9:19.0 10:0.905 11:19.0 12:0.416 13:30.0 14:0.905 15:0.905 16:30.0 21:1.0 
1.1 0:0.067 1:0.095 2:0.068 3:0.0 4:0.0 5:0.0 6:0.0 7:0.0 8:0.0 9:43.0 10:1.0 11:43.0 12:0.0 13:64.0 14:1.0 15:1.0 16:62.0 17:1.0 
1.1 0:0.092 1:0.142 2:0.126 3:0.0 4:0.061 5:0.044 6:0.0 7:0.0 8:0.0 9:17.0 10:0.944 11:17.0 12:0.38 13:28.0 14:0.944 15:0.944 16:28.0 21:1.0 
1.1 0:0.038 1:0.083 2:0.221 3:0.0 4:0.0 5:0.053 6:0.123 7:1.0 8:0.063 9:28.0 10:0.966 11:28.0 12:0.341 13:40.0 14:0.862 15:0.966 16:44.0 23:1.0 
1.1 0:0.016 1:0.034 2:0.127 3:0.125 4:0.2 5:0.227 6:0.183 7:2.0 8:0.1 9:30.0 10:1.0 11:30.0 12:0.294 13:50.0 14:0.9 15:1.0 16:50.0 25:1.0 
1.1 0:0.025 1:0.047 2:0.171 3:0.133 4:0.061 5:0.144 6:0.0 7:0.0 8:0.0 9:25.0 10:0.926 11:25.0 12:0.387 13:46.0 14:0.926 15:0.926 16:48.0 21:1.0 
1.1 0:0.226 1:0.232 2:0.097 3:0.072 4:0.152 5:0.172 6:0.0 7:0.0 8:0.0 9:21.0 10:0.955 11:21.0 12:0.372 13:34.0 14:0.955 15:0.955 16:34.0 20:1.0 
1.1 0:0.475 1:0.507 2:0.307 3:0.102 4:0.153 5:0.14 6:0.0 7:0.0 8:0.0 9:21.0 10:0.913 11:21.0 12:0.427 13:37.0 14:0.87 15:0.891 16:41.0 22:1.0 
1.1 0:0.414 1:0.37 2:0.13 3:0.074 4:0.084 5:0.1 6:0.0 7:0.0 8:0.0 9:23.0 10:1.0 11:23.0 12:0.0 13:40.0 14:1.0 15:1.0 16:38.0 22:1.0 
1.1 0:0.507 1:0.524 2:0.554 3:0.11 4:0.2 5:0.2 6:0.0 7:0.0 8:0.0 9:34.0 10:1.0 11:34.0 12:0.0 13:57.0 14:1.0 15:1.0 16:55.0 19:1.0 
1.1 0:0.338 1:0.313 2:0.09 3:0.068 4:0.128 5:0.09 6:0.0 7:0.0 8:0.0 9:24.0 10:1.0 11:24.0 12:0.0 13:40.0 14:1.0 15:1.0 16:38.0 22:1.0 
1.1 0:0.762 1:0.718 2:0.376 3:0.392 4:0.331 5:0.281 6:0.0 7:0.0 8:0.0 9:18.0 10:1.0 11:18.0 12:0.0 13:26.0 14:1.0 15:1.0 16:24.0 17:1.0 
