svm_type c_svc
kernel_type rbf
gamma 0.06666666666666667
nr_class 2
total_sv 851
rho -2.126029867914578
label 1 -1
nr_sv 340 511
SV
1.5 0:3.0 1:0.188 2:0.429 3:0.342 4:0.206 5:0.139 6:1.0 7:0.143 8:0.0 9:0.0 10:0.765 11:0.61 12:0.647 13:0.765 14:0.21 15:0.145 
1.5 0:2.0 1:0.105 2:0.286 3:0.378 4:0.402 5:0.078 6:0.0 7:0.0 8:0.0 9:0.0 10:0.649 11:0.535 12:0.649 13:0.649 14:0.0 15:0.162 
1.5 0:2.0 1:0.154 2:0.5 3:0.316 4:0.224 5:0.191 6:2.0 7:0.5 8:1.0 9:0.25 10:0.844 11:0.553 12:0.75 13:0.859 14:0.0 15:0.177 
1.5 0:2.0 1:0.111 2:0.5 3:0.302 4:0.201 5:0.469 6:2.0 7:0.5 8:1.0 9:0.25 10:0.841 11:0.527 12:0.818 13:0.841 14:0.243 15:0.39 
1.5 0:3.0 1:0.15 2:0.5 3:0.453 4:0.476 5:0.435 6:0.0 7:0.0 8:0.0 9:0.0 10:0.822 11:0.578 12:0.8 13:0.833 14:0.0 15:0.0 
1.5 0:2.0 1:0.167 2:0.333 3:0.289 4:0.293 5:0.471 6:0.0 7:0.0 8:0.0 9:0.0 10:0.815 11:0.533 12:0.778 13:0.815 14:0.236 15:0.365 
1.5 0:2.0 1:0.1 2:0.333 3:0.272 4:0.287 5:0.265 6:0.0 7:0.0 8:0.0 9:0.0 10:0.889 11:0.489 12:0.844 13:0.889 14:0.258 15:0.272 
1.5 0:2.0 1:0.125 2:0.333 3:0.258 4:0.258 5:0.423 6:0.0 7:0.0 8:0.0 9:0.0 10:0.697 11:0.568 12:0.697 13:0.712 14:0.16 15:0.243 
1.5 0:3.0 1:0.136 2:0.429 3:0.385 4:0.38 5:0.105 6:0.0 7:0.0 8:0.0 9:0.0 10:0.766 11:0.502 12:0.745 13:0.766 14:0.0 15:0.0 
1.5 0:2.0 1:0.091 2:0.286 3:0.272 4:0.222 5:0.177 6:2.0 7:0.286 8:0.0 9:0.0 10:0.767 11:0.496 12:0.767 13:0.767 14:0.414 15:0.365 
1.5 0:2.0 1:0.091 2:0.286 3:0.236 4:0.191 5:0.064 6:2.0 7:0.286 8:1.0 9:0.143 10:0.813 11:0.486 12:0.792 13:0.813 14:0.258 15:0.211 
1.5 0:3.0 1:0.115 2:0.3 3:0.408 4:0.408 5:0.419 6:0.0 7:0.0 8:0.0 9:0.0 10:0.638 11:0.786 12:0.638 13:0.638 14:0.132 15:0.33 
1.5 0:3.0 1:0.111 2:0.3 3:0.387 4:0.397 5:0.398 6:0.0 7:0.0 8:0.0 9:0.0 10:0.66 11:0.697 12:0.66 13:0.66 14:0.134 15:0.333 
1.5 0:3.0 1:0.1 2:0.3 3:0.387 4:0.387 5:0.267 6:0.0 7:0.0 8:0.0 9:0.0 10:0.691 11:0.589 12:0.691 13:0.7 14:0.0 15:0.0 
1.5 0:2.0 1:0.083 2:0.2 3:0.272 4:0.272 5:0.288 6:0.0 7:0.0 8:0.0 9:0.0 10:0.595 11:0.669 12:0.595 13:0.581 14:0.357 15:0.366 
1.5 0:3.0 1:0.143 2:0.5 3:0.405 4:0.405 5:0.186 6:0.0 7:0.0 8:0.0 9:0.0 10:0.727 11:0.552 12:0.727 13:0.739 14:0.0 15:0.0 
1.5 0:2.0 1:0.143 2:0.5 3:0.516 4:0.516 5:0.419 6:0.0 7:0.0 8:0.0 9:0.0 10:0.828 11:0.496 12:0.828 13:0.828 14:0.261 15:0.273 
1.5 0:2.0 1:0.143 2:0.5 3:0.474 4:0.481 5:0.027 6:0.0 7:0.0 8:0.0 9:0.0 10:0.844 11:0.49 12:0.844 13:0.844 14:0.0 15:0.0 
1.5 0:2.0 1:0.182 2:0.5 3:0.474 4:0.474 5:0.221 6:0.0 7:0.0 8:0.0 9:0.0 10:0.75 11:0.641 12:0.75 13:0.75 14:0.447 15:0.348 
1.5 0:2.0 1:0.111 2:0.5 3:0.433 4:0.433 5:0.414 6:0.0 7:0.0 8:0.0 9:0.0 10:0.878 11:0.479 12:0.878 13:0.878 14:0.474 15:0.354 
1.5 0:2.0 1:0.143 2:0.5 3:0.408 4:0.425 5:0.346 6:0.0 7:0.0 8:0.0 9:0.0 10:0.815 11:0.633 12:0.815 13:0.796 14:0.267 15:0.209 
1.5 0:2.0 1:0.105 2:0.5 3:0.354 4:0.358 5:0.492 6:0.0 7:0.0 8:0.0 9:0.0 10:0.868 11:0.615 12:0.868 13:0.855 14:0.344 15:0.386 
1.5 0:2.0 1:0.133 2:0.667 3:0.365 4:0.379 5:0.199 6:0.0 7:0.0 8:0.0 9:0.0 10:0.718 11:0.459 12:0.718 13:0.718 14:0.214 15:0.27 
1.5 0:3.0 1:0.13 2:0.429 3:0.34 4:0.307 5:0.218 6:1.0 7:0.143 8:1.0 9:0.143 10:0.75 11:0.583 12:0.75 13:0.76 14:0.0 15:0.207 
1.5 0:3.0 1:0.2 2:0.429 3:0.567 4:0.531 5:0.102 6:1.0 7:0.143 8:0.0 9:0.0 10:0.577 11:0.652 12:0.5 13:0.596 14:0.0 15:0.243 
1.5 0:3.0 1:0.12 2:0.333 3:0.327 4:0.335 5:0.144 6:0.0 7:0.0 8:0.0 9:0.0 10:0.75 11:0.538 12:0.75 13:0.75 14:0.0 15:0.0 
1.5 0:3.0 1:0.214 2:0.75 3:0.612 4:0.694 5:0.049 6:1.0 7:0.25 8:0.0 9:0.0 10:0.844 11:0.552 12:0.813 13:0.859 14:0.14 15:0.189 
1.5 0:2.0 1:0.154 2:0.5 3:0.471 4:0.389 5:0.032 6:0.0 7:0.0 8:0.0 9:0.0 10:0.821 11:0.56 12:0.821 13:0.839 14:0.204 15:0.167 
1.5 0:3.0 1:0.2 2:0.6 3:0.548 4:0.609 5:0.109 6:1.0 7:0.2 8:0.0 9:0.0 10:0.636 11:0.61 12:0.636 13:0.621 14:0.161 15:0.149 
1.5 0:3.0 1:0.176 2:0.5 3:0.34 4:0.303 5:0.194 6:1.0 7:0.167 8:1.0 9:0.167 10:0.771 11:0.576 12:0.771 13:0.757 14:0.149 15:0.153 
1.5 0:3.0 1:0.13 2:0.5 3:0.306 4:0.274 5:0.194 6:1.0 7:0.167 8:1.0 9:0.167 10:0.837 11:0.546 12:0.837 13:0.827 14:0.149 15:0.153 
1.5 0:2.0 1:0.125 2:0.4 3:0.354 4:0.421 5:0.383 6:2.0 7:0.4 8:1.0 9:0.2 10:0.8 11:0.568 12:0.767 13:0.8 14:0.354 15:0.466 
1.5 0:3.0 1:0.176 2:0.6 3:0.474 4:0.398 5:0.037 6:1.0 7:0.2 8:0.0 9:0.0 10:0.684 11:0.806 12:0.684 13:0.684 14:0.0 15:0.0 
1.5 0:2.0 1:0.133 2:0.667 3:0.5 4:0.52 5:0.287 6:0.0 7:0.0 8:0.0 9:0.0 10:0.842 11:0.433 12:0.816 13:0.842 14:0.0 15:0.149 
1.5 0:2.0 1:0.182 2:0.667 3:0.436 4:0.436 5:0.298 6:0.0 7:0.0 8:0.0 9:0.0 10:0.72 11:0.686 12:0.72 13:0.7 14:0.0 15:0.333 
1.5 0:2.0 1:0.133 2:0.667 3:0.385 4:0.411 5:0.092 6:0.0 7:0.0 8:0.0 9:0.0 10:0.943 11:0.446 12:0.857 13:0.943 14:0.32 15:0.361 
1.5 0:2.0 1:0.154 2:0.286 3:0.316 4:0.306 5:0.345 6:2.0 7:0.286 8:1.0 9:0.143 10:0.731 11:0.598 12:0.692 13:0.75 14:0.082 15:0.073 
1.5 0:2.0 1:0.1 2:0.286 3:0.338 4:0.287 5:0.444 6:2.0 7:0.286 8:2.0 9:0.286 10:0.829 11:0.514 12:0.771 13:0.829 14:0.381 15:0.378 
1.5 0:2.0 1:0.118 2:0.286 3:0.298 4:0.283 5:0.514 6:2.0 7:0.286 8:2.0 9:0.286 10:0.813 11:0.569 12:0.75 13:0.813 14:0.474 15:0.387 
1.5 0:2.0 1:0.1 2:0.286 3:0.27 4:0.254 5:0.391 6:2.0 7:0.286 8:2.0 9:0.286 10:0.732 11:0.57 12:0.732 13:0.744 14:0.115 15:0.274 
1.5 0:2.0 1:0.087 2:0.286 3:0.258 4:0.238 5:0.203 6:2.0 7:0.286 8:1.0 9:0.143 10:0.851 11:0.502 12:0.83 13:0.862 14:0.258 15:0.313 
1.5 0:2.0 1:0.08 2:0.286 3:0.248 4:0.214 5:0.45 6:2.0 7:0.286 8:2.0 9:0.286 10:0.776 11:0.569 12:0.755 13:0.796 14:0.382 15:0.397 
0.0782756839206376 0:2.0 1:0.118 2:0.286 3:0.298 4:0.156 5:0.48 6:2.0 7:0.286 8:2.0 9:0.286 10:0.563 11:0.619 12:0.563 13:0.578 14:0.302 15:0.323 
1.5 0:2.0 1:0.095 2:0.286 3:0.283 4:0.144 5:0.468 6:2.0 7:0.286 8:2.0 9:0.286 10:0.8 11:0.544 12:0.75 13:0.8 14:0.27 15:0.267 
1.5 0:2.0 1:0.087 2:0.286 3:0.27 4:0.134 5:0.155 6:2.0 7:0.286 8:1.0 9:0.143 10:0.723 11:0.564 12:0.723 13:0.723 14:0.21 15:0.198 
1.5 0:2.0 1:0.154 2:0.5 3:0.471 4:0.409 5:0.366 6:1.0 7:0.25 8:1.0 9:0.25 10:0.821 11:0.56 12:0.821 13:0.821 14:0.34 15:0.311 
1.5 0:2.0 1:0.118 2:0.5 3:0.333 4:0.253 5:0.395 6:1.0 7:0.25 8:1.0 9:0.25 10:0.8 11:0.565 12:0.8 13:0.786 14:0.0 15:0.229 
1.5 0:2.0 1:0.087 2:0.5 3:0.316 4:0.239 5:0.217 6:1.0 7:0.25 8:1.0 9:0.25 10:0.86 11:0.629 12:0.84 13:0.86 14:0.285 15:0.181 
1.5 0:3.0 1:0.15 2:0.429 3:0.474 4:0.474 5:0.266 6:0.0 7:0.0 8:0.0 9:0.0 10:0.711 11:0.622 12:0.711 13:0.724 14:0.0 15:0.0 
1.5 0:2.0 1:0.133 2:0.5 3:0.577 4:0.52 5:0.341 6:1.0 7:0.25 8:1.0 9:0.25 10:0.778 11:0.483 12:0.778 13:0.778 14:0.365 15:0.346 
1.5 0:2.0 1:0.118 2:0.5 3:0.385 4:0.319 5:0.287 6:1.0 7:0.25 8:1.0 9:0.25 10:0.872 11:0.561 12:0.821 13:0.859 14:0.0 15:0.099 
1.5 0:2.0 1:0.077 2:0.4 3:0.333 4:0.344 5:0.471 6:0.0 7:0.0 8:0.0 9:0.0 10:0.881 11:0.489 12:0.881 13:0.881 14:0.265 15:0.271 
1.5 0:2.0 1:0.1 2:0.286 3:0.309 4:0.264 5:0.096 6:1.0 7:0.143 8:0.0 9:0.0 10:0.711 11:0.623 12:0.711 13:0.697 14:0.0 15:0.077 
1.5 0:2.0 1:0.105 2:0.286 3:0.226 4:0.197 5:0.108 6:2.0 7:0.286 8:0.0 9:0.0 10:0.69 11:0.588 12:0.69 13:0.69 14:0.089 15:0.117 
1.5 0:2.0 1:0.083 2:0.286 3:0.211 4:0.17 5:0.047 6:1.0 7:0.143 8:0.0 9:0.0 10:0.774 11:0.474 12:0.774 13:0.774 14:0.0 15:0.0 
1.5 0:2.0 1:0.222 2:0.667 3:0.471 4:0.571 5:0.365 6:1.0 7:0.333 8:0.0 9:0.0 10:0.818 11:0.556 12:0.818 13:0.818 14:0.136 15:0.096 
1.5 0:2.0 1:0.125 2:0.667 3:0.436 4:0.374 5:0.099 6:1.0 7:0.333 8:0.0 9:0.0 10:0.895 11:0.559 12:0.842 13:0.882 14:0.0 15:0.218 
1.5 0:2.0 1:0.133 2:0.667 3:0.408 4:0.326 5:0.185 6:1.0 7:0.333 8:0.0 9:0.0 10:0.892 11:0.56 12:0.838 13:0.878 14:0.0 15:0.204 
1.5 0:2.0 1:0.118 2:0.667 3:0.333 4:0.292 5:0.0 6:0.0 7:0.0 8:0.0 9:0.0 10:0.884 11:0.599 12:0.86 13:0.895 14:0.0 15:0.0 
1.5 0:2.0 1:0.133 2:0.667 3:0.32 4:0.279 5:0.102 6:1.0 7:0.333 8:0.0 9:0.0 10:0.881 11:0.601 12:0.857 13:0.893 14:0.126 15:0.082 
1.5 0:2.0 1:0.1 2:0.667 3:0.298 4:0.24 5:0.05 6:1.0 7:0.333 8:0.0 9:0.0 10:0.906 11:0.541 12:0.887 13:0.915 14:0.0 15:0.0 
1.5 0:2.0 1:0.1 2:0.286 3:0.32 4:0.394 5:0.207 6:1.0 7:0.143 8:0.0 9:0.0 10:0.769 11:0.619 12:0.744 13:0.782 14:0.0 15:0.246 
1.5 0:2.0 1:0.125 2:1.0 3:0.5 4:0.504 5:0.147 6:0.0 7:0.0 8:0.0 9:0.0 10:0.875 11:0.642 12:0.875 13:0.887 14:0.459 15:0.307 
1.5 0:2.0 1:0.105 2:1.0 3:0.392 4:0.405 5:0.261 6:0.0 7:0.0 8:0.0 9:0.0 10:0.896 11:0.635 12:0.896 13:0.906 14:0.0 15:0.309 
1.5 0:2.0 1:0.167 2:0.5 3:0.354 4:0.371 5:0.106 6:0.0 7:0.0 8:0.0 9:0.0 10:0.885 11:0.416 12:0.885 13:0.885 14:0.113 15:0.106 
1.5 0:2.0 1:0.167 2:0.5 3:0.354 4:0.359 5:0.106 6:0.0 7:0.0 8:0.0 9:0.0 10:0.885 11:0.416 12:0.885 13:0.885 14:0.113 15:0.106 
1.5 0:2.0 1:0.133 2:0.5 3:0.302 4:0.302 5:0.0 6:0.0 7:0.0 8:0.0 9:0.0 10:0.848 11:0.402 12:0.818 13:0.848 14:0.0 15:0.0 
1.5 0:2.0 1:0.154 2:0.5 3:0.5 4:0.599 5:0.432 6:0.0 7:0.0 8:0.0 9:0.0 10:0.786 11:0.46 12:0.75 13:0.786 14:0.382 15:0.371 
1.5 0:3.0 1:0.2 2:0.75 3:0.559 4:0.552 5:0.297 6:0.0 7:0.0 8:0.0 9:0.0 10:0.836 11:0.549 12:0.836 13:0.845 14:0.436 15:0.416 
1.5 0:2.0 1:0.133 2:0.667 3:0.385 4:0.396 5:0.591 6:1.0 7:0.333 8:1.0 9:0.333 10:0.816 11:0.511 12:0.816 13:0.816 14:0.236 15:0.204 
1.5 0:2.0 1:0.111 2:0.333 3:0.471 4:0.349 5:0.257 6:1.0 7:0.167 8:1.0 9:0.167 10:0.857 11:0.475 12:0.857 13:0.857 14:0.174 15:0.172 
1.5 0:2.0 1:0.095 2:0.333 3:0.436 4:0.32 5:0.257 6:1.0 7:0.167 8:1.0 9:0.167 10:0.833 11:0.587 12:0.81 13:0.845 14:0.174 15:0.172 
1.5 0:4.0 1:0.267 2:0.5 3:0.544 4:0.544 5:0.25 6:0.0 7:0.0 8:0.0 9:0.0 10:0.69 11:0.621 12:0.621 13:0.69 14:0.223 15:0.187 
1.5 0:4.0 1:0.211 2:0.5 3:0.471 4:0.494 5:0.127 6:0.0 7:0.0 8:0.0 9:0.0 10:0.644 11:0.64 12:0.644 13:0.667 14:0.0 15:0.0 
0.899438513037426 0:4.0 1:0.182 2:0.5 3:0.453 4:0.493 5:0.16 6:0.0 7:0.0 8:0.0 9:0.0 10:0.66 11:0.506 12:0.66 13:0.681 14:0.53 15:0.462 
1.5 0:4.0 1:0.222 2:0.5 3:0.453 4:0.467 5:0.248 6:0.0 7:0.0 8:0.0 9:0.0 10:0.622 11:0.562 12:0.622 13:0.622 14:0.073 15:0.072 
1.5 0:3.0 1:0.136 2:0.375 3:0.433 4:0.453 5:0.549 6:0.0 7:0.0 8:0.0 9:0.0 10:0.69 11:0.613 12:0.69 13:0.69 14:0.099 15:0.275 
1.5 0:4.0 1:0.182 2:0.5 3:0.436 4:0.448 5:0.221 6:0.0 7:0.0 8:0.0 9:0.0 10:0.66 11:0.535 12:0.66 13:0.67 14:0.309 15:0.28 
1.5 0:3.0 1:0.158 2:0.375 3:0.387 4:0.402 5:0.213 6:0.0 7:0.0 8:0.0 9:0.0 10:0.757 11:0.504 12:0.73 13:0.757 14:0.068 15:0.055 
1.5 0:3.0 1:0.125 2:0.375 3:0.369 4:0.383 5:0.388 6:0.0 7:0.0 8:0.0 9:0.0 10:0.756 11:0.555 12:0.756 13:0.756 14:0.365 15:0.346 
1.5 0:2.0 1:0.08 2:0.25 3:0.236 4:0.236 5:0.118 6:0.0 7:0.0 8:0.0 9:0.0 10:0.824 11:0.543 12:0.824 13:0.824 14:0.0 15:0.111 
1.5 0:2.0 1:0.125 2:0.333 3:0.436 4:0.324 5:0.077 6:1.0 7:0.167 8:1.0 9:0.167 10:0.714 11:0.517 12:0.679 13:0.714 14:0.463 15:0.395 
1.5 0:2.0 1:0.118 2:0.5 3:0.354 4:0.281 5:0.264 6:1.0 7:0.25 8:1.0 9:0.25 10:0.833 11:0.591 12:0.833 13:0.819 14:0.125 15:0.112 
1.5 0:2.0 1:0.111 2:0.5 3:0.316 4:0.263 5:0.423 6:1.0 7:0.25 8:1.0 9:0.25 10:0.8 11:0.667 12:0.8 13:0.8 14:0.167 15:0.258 
1.5 0:2.0 1:0.1 2:0.4 3:0.426 4:0.435 5:0.0 6:0.0 7:0.0 8:0.0 9:0.0 10:0.721 11:0.827 12:0.721 13:0.721 14:0.0 15:0.0 
1.5 0:2.0 1:0.154 2:1.0 3:0.343 4:0.289 5:0.0 6:0.0 7:0.0 8:0.0 9:0.0 10:0.875 11:0.653 12:0.875 13:0.885 14:0.0 15:0.0 
1.5 0:1.0 1:0.067 2:1.0 3:0.354 4:0.251 5:0.584 6:1.0 7:1.0 8:1.0 9:1.0 10:0.947 11:0.0 12:0.947 13:0.961 14:0.0 15:0.169 
1.5 0:2.0 1:0.125 2:0.667 3:0.471 4:0.524 5:0.424 6:0.0 7:0.0 8:0.0 9:0.0 10:0.889 11:0.509 12:0.889 13:0.903 14:0.0 15:0.0 
1.5 0:2.0 1:0.1 2:0.667 3:0.385 4:0.464 5:0.404 6:0.0 7:0.0 8:0.0 9:0.0 10:0.907 11:0.503 12:0.907 13:0.919 14:0.214 15:0.284 
1.5 0:2.0 1:0.118 2:0.667 3:0.408 4:0.454 5:0.522 6:1.0 7:0.333 8:0.0 9:0.0 10:0.889 11:0.509 12:0.889 13:0.903 14:0.154 15:0.333 
1.5 0:2.0 1:0.091 2:0.667 3:0.365 4:0.432 5:0.206 6:0.0 7:0.0 8:0.0 9:0.0 10:0.92 11:0.499 12:0.92 13:0.93 14:0.0 15:0.0 
1.5 0:2.0 1:0.105 2:0.667 3:0.385 4:0.428 5:0.352 6:0.0 7:0.0 8:0.0 9:0.0 10:0.905 11:0.504 12:0.905 13:0.917 14:0.0 15:0.178 
1.5 0:2.0 1:0.083 2:0.667 3:0.365 4:0.406 5:0.099 6:0.0 7:0.0 8:0.0 9:0.0 10:0.92 11:0.499 12:0.92 13:0.93 14:0.0 15:0.0 
1.5 0:2.0 1:0.111 2:0.667 3:0.348 4:0.398 5:0.569 6:1.0 7:0.333 8:0.0 9:0.0 10:0.897 11:0.506 12:0.897 13:0.91 14:0.0 15:0.0 
1.5 0:2.0 1:0.083 2:0.667 3:0.333 4:0.385 5:0.091 6:1.0 7:0.333 8:0.0 9:0.0 10:0.923 11:0.457 12:0.923 13:0.933 14:0.0 15:0.0 
1.5 0:2.0 1:0.125 2:0.667 3:0.333 4:0.371 5:0.25 6:0.0 7:0.0 8:0.0 9:0.0 10:0.895 11:0.507 12:0.895 13:0.908 14:0.0 15:0.0 
1.5 0:2.0 1:0.087 2:0.667 3:0.298 4:0.338 5:0.439 6:0.0 7:0.0 8:0.0 9:0.0 10:0.92 11:0.458 12:0.92 13:0.93 14:0.317 15:0.289 
1.5 0:2.0 1:0.167 2:0.667 3:0.471 4:0.409 5:0.405 6:1.0 7:0.333 8:1.0 9:0.333 10:0.769 11:0.64 12:0.769 13:0.75 14:0.196 15:0.459 
1.5 0:2.0 1:0.25 2:0.667 3:0.471 4:0.337 5:0.042 6:2.0 7:0.667 8:0.0 9:0.0 10:0.762 11:0.602 12:0.762 13:0.762 14:0.0 15:0.0 
1.5 0:3.0 1:0.12 2:0.333 3:0.387 4:0.362 5:0.338 6:1.0 7:0.111 8:0.0 9:0.0 10:0.792 11:0.527 12:0.792 13:0.792 14:0.154 15:0.312 
1.5 0:3.0 1:0.136 2:0.333 3:0.297 4:0.278 5:0.386 6:1.0 7:0.111 8:1.0 9:0.111 10:0.756 11:0.533 12:0.756 13:0.756 14:0.136 15:0.154 
1.5 0:2.0 1:0.133 2:0.5 3:0.316 4:0.24 5:0.307 6:1.0 7:0.25 8:1.0 9:0.25 10:0.813 11:0.642 12:0.781 13:0.828 14:0.289 15:0.354 
1.5 0:2.0 1:0.118 2:0.5 3:0.289 4:0.22 5:0.42 6:1.0 7:0.25 8:1.0 9:0.25 10:0.861 11:0.591 12:0.806 13:0.847 14:0.25 15:0.247 
1.5 0:2.0 1:0.111 2:0.5 3:0.267 4:0.201 5:0.298 6:1.0 7:0.25 8:1.0 9:0.25 10:0.81 11:0.663 12:0.81 13:0.821 14:0.209 15:0.144 
1.5 0:2.0 1:0.143 2:0.333 3:0.338 4:0.368 5:0.039 6:0.0 7:0.0 8:0.0 9:0.0 10:0.609 11:0.62 12:0.609 13:0.63 14:0.039 15:0.039 
1.5 0:2.0 1:0.125 2:0.25 3:0.424 4:0.443 5:0.309 6:0.0 7:0.0 8:0.0 9:0.0 10:0.643 11:0.566 12:0.607 13:0.643 14:0.0 15:0.069 
1.5 0:2.0 1:0.105 2:0.667 3:0.32 4:0.364 5:0.23 6:1.0 7:0.333 8:0.0 9:0.0 10:0.857 11:0.603 12:0.857 13:0.869 14:0.243 15:0.184 
1.5 0:2.0 1:0.118 2:0.5 3:0.378 4:0.314 5:0.078 6:1.0 7:0.25 8:0.0 9:0.0 10:0.921 11:0.479 12:0.842 13:0.921 14:0.0 15:0.094 
1.5 0:2.0 1:0.125 2:0.5 3:0.354 4:0.273 5:0.16 6:1.0 7:0.25 8:0.0 9:0.0 10:0.892 11:0.539 12:0.838 13:0.905 14:0.0 15:0.177 
1.5 0:2.0 1:0.111 2:0.5 3:0.333 4:0.27 5:0.178 6:0.0 7:0.0 8:0.0 9:0.0 10:0.878 11:0.516 12:0.829 13:0.89 14:0.442 15:0.386 
1.5 0:2.0 1:0.095 2:0.5 3:0.258 4:0.201 5:0.057 6:1.0 7:0.25 8:0.0 9:0.0 10:0.868 11:0.626 12:0.849 13:0.877 14:0.0 15:0.0 
1.5 0:3.0 1:0.2 2:0.6 3:0.387 4:0.372 5:0.23 6:1.0 7:0.2 8:1.0 9:0.2 10:0.769 11:0.629 12:0.769 13:0.756 14:0.176 15:0.227 
1.5 0:3.0 1:0.158 2:0.6 3:0.359 4:0.35 5:0.185 6:1.0 7:0.2 8:1.0 9:0.2 10:0.778 11:0.579 12:0.778 13:0.767 14:0.065 15:0.12 
1.5 0:3.0 1:0.158 2:0.6 3:0.387 4:0.349 5:0.312 6:1.0 7:0.2 8:1.0 9:0.2 10:0.771 11:0.549 12:0.771 13:0.76 14:0.163 15:0.194 
1.5 0:2.0 1:0.111 2:0.4 3:0.27 4:0.225 5:0.3 6:1.0 7:0.2 8:1.0 9:0.2 10:0.822 11:0.546 12:0.778 13:0.833 14:0.205 15:0.234 
1.5 0:2.0 1:0.105 2:0.4 3:0.258 4:0.217 5:0.34 6:1.0 7:0.2 8:1.0 9:0.2 10:0.822 11:0.552 12:0.8 13:0.822 14:0.31 15:0.271 
1.5 0:2.0 1:0.105 2:0.4 3:0.258 4:0.216 5:0.191 6:1.0 7:0.2 8:1.0 9:0.2 10:0.761 11:0.584 12:0.761 13:0.761 14:0.103 15:0.196 
1.5 0:2.0 1:0.111 2:0.4 3:0.258 4:0.338 5:0.49 6:2.0 7:0.4 8:0.0 9:0.0 10:0.837 11:0.519 12:0.837 13:0.849 14:0.338 15:0.248 
1.5 0:2.0 1:0.125 2:0.5 3:0.612 4:0.657 5:0.074 6:0.0 7:0.0 8:0.0 9:0.0 10:0.783 11:0.455 12:0.783 13:0.793 14:0.236 15:0.241 
1.5 0:2.0 1:0.111 2:0.5 3:0.447 4:0.464 5:0.49 6:0.0 7:0.0 8:0.0 9:0.0 10:0.773 11:0.609 12:0.773 13:0.784 14:0.289 15:0.477 
1.5 0:2.0 1:0.111 2:0.5 3:0.535 4:0.505 5:0.495 6:1.0 7:0.25 8:1.0 9:0.25 10:0.842 11:0.597 12:0.842 13:0.842 14:0.218 15:0.272 
1.5 0:2.0 1:0.143 2:1.0 3:0.426 4:0.446 5:0.174 6:0.0 7:0.0 8:0.0 9:0.0 10:0.93 11:0.452 12:0.93 13:0.942 14:0.0 15:0.293 
0.30303764625196816 0:2.0 1:0.125 2:1.0 3:0.5 4:0.483 5:0.093 6:1.0 7:0.5 8:1.0 9:0.5 10:0.857 11:0.397 12:0.857 13:0.869 14:0.0 15:0.0 
1.5 0:2.0 1:0.111 2:1.0 3:0.354 4:0.362 5:0.166 6:0.0 7:0.0 8:0.0 9:0.0 10:0.92 11:0.693 12:0.92 13:0.92 14:0.0 15:0.0 
1.5 0:3.0 1:0.15 2:0.333 3:0.404 4:0.404 5:0.27 6:0.0 7:0.0 8:0.0 9:0.0 10:0.703 11:0.602 12:0.703 13:0.716 14:0.35 15:0.306 
1.5 0:3.0 1:0.13 2:0.333 3:0.327 4:0.338 5:0.426 6:0.0 7:0.0 8:0.0 9:0.0 10:0.744 11:0.56 12:0.744 13:0.756 14:0.463 15:0.429 
1.5 0:3.0 1:0.158 2:0.375 3:0.404 4:0.404 5:0.27 6:0.0 7:0.0 8:0.0 9:0.0 10:0.73 11:0.593 12:0.73 13:0.743 14:0.35 15:0.306 
1.5 0:3.0 1:0.136 2:0.375 3:0.327 4:0.338 5:0.426 6:0.0 7:0.0 8:0.0 9:0.0 10:0.767 11:0.578 12:0.767 13:0.779 14:0.463 15:0.429 
1.5 0:3.0 1:0.214 2:0.75 3:0.567 4:0.567 5:0.148 6:0.0 7:0.0 8:0.0 9:0.0 10:0.697 11:0.773 12:0.697 13:0.697 14:0.0 15:0.0 
1.5 0:3.0 1:0.176 2:0.75 3:0.474 4:0.497 5:0.439 6:0.0 7:0.0 8:0.0 9:0.0 10:0.87 11:0.567 12:0.804 13:0.88 14:0.392 15:0.348 
1.5 0:2.0 1:0.133 2:0.5 3:0.408 4:0.408 5:0.504 6:0.0 7:0.0 8:0.0 9:0.0 10:0.719 11:0.529 12:0.719 13:0.734 14:0.254 15:0.244 
1.5 0:2.0 1:0.118 2:0.5 3:0.354 4:0.354 5:0.049 6:0.0 7:0.0 8:0.0 9:0.0 10:0.769 11:0.549 12:0.769 13:0.782 14:0.364 15:0.283 
1.5 0:2.0 1:0.095 2:0.5 3:0.316 4:0.334 5:0.215 6:0.0 7:0.0 8:0.0 9:0.0 10:0.872 11:0.53 12:0.851 13:0.883 14:0.416 15:0.202 
1.5 0:2.0 1:0.1 2:0.5 3:0.277 4:0.277 5:0.235 6:0.0 7:0.0 8:0.0 9:0.0 10:0.83 11:0.536 12:0.809 13:0.83 14:0.25 15:0.229 
1.5 0:2.0 1:0.091 2:0.5 3:0.25 4:0.261 5:0.211 6:0.0 7:0.0 8:0.0 9:0.0 10:0.833 11:0.581 12:0.813 13:0.844 14:0.603 15:0.417 
1.5 0:2.0 1:0.095 2:0.5 3:0.243 4:0.243 5:0.269 6:0.0 7:0.0 8:0.0 9:0.0 10:0.843 11:0.531 12:0.824 13:0.843 14:0.164 15:0.128 
1.5 0:2.0 1:0.125 2:1.0 3:0.5 4:0.517 5:0.131 6:0.0 7:0.0 8:0.0 9:0.0 10:0.881 11:0.64 12:0.881 13:0.893 14:0.0 15:0.0 
1.5 0:2.0 1:0.111 2:0.5 3:0.316 4:0.271 5:0.177 6:1.0 7:0.25 8:1.0 9:0.25 10:0.786 11:0.646 12:0.786 13:0.821 14:0.0 15:0.139 
1.5 0:2.0 1:0.111 2:0.5 3:0.385 4:0.385 5:0.204 6:0.0 7:0.0 8:0.0 9:0.0 10:0.784 11:0.471 12:0.784 13:0.797 14:0.337 15:0.296 
1.5 0:2.0 1:0.111 2:0.667 3:0.348 4:0.38 5:0.203 6:0.0 7:0.0 8:0.0 9:0.0 10:0.822 11:0.431 12:0.822 13:0.844 14:0.32 15:0.436 
1.5 0:2.0 1:0.118 2:0.667 3:0.348 4:0.36 5:0.271 6:0.0 7:0.0 8:0.0 9:0.0 10:0.784 11:0.435 12:0.784 13:0.811 14:0.201 15:0.19 
1.5 0:2.0 1:0.105 2:0.667 3:0.32 4:0.336 5:0.079 6:0.0 7:0.0 8:0.0 9:0.0 10:0.854 11:0.368 12:0.854 13:0.854 14:0.0 15:0.0 
1.5 0:3.0 1:0.15 2:0.6 3:0.372 4:0.406 5:0.189 6:1.0 7:0.2 8:0.0 9:0.0 10:0.826 11:0.5 12:0.826 13:0.837 14:0.0 15:0.122 
1.5 0:2.0 1:0.143 2:0.5 3:0.5 4:0.41 5:0.0 6:0.0 7:0.0 8:0.0 9:0.0 10:0.714 11:0.421 12:0.714 13:0.729 14:0.0 15:0.0 
1.5 0:2.0 1:0.143 2:0.5 3:0.471 4:0.385 5:0.103 6:0.0 7:0.0 8:0.0 9:0.0 10:0.706 11:0.834 12:0.706 13:0.706 14:0.229 15:0.385 
1.5 0:2.0 1:0.111 2:0.5 3:0.447 4:0.363 5:0.366 6:1.0 7:0.25 8:0.0 9:0.0 10:0.875 11:0.53 12:0.875 13:0.875 14:0.535 15:0.474 
1.5 0:2.0 1:0.111 2:0.5 3:0.392 4:0.324 5:0.142 6:1.0 7:0.25 8:0.0 9:0.0 10:0.737 11:0.819 12:0.737 13:0.737 14:0.333 15:0.397 
1.5 0:2.0 1:0.091 2:0.5 3:0.354 4:0.283 5:0.0 6:0.0 7:0.0 8:0.0 9:0.0 10:0.8 11:0.453 12:0.8 13:0.81 14:0.0 15:0.0 
1.5 0:3.0 1:0.167 2:0.6 3:0.612 4:0.564 5:0.451 6:0.0 7:0.0 8:0.0 9:0.0 10:0.725 11:0.46 12:0.725 13:0.738 14:0.548 15:0.541 
1.5 0:3.0 1:0.158 2:0.6 3:0.73 4:0.794 5:0.438 6:0.0 7:0.0 8:0.0 9:0.0 10:0.744 11:0.631 12:0.744 13:0.756 14:0.226 15:0.42 
1.5 0:3.0 1:0.167 2:0.6 3:0.667 4:0.667 5:0.219 6:0.0 7:0.0 8:0.0 9:0.0 10:0.766 11:0.623 12:0.766 13:0.777 14:0.265 15:0.274 
1.5 0:3.0 1:0.143 2:0.6 3:0.577 4:0.626 5:0.58 6:0.0 7:0.0 8:0.0 9:0.0 10:0.744 11:0.631 12:0.744 13:0.756 14:0.536 15:0.497 
1.5 0:2.0 1:0.143 2:0.4 3:0.338 4:0.355 5:0.247 6:2.0 7:0.4 8:1.0 9:0.2 10:0.677 11:0.493 12:0.677 13:0.677 14:0.0 15:0.344 
1.5 0:2.0 1:0.182 2:0.667 3:0.577 4:0.577 5:0.249 6:0.0 7:0.0 8:0.0 9:0.0 10:0.769 11:0.472 12:0.769 13:0.788 14:0.408 15:0.424 
1.5 0:2.0 1:0.118 2:1.0 3:0.64 4:0.659 5:0.0 6:0.0 7:0.0 8:0.0 9:0.0 10:0.905 11:0.698 12:0.905 13:0.905 14:0.0 15:0.0 
1.5 0:2.0 1:0.118 2:1.0 3:0.588 4:0.603 5:0.171 6:0.0 7:0.0 8:0.0 9:0.0 10:0.907 11:0.614 12:0.907 13:0.919 14:0.324 15:0.254 
1.5 0:2.0 1:0.133 2:1.0 3:0.535 4:0.594 5:0.207 6:0.0 7:0.0 8:0.0 9:0.0 10:0.895 11:0.425 12:0.895 13:0.908 14:0.0 15:0.0 
1.5 0:2.0 1:0.25 2:1.0 3:0.535 4:0.588 5:0.0 6:0.0 7:0.0 8:0.0 9:0.0 10:0.81 11:0.433 12:0.81 13:0.833 14:0.0 15:0.0 
1.5 0:2.0 1:0.118 2:1.0 3:0.471 4:0.553 5:0.176 6:0.0 7:0.0 8:0.0 9:0.0 10:0.907 11:0.516 12:0.907 13:0.919 14:0.392 15:0.453 
1.4447637182379158 0:2.0 1:0.167 2:1.0 3:0.535 4:0.535 5:0.084 6:0.0 7:0.0 8:0.0 9:0.0 10:0.857 11:0.755 12:0.857 13:0.857 14:0.267 15:0.242 
1.5 0:2.0 1:0.111 2:1.0 3:0.447 4:0.534 5:0.089 6:0.0 7:0.0 8:0.0 9:0.0 10:0.915 11:0.612 12:0.915 13:0.926 14:0.0 15:0.0 
1.5 0:2.0 1:0.111 2:1.0 3:0.471 4:0.519 5:0.102 6:0.0 7:0.0 8:0.0 9:0.0 10:0.915 11:0.612 12:0.915 13:0.926 14:0.291 15:0.106 
1.5 0:2.0 1:0.118 2:1.0 3:0.447 4:0.513 5:0.267 6:0.0 7:0.0 8:0.0 9:0.0 10:0.905 11:0.615 12:0.905 13:0.917 14:0.0 15:0.0 
1.5 0:2.0 1:0.125 2:1.0 3:0.447 4:0.486 5:0.133 6:0.0 7:0.0 8:0.0 9:0.0 10:0.902 11:0.616 12:0.902 13:0.915 14:0.426 15:0.243 
1.5 0:2.0 1:0.1 2:1.0 3:0.471 4:0.48 5:0.205 6:0.0 7:0.0 8:0.0 9:0.0 10:0.915 11:0.612 12:0.915 13:0.926 14:0.378 15:0.224 
1.5 0:2.0 1:0.105 2:1.0 3:0.447 4:0.477 5:0.126 6:0.0 7:0.0 8:0.0 9:0.0 10:0.917 11:0.611 12:0.917 13:0.927 14:0.375 15:0.22 
1.5 0:2.0 1:0.1 2:1.0 3:0.426 4:0.476 5:0.097 6:0.0 7:0.0 8:0.0 9:0.0 10:0.918 11:0.611 12:0.918 13:0.929 14:0.206 15:0.161 
1.5 0:2.0 1:0.154 2:1.0 3:0.447 4:0.47 5:0.258 6:0.0 7:0.0 8:0.0 9:0.0 10:0.875 11:0.625 12:0.875 13:0.891 14:0.316 15:0.289 
1.5 0:2.0 1:0.1 2:1.0 3:0.426 4:0.465 5:0.125 6:0.0 7:0.0 8:0.0 9:0.0 10:0.92 11:0.61 12:0.92 13:0.93 14:0.612 15:0.335 
1.5 0:2.0 1:0.133 2:1.0 3:0.426 4:0.463 5:0.318 6:0.0 7:0.0 8:0.0 9:0.0 10:0.9 11:0.617 12:0.9 13:0.913 14:0.323 15:0.361 
1.5 0:2.0 1:0.091 2:1.0 3:0.426 4:0.461 5:0.153 6:0.0 7:0.0 8:0.0 9:0.0 10:0.922 11:0.609 12:0.922 13:0.931 14:0.508 15:0.471 
1.5 0:2.0 1:0.1 2:1.0 3:0.426 4:0.453 5:0.114 6:0.0 7:0.0 8:0.0 9:0.0 10:0.918 11:0.611 12:0.918 13:0.929 14:0.408 15:0.471 
1.5 0:2.0 1:0.105 2:1.0 3:0.408 4:0.442 5:0.256 6:0.0 7:0.0 8:0.0 9:0.0 10:0.915 11:0.612 12:0.915 13:0.926 14:0.0 15:0.0 
1.5 0:2.0 1:0.118 2:1.0 3:0.408 4:0.436 5:0.192 6:0.0 7:0.0 8:0.0 9:0.0 10:0.902 11:0.616 12:0.902 13:0.915 14:0.0 15:0.0 
1.5 0:2.0 1:0.111 2:1.0 3:0.408 4:0.426 5:0.046 6:0.0 7:0.0 8:0.0 9:0.0 10:0.911 11:0.613 12:0.911 13:0.922 14:0.232 15:0.158 
1.5 0:2.0 1:0.111 2:1.0 3:0.408 4:0.423 5:0.242 6:0.0 7:0.0 8:0.0 9:0.0 10:0.905 11:0.615 12:0.905 13:0.917 14:0.229 15:0.181 
1.5 0:2.0 1:0.105 2:1.0 3:0.408 4:0.42 5:0.144 6:0.0 7:0.0 8:0.0 9:0.0 10:0.907 11:0.698 12:0.907 13:0.907 14:0.277 15:0.178 
1.5 0:2.0 1:0.111 2:1.0 3:0.392 4:0.412 5:0.092 6:0.0 7:0.0 8:0.0 9:0.0 10:0.917 11:0.611 12:0.917 13:0.927 14:0.243 15:0.144 
1.5 0:2.0 1:0.091 2:1.0 3:0.378 4:0.407 5:0.24 6:0.0 7:0.0 8:0.0 9:0.0 10:0.922 11:0.609 12:0.922 13:0.931 14:0.317 15:0.24 
1.5 0:2.0 1:0.111 2:1.0 3:0.365 4:0.384 5:0.127 6:0.0 7:0.0 8:0.0 9:0.0 10:0.917 11:0.611 12:0.917 13:0.927 14:0.206 15:0.15 
1.5 0:2.0 1:0.074 2:1.0 3:0.354 4:0.375 5:0.091 6:0.0 7:0.0 8:0.0 9:0.0 10:0.935 11:0.605 12:0.935 13:0.944 14:0.548 15:0.615 
1.5 0:2.0 1:0.118 2:1.0 3:0.333 4:0.353 5:0.042 6:0.0 7:0.0 8:0.0 9:0.0 10:0.915 11:0.424 12:0.915 13:0.926 14:0.0 15:0.0 
1.5 0:3.0 1:0.13 2:0.3 3:0.359 4:0.359 5:0.211 6:0.0 7:0.0 8:0.0 9:0.0 10:0.744 11:0.611 12:0.718 13:0.756 14:0.412 15:0.311 
1.5 0:2.0 1:0.125 2:0.286 3:0.289 4:0.303 5:0.408 6:0.0 7:0.0 8:0.0 9:0.0 10:0.75 11:0.571 12:0.75 13:0.75 14:0.356 15:0.389 
1.5 0:2.0 1:0.091 2:0.222 3:0.267 4:0.267 5:0.119 6:0.0 7:0.0 8:0.0 9:0.0 10:0.639 11:0.566 12:0.611 13:0.653 14:0.0 15:0.0 
1.5 0:2.0 1:0.095 2:0.5 3:0.289 4:0.3 5:0.494 6:0.0 7:0.0 8:0.0 9:0.0 10:0.844 11:0.467 12:0.844 13:0.856 14:0.258 15:0.333 
1.5 0:2.0 1:0.095 2:0.5 3:0.258 4:0.271 5:0.415 6:0.0 7:0.0 8:0.0 9:0.0 10:0.88 11:0.573 12:0.88 13:0.87 14:0.354 15:0.373 
1.5 0:2.0 1:0.125 2:0.4 3:0.424 4:0.516 5:0.619 6:1.0 7:0.2 8:1.0 9:0.2 10:0.771 11:0.533 12:0.771 13:0.8 14:0.483 15:0.626 
1.5 0:2.0 1:0.111 2:0.4 3:0.316 4:0.244 5:0.341 6:1.0 7:0.2 8:1.0 9:0.2 10:0.784 11:0.596 12:0.784 13:0.784 14:0.321 15:0.227 
1.5 0:2.0 1:0.111 2:0.4 3:0.298 4:0.241 5:0.431 6:2.0 7:0.4 8:1.0 9:0.2 10:0.795 11:0.588 12:0.769 13:0.795 14:0.623 15:0.559 
1.5 0:2.0 1:0.111 2:0.4 3:0.248 4:0.194 5:0.116 6:0.0 7:0.0 8:1.0 9:0.2 10:0.784 11:0.628 12:0.757 13:0.77 14:0.239 15:0.179 
1.5 0:3.0 1:0.188 2:0.5 3:0.474 4:0.424 5:0.333 6:1.0 7:0.167 8:1.0 9:0.167 10:0.774 11:0.57 12:0.742 13:0.758 14:0.377 15:0.5 
1.5 0:2.0 1:0.1 2:1.0 3:0.535 4:0.535 5:0.087 6:0.0 7:0.0 8:0.0 9:0.0 10:0.886 11:0.638 12:0.886 13:0.898 14:0.183 15:0.098 
1.5 0:2.0 1:0.125 2:1.0 3:0.5 4:0.528 5:0.117 6:0.0 7:0.0 8:0.0 9:0.0 10:0.861 11:0.753 12:0.861 13:0.861 14:0.243 15:0.213 
1.5 0:2.0 1:0.118 2:1.0 3:0.447 4:0.522 5:0.191 6:0.0 7:0.0 8:0.0 9:0.0 10:0.891 11:0.636 12:0.891 13:0.902 14:0.387 15:0.337 
1.5 0:2.0 1:0.105 2:1.0 3:0.5 4:0.516 5:0.235 6:0.0 7:0.0 8:0.0 9:0.0 10:0.9 11:0.633 12:0.9 13:0.91 14:0.365 15:0.235 
1.5 0:2.0 1:0.182 2:1.0 3:0.471 4:0.49 5:0.125 6:0.0 7:0.0 8:0.0 9:0.0 10:0.844 11:0.652 12:0.844 13:0.859 14:0.213 15:0.154 
1.5 0:2.0 1:0.118 2:1.0 3:0.447 4:0.477 5:0.153 6:0.0 7:0.0 8:0.0 9:0.0 10:0.884 11:0.639 12:0.884 13:0.895 14:0.354 15:0.137 
1.5 0:2.0 1:0.133 2:1.0 3:0.426 4:0.466 5:0.17 6:0.0 7:0.0 8:0.0 9:0.0 10:0.875 11:0.408 12:0.875 13:0.887 14:0.0 15:0.401 
1.5 0:2.0 1:0.143 2:1.0 3:0.426 4:0.46 5:0.09 6:0.0 7:0.0 8:0.0 9:0.0 10:0.872 11:0.643 12:0.872 13:0.885 14:0.365 15:0.216 
1.5 0:2.0 1:0.125 2:1.0 3:0.447 4:0.459 5:0.081 6:0.0 7:0.0 8:0.0 9:0.0 10:0.886 11:0.638 12:0.886 13:0.898 14:0.081 15:0.081 
1.5 0:2.0 1:0.105 2:1.0 3:0.426 4:0.456 5:0.109 6:0.0 7:0.0 8:0.0 9:0.0 10:0.891 11:0.636 12:0.891 13:0.902 14:0.0 15:0.0 
1.5 0:2.0 1:0.118 2:1.0 3:0.426 4:0.454 5:0.237 6:0.0 7:0.0 8:0.0 9:0.0 10:0.886 11:0.638 12:0.886 13:0.898 14:0.28 15:0.237 
1.5 0:2.0 1:0.111 2:1.0 3:0.408 4:0.45 5:0.244 6:0.0 7:0.0 8:0.0 9:0.0 10:0.894 11:0.635 12:0.894 13:0.904 14:0.408 15:0.404 
1.5 0:2.0 1:0.111 2:1.0 3:0.426 4:0.436 5:0.253 6:0.0 7:0.0 8:0.0 9:0.0 10:0.889 11:0.637 12:0.889 13:0.9 14:0.0 15:0.295 
1.5 0:2.0 1:0.118 2:1.0 3:0.378 4:0.42 5:0.096 6:0.0 7:0.0 8:0.0 9:0.0 10:0.891 11:0.636 12:0.891 13:0.902 14:0.447 15:0.267 
1.5 0:2.0 1:0.143 2:1.0 3:0.378 4:0.395 5:0.103 6:0.0 7:0.0 8:0.0 9:0.0 10:0.872 11:0.643 12:0.872 13:0.885 14:0.333 15:0.267 
1.5 0:2.0 1:0.1 2:1.0 3:0.365 4:0.373 5:0.3 6:0.0 7:0.0 8:0.0 9:0.0 10:0.9 11:0.633 12:0.9 13:0.91 14:0.25 15:0.333 
1.5 0:3.0 1:0.158 2:0.6 3:0.424 4:0.495 5:0.193 6:0.0 7:0.0 8:0.0 9:0.0 10:0.826 11:0.584 12:0.804 13:0.826 14:0.245 15:0.298 
1.5 0:2.0 1:0.133 2:0.667 3:0.436 4:0.373 5:0.252 6:1.0 7:0.333 8:1.0 9:0.333 10:0.889 11:0.537 12:0.889 13:0.889 14:0.079 15:0.058 
1.5 0:2.0 1:0.105 2:0.667 3:0.365 4:0.323 5:0.248 6:1.0 7:0.333 8:1.0 9:0.333 10:0.917 11:0.514 12:0.917 13:0.917 14:0.48 15:0.39 
1.5 0:2.0 1:0.2 2:0.5 3:0.447 4:0.431 5:0.0 6:0.0 7:0.0 8:0.0 9:0.0 10:0.762 11:0.698 12:0.762 13:0.786 14:0.0 15:0.0 
1.5 0:2.0 1:0.111 2:0.5 3:0.302 4:0.293 5:0.339 6:0.0 7:0.0 8:0.0 9:0.0 10:0.881 11:0.627 12:0.881 13:0.893 14:0.371 15:0.391 
1.5 0:2.0 1:0.125 2:0.5 3:0.316 4:0.287 5:0.454 6:0.0 7:0.0 8:0.0 9:0.0 10:0.861 11:0.639 12:0.861 13:0.875 14:0.348 15:0.349 
1.5 0:2.0 1:0.111 2:0.5 3:0.289 4:0.275 5:0.238 6:0.0 7:0.0 8:0.0 9:0.0 10:0.86 11:0.547 12:0.86 13:0.872 14:0.0 15:0.0 
1.5 0:2.0 1:0.087 2:0.5 3:0.302 4:0.272 5:0.586 6:1.0 7:0.25 8:0.0 9:0.0 10:0.9 11:0.484 12:0.9 13:0.91 14:0.475 15:0.505 
1.5 0:2.0 1:0.118 2:0.5 3:0.289 4:0.266 5:0.262 6:0.0 7:0.0 8:0.0 9:0.0 10:0.861 11:0.5 12:0.861 13:0.875 14:0.316 15:0.338 
1.5 0:2.0 1:0.111 2:0.5 3:0.289 4:0.261 5:0.26 6:0.0 7:0.0 8:0.0 9:0.0 10:0.867 11:0.544 12:0.867 13:0.878 14:0.169 15:0.119 
1.5 0:2.0 1:0.091 2:0.5 3:0.267 4:0.246 5:0.094 6:0.0 7:0.0 8:0.0 9:0.0 10:0.878 11:0.58 12:0.878 13:0.888 14:0.0 15:0.14 
1.5 0:2.0 1:0.087 2:0.5 3:0.267 4:0.239 5:0.264 6:0.0 7:0.0 8:0.0 9:0.0 10:0.902 11:0.614 12:0.902 13:0.912 14:0.0 15:0.0 
1.5 0:4.0 1:0.211 2:0.571 3:0.436 4:0.5 5:0.109 6:0.0 7:0.0 8:0.0 9:0.0 10:0.767 11:0.565 12:0.744 13:0.767 14:0.24 15:0.208 
1.5 0:2.0 1:0.111 2:0.5 3:0.289 4:0.207 5:0.358 6:1.0 7:0.25 8:1.0 9:0.25 10:0.778 11:0.688 12:0.778 13:0.778 14:0.254 15:0.415 
1.5 0:1.0 1:0.056 2:1.0 3:0.25 4:0.21 5:0.117 6:1.0 7:1.0 8:0.0 9:0.0 10:0.94 11:0.0 12:0.94 13:0.95 14:0.0 15:0.0 
1.5 0:2.0 1:0.143 2:0.5 3:0.385 4:0.353 5:0.408 6:1.0 7:0.25 8:1.0 9:0.25 10:0.75 11:0.485 12:0.75 13:0.75 14:0.226 15:0.231 
1.5 0:1.0 1:0.053 2:1.0 3:0.289 4:0.248 5:0.029 6:1.0 7:1.0 8:0.0 9:0.0 10:0.959 11:0.68 12:0.959 13:0.969 14:0.067 15:0.058 
1.5 0:3.0 1:0.231 2:0.5 3:0.667 4:0.692 5:0.268 6:0.0 7:0.0 8:0.0 9:0.0 10:0.44 11:0.734 12:0.44 13:0.48 14:0.344 15:0.3 
1.5 0:2.0 1:0.167 2:0.667 3:0.436 4:0.504 5:0.611 6:1.0 7:0.333 8:1.0 9:0.333 10:0.786 11:0.571 12:0.786 13:0.804 14:0.436 15:0.201 
1.5 0:2.0 1:0.118 2:0.667 3:0.48 4:0.452 5:0.527 6:1.0 7:0.333 8:1.0 9:0.333 10:0.833 11:0.648 12:0.833 13:0.833 14:0.346 15:0.303 
1.5 0:2.0 1:0.143 2:0.667 3:0.348 4:0.392 5:0.28 6:1.0 7:0.333 8:1.0 9:0.333 10:0.824 11:0.559 12:0.824 13:0.838 14:0.25 15:0.247 
1.5 0:2.0 1:0.143 2:0.667 3:0.408 4:0.356 5:0.133 6:1.0 7:0.333 8:1.0 9:0.333 10:0.788 11:0.663 12:0.788 13:0.773 14:0.078 15:0.099 
1.5 0:2.0 1:0.1 2:0.667 3:0.32 4:0.276 5:0.42 6:1.0 7:0.333 8:1.0 9:0.333 10:0.848 11:0.643 12:0.848 13:0.837 14:0.192 15:0.257 
1.5 0:2.0 1:0.095 2:0.286 3:0.316 4:0.316 5:0.365 6:0.0 7:0.0 8:0.0 9:0.0 10:0.718 11:0.557 12:0.667 13:0.718 14:0.422 15:0.435 
1.5 0:2.0 1:0.087 2:0.286 3:0.27 4:0.274 5:0.6 6:0.0 7:0.0 8:0.0 9:0.0 10:0.733 11:0.533 12:0.733 13:0.733 14:0.351 15:0.508 
1.5 0:2.0 1:0.087 2:0.286 3:0.231 4:0.231 5:0.424 6:0.0 7:0.0 8:0.0 9:0.0 10:0.75 11:0.583 12:0.75 13:0.76 14:0.2 15:0.29 
1.5 0:3.0 1:0.158 2:0.5 3:0.447 4:0.483 5:0.079 6:0.0 7:0.0 8:0.0 9:0.0 10:0.744 11:0.575 12:0.744 13:0.744 14:0.224 15:0.246 
1.5 0:2.0 1:0.125 2:0.333 3:0.365 4:0.387 5:0.187 6:0.0 7:0.0 8:0.0 9:0.0 10:0.758 11:0.536 12:0.758 13:0.758 14:0.441 15:0.341 
1.5 0:3.0 1:0.176 2:0.6 3:0.447 4:0.447 5:0.15 6:0.0 7:0.0 8:0.0 9:0.0 10:0.722 11:0.682 12:0.722 13:0.708 14:0.516 15:0.501 
1.5 0:2.0 1:0.133 2:0.4 3:0.316 4:0.33 5:0.392 6:0.0 7:0.0 8:0.0 9:0.0 10:0.767 11:0.586 12:0.767 13:0.75 14:0.286 15:0.225 
1.5 0:2.0 1:0.091 2:0.4 3:0.248 4:0.256 5:0.066 6:0.0 7:0.0 8:0.0 9:0.0 10:0.851 11:0.512 12:0.851 13:0.851 14:0.338 15:0.224 
1.5 0:2.0 1:0.143 2:0.5 3:0.354 4:0.369 5:0.48 6:0.0 7:0.0 8:0.0 9:0.0 10:0.8 11:0.6 12:0.8 13:0.783 14:0.32 15:0.252 
1.5 0:2.0 1:0.118 2:0.5 3:0.333 4:0.333 5:0.195 6:0.0 7:0.0 8:0.0 9:0.0 10:0.833 11:0.589 12:0.833 13:0.819 14:0.481 15:0.63 
1.5 0:2.0 1:0.095 2:0.5 3:0.277 4:0.286 5:0.098 6:0.0 7:0.0 8:0.0 9:0.0 10:0.872 11:0.465 12:0.872 13:0.872 14:0.378 15:0.25 
1.5 0:2.0 1:0.105 2:0.667 3:0.385 4:0.429 5:0.403 6:1.0 7:0.333 8:0.0 9:0.0 10:0.907 11:0.602 12:0.86 13:0.919 14:0.337 15:0.393 
1.5 0:2.0 1:0.143 2:1.0 3:0.5 4:0.53 5:0.171 6:0.0 7:0.0 8:0.0 9:0.0 10:0.923 11:0.581 12:0.923 13:0.936 14:0.392 15:0.295 
1.5 0:2.0 1:0.143 2:1.0 3:0.426 4:0.464 5:0.312 6:0.0 7:0.0 8:0.0 9:0.0 10:0.921 11:0.582 12:0.921 13:0.934 14:0.0 15:0.202 
1.5 0:2.0 1:0.111 2:1.0 3:0.392 4:0.401 5:0.211 6:0.0 7:0.0 8:0.0 9:0.0 10:0.929 11:0.579 12:0.929 13:0.94 14:0.297 15:0.225 
1.5 0:1.0 1:0.05 2:1.0 3:0.289 4:0.297 5:0.529 6:0.0 7:0.0 8:0.0 9:0.0 10:0.959 11:0.68 12:0.959 13:0.969 14:0.213 15:0.309 
1.5 0:2.0 1:0.091 2:0.5 3:0.289 4:0.322 5:0.298 6:0.0 7:0.0 8:1.0 9:0.25 10:0.857 11:0.401 12:0.857 13:0.857 14:0.107 15:0.154 
1.5 0:2.0 1:0.143 2:0.4 3:0.365 4:0.428 5:0.431 6:0.0 7:0.0 8:0.0 9:0.0 10:0.808 11:0.507 12:0.769 13:0.827 14:0.434 15:0.43 
1.5 0:3.0 1:0.214 2:0.6 3:0.474 4:0.415 5:0.063 6:1.0 7:0.2 8:0.0 9:0.0 10:0.813 11:0.622 12:0.75 13:0.828 14:0.447 15:0.248 
1.5 0:3.0 1:0.167 2:0.6 3:0.405 4:0.353 5:0.549 6:1.0 7:0.2 8:1.0 9:0.2 10:0.846 11:0.477 12:0.846 13:0.846 14:0.0 15:0.337 
1.5 0:2.0 1:0.222 2:0.4 3:0.365 4:0.305 5:0.276 6:2.0 7:0.4 8:1.0 9:0.2 10:0.647 11:0.639 12:0.588 13:0.618 14:0.124 15:0.241 
1.5 0:2.0 1:0.111 2:0.4 3:0.298 4:0.258 5:0.409 6:2.0 7:0.4 8:1.0 9:0.2 10:0.886 11:0.475 12:0.829 13:0.886 14:0.124 15:0.151 
1.5 0:2.0 1:0.095 2:0.4 3:0.27 4:0.222 5:0.406 6:2.0 7:0.4 8:1.0 9:0.2 10:0.872 11:0.537 12:0.851 13:0.862 14:0.419 15:0.382 
1.5 0:2.0 1:0.133 2:0.4 3:0.338 4:0.167 5:0.205 6:2.0 7:0.4 8:1.0 9:0.2 10:0.758 11:0.605 12:0.758 13:0.758 14:0.365 15:0.241 
1.5 0:2.0 1:0.143 2:0.4 3:0.316 4:0.154 5:0.379 6:2.0 7:0.4 8:1.0 9:0.2 10:0.875 11:0.428 12:0.844 13:0.875 14:0.283 15:0.335 
1.5 0:2.0 1:0.1 2:0.4 3:0.283 4:0.135 5:0.414 6:2.0 7:0.4 8:1.0 9:0.2 10:0.81 11:0.587 12:0.81 13:0.81 14:0.115 15:0.183 
1.5 0:2.0 1:0.105 2:0.4 3:0.27 4:0.128 5:0.39 6:2.0 7:0.4 8:1.0 9:0.2 10:0.8 11:0.549 12:0.8 13:0.8 14:0.129 15:0.175 
1.5 0:2.0 1:0.118 2:0.5 3:0.316 4:0.323 5:0.046 6:0.0 7:0.0 8:0.0 9:0.0 10:0.868 11:0.586 12:0.868 13:0.855 14:0.186 15:0.104 
1.5 0:2.0 1:0.1 2:0.5 3:0.316 4:0.321 5:0.159 6:0.0 7:0.0 8:0.0 9:0.0 10:0.898 11:0.442 12:0.898 13:0.898 14:0.0 15:0.196 
1.5 0:2.0 1:0.095 2:0.5 3:0.289 4:0.289 5:0.162 6:0.0 7:0.0 8:0.0 9:0.0 10:0.898 11:0.442 12:0.898 13:0.898 14:0.298 15:0.28 
1.5 0:2.0 1:0.091 2:0.5 3:0.236 4:0.25 5:0.065 6:0.0 7:0.0 8:0.0 9:0.0 10:0.902 11:0.478 12:0.902 13:0.902 14:0.093 15:0.077 
1.5 0:2.0 1:0.105 2:0.4 3:0.577 4:0.488 5:0.226 6:1.0 7:0.2 8:1.0 9:0.2 10:0.81 11:0.544 12:0.81 13:0.81 14:0.272 15:0.265 
1.5 0:2.0 1:0.083 2:0.667 3:0.385 4:0.45 5:0.492 6:1.0 7:0.333 8:1.0 9:0.333 10:0.925 11:0.593 12:0.925 13:0.925 14:0.408 15:0.198 
1.5 0:3.0 1:0.167 2:0.429 3:0.567 4:0.508 5:0.528 6:1.0 7:0.143 8:0.0 9:0.0 10:0.629 11:0.631 12:0.6 13:0.643 14:0.316 15:0.328 
1.5 0:2.0 1:0.111 2:0.286 3:0.447 4:0.351 5:0.428 6:1.0 7:0.143 8:1.0 9:0.143 10:0.767 11:0.578 12:0.667 13:0.783 14:0.229 15:0.354 
1.5 0:2.0 1:0.118 2:0.286 3:0.354 4:0.297 5:0.52 6:1.0 7:0.143 8:1.0 9:0.143 10:0.677 11:0.526 12:0.677 13:0.677 14:0.277 15:0.359 
1.5 0:2.0 1:0.087 2:0.286 3:0.302 4:0.236 5:0.426 6:1.0 7:0.143 8:1.0 9:0.143 10:0.738 11:0.533 12:0.738 13:0.75 14:0.229 15:0.354 
1.5 0:2.0 1:0.125 2:0.286 3:0.258 4:0.198 5:0.19 6:0.0 7:0.0 8:0.0 9:0.0 10:0.767 11:0.493 12:0.767 13:0.767 14:0.196 15:0.186 
1.5 0:2.0 1:0.087 2:0.667 3:0.408 4:0.331 5:0.224 6:1.0 7:0.333 8:1.0 9:0.333 10:0.857 11:0.559 12:0.837 13:0.857 14:0.218 15:0.167 
1.5 0:2.0 1:0.095 2:0.333 3:0.283 4:0.324 5:0.265 6:1.0 7:0.167 8:1.0 9:0.167 10:0.872 11:0.535 12:0.809 13:0.883 14:0.129 15:0.35 
1.5 0:2.0 1:0.167 2:1.0 3:0.535 4:0.562 5:0.146 6:0.0 7:0.0 8:0.0 9:0.0 10:0.867 11:0.75 12:0.867 13:0.867 14:0.0 15:0.0 
1.5 0:2.0 1:0.111 2:1.0 3:0.471 4:0.536 5:0.173 6:0.0 7:0.0 8:0.0 9:0.0 10:0.907 11:0.614 12:0.907 13:0.919 14:0.0 15:0.0 
1.5 0:2.0 1:0.095 2:1.0 3:0.5 4:0.52 5:0.125 6:0.0 7:0.0 8:0.0 9:0.0 10:0.922 11:0.693 12:0.922 13:0.922 14:0.0 15:0.0 
1.5 0:2.0 1:0.111 2:1.0 3:0.514 4:0.516 5:0.17 6:0.0 7:0.0 8:0.0 9:0.0 10:0.922 11:0.346 12:0.922 13:0.931 14:0.0 15:0.0 
1.5 0:2.0 1:0.133 2:1.0 3:0.471 4:0.503 5:0.305 6:0.0 7:0.0 8:0.0 9:0.0 10:0.9 11:0.617 12:0.9 13:0.913 14:0.309 15:0.272 
1.5 0:2.0 1:0.143 2:1.0 3:0.471 4:0.501 5:0.189 6:0.0 7:0.0 8:0.0 9:0.0 10:0.895 11:0.425 12:0.895 13:0.908 14:0.189 15:0.189 
1.5 0:2.0 1:0.118 2:1.0 3:0.471 4:0.49 5:0.269 6:0.0 7:0.0 8:0.0 9:0.0 10:0.895 11:0.618 12:0.895 13:0.908 14:0.189 15:0.134 
1.5 0:2.0 1:0.118 2:1.0 3:0.471 4:0.471 5:0.285 6:0.0 7:0.0 8:0.0 9:0.0 10:0.902 11:0.425 12:0.902 13:0.915 14:0.292 15:0.199 
1.5 0:2.0 1:0.105 2:1.0 3:0.426 4:0.464 5:0.068 6:0.0 7:0.0 8:0.0 9:0.0 10:0.917 11:0.611 12:0.917 13:0.927 14:0.0 15:0.232 
1.5 0:2.0 1:0.105 2:1.0 3:0.447 4:0.455 5:0.282 6:0.0 7:0.0 8:0.0 9:0.0 10:0.907 11:0.614 12:0.907 13:0.919 14:0.0 15:0.0 
1.5 0:2.0 1:0.111 2:1.0 3:0.408 4:0.443 5:0.279 6:0.0 7:0.0 8:0.0 9:0.0 10:0.902 11:0.699 12:0.902 13:0.902 14:0.0 15:0.0 
1.5 0:2.0 1:0.111 2:1.0 3:0.408 4:0.441 5:0.104 6:0.0 7:0.0 8:0.0 9:0.0 10:0.915 11:0.612 12:0.915 13:0.926 14:0.263 15:0.236 
1.5 0:2.0 1:0.167 2:1.0 3:0.426 4:0.436 5:0.106 6:0.0 7:0.0 8:0.0 9:0.0 10:0.857 11:0.429 12:0.857 13:0.875 14:0.535 15:0.213 
1.5 0:2.0 1:0.118 2:1.0 3:0.408 4:0.423 5:0.149 6:0.0 7:0.0 8:0.0 9:0.0 10:0.907 11:0.614 12:0.907 13:0.919 14:0.0 15:0.0 
1.5 0:2.0 1:0.143 2:1.0 3:0.392 4:0.416 5:0.526 6:0.0 7:0.0 8:0.0 9:0.0 10:0.907 11:0.424 12:0.907 13:0.919 14:0.333 15:0.224 
1.5 0:2.0 1:0.095 2:1.0 3:0.408 4:0.414 5:0.124 6:0.0 7:0.0 8:0.0 9:0.0 10:0.917 11:0.424 12:0.917 13:0.927 14:0.0 15:0.0 
1.5 0:2.0 1:0.111 2:1.0 3:0.392 4:0.406 5:0.123 6:0.0 7:0.0 8:0.0 9:0.0 10:0.905 11:0.615 12:0.905 13:0.917 14:0.0 15:0.0 
1.5 0:2.0 1:0.1 2:1.0 3:0.365 4:0.374 5:0.093 6:0.0 7:0.0 8:0.0 9:0.0 10:0.909 11:0.614 12:0.909 13:0.92 14:0.171 15:0.137 
1.5 0:2.0 1:0.125 2:0.667 3:0.385 4:0.411 5:0.249 6:0.0 7:0.0 8:0.0 9:0.0 10:0.875 11:0.48 12:0.875 13:0.875 14:0.252 15:0.222 
1.5 0:2.0 1:0.111 2:0.667 3:0.385 4:0.4 5:0.22 6:0.0 7:0.0 8:0.0 9:0.0 10:0.868 11:0.482 12:0.868 13:0.868 14:0.154 15:0.109 
1.5 0:2.0 1:0.091 2:0.667 3:0.365 4:0.378 5:0.251 6:0.0 7:0.0 8:0.0 9:0.0 10:0.902 11:0.604 12:0.902 13:0.892 14:0.28 15:0.207 
1.5 0:2.0 1:0.105 2:0.667 3:0.333 4:0.36 5:0.085 6:0.0 7:0.0 8:0.0 9:0.0 10:0.894 11:0.474 12:0.894 13:0.894 14:0.214 15:0.192 
1.5 0:2.0 1:0.111 2:0.667 3:0.333 4:0.346 5:0.122 6:0.0 7:0.0 8:0.0 9:0.0 10:0.884 11:0.477 12:0.884 13:0.884 14:0.0 15:0.0 
1.5 0:2.0 1:0.133 2:0.667 3:0.32 4:0.34 5:0.429 6:0.0 7:0.0 8:0.0 9:0.0 10:0.884 11:0.444 12:0.884 13:0.884 14:0.272 15:0.183 
1.5 0:2.0 1:0.091 2:0.667 3:0.32 4:0.329 5:0.46 6:0.0 7:0.0 8:0.0 9:0.0 10:0.896 11:0.473 12:0.896 13:0.896 14:0.211 15:0.6 
1.5 0:2.0 1:0.125 2:0.667 3:0.309 4:0.316 5:0.471 6:0.0 7:0.0 8:0.0 9:0.0 10:0.868 11:0.482 12:0.868 13:0.868 14:0.211 15:0.6 
1.5 0:2.0 1:0.133 2:0.667 3:0.289 4:0.308 5:0.157 6:0.0 7:0.0 8:0.0 9:0.0 10:0.949 11:0.446 12:0.897 13:0.949 14:0.0 15:0.0 
1.5 0:2.0 1:0.095 2:0.667 3:0.298 4:0.305 5:0.076 6:0.0 7:0.0 8:0.0 9:0.0 10:0.886 11:0.476 12:0.886 13:0.886 14:0.14 15:0.112 
1.5 0:1.0 1:0.056 2:1.0 3:0.316 4:0.23 5:0.084 6:1.0 7:1.0 8:0.0 9:0.0 10:0.936 11:0.0 12:0.936 13:0.947 14:0.577 15:0.408 
1.5 0:2.0 1:0.333 2:1.0 3:0.632 4:0.663 5:0.0 6:0.0 7:0.0 8:0.0 9:0.0 10:0.765 11:0.662 12:0.765 13:0.794 14:0.0 15:0.0 
1.5 0:2.0 1:0.167 2:0.667 3:0.436 4:0.467 5:0.043 6:0.0 7:0.0 8:0.0 9:0.0 10:0.778 11:0.491 12:0.778 13:0.778 14:0.201 15:0.123 
1.5 0:2.0 1:0.125 2:0.667 3:0.365 4:0.394 5:0.267 6:0.0 7:0.0 8:0.0 9:0.0 10:0.85 11:0.483 12:0.85 13:0.85 14:0.0 15:0.331 
1.5 0:2.0 1:0.167 2:0.667 3:0.309 4:0.316 5:0.0 6:0.0 7:0.0 8:0.0 9:0.0 10:0.818 11:0.437 12:0.818 13:0.818 14:0.0 15:0.0 
1.5 0:2.0 1:0.1 2:0.667 3:0.408 4:0.35 5:0.338 6:1.0 7:0.333 8:0.0 9:0.0 10:0.889 11:0.542 12:0.889 13:0.9 14:0.0 15:0.098 
1.5 0:3.0 1:0.158 2:0.6 3:0.387 4:0.363 5:0.313 6:1.0 7:0.2 8:1.0 9:0.2 10:0.787 11:0.733 12:0.787 13:0.798 14:0.0 15:0.0 
1.5 0:3.0 1:0.176 2:0.6 3:0.516 4:0.509 5:0.214 6:0.0 7:0.0 8:0.0 9:0.0 10:0.744 11:0.448 12:0.744 13:0.769 14:0.0 15:0.289 
1.5 0:3.0 1:0.25 2:0.6 3:0.53 4:0.494 5:0.177 6:0.0 7:0.0 8:0.0 9:0.0 10:0.625 11:0.475 12:0.625 13:0.646 14:0.283 15:0.261 
1.5 0:2.0 1:0.154 2:0.333 3:0.408 4:0.394 5:0.49 6:2.0 7:0.333 8:1.0 9:0.167 10:0.739 11:0.553 12:0.652 13:0.739 14:0.453 15:0.378 
1.5 0:2.0 1:0.222 2:0.333 3:0.365 4:0.173 5:0.446 6:2.0 7:0.333 8:1.0 9:0.167 10:0.688 11:0.536 12:0.625 13:0.688 14:0.142 15:0.295 
1.5 0:2.0 1:0.154 2:0.5 3:0.535 4:0.535 5:0.043 6:0.0 7:0.0 8:0.0 9:0.0 10:0.679 11:0.847 12:0.679 13:0.679 14:0.0 15:0.0 
1.5 0:2.0 1:0.118 2:0.5 3:0.5 4:0.5 5:0.044 6:0.0 7:0.0 8:0.0 9:0.0 10:0.769 11:0.803 12:0.769 13:0.769 14:0.0 15:0.0 
1.5 0:2.0 1:0.111 2:0.5 3:0.447 4:0.467 5:0.082 6:0.0 7:0.0 8:0.0 9:0.0 10:0.775 11:0.8 12:0.775 13:0.775 14:0.204 15:0.216 
1.5 0:2.0 1:0.095 2:0.5 3:0.426 4:0.441 5:0.227 6:0.0 7:0.0 8:0.0 9:0.0 10:0.857 11:0.545 12:0.857 13:0.857 14:0.132 15:0.116 
1.5 0:2.0 1:0.182 2:1.0 3:0.5 4:0.531 5:0.0 6:0.0 7:0.0 8:0.0 9:0.0 10:0.893 11:0.593 12:0.893 13:0.893 14:0.0 15:0.0 
1.5 0:2.0 1:0.167 2:1.0 3:0.471 4:0.511 5:0.133 6:0.0 7:0.0 8:0.0 9:0.0 10:0.828 11:0.657 12:0.828 13:0.845 14:0.0 15:0.0 
1.5 0:2.0 1:0.143 2:1.0 3:0.5 4:0.5 5:0.058 6:0.0 7:0.0 8:0.0 9:0.0 10:0.865 11:0.735 12:0.865 13:0.865 14:0.25 15:0.184 
1.5 0:2.0 1:0.105 2:1.0 3:0.408 4:0.408 5:0.379 6:0.0 7:0.0 8:0.0 9:0.0 10:0.922 11:0.566 12:0.922 13:0.931 14:0.236 15:0.481 
1.5 0:3.0 1:0.273 2:0.75 3:0.474 4:0.577 5:0.196 6:0.0 7:0.0 8:0.0 9:0.0 10:0.722 11:0.444 12:0.722 13:0.736 14:0.359 15:0.286 
1.5 0:2.0 1:0.105 2:0.5 3:0.485 4:0.558 5:0.58 6:1.0 7:0.25 8:0.0 9:0.0 10:0.846 11:0.482 12:0.846 13:0.846 14:0.258 15:0.348 
1.5 0:2.0 1:0.286 2:0.5 3:0.5 4:0.552 5:0.547 6:1.0 7:0.25 8:0.0 9:0.0 10:0.467 11:0.733 12:0.467 13:0.467 14:0.387 15:0.347 
1.5 0:3.0 1:0.214 2:0.75 3:0.612 4:0.548 5:0.337 6:0.0 7:0.0 8:0.0 9:0.0 10:0.73 11:0.535 12:0.73 13:0.73 14:0.189 15:0.229 
1.5 0:2.0 1:0.182 2:0.5 3:0.408 4:0.451 5:0.226 6:1.0 7:0.25 8:0.0 9:0.0 10:0.652 11:0.671 12:0.652 13:0.652 14:0.258 15:0.5 
1.5 0:2.0 1:0.167 2:0.5 3:0.378 4:0.443 5:0.228 6:0.0 7:0.0 8:0.0 9:0.0 10:0.724 11:0.451 12:0.724 13:0.724 14:0.185 15:0.163 
1.5 0:2.0 1:0.2 2:0.5 3:0.354 4:0.437 5:0.379 6:1.0 7:0.25 8:0.0 9:0.0 10:0.84 11:0.457 12:0.72 13:0.86 14:0.204 15:0.309 
1.5 0:2.0 1:0.167 2:0.5 3:0.354 4:0.411 5:0.443 6:0.0 7:0.0 8:0.0 9:0.0 10:0.677 11:0.585 12:0.677 13:0.694 14:0.312 15:0.371 
1.5 0:2.0 1:0.154 2:0.5 3:0.354 4:0.41 5:0.097 6:1.0 7:0.25 8:0.0 9:0.0 10:0.733 11:0.519 12:0.733 13:0.733 14:0.3 15:0.289 
1.5 0:2.0 1:0.182 2:0.5 3:0.333 4:0.395 5:0.325 6:0.0 7:0.0 8:0.0 9:0.0 10:0.704 11:0.529 12:0.704 13:0.704 14:0.369 15:0.391 
1.5 0:2.0 1:0.182 2:0.5 3:0.354 4:0.391 5:0.491 6:1.0 7:0.25 8:0.0 9:0.0 10:0.667 11:0.542 12:0.667 13:0.667 14:0.335 15:0.283 
1.5 0:2.0 1:0.154 2:0.5 3:0.333 4:0.384 5:0.464 6:1.0 7:0.25 8:0.0 9:0.0 10:0.735 11:0.523 12:0.735 13:0.735 14:0.327 15:0.306 
1.5 0:2.0 1:0.167 2:0.5 3:0.316 4:0.364 5:0.417 6:0.0 7:0.0 8:0.0 9:0.0 10:0.8 11:0.461 12:0.7 13:0.85 14:0.316 15:0.236 
1.5 0:2.0 1:0.118 2:0.5 3:0.316 4:0.362 5:0.452 6:0.0 7:0.0 8:0.0 9:0.0 10:0.789 11:0.501 12:0.789 13:0.789 14:0.407 15:0.456 
1.5 0:2.0 1:0.154 2:0.5 3:0.302 4:0.342 5:0.512 6:0.0 7:0.0 8:0.0 9:0.0 10:0.733 11:0.406 12:0.733 13:0.733 14:0.485 15:0.5 
1.5 0:2.0 1:0.143 2:0.5 3:0.302 4:0.333 5:0.381 6:0.0 7:0.0 8:0.0 9:0.0 10:0.862 11:0.49 12:0.759 13:0.862 14:0.387 15:0.306 
1.5 0:2.0 1:0.091 2:0.5 3:0.243 4:0.288 5:0.137 6:1.0 7:0.25 8:0.0 9:0.0 10:0.864 11:0.476 12:0.864 13:0.864 14:0.316 15:0.49 
1.5 0:2.0 1:0.118 2:0.5 3:0.354 4:0.262 5:0.511 6:1.0 7:0.25 8:1.0 9:0.25 10:0.795 11:0.549 12:0.795 13:0.808 14:0.0 15:0.487 
1.5 0:2.0 1:0.125 2:0.4 3:0.64 4:0.44 5:0.0 6:0.0 7:0.0 8:0.0 9:0.0 10:0.73 11:0.458 12:0.73 13:0.743 14:0.0 15:0.0 
1.5 0:2.0 1:0.1 2:0.4 3:0.426 4:0.266 5:0.096 6:2.0 7:0.4 8:1.0 9:0.2 10:0.813 11:0.594 12:0.813 13:0.823 14:0.316 15:0.226 
1.5 0:2.0 1:0.118 2:0.4 3:0.354 4:0.207 5:0.225 6:2.0 7:0.4 8:1.0 9:0.2 10:0.857 11:0.593 12:0.857 13:0.867 14:0.213 15:0.09 
1.5 0:1.0 1:0.053 2:1.0 3:0.289 4:0.18 5:0.018 6:1.0 7:1.0 8:0.0 9:0.0 10:0.938 11:0.0 12:0.938 13:0.948 14:0.0 15:0.0 
-1.0 0:3.0 1:0.158 2:0.429 3:0.342 4:0.401 5:0.137 6:0.0 7:0.0 8:0.0 9:0.0 10:0.789 11:0.491 12:0.711 13:0.803 14:0.0 15:0.0 
-1.0 0:3.0 1:0.167 2:0.429 3:0.359 4:0.327 5:0.243 6:1.0 7:0.143 8:0.0 9:0.0 10:0.657 11:0.63 12:0.657 13:0.643 14:0.206 15:0.356 
-1.0 0:3.0 1:0.158 2:0.429 3:0.359 4:0.314 5:0.221 6:1.0 7:0.143 8:0.0 9:0.0 10:0.703 11:0.625 12:0.703 13:0.689 14:0.293 15:0.227 
-1.0 0:3.0 1:0.167 2:0.429 3:0.342 4:0.298 5:0.086 6:0.0 7:0.0 8:0.0 9:0.0 10:0.667 11:0.637 12:0.667 13:0.652 14:0.136 15:0.111 
-1.0 0:3.0 1:0.143 2:0.429 3:0.327 4:0.296 5:0.037 6:0.0 7:0.0 8:0.0 9:0.0 10:0.78 11:0.495 12:0.756 13:0.78 14:0.082 15:0.095 
-1.0 0:3.0 1:0.15 2:0.429 3:0.314 4:0.278 5:0.18 6:1.0 7:0.143 8:0.0 9:0.0 10:0.725 11:0.557 12:0.725 13:0.712 14:0.214 15:0.257 
-1.0 0:3.0 1:0.13 2:0.429 3:0.387 4:0.409 5:0.191 6:0.0 7:0.0 8:0.0 9:0.0 10:0.766 11:0.519 12:0.766 13:0.766 14:0.113 15:0.055 
-1.0 0:3.0 1:0.15 2:0.429 3:0.387 4:0.387 5:0.039 6:0.0 7:0.0 8:0.0 9:0.0 10:0.773 11:0.617 12:0.773 13:0.761 14:0.102 15:0.075 
-1.0 0:3.0 1:0.143 2:0.429 3:0.354 4:0.365 5:0.188 6:0.0 7:0.0 8:0.0 9:0.0 10:0.732 11:0.622 12:0.732 13:0.72 14:0.102 15:0.079 
-1.0 0:3.0 1:0.143 2:0.429 3:0.354 4:0.356 5:0.112 6:0.0 7:0.0 8:0.0 9:0.0 10:0.75 11:0.616 12:0.75 13:0.739 14:0.0 15:0.0 
-1.0 0:3.0 1:0.214 2:0.75 3:0.433 4:0.447 5:0.055 6:0.0 7:0.0 8:0.0 9:0.0 10:0.824 11:0.48 12:0.824 13:0.838 14:0.075 15:0.065 
-1.0 0:3.0 1:0.167 2:0.429 3:0.5 4:0.453 5:0.064 6:1.0 7:0.143 8:0.0 9:0.0 10:0.686 11:0.598 12:0.629 13:0.7 14:0.109 15:0.087 
-1.0 0:4.0 1:0.174 2:0.444 3:0.453 4:0.467 5:0.179 6:0.0 7:0.0 8:0.0 9:0.0 10:0.667 11:0.565 12:0.667 13:0.677 14:0.0 15:0.0 
-1.0 0:2.0 1:0.2 2:0.4 3:0.338 4:0.21 5:0.26 6:1.0 7:0.2 8:1.0 9:0.2 10:0.789 11:0.516 12:0.684 13:0.789 14:0.291 15:0.307 
-1.0 0:2.0 1:0.1 2:0.4 3:0.283 4:0.172 5:0.116 6:1.0 7:0.2 8:1.0 9:0.2 10:0.756 11:0.451 12:0.756 13:0.793 14:0.135 15:0.183 
-1.0 0:2.0 1:0.125 2:0.4 3:0.258 4:0.161 5:0.209 6:1.0 7:0.2 8:1.0 9:0.2 10:0.829 11:0.468 12:0.829 13:0.829 14:0.2 15:0.12 
-1.0 0:2.0 1:0.118 2:0.4 3:0.248 4:0.155 5:0.257 6:1.0 7:0.2 8:1.0 9:0.2 10:0.81 11:0.459 12:0.81 13:0.81 14:0.234 15:0.2 
-1.0 0:3.0 1:0.15 2:0.375 3:0.387 4:0.387 5:0.145 6:0.0 7:0.0 8:0.0 9:0.0 10:0.722 11:0.611 12:0.694 13:0.722 14:0.204 15:0.187 
-1.0 0:3.0 1:0.158 2:0.375 3:0.369 4:0.369 5:0.074 6:0.0 7:0.0 8:0.0 9:0.0 10:0.735 11:0.615 12:0.706 13:0.721 14:0.267 15:0.181 
-1.0 0:3.0 1:0.188 2:0.6 3:0.474 4:0.501 5:0.051 6:0.0 7:0.0 8:0.0 9:0.0 10:0.742 11:0.472 12:0.742 13:0.758 14:0.0 15:0.0 
-1.0 0:2.0 1:0.118 2:0.4 3:0.338 4:0.251 5:0.374 6:1.0 7:0.2 8:0.0 9:0.0 10:0.775 11:0.497 12:0.775 13:0.775 14:0.066 15:0.042 
-1.0 0:2.0 1:0.143 2:0.4 3:0.316 4:0.25 5:0.406 6:1.0 7:0.2 8:0.0 9:0.0 10:0.719 11:0.516 12:0.719 13:0.719 14:0.0 15:0.0 
-1.0 0:2.0 1:0.154 2:0.667 3:0.333 4:0.236 5:0.194 6:1.0 7:0.333 8:1.0 9:0.333 10:0.868 11:0.485 12:0.868 13:0.868 14:0.0 15:0.149 
-1.0 0:2.0 1:0.083 2:0.333 3:0.298 4:0.189 5:0.358 6:1.0 7:0.167 8:1.0 9:0.167 10:0.813 11:0.532 12:0.813 13:0.813 14:0.243 15:0.215 
-1.0 0:2.0 1:0.167 2:0.667 3:0.707 4:0.585 5:0.356 6:1.0 7:0.333 8:0.0 9:0.0 10:0.75 11:0.655 12:0.75 13:0.768 14:0.577 15:0.559 
-1.0 0:2.0 1:0.2 2:0.667 3:0.577 4:0.484 5:0.043 6:0.0 7:0.0 8:0.0 9:0.0 10:0.759 11:0.808 12:0.759 13:0.759 14:0.0 15:0.0 
-1.0 0:2.0 1:0.143 2:0.667 3:0.577 4:0.454 5:0.086 6:0.0 7:0.0 8:0.0 9:0.0 10:0.821 11:0.631 12:0.821 13:0.833 14:0.169 15:0.138 
-1.0 0:2.0 1:0.118 2:0.667 3:0.535 4:0.427 5:0.061 6:1.0 7:0.333 8:0.0 9:0.0 10:0.829 11:0.771 12:0.829 13:0.829 14:0.0 15:0.136 
-1.0 0:2.0 1:0.143 2:0.667 3:0.535 4:0.415 5:0.417 6:1.0 7:0.333 8:0.0 9:0.0 10:0.75 11:0.655 12:0.75 13:0.768 14:0.535 15:0.525 
-1.0 0:2.0 1:0.095 2:0.667 3:0.5 4:0.407 5:0.12 6:0.0 7:0.0 8:0.0 9:0.0 10:0.854 11:0.62 12:0.854 13:0.865 14:0.0 15:0.0 
-1.0 0:2.0 1:0.125 2:0.667 3:0.5 4:0.388 5:0.208 6:0.0 7:0.0 8:0.0 9:0.0 10:0.837 11:0.626 12:0.837 13:0.849 14:0.277 15:0.191 
-1.0 0:2.0 1:0.133 2:0.667 3:0.471 4:0.382 5:0.323 6:0.0 7:0.0 8:0.0 9:0.0 10:0.841 11:0.624 12:0.841 13:0.852 14:0.577 15:0.567 
-1.0 0:2.0 1:0.105 2:0.667 3:0.471 4:0.367 5:0.376 6:1.0 7:0.333 8:0.0 9:0.0 10:0.851 11:0.759 12:0.851 13:0.851 14:0.302 15:0.239 
-1.0 0:2.0 1:0.133 2:0.667 3:0.471 4:0.36 5:0.2 6:0.0 7:0.0 8:0.0 9:0.0 10:0.816 11:0.633 12:0.816 13:0.829 14:0.0 15:0.283 
-1.0 0:2.0 1:0.095 2:0.667 3:0.447 4:0.354 5:0.173 6:0.0 7:0.0 8:0.0 9:0.0 10:0.857 11:0.619 12:0.857 13:0.867 14:0.0 15:0.0 
-1.0 0:2.0 1:0.118 2:0.667 3:0.426 4:0.35 5:0.3 6:0.0 7:0.0 8:0.0 9:0.0 10:0.825 11:0.63 12:0.825 13:0.837 14:0.127 15:0.11 
-1.0 0:2.0 1:0.1 2:0.667 3:0.447 4:0.345 5:0.064 6:0.0 7:0.0 8:0.0 9:0.0 10:0.854 11:0.62 12:0.854 13:0.865 14:0.136 15:0.117 
-1.0 0:2.0 1:0.167 2:0.667 3:0.447 4:0.339 5:0.095 6:0.0 7:0.0 8:0.0 9:0.0 10:0.767 11:0.804 12:0.767 13:0.767 14:0.0 15:0.173 
-1.0 0:2.0 1:0.133 2:0.667 3:0.426 4:0.329 5:0.091 6:0.0 7:0.0 8:0.0 9:0.0 10:0.825 11:0.773 12:0.825 13:0.825 14:0.333 15:0.277 
-1.0 0:2.0 1:0.1 2:0.667 3:0.426 4:0.322 5:0.155 6:0.0 7:0.0 8:0.0 9:0.0 10:0.854 11:0.62 12:0.854 13:0.865 14:0.0 15:0.333 
-1.0 0:2.0 1:0.095 2:0.667 3:0.408 4:0.318 5:0.107 6:1.0 7:0.333 8:0.0 9:0.0 10:0.857 11:0.619 12:0.857 13:0.867 14:0.0 15:0.0 
-1.0 0:2.0 1:0.095 2:0.667 3:0.408 4:0.312 5:0.193 6:0.0 7:0.0 8:0.0 9:0.0 10:0.857 11:0.619 12:0.857 13:0.867 14:0.213 15:0.307 
-1.0 0:2.0 1:0.105 2:0.667 3:0.408 4:0.311 5:0.357 6:1.0 7:0.333 8:0.0 9:0.0 10:0.851 11:0.621 12:0.851 13:0.862 14:0.495 15:0.429 
-1.0 0:2.0 1:0.118 2:0.667 3:0.408 4:0.307 5:0.042 6:0.0 7:0.0 8:0.0 9:0.0 10:0.829 11:0.628 12:0.829 13:0.841 14:0.0 15:0.0 
-1.0 0:2.0 1:0.1 2:0.667 3:0.365 4:0.28 5:0.087 6:0.0 7:0.0 8:0.0 9:0.0 10:0.857 11:0.755 12:0.857 13:0.857 14:0.514 15:0.381 
-1.0 0:2.0 1:0.182 2:0.5 3:0.516 4:0.362 5:0.181 6:1.0 7:0.25 8:0.0 9:0.0 10:0.667 11:0.535 12:0.667 13:0.667 14:0.0 15:0.0 
-1.0 0:2.0 1:0.143 2:0.5 3:0.436 4:0.321 5:0.138 6:1.0 7:0.25 8:0.0 9:0.0 10:0.833 11:0.502 12:0.833 13:0.833 14:0.0 15:0.063 
-1.0 0:2.0 1:0.167 2:0.5 3:0.385 4:0.258 5:0.222 6:1.0 7:0.25 8:1.0 9:0.25 10:0.8 11:0.467 12:0.767 13:0.8 14:0.192 15:0.225 
-1.0 0:2.0 1:0.143 2:0.5 3:0.365 4:0.253 5:0.192 6:1.0 7:0.25 8:0.0 9:0.0 10:0.813 11:0.465 12:0.781 13:0.813 14:0.198 15:0.187 
-1.0 0:2.0 1:0.133 2:0.5 3:0.365 4:0.252 5:0.19 6:1.0 7:0.25 8:1.0 9:0.25 10:0.8 11:0.414 12:0.8 13:0.8 14:0.277 15:0.261 
-1.0 0:2.0 1:0.167 2:0.5 3:0.365 4:0.247 5:0.253 6:1.0 7:0.25 8:0.0 9:0.0 10:0.767 11:0.564 12:0.767 13:0.767 14:0.348 15:0.299 
-1.0 0:2.0 1:0.095 2:0.5 3:0.348 4:0.236 5:0.242 6:1.0 7:0.25 8:0.0 9:0.0 10:0.854 11:0.472 12:0.854 13:0.854 14:0.14 15:0.118 
-1.0 0:2.0 1:0.143 2:0.5 3:0.348 4:0.23 5:0.126 6:1.0 7:0.25 8:0.0 9:0.0 10:0.788 11:0.464 12:0.788 13:0.788 14:0.365 15:0.255 
-1.0 0:2.0 1:0.111 2:0.5 3:0.32 4:0.21 5:0.213 6:1.0 7:0.25 8:1.0 9:0.25 10:0.825 11:0.475 12:0.825 13:0.825 14:0.426 15:0.408 
-1.0 0:2.0 1:0.067 2:0.286 3:0.195 4:0.164 5:0.093 6:2.0 7:0.286 8:0.0 9:0.0 10:0.895 11:0.462 12:0.882 13:0.895 14:0.0 15:0.0 
-1.0 0:2.0 1:0.167 2:0.5 3:0.333 4:0.241 5:0.144 6:1.0 7:0.25 8:0.0 9:0.0 10:0.857 11:0.486 12:0.786 13:0.875 14:0.196 15:0.144 
-1.0 0:2.0 1:0.133 2:0.5 3:0.333 4:0.231 5:0.105 6:1.0 7:0.25 8:0.0 9:0.0 10:0.909 11:0.473 12:0.818 13:0.909 14:0.258 15:0.18 
-1.0 0:4.0 1:0.2 2:0.8 3:0.539 4:0.541 5:0.107 6:1.0 7:0.2 8:0.0 9:0.0 10:0.792 11:0.681 12:0.792 13:0.781 14:0.183 15:0.294 
-1.0 0:4.0 1:0.211 2:0.8 3:0.516 4:0.514 5:0.132 6:1.0 7:0.2 8:0.0 9:0.0 10:0.851 11:0.549 12:0.851 13:0.851 14:0.166 15:0.149 
-1.0 0:4.0 1:0.308 2:0.8 3:0.539 4:0.509 5:0.134 6:0.0 7:0.0 8:0.0 9:0.0 10:0.607 11:0.597 12:0.607 13:0.625 14:0.676 15:0.27 
-1.0 0:4.0 1:0.222 2:0.8 3:0.516 4:0.494 5:0.113 6:0.0 7:0.0 8:0.0 9:0.0 10:0.767 11:0.689 12:0.767 13:0.756 14:0.0 15:0.0 
-1.0 0:4.0 1:0.211 2:0.8 3:0.496 4:0.473 5:0.194 6:0.0 7:0.0 8:0.0 9:0.0 10:0.762 11:0.69 12:0.762 13:0.75 14:0.0 15:0.0 
-1.0 0:4.0 1:0.182 2:0.8 3:0.434 4:0.418 5:0.178 6:0.0 7:0.0 8:0.0 9:0.0 10:0.839 11:0.665 12:0.839 13:0.831 14:0.0 15:0.0 
-1.0 0:2.0 1:0.08 2:0.4 3:0.298 4:0.277 5:0.296 6:1.0 7:0.2 8:1.0 9:0.2 10:0.863 11:0.431 12:0.863 13:0.863 14:0.0 15:0.195 
-1.0 0:2.0 1:0.133 2:0.4 3:0.298 4:0.261 5:0.288 6:1.0 7:0.2 8:1.0 9:0.2 10:0.793 11:0.513 12:0.793 13:0.793 14:0.187 15:0.14 
-1.0 0:2.0 1:0.105 2:0.4 3:0.27 4:0.225 5:0.36 6:1.0 7:0.2 8:0.0 9:0.0 10:0.841 11:0.475 12:0.841 13:0.841 14:0.566 15:0.351 
-1.0 0:3.0 1:0.12 2:0.375 3:0.401 4:0.401 5:0.21 6:0.0 7:0.0 8:0.0 9:0.0 10:0.792 11:0.534 12:0.792 13:0.792 14:0.21 15:0.21 
-1.0 0:2.0 1:0.118 2:0.4 3:0.354 4:0.266 5:0.285 6:1.0 7:0.2 8:1.0 9:0.2 10:0.829 11:0.547 12:0.829 13:0.814 14:0.183 15:0.208 
-1.0 0:2.0 1:0.095 2:0.4 3:0.302 4:0.237 5:0.218 6:1.0 7:0.2 8:1.0 9:0.2 10:0.848 11:0.543 12:0.848 13:0.848 14:0.098 15:0.156 
-1.0 0:2.0 1:0.118 2:0.4 3:0.302 4:0.223 5:0.066 6:1.0 7:0.2 8:1.0 9:0.2 10:0.806 11:0.545 12:0.806 13:0.792 14:0.121 15:0.16 
-1.0 0:2.0 1:0.118 2:0.4 3:0.289 4:0.216 5:0.164 6:1.0 7:0.2 8:1.0 9:0.2 10:0.806 11:0.545 12:0.806 13:0.792 14:0.243 15:0.169 
-1.0 0:2.0 1:0.095 2:0.4 3:0.277 4:0.208 5:0.285 6:1.0 7:0.2 8:1.0 9:0.2 10:0.854 11:0.481 12:0.854 13:0.865 14:0.121 15:0.2 
-1.0 0:2.0 1:0.087 2:0.4 3:0.25 4:0.177 5:0.355 6:1.0 7:0.2 8:1.0 9:0.2 10:0.88 11:0.574 12:0.86 13:0.87 14:0.204 15:0.3 
-1.0 0:2.0 1:0.25 2:0.5 3:0.577 4:0.526 5:0.245 6:1.0 7:0.25 8:1.0 9:0.25 10:0.714 11:0.629 12:0.714 13:0.69 14:0.1 15:0.064 
-1.0 0:2.0 1:0.095 2:0.5 3:0.535 4:0.512 5:0.547 6:1.0 7:0.25 8:1.0 9:0.25 10:0.875 11:0.464 12:0.875 13:0.875 14:0.5 15:0.447 
-1.0 0:2.0 1:0.1 2:0.5 3:0.316 4:0.28 5:0.375 6:1.0 7:0.25 8:1.0 9:0.25 10:0.846 11:0.474 12:0.846 13:0.846 14:0.408 15:0.364 
-1.0 0:2.0 1:0.143 2:1.0 3:0.471 4:0.414 5:0.162 6:1.0 7:0.5 8:1.0 9:0.5 10:0.842 11:0.664 12:0.842 13:0.855 14:0.3 15:0.379 
-1.0 0:4.0 1:0.235 2:0.444 3:0.516 4:0.549 5:0.075 6:0.0 7:0.0 8:0.0 9:0.0 10:0.688 11:0.606 12:0.688 13:0.688 14:0.072 15:0.075 
-1.0 0:4.0 1:0.2 2:0.444 3:0.471 4:0.499 5:0.041 6:0.0 7:0.0 8:0.0 9:0.0 10:0.694 11:0.583 12:0.694 13:0.694 14:0.105 15:0.064 
-1.0 0:3.0 1:0.115 2:0.333 3:0.316 4:0.354 5:0.279 6:0.0 7:0.0 8:0.0 9:0.0 10:0.78 11:0.521 12:0.78 13:0.79 14:0.411 15:0.399 
-1.0 0:2.0 1:0.25 2:0.5 3:0.707 4:0.62 5:0.421 6:1.0 7:0.25 8:1.0 9:0.25 10:0.8 11:0.5 12:0.733 13:0.8 14:0.171 15:0.283 
-1.0 0:2.0 1:0.125 2:0.5 3:0.5 4:0.439 5:0.449 6:1.0 7:0.25 8:1.0 9:0.25 10:0.774 11:0.642 12:0.774 13:0.774 14:0.204 15:0.167 
-1.0 0:3.0 1:0.2 2:0.5 3:0.424 4:0.436 5:0.024 6:0.0 7:0.0 8:0.0 9:0.0 10:0.727 11:0.488 12:0.667 13:0.742 14:0.0 15:0.0 
-1.0 0:3.0 1:0.158 2:0.429 3:0.378 4:0.378 5:0.174 6:0.0 7:0.0 8:0.0 9:0.0 10:0.794 11:0.535 12:0.794 13:0.794 14:0.061 15:0.081 
-1.0 0:3.0 1:0.188 2:0.429 3:0.342 4:0.355 5:0.051 6:0.0 7:0.0 8:0.0 9:0.0 10:0.727 11:0.552 12:0.727 13:0.727 14:0.0 15:0.067 
-1.0 0:3.0 1:0.158 2:0.429 3:0.342 4:0.35 5:0.036 6:0.0 7:0.0 8:0.0 9:0.0 10:0.771 11:0.57 12:0.743 13:0.757 14:0.0 15:0.06 
-1.0 0:3.0 1:0.143 2:0.429 3:0.342 4:0.342 5:0.151 6:0.0 7:0.0 8:0.0 9:0.0 10:0.81 11:0.529 12:0.81 13:0.81 14:0.092 15:0.138 
-1.0 0:4.0 1:0.267 2:0.444 3:0.504 4:0.504 5:0.246 6:0.0 7:0.0 8:0.0 9:0.0 10:0.522 11:0.722 12:0.435 13:0.522 14:0.242 15:0.233 
-1.0 0:3.0 1:0.167 2:0.333 3:0.378 4:0.391 5:0.144 6:0.0 7:0.0 8:0.0 9:0.0 10:0.577 11:0.665 12:0.538 13:0.577 14:0.302 15:0.206 
-1.0 0:3.0 1:0.167 2:0.5 3:0.387 4:0.451 5:0.047 6:0.0 7:0.0 8:0.0 9:0.0 10:0.784 11:0.586 12:0.784 13:0.784 14:0.0 15:0.0 
-1.0 0:3.0 1:0.15 2:0.5 3:0.34 4:0.282 5:0.0 6:0.0 7:0.0 8:0.0 9:0.0 10:0.818 11:0.577 12:0.818 13:0.83 14:0.0 15:0.0 
-0.5517148932019256 0:2.0 1:0.182 2:0.333 3:0.333 4:0.225 5:0.045 6:1.0 7:0.167 8:0.0 9:0.0 10:0.6 11:0.696 12:0.6 13:0.625 14:0.077 15:0.062 
-1.0 0:3.0 1:0.273 2:0.6 3:0.617 4:0.617 5:0.655 6:0.0 7:0.0 8:0.0 9:0.0 10:0.636 11:0.582 12:0.591 13:0.636 14:0.419 15:0.472 
-1.0 0:2.0 1:0.133 2:0.4 3:0.463 4:0.463 5:0.597 6:0.0 7:0.0 8:0.0 9:0.0 10:0.733 11:0.57 12:0.733 13:0.733 14:0.109 15:0.134 
-1.0 0:2.0 1:0.118 2:0.4 3:0.429 4:0.458 5:0.707 6:0.0 7:0.0 8:0.0 9:0.0 10:0.8 11:0.465 12:0.8 13:0.8 14:0.148 15:0.319 
-1.0 0:2.0 1:0.095 2:0.4 3:0.401 4:0.401 5:0.54 6:0.0 7:0.0 8:0.0 9:0.0 10:0.826 11:0.456 12:0.826 13:0.826 14:0.529 15:0.439 
-1.0 0:3.0 1:0.15 2:0.5 3:0.408 4:0.365 5:0.182 6:0.0 7:0.0 8:0.0 9:0.0 10:0.854 11:0.495 12:0.854 13:0.854 14:0.258 15:0.218 
-1.0 0:3.0 1:0.15 2:0.5 3:0.408 4:0.347 5:0.087 6:0.0 7:0.0 8:0.0 9:0.0 10:0.85 11:0.506 12:0.85 13:0.85 14:0.0 15:0.229 
-1.0 0:3.0 1:0.136 2:0.5 3:0.316 4:0.342 5:0.036 6:0.0 7:0.0 8:0.0 9:0.0 10:0.878 11:0.441 12:0.857 13:0.878 14:0.0 15:0.0 
-1.0 0:3.0 1:0.15 2:0.5 3:0.369 4:0.324 5:0.035 6:0.0 7:0.0 8:0.0 9:0.0 10:0.889 11:0.489 12:0.867 13:0.889 14:0.0 15:0.0 
-1.0 0:2.0 1:0.1 2:0.333 3:0.309 4:0.236 5:0.525 6:1.0 7:0.167 8:0.0 9:0.0 10:0.868 11:0.501 12:0.842 13:0.868 14:0.258 15:0.289 
-1.0 0:3.0 1:0.176 2:0.6 3:0.401 4:0.448 5:0.286 6:0.0 7:0.0 8:0.0 9:0.0 10:0.756 11:0.697 12:0.756 13:0.767 14:0.612 15:0.438 
-1.0 0:2.0 1:0.125 2:0.667 3:0.436 4:0.548 5:0.0 6:0.0 7:0.0 8:0.0 9:0.0 10:0.892 11:0.462 12:0.892 13:0.905 14:0.0 15:0.0 
-1.0 0:2.0 1:0.167 2:0.667 3:0.408 4:0.506 5:0.0 6:0.0 7:0.0 8:0.0 9:0.0 10:0.862 11:0.467 12:0.862 13:0.879 14:0.0 15:0.0 
-1.0 0:2.0 1:0.167 2:0.667 3:0.385 4:0.484 5:0.0 6:0.0 7:0.0 8:0.0 9:0.0 10:0.857 11:0.468 12:0.857 13:0.875 14:0.0 15:0.0 
-0.563017233615202 0:2.0 1:0.133 2:0.667 3:0.365 4:0.445 5:0.0 6:0.0 7:0.0 8:0.0 9:0.0 10:0.882 11:0.464 12:0.882 13:0.897 14:0.0 15:0.0 
-1.0 0:2.0 1:0.125 2:0.667 3:0.365 4:0.431 5:0.0 6:0.0 7:0.0 8:0.0 9:0.0 10:0.897 11:0.506 12:0.897 13:0.91 14:0.0 15:0.0 
-1.0 0:2.0 1:0.154 2:0.667 3:0.32 4:0.427 5:0.0 6:0.0 7:0.0 8:0.0 9:0.0 10:0.875 11:0.514 12:0.875 13:0.891 14:0.0 15:0.0 
-1.0 0:2.0 1:0.154 2:0.667 3:0.365 4:0.416 5:0.0 6:0.0 7:0.0 8:0.0 9:0.0 10:0.875 11:0.597 12:0.875 13:0.891 14:0.0 15:0.0 
-1.0 0:2.0 1:0.125 2:0.667 3:0.348 4:0.401 5:0.027 6:0.0 7:0.0 8:0.0 9:0.0 10:0.912 11:0.529 12:0.912 13:0.926 14:0.0 15:0.0 
-1.0 0:2.0 1:0.111 2:0.667 3:0.348 4:0.4 5:0.053 6:0.0 7:0.0 8:0.0 9:0.0 10:0.897 11:0.506 12:0.897 13:0.91 14:0.0 15:0.0 
-1.0 0:2.0 1:0.095 2:0.667 3:0.32 4:0.388 5:0.041 6:0.0 7:0.0 8:0.0 9:0.0 10:0.92 11:0.499 12:0.92 13:0.93 14:0.0 15:0.0 
-1.0 0:2.0 1:0.095 2:0.667 3:0.32 4:0.379 5:0.083 6:0.0 7:0.0 8:0.0 9:0.0 10:0.918 11:0.499 12:0.918 13:0.929 14:0.0 15:0.0 
-1.0 0:2.0 1:0.125 2:0.667 3:0.333 4:0.378 5:0.0 6:0.0 7:0.0 8:0.0 9:0.0 10:0.889 11:0.509 12:0.889 13:0.903 14:0.0 15:0.0 
-1.0 0:2.0 1:0.118 2:0.667 3:0.333 4:0.373 5:0.044 6:0.0 7:0.0 8:0.0 9:0.0 10:0.897 11:0.462 12:0.897 13:0.91 14:0.0 15:0.142 
-1.0 0:2.0 1:0.143 2:0.667 3:0.32 4:0.369 5:0.023 6:0.0 7:0.0 8:0.0 9:0.0 10:0.879 11:0.513 12:0.879 13:0.894 14:0.0 15:0.0 
-1.0 0:2.0 1:0.118 2:0.667 3:0.32 4:0.368 5:0.047 6:0.0 7:0.0 8:0.0 9:0.0 10:0.897 11:0.506 12:0.897 13:0.91 14:0.0 15:0.0 
-1.0 0:2.0 1:0.133 2:0.667 3:0.408 4:0.481 5:0.14 6:0.0 7:0.0 8:0.0 9:0.0 10:0.897 11:0.59 12:0.897 13:0.91 14:0.32 15:0.241 
-1.0 0:2.0 1:0.111 2:0.667 3:0.309 4:0.359 5:0.145 6:0.0 7:0.0 8:0.0 9:0.0 10:0.915 11:0.41 12:0.915 13:0.926 14:0.204 15:0.309 
-1.0 0:2.0 1:0.111 2:0.667 3:0.385 4:0.334 5:0.194 6:1.0 7:0.333 8:1.0 9:0.333 10:0.868 11:0.588 12:0.868 13:0.855 14:0.0 15:0.239 
-1.0 0:2.0 1:0.125 2:0.5 3:0.277 4:0.234 5:0.088 6:1.0 7:0.25 8:0.0 9:0.0 10:0.881 11:0.514 12:0.833 13:0.893 14:0.109 15:0.071 
-1.0 0:2.0 1:0.111 2:0.4 3:0.289 4:0.229 5:0.104 6:1.0 7:0.2 8:1.0 9:0.2 10:0.864 11:0.505 12:0.864 13:0.864 14:0.091 15:0.121 
-1.0 0:2.0 1:0.095 2:0.4 3:0.316 4:0.257 5:0.208 6:1.0 7:0.2 8:1.0 9:0.2 10:0.822 11:0.564 12:0.822 13:0.833 14:0.18 15:0.192 
-1.0 0:2.0 1:0.118 2:0.4 3:0.346 4:0.192 5:0.083 6:1.0 7:0.2 8:2.0 9:0.4 10:0.842 11:0.456 12:0.842 13:0.842 14:0.083 15:0.083 
-1.0 0:2.0 1:0.118 2:0.4 3:0.338 4:0.176 5:0.467 6:2.0 7:0.4 8:2.0 9:0.4 10:0.833 11:0.46 12:0.833 13:0.833 14:0.217 15:0.302 
-1.0 0:2.0 1:0.095 2:0.4 3:0.258 4:0.166 5:0.318 6:1.0 7:0.2 8:1.0 9:0.2 10:0.875 11:0.567 12:0.833 13:0.875 14:0.0 15:0.178 
-1.0 0:2.0 1:0.125 2:0.4 3:0.258 4:0.208 5:0.33 6:1.0 7:0.2 8:1.0 9:0.2 10:0.75 11:0.557 12:0.75 13:0.764 14:0.157 15:0.146 
-1.0 0:2.0 1:0.095 2:0.4 3:0.224 4:0.179 5:0.204 6:1.0 7:0.2 8:1.0 9:0.2 10:0.82 11:0.608 12:0.82 13:0.83 14:0.181 15:0.211 
-1.0 0:2.0 1:0.143 2:0.667 3:0.408 4:0.182 5:0.384 6:2.0 7:0.667 8:1.0 9:0.333 10:0.774 11:0.739 12:0.774 13:0.774 14:0.385 15:0.338 
-1.0 0:2.0 1:0.125 2:0.667 3:0.385 4:0.17 5:0.131 6:1.0 7:0.333 8:1.0 9:0.333 10:0.829 11:0.682 12:0.829 13:0.829 14:0.0 15:0.131 
-1.0 0:2.0 1:0.105 2:0.667 3:0.309 4:0.137 5:0.726 6:2.0 7:0.667 8:1.0 9:0.333 10:0.854 11:0.674 12:0.854 13:0.854 14:0.775 15:0.801 
-1.0 0:2.0 1:0.167 2:0.667 3:0.385 4:0.403 5:0.185 6:0.0 7:0.0 8:0.0 9:0.0 10:0.857 11:0.468 12:0.857 13:0.857 14:0.348 15:0.198 
-1.0 0:2.0 1:0.133 2:0.667 3:0.252 4:0.256 5:0.176 6:0.0 7:0.0 8:0.0 9:0.0 10:0.913 11:0.501 12:0.913 13:0.913 14:0.333 15:0.246 
-1.0 0:2.0 1:0.2 2:0.333 3:0.365 4:0.111 5:0.254 6:2.0 7:0.333 8:1.0 9:0.167 10:0.706 11:0.56 12:0.647 13:0.706 14:0.093 15:0.221 
-1.0 0:2.0 1:0.167 2:0.333 3:0.338 4:0.101 5:0.216 6:2.0 7:0.333 8:2.0 9:0.333 10:0.682 11:0.626 12:0.636 13:0.659 14:0.115 15:0.098 
-1.0 0:2.0 1:0.143 2:0.4 3:0.365 4:0.432 5:0.358 6:1.0 7:0.2 8:0.0 9:0.0 10:0.72 11:0.526 12:0.72 13:0.74 14:0.205 15:0.136 
-1.0 0:2.0 1:0.105 2:0.4 3:0.258 4:0.282 5:0.386 6:1.0 7:0.2 8:1.0 9:0.2 10:0.907 11:0.439 12:0.884 13:0.907 14:0.365 15:0.452 
-1.0 0:2.0 1:0.2 2:0.4 3:0.436 4:0.296 5:0.336 6:1.0 7:0.2 8:1.0 9:0.2 10:0.684 11:0.591 12:0.684 13:0.684 14:0.376 15:0.396 
-1.0 0:2.0 1:0.1 2:0.4 3:0.365 4:0.242 5:0.15 6:1.0 7:0.2 8:1.0 9:0.2 10:0.829 11:0.568 12:0.829 13:0.829 14:0.174 15:0.236 
-1.0 0:2.0 1:0.118 2:0.4 3:0.32 4:0.219 5:0.332 6:1.0 7:0.2 8:1.0 9:0.2 10:0.833 11:0.507 12:0.833 13:0.833 14:0.302 15:0.258 
-1.0 0:2.0 1:0.087 2:0.4 3:0.309 4:0.212 5:0.149 6:1.0 7:0.2 8:1.0 9:0.2 10:0.905 11:0.491 12:0.905 13:0.905 14:0.148 15:0.149 
-1.0 0:2.0 1:0.111 2:0.5 3:0.816 4:0.816 5:0.042 6:0.0 7:0.0 8:0.0 9:0.0 10:0.765 11:0.662 12:0.765 13:0.779 14:0.324 15:0.191 
-1.0 0:2.0 1:0.143 2:0.5 3:0.707 4:0.759 5:0.21 6:0.0 7:0.0 8:0.0 9:0.0 10:0.68 11:0.498 12:0.68 13:0.7 14:0.0 15:0.123 
-1.0 0:2.0 1:0.167 2:0.5 3:0.707 4:0.707 5:0.089 6:0.0 7:0.0 8:0.0 9:0.0 10:0.667 11:0.653 12:0.667 13:0.688 14:0.4 15:0.187 
-1.0 0:2.0 1:0.154 2:0.5 3:0.632 4:0.692 5:0.113 6:0.0 7:0.0 8:0.0 9:0.0 10:0.692 11:0.84 12:0.692 13:0.692 14:0.0 15:0.0 
-1.0 0:2.0 1:0.118 2:0.5 3:0.577 4:0.676 5:0.048 6:0.0 7:0.0 8:0.0 9:0.0 10:0.765 11:0.62 12:0.765 13:0.779 14:0.128 15:0.05 
-1.0 0:2.0 1:0.125 2:0.5 3:0.632 4:0.674 5:0.024 6:0.0 7:0.0 8:0.0 9:0.0 10:0.784 11:0.614 12:0.784 13:0.797 14:0.471 15:0.232 
-1.0 0:2.0 1:0.125 2:0.5 3:0.632 4:0.669 5:0.173 6:0.0 7:0.0 8:0.0 9:0.0 10:0.784 11:0.614 12:0.784 13:0.797 14:0.404 15:0.375 
-1.0 0:2.0 1:0.1 2:0.5 3:0.577 4:0.642 5:0.131 6:0.0 7:0.0 8:0.0 9:0.0 10:0.826 11:0.641 12:0.826 13:0.837 14:0.232 15:0.194 
-1.0 0:2.0 1:0.111 2:0.5 3:0.64 4:0.64 5:0.13 6:0.0 7:0.0 8:0.0 9:0.0 10:0.795 11:0.61 12:0.795 13:0.808 14:0.392 15:0.309 
-1.0 0:2.0 1:0.091 2:0.5 3:0.535 4:0.633 5:0.243 6:0.0 7:0.0 8:0.0 9:0.0 10:0.846 11:0.635 12:0.846 13:0.856 14:0.255 15:0.237 
-1.0 0:2.0 1:0.1 2:0.5 3:0.632 4:0.632 5:0.028 6:0.0 7:0.0 8:0.0 9:0.0 10:0.81 11:0.605 12:0.81 13:0.821 14:0.309 15:0.283 
-1.0 0:2.0 1:0.1 2:0.5 3:0.535 4:0.628 5:0.116 6:0.0 7:0.0 8:0.0 9:0.0 10:0.81 11:0.605 12:0.81 13:0.821 14:0.392 15:0.263 
-1.0 0:2.0 1:0.133 2:0.5 3:0.577 4:0.617 5:0.078 6:0.0 7:0.0 8:0.0 9:0.0 10:0.758 11:0.622 12:0.758 13:0.773 14:0.471 15:0.324 
-1.0 0:2.0 1:0.125 2:0.5 3:0.577 4:0.577 5:0.028 6:0.0 7:0.0 8:0.0 9:0.0 10:0.789 11:0.612 12:0.789 13:0.803 14:0.408 15:0.258 
-1.0 0:2.0 1:0.111 2:0.5 3:0.5 4:0.576 5:0.119 6:0.0 7:0.0 8:0.0 9:0.0 10:0.8 11:0.608 12:0.8 13:0.813 14:0.343 15:0.243 
-1.0 0:2.0 1:0.118 2:0.5 3:0.535 4:0.563 5:0.0 6:0.0 7:0.0 8:0.0 9:0.0 10:0.789 11:0.792 12:0.789 13:0.789 14:0.0 15:0.0 
-1.0 0:2.0 1:0.095 2:0.5 3:0.5 4:0.557 5:0.18 6:0.0 7:0.0 8:0.0 9:0.0 10:0.83 11:0.598 12:0.83 13:0.84 14:0.333 15:0.276 
-1.0 0:2.0 1:0.1 2:0.5 3:0.535 4:0.549 5:0.035 6:0.0 7:0.0 8:0.0 9:0.0 10:0.822 11:0.601 12:0.822 13:0.833 14:0.471 15:0.365 
-1.0 0:2.0 1:0.1 2:0.5 3:0.535 4:0.535 5:0.166 6:0.0 7:0.0 8:0.0 9:0.0 10:0.814 11:0.514 12:0.814 13:0.814 14:0.333 15:0.485 
-1.0 0:2.0 1:0.125 2:0.5 3:0.5 4:0.528 5:0.187 6:0.0 7:0.0 8:0.0 9:0.0 10:0.771 11:0.618 12:0.771 13:0.786 14:0.309 15:0.272 
-1.0 0:2.0 1:0.111 2:0.5 3:0.471 4:0.526 5:0.179 6:0.0 7:0.0 8:0.0 9:0.0 10:0.789 11:0.612 12:0.789 13:0.803 14:0.258 15:0.216 
-1.0 0:2.0 1:0.105 2:0.5 3:0.5 4:0.523 5:0.092 6:0.0 7:0.0 8:0.0 9:0.0 10:0.814 11:0.604 12:0.814 13:0.826 14:0.302 15:0.258 
-1.0 0:2.0 1:0.111 2:0.5 3:0.5 4:0.521 5:0.479 6:0.0 7:0.0 8:0.0 9:0.0 10:0.81 11:0.605 12:0.81 13:0.821 14:0.316 15:0.368 
-1.0 0:2.0 1:0.111 2:0.5 3:0.5 4:0.52 5:0.083 6:0.0 7:0.0 8:0.0 9:0.0 10:0.789 11:0.792 12:0.789 13:0.789 14:0.707 15:0.17 
-1.0 0:2.0 1:0.095 2:0.5 3:0.471 4:0.511 5:0.494 6:0.0 7:0.0 8:0.0 9:0.0 10:0.814 11:0.645 12:0.814 13:0.826 14:0.525 15:0.522 
-1.0 0:2.0 1:0.095 2:0.5 3:0.5 4:0.5 5:0.128 6:0.0 7:0.0 8:0.0 9:0.0 10:0.81 11:0.647 12:0.81 13:0.821 14:0.354 15:0.218 
-0.02925623948555906 0:2.0 1:0.111 2:0.5 3:0.471 4:0.499 5:0.176 6:0.0 7:0.0 8:0.0 9:0.0 10:0.81 11:0.605 12:0.81 13:0.821 14:0.0 15:0.263 
-1.0 0:2.0 1:0.118 2:0.5 3:0.471 4:0.49 5:0.197 6:0.0 7:0.0 8:0.0 9:0.0 10:0.771 11:0.618 12:0.771 13:0.786 14:0.447 15:0.368 
-1.0 0:2.0 1:0.105 2:0.5 3:0.447 4:0.486 5:0.414 6:0.0 7:0.0 8:0.0 9:0.0 10:0.814 11:0.604 12:0.814 13:0.826 14:0.277 15:0.514 
-1.0 0:2.0 1:0.087 2:0.5 3:0.447 4:0.485 5:0.128 6:0.0 7:0.0 8:0.0 9:0.0 10:0.843 11:0.594 12:0.843 13:0.853 14:0.492 15:0.327 
-1.0 0:2.0 1:0.091 2:0.5 3:0.471 4:0.484 5:0.124 6:0.0 7:0.0 8:0.0 9:0.0 10:0.83 11:0.598 12:0.83 13:0.84 14:0.816 15:0.535 
-1.0 0:2.0 1:0.125 2:0.5 3:0.447 4:0.481 5:0.152 6:0.0 7:0.0 8:0.0 9:0.0 10:0.784 11:0.795 12:0.784 13:0.784 14:0.577 15:0.289 
-0.6468916472340301 0:2.0 1:0.1 2:0.5 3:0.447 4:0.467 5:0.094 6:0.0 7:0.0 8:0.0 9:0.0 10:0.822 11:0.601 12:0.822 13:0.833 14:0.408 15:0.258 
-1.0 0:2.0 1:0.105 2:0.5 3:0.447 4:0.465 5:0.203 6:0.0 7:0.0 8:0.0 9:0.0 10:0.8 11:0.608 12:0.8 13:0.813 14:0.277 15:0.196 
-1.0 0:2.0 1:0.083 2:0.5 3:0.408 4:0.464 5:0.074 6:0.0 7:0.0 8:0.0 9:0.0 10:0.846 11:0.593 12:0.846 13:0.856 14:0.535 15:0.378 
-1.0 0:2.0 1:0.1 2:0.5 3:0.447 4:0.461 5:0.178 6:0.0 7:0.0 8:0.0 9:0.0 10:0.814 11:0.604 12:0.814 13:0.826 14:0.302 15:0.178 
-1.0 0:2.0 1:0.087 2:0.5 3:0.447 4:0.447 5:0.275 6:0.0 7:0.0 8:0.0 9:0.0 10:0.84 11:0.595 12:0.84 13:0.85 14:0.324 15:0.272 
-1.0 0:2.0 1:0.091 2:0.5 3:0.426 4:0.443 5:0.277 6:0.0 7:0.0 8:0.0 9:0.0 10:0.833 11:0.597 12:0.833 13:0.844 14:0.408 15:0.354 
-1.0 0:2.0 1:0.091 2:0.5 3:0.426 4:0.438 5:0.341 6:0.0 7:0.0 8:0.0 9:0.0 10:0.818 11:0.602 12:0.818 13:0.83 14:0.369 15:0.317 
-1.0 0:2.0 1:0.087 2:0.5 3:0.426 4:0.434 5:0.052 6:0.0 7:0.0 8:0.0 9:0.0 10:0.833 11:0.769 12:0.833 13:0.833 14:0.392 15:0.267 
-1.0 0:2.0 1:0.1 2:0.5 3:0.408 4:0.433 5:0.167 6:0.0 7:0.0 8:0.0 9:0.0 10:0.826 11:0.6 12:0.826 13:0.837 14:0.295 15:0.289 
-1.0 0:2.0 1:0.118 2:0.5 3:0.392 4:0.406 5:0.114 6:0.0 7:0.0 8:0.0 9:0.0 10:0.81 11:0.782 12:0.81 13:0.81 14:0.254 15:0.371 
-1.0 0:2.0 1:0.087 2:0.5 3:0.392 4:0.402 5:0.025 6:0.0 7:0.0 8:0.0 9:0.0 10:0.843 11:0.763 12:0.843 13:0.843 14:0.408 15:0.316 
-1.0 0:2.0 1:0.143 2:0.4 3:0.516 4:0.565 5:0.092 6:0.0 7:0.0 8:0.0 9:0.0 10:0.654 11:0.818 12:0.654 13:0.635 14:0.0 15:0.0 
-1.0 0:3.0 1:0.13 2:0.6 3:0.548 4:0.548 5:0.152 6:0.0 7:0.0 8:0.0 9:0.0 10:0.82 11:0.619 12:0.82 13:0.82 14:0.145 15:0.152 
-1.0 0:2.0 1:0.143 2:0.4 3:0.516 4:0.565 5:0.092 6:0.0 7:0.0 8:0.0 9:0.0 10:0.654 11:0.818 12:0.654 13:0.635 14:0.0 15:0.0 
-0.9821035673921208 0:2.0 1:0.143 2:0.4 3:0.516 4:0.565 5:0.092 6:0.0 7:0.0 8:0.0 9:0.0 10:0.654 11:0.818 12:0.654 13:0.635 14:0.0 15:0.0 
-1.0 0:2.0 1:0.286 2:0.667 3:0.471 4:0.498 5:0.079 6:0.0 7:0.0 8:0.0 9:0.0 10:0.667 11:0.454 12:0.667 13:0.694 14:0.109 15:0.132 
-1.0 0:2.0 1:0.154 2:0.667 3:0.365 4:0.38 5:0.042 6:0.0 7:0.0 8:0.0 9:0.0 10:0.818 11:0.588 12:0.818 13:0.833 14:0.0 15:0.073 
-1.0 0:2.0 1:0.182 2:0.667 3:0.535 4:0.535 5:0.016 6:0.0 7:0.0 8:0.0 9:0.0 10:0.769 11:0.61 12:0.769 13:0.788 14:0.0 15:0.0 
-1.0 0:2.0 1:0.111 2:0.667 3:0.5 4:0.522 5:0.111 6:0.0 7:0.0 8:0.0 9:0.0 10:0.878 11:0.582 12:0.854 13:0.89 14:0.0 15:0.063 
-1.0 0:2.0 1:0.143 2:0.667 3:0.5 4:0.513 5:0.196 6:0.0 7:0.0 8:0.0 9:0.0 10:0.806 11:0.466 12:0.806 13:0.823 14:0.283 15:0.229 
-1.0 0:2.0 1:0.1 2:0.667 3:0.408 4:0.423 5:0.131 6:0.0 7:0.0 8:0.0 9:0.0 10:0.936 11:0.465 12:0.915 13:0.936 14:0.289 15:0.267 
-1.0 0:2.0 1:0.111 2:0.667 3:0.392 4:0.405 5:0.109 6:0.0 7:0.0 8:0.0 9:0.0 10:0.857 11:0.525 12:0.857 13:0.869 14:0.0 15:0.0 
-1.0 0:2.0 1:0.154 2:0.667 3:0.408 4:0.426 5:0.0 6:0.0 7:0.0 8:0.0 9:0.0 10:0.867 11:0.467 12:0.867 13:0.883 14:0.0 15:0.0 
-1.0 0:2.0 1:0.125 2:0.667 3:0.348 4:0.357 5:0.135 6:0.0 7:0.0 8:0.0 9:0.0 10:0.892 11:0.462 12:0.892 13:0.905 14:0.144 15:0.135 
-1.0 0:2.0 1:0.143 2:0.667 3:0.333 4:0.345 5:0.034 6:0.0 7:0.0 8:0.0 9:0.0 10:0.875 11:0.514 12:0.875 13:0.891 14:0.0 15:0.0 
-1.0 0:3.0 1:0.167 2:0.3 3:0.429 4:0.471 5:0.517 6:0.0 7:0.0 8:0.0 9:0.0 10:0.667 11:0.616 12:0.63 13:0.667 14:0.105 15:0.183 
-1.0 0:3.0 1:0.143 2:0.3 3:0.401 4:0.433 5:0.406 6:0.0 7:0.0 8:0.0 9:0.0 10:0.686 11:0.583 12:0.686 13:0.686 14:0.0 15:0.138 
-1.0 0:3.0 1:0.125 2:0.3 3:0.359 4:0.371 5:0.239 6:0.0 7:0.0 8:0.0 9:0.0 10:0.714 11:0.55 12:0.714 13:0.724 14:0.0 15:0.218 
-1.0 0:3.0 1:0.115 2:0.3 3:0.342 4:0.37 5:0.517 6:0.0 7:0.0 8:0.0 9:0.0 10:0.792 11:0.553 12:0.771 13:0.792 14:0.105 15:0.183 
-1.0 0:3.0 1:0.2 2:0.6 3:0.577 4:0.538 5:0.0 6:0.0 7:0.0 8:0.0 9:0.0 10:0.688 11:0.822 12:0.688 13:0.672 14:0.0 15:0.0 
-1.0 0:3.0 1:0.167 2:0.429 3:0.544 4:0.544 5:0.309 6:0.0 7:0.0 8:0.0 9:0.0 10:0.75 11:0.556 12:0.694 13:0.736 14:0.129 15:0.284 
-1.0 0:2.0 1:0.2 2:0.5 3:0.5 4:0.58 5:0.381 6:0.0 7:0.0 8:0.0 9:0.0 10:0.737 11:0.565 12:0.737 13:0.737 14:0.375 15:0.49 
-1.0 0:2.0 1:0.154 2:0.5 3:0.447 4:0.506 5:0.439 6:0.0 7:0.0 8:0.0 9:0.0 10:0.778 11:0.478 12:0.778 13:0.778 14:0.331 15:0.329 
-1.0 0:2.0 1:0.182 2:0.5 3:0.378 4:0.413 5:0.337 6:0.0 7:0.0 8:0.0 9:0.0 10:0.864 11:0.515 12:0.773 13:0.864 14:0.144 15:0.337 
-1.0 0:3.0 1:0.231 2:0.6 3:0.548 4:0.359 5:0.592 6:2.0 7:0.4 8:1.0 9:0.2 10:0.667 11:0.683 12:0.633 13:0.65 14:0.548 15:0.763 
-1.0 0:2.0 1:0.118 2:0.4 3:0.316 4:0.26 5:0.512 6:2.0 7:0.4 8:1.0 9:0.2 10:0.733 11:0.571 12:0.733 13:0.733 14:0.298 15:0.68 
-1.0 0:3.0 1:0.158 2:0.6 3:0.359 4:0.23 5:0.589 6:2.0 7:0.4 8:0.0 9:0.0 10:0.773 11:0.505 12:0.773 13:0.761 14:0.527 15:0.689 
-1.0 0:2.0 1:0.118 2:0.4 3:0.283 4:0.227 5:0.65 6:2.0 7:0.4 8:1.0 9:0.2 10:0.794 11:0.519 12:0.794 13:0.779 14:0.707 15:0.701 
-1.0 0:2.0 1:0.091 2:0.4 3:0.27 4:0.211 5:0.127 6:1.0 7:0.2 8:1.0 9:0.2 10:0.857 11:0.453 12:0.837 13:0.857 14:0.254 15:0.194 
-1.0 0:4.0 1:0.267 2:0.667 3:0.566 4:0.514 5:0.332 6:1.0 7:0.167 8:0.0 9:0.0 10:0.667 11:0.555 12:0.667 13:0.667 14:0.0 15:0.0 
-1.0 0:2.0 1:0.143 2:0.333 3:0.405 4:0.258 5:0.34 6:1.0 7:0.167 8:1.0 9:0.167 10:0.724 11:0.574 12:0.724 13:0.707 14:0.115 15:0.112 
-1.0 0:2.0 1:0.125 2:0.333 3:0.258 4:0.218 5:0.355 6:1.0 7:0.167 8:1.0 9:0.167 10:0.742 11:0.568 12:0.742 13:0.726 14:0.112 15:0.12 
-1.0 0:2.0 1:0.143 2:0.667 3:0.516 4:0.603 5:0.206 6:0.0 7:0.0 8:0.0 9:0.0 10:0.813 11:0.479 12:0.813 13:0.813 14:0.252 15:0.207 
-1.0 0:2.0 1:0.143 2:0.667 3:0.408 4:0.566 5:0.103 6:0.0 7:0.0 8:0.0 9:0.0 10:0.842 11:0.636 12:0.842 13:0.829 14:0.252 15:0.246 
-1.0 0:2.0 1:0.105 2:0.667 3:0.436 4:0.534 5:0.527 6:0.0 7:0.0 8:0.0 9:0.0 10:0.864 11:0.462 12:0.864 13:0.864 14:0.333 15:0.444 
-1.0 0:2.0 1:0.095 2:0.667 3:0.436 4:0.509 5:0.071 6:0.0 7:0.0 8:0.0 9:0.0 10:0.864 11:0.462 12:0.864 13:0.864 14:0.149 15:0.08 
-1.0 0:2.0 1:0.118 2:0.667 3:0.408 4:0.504 5:0.096 6:0.0 7:0.0 8:0.0 9:0.0 10:0.833 11:0.639 12:0.833 13:0.819 14:0.198 15:0.174 
-1.0 0:2.0 1:0.111 2:0.667 3:0.365 4:0.498 5:0.156 6:0.0 7:0.0 8:0.0 9:0.0 10:0.87 11:0.46 12:0.87 13:0.87 14:0.316 15:0.275 
-1.0 0:2.0 1:0.1 2:0.667 3:0.408 4:0.492 5:0.192 6:0.0 7:0.0 8:0.0 9:0.0 10:0.88 11:0.457 12:0.88 13:0.88 14:0.298 15:0.192 
-1.0 0:2.0 1:0.154 2:0.667 3:0.385 4:0.487 5:0.605 6:0.0 7:0.0 8:0.0 9:0.0 10:0.813 11:0.479 12:0.813 13:0.813 14:0.408 15:0.516 
-1.0 0:2.0 1:0.118 2:0.667 3:0.385 4:0.484 5:0.206 6:0.0 7:0.0 8:0.0 9:0.0 10:0.854 11:0.632 12:0.854 13:0.841 14:0.0 15:0.408 
-1.0 0:2.0 1:0.111 2:0.667 3:0.365 4:0.48 5:0.438 6:0.0 7:0.0 8:0.0 9:0.0 10:0.867 11:0.461 12:0.867 13:0.867 14:0.28 15:0.222 
-1.0 0:2.0 1:0.167 2:0.667 3:0.385 4:0.467 5:0.102 6:0.0 7:0.0 8:0.0 9:0.0 10:0.813 11:0.479 12:0.813 13:0.813 14:0.174 15:0.126 
-1.0 0:2.0 1:0.118 2:0.667 3:0.365 4:0.46 5:0.369 6:0.0 7:0.0 8:0.0 9:0.0 10:0.842 11:0.469 12:0.842 13:0.842 14:0.352 15:0.314 
-1.0 0:2.0 1:0.111 2:0.667 3:0.365 4:0.454 5:0.125 6:0.0 7:0.0 8:0.0 9:0.0 10:0.86 11:0.463 12:0.86 13:0.86 14:0.289 15:0.112 
-1.0 0:2.0 1:0.105 2:0.667 3:0.365 4:0.452 5:0.329 6:0.0 7:0.0 8:0.0 9:0.0 10:0.864 11:0.629 12:0.864 13:0.852 14:0.365 15:0.258 
-1.0 0:2.0 1:0.105 2:0.667 3:0.385 4:0.449 5:0.33 6:0.0 7:0.0 8:0.0 9:0.0 10:0.86 11:0.463 12:0.86 13:0.86 14:0.337 15:0.393 
-1.0 0:2.0 1:0.125 2:0.667 3:0.348 4:0.444 5:0.139 6:0.0 7:0.0 8:0.0 9:0.0 10:0.825 11:0.483 12:0.825 13:0.837 14:0.0 15:0.327 
-1.0 0:2.0 1:0.133 2:0.667 3:0.348 4:0.439 5:0.074 6:0.0 7:0.0 8:0.0 9:0.0 10:0.846 11:0.468 12:0.846 13:0.846 14:0.298 15:0.176 
-1.0 0:2.0 1:0.118 2:0.667 3:0.365 4:0.437 5:0.066 6:0.0 7:0.0 8:0.0 9:0.0 10:0.864 11:0.462 12:0.864 13:0.864 14:0.066 15:0.066 
-1.0 0:2.0 1:0.1 2:0.667 3:0.348 4:0.435 5:0.089 6:0.0 7:0.0 8:0.0 9:0.0 10:0.87 11:0.46 12:0.87 13:0.87 14:0.0 15:0.0 
-1.0 0:2.0 1:0.111 2:0.667 3:0.348 4:0.432 5:0.193 6:0.0 7:0.0 8:0.0 9:0.0 10:0.864 11:0.462 12:0.864 13:0.864 14:0.229 15:0.193 
-1.0 0:2.0 1:0.105 2:0.667 3:0.333 4:0.429 5:0.2 6:0.0 7:0.0 8:0.0 9:0.0 10:0.872 11:0.459 12:0.872 13:0.872 14:0.333 15:0.33 
-1.0 0:2.0 1:0.111 2:0.667 3:0.348 4:0.428 5:0.514 6:0.0 7:0.0 8:0.0 9:0.0 10:0.857 11:0.631 12:0.857 13:0.845 14:0.297 15:0.247 
-1.0 0:2.0 1:0.111 2:0.667 3:0.348 4:0.419 5:0.302 6:0.0 7:0.0 8:0.0 9:0.0 10:0.86 11:0.463 12:0.86 13:0.86 14:0.444 15:0.295 
-1.0 0:2.0 1:0.105 2:0.667 3:0.348 4:0.416 5:0.207 6:0.0 7:0.0 8:0.0 9:0.0 10:0.867 11:0.461 12:0.867 13:0.867 14:0.0 15:0.241 
-1.0 0:2.0 1:0.111 2:0.667 3:0.333 4:0.415 5:0.421 6:0.0 7:0.0 8:0.0 9:0.0 10:0.86 11:0.463 12:0.86 13:0.86 14:0.378 15:0.281 
-1.0 0:2.0 1:0.118 2:0.667 3:0.32 4:0.415 5:0.186 6:0.0 7:0.0 8:0.0 9:0.0 10:0.857 11:0.631 12:0.857 13:0.845 14:0.298 15:0.252 
-1.0 0:2.0 1:0.111 2:0.667 3:0.309 4:0.4 5:0.078 6:0.0 7:0.0 8:0.0 9:0.0 10:0.87 11:0.46 12:0.87 13:0.87 14:0.365 15:0.218 
-1.0 0:2.0 1:0.133 2:0.667 3:0.309 4:0.377 5:0.084 6:0.0 7:0.0 8:0.0 9:0.0 10:0.846 11:0.468 12:0.846 13:0.846 14:0.272 15:0.218 
-1.0 0:2.0 1:0.095 2:0.667 3:0.298 4:0.355 5:0.245 6:0.0 7:0.0 8:0.0 9:0.0 10:0.88 11:0.457 12:0.88 13:0.88 14:0.204 15:0.272 
-1.0 0:2.0 1:0.167 2:0.667 3:0.385 4:0.308 5:0.218 6:1.0 7:0.333 8:0.0 9:0.0 10:0.857 11:0.544 12:0.857 13:0.857 14:0.229 15:0.218 
-1.0 0:2.0 1:0.118 2:0.667 3:0.365 4:0.278 5:0.142 6:0.0 7:0.0 8:0.0 9:0.0 10:0.902 11:0.521 12:0.902 13:0.902 14:0.14 15:0.113 
-1.0 0:2.0 1:0.143 2:0.667 3:0.516 4:0.581 5:0.251 6:1.0 7:0.333 8:0.0 9:0.0 10:0.813 11:0.479 12:0.813 13:0.813 14:0.252 15:0.276 
-1.0 0:2.0 1:0.095 2:0.667 3:0.436 4:0.491 5:0.106 6:1.0 7:0.333 8:0.0 9:0.0 10:0.864 11:0.462 12:0.864 13:0.864 14:0.149 15:0.08 
-1.0 0:2.0 1:0.118 2:0.667 3:0.408 4:0.486 5:0.143 6:1.0 7:0.333 8:0.0 9:0.0 10:0.833 11:0.639 12:0.833 13:0.819 14:0.198 15:0.174 
-1.0 0:2.0 1:0.111 2:0.667 3:0.365 4:0.48 5:0.156 6:0.0 7:0.0 8:0.0 9:0.0 10:0.848 11:0.46 12:0.848 13:0.848 14:0.316 15:0.275 
-1.0 0:2.0 1:0.1 2:0.667 3:0.408 4:0.474 5:0.192 6:0.0 7:0.0 8:0.0 9:0.0 10:0.88 11:0.457 12:0.88 13:0.88 14:0.298 15:0.192 
-1.0 0:2.0 1:0.154 2:0.667 3:0.385 4:0.47 5:0.639 6:1.0 7:0.333 8:0.0 9:0.0 10:0.813 11:0.479 12:0.813 13:0.813 14:0.408 15:0.516 
-1.0 0:2.0 1:0.118 2:0.667 3:0.385 4:0.467 5:0.229 6:1.0 7:0.333 8:0.0 9:0.0 10:0.854 11:0.632 12:0.854 13:0.841 14:0.0 15:0.408 
-1.0 0:2.0 1:0.167 2:0.667 3:0.385 4:0.451 5:0.102 6:0.0 7:0.0 8:0.0 9:0.0 10:0.813 11:0.479 12:0.813 13:0.813 14:0.174 15:0.126 
-1.0 0:2.0 1:0.118 2:0.667 3:0.365 4:0.444 5:0.378 6:1.0 7:0.333 8:0.0 9:0.0 10:0.842 11:0.469 12:0.842 13:0.842 14:0.352 15:0.314 
-1.0 0:2.0 1:0.105 2:0.667 3:0.365 4:0.436 5:0.329 6:0.0 7:0.0 8:0.0 9:0.0 10:0.864 11:0.629 12:0.864 13:0.852 14:0.365 15:0.258 
-1.0 0:2.0 1:0.105 2:0.667 3:0.385 4:0.433 5:0.403 6:1.0 7:0.333 8:0.0 9:0.0 10:0.86 11:0.463 12:0.86 13:0.86 14:0.421 15:0.442 
-1.0 0:2.0 1:0.125 2:0.667 3:0.348 4:0.428 5:0.139 6:0.0 7:0.0 8:0.0 9:0.0 10:0.85 11:0.483 12:0.85 13:0.85 14:0.0 15:0.327 
-1.0 0:2.0 1:0.133 2:0.667 3:0.348 4:0.423 5:0.074 6:0.0 7:0.0 8:0.0 9:0.0 10:0.846 11:0.468 12:0.846 13:0.846 14:0.298 15:0.176 
-1.0 0:2.0 1:0.118 2:0.667 3:0.365 4:0.421 5:0.066 6:0.0 7:0.0 8:0.0 9:0.0 10:0.864 11:0.462 12:0.864 13:0.864 14:0.066 15:0.066 
-1.0 0:2.0 1:0.1 2:0.667 3:0.348 4:0.42 5:0.089 6:0.0 7:0.0 8:0.0 9:0.0 10:0.87 11:0.46 12:0.87 13:0.87 14:0.0 15:0.0 
-1.0 0:2.0 1:0.111 2:0.667 3:0.348 4:0.417 5:0.193 6:0.0 7:0.0 8:0.0 9:0.0 10:0.864 11:0.462 12:0.864 13:0.864 14:0.229 15:0.193 
-1.0 0:2.0 1:0.105 2:0.667 3:0.333 4:0.414 5:0.249 6:1.0 7:0.333 8:0.0 9:0.0 10:0.872 11:0.459 12:0.872 13:0.872 14:0.333 15:0.33 
-1.0 0:2.0 1:0.111 2:0.667 3:0.348 4:0.413 5:0.561 6:1.0 7:0.333 8:0.0 9:0.0 10:0.857 11:0.631 12:0.857 13:0.845 14:0.297 15:0.247 
-1.0 0:2.0 1:0.111 2:0.667 3:0.348 4:0.405 5:0.302 6:0.0 7:0.0 8:0.0 9:0.0 10:0.86 11:0.463 12:0.86 13:0.86 14:0.444 15:0.295 
-1.0 0:2.0 1:0.105 2:0.667 3:0.348 4:0.401 5:0.207 6:0.0 7:0.0 8:0.0 9:0.0 10:0.867 11:0.461 12:0.867 13:0.867 14:0.0 15:0.241 
-1.0 0:2.0 1:0.111 2:0.667 3:0.333 4:0.401 5:0.459 6:1.0 7:0.333 8:0.0 9:0.0 10:0.86 11:0.463 12:0.86 13:0.86 14:0.378 15:0.281 
-1.0 0:2.0 1:0.111 2:0.667 3:0.309 4:0.386 5:0.078 6:0.0 7:0.0 8:0.0 9:0.0 10:0.87 11:0.46 12:0.87 13:0.87 14:0.365 15:0.218 
-1.0 0:2.0 1:0.133 2:0.667 3:0.309 4:0.363 5:0.084 6:0.0 7:0.0 8:0.0 9:0.0 10:0.846 11:0.468 12:0.846 13:0.846 14:0.272 15:0.218 
-1.0 0:2.0 1:0.182 2:0.5 3:0.577 4:0.529 5:0.35 6:0.0 7:0.0 8:0.0 9:0.0 10:0.684 11:0.497 12:0.684 13:0.711 14:0.0 15:0.277 
-1.0 0:2.0 1:0.118 2:0.5 3:0.485 4:0.436 5:0.408 6:0.0 7:0.0 8:0.0 9:0.0 10:0.864 11:0.545 12:0.864 13:0.875 14:0.174 15:0.419 
-1.0 0:2.0 1:0.125 2:0.5 3:0.378 4:0.374 5:0.443 6:0.0 7:0.0 8:0.0 9:0.0 10:0.813 11:0.563 12:0.813 13:0.828 14:0.302 15:0.417 
-1.0 0:2.0 1:0.111 2:0.5 3:0.378 4:0.347 5:0.522 6:0.0 7:0.0 8:0.0 9:0.0 10:0.927 11:0.493 12:0.902 13:0.927 14:0.329 15:0.451 
-1.0 0:2.0 1:0.167 2:0.5 3:0.354 4:0.328 5:0.413 6:1.0 7:0.25 8:0.0 9:0.0 10:0.778 11:0.574 12:0.778 13:0.796 14:0.302 15:0.152 
-1.0 0:2.0 1:0.125 2:0.5 3:0.333 4:0.322 5:0.503 6:0.0 7:0.0 8:0.0 9:0.0 10:0.838 11:0.554 12:0.838 13:0.851 14:0.718 15:0.66 
-1.0 0:2.0 1:0.105 2:0.5 3:0.354 4:0.319 5:0.46 6:0.0 7:0.0 8:0.0 9:0.0 10:0.857 11:0.553 12:0.857 13:0.869 14:0.236 15:0.28 
-1.0 0:2.0 1:0.125 2:0.5 3:0.333 4:0.317 5:0.579 6:0.0 7:0.0 8:0.0 9:0.0 10:0.909 11:0.505 12:0.879 13:0.909 14:0.316 15:0.579 
-1.0 0:2.0 1:0.118 2:0.5 3:0.354 4:0.311 5:0.42 6:0.0 7:0.0 8:0.0 9:0.0 10:0.846 11:0.551 12:0.846 13:0.859 14:0.394 15:0.338 
-1.0 0:2.0 1:0.125 2:0.5 3:0.316 4:0.287 5:0.468 6:0.0 7:0.0 8:0.0 9:0.0 10:0.824 11:0.559 12:0.824 13:0.838 14:0.305 15:0.424 
-1.0 0:2.0 1:0.091 2:0.5 3:0.316 4:0.287 5:0.499 6:0.0 7:0.0 8:0.0 9:0.0 10:0.902 11:0.595 12:0.882 13:0.912 14:0.134 15:0.318 
-1.0 0:2.0 1:0.1 2:0.5 3:0.316 4:0.286 5:0.471 6:0.0 7:0.0 8:0.0 9:0.0 10:0.857 11:0.548 12:0.857 13:0.869 14:0.236 15:0.424 
-1.0 0:2.0 1:0.1 2:0.5 3:0.302 4:0.284 5:0.509 6:0.0 7:0.0 8:0.0 9:0.0 10:0.927 11:0.493 12:0.902 13:0.927 14:0.236 15:0.28 
-1.0 0:2.0 1:0.087 2:0.5 3:0.302 4:0.284 5:0.453 6:0.0 7:0.0 8:0.0 9:0.0 10:0.882 11:0.539 12:0.882 13:0.892 14:0.2 15:0.295 
-1.0 0:2.0 1:0.1 2:0.5 3:0.289 4:0.27 5:0.099 6:1.0 7:0.25 8:0.0 9:0.0 10:0.854 11:0.549 12:0.854 13:0.866 14:0.0 15:0.0 
-1.0 0:2.0 1:0.125 2:0.5 3:0.302 4:0.264 5:0.526 6:0.0 7:0.0 8:0.0 9:0.0 10:0.914 11:0.502 12:0.886 13:0.914 14:0.507 15:0.459 
-1.0 0:2.0 1:0.111 2:0.5 3:0.289 4:0.26 5:0.495 6:0.0 7:0.0 8:0.0 9:0.0 10:0.857 11:0.601 12:0.833 13:0.869 14:0.0 15:0.189 
-1.0 0:2.0 1:0.095 2:0.5 3:0.289 4:0.258 5:0.388 6:0.0 7:0.0 8:0.0 9:0.0 10:0.857 11:0.548 12:0.857 13:0.869 14:0.324 15:0.439 
-1.0 0:2.0 1:0.105 2:0.5 3:0.258 4:0.252 5:0.247 6:0.0 7:0.0 8:0.0 9:0.0 10:0.849 11:0.612 12:0.849 13:0.868 14:0.447 15:0.436 
-1.0 0:2.0 1:0.083 2:0.5 3:0.267 4:0.233 5:0.099 6:1.0 7:0.25 8:1.0 9:0.25 10:0.949 11:0.478 12:0.932 13:0.949 14:0.18 15:0.162 
-1.0 0:2.0 1:0.091 2:0.5 3:0.258 4:0.225 5:0.471 6:0.0 7:0.0 8:0.0 9:0.0 10:0.938 11:0.486 12:0.917 13:0.938 14:0.365 15:0.429 
-1.0 0:2.0 1:0.095 2:0.5 3:0.302 4:0.336 5:0.122 6:1.0 7:0.25 8:1.0 9:0.25 10:0.915 11:0.454 12:0.915 13:0.915 14:0.096 15:0.06 
-1.0 0:2.0 1:0.1 2:0.5 3:0.289 4:0.322 5:0.153 6:1.0 7:0.25 8:1.0 9:0.25 10:0.909 11:0.485 12:0.909 13:0.909 14:0.125 15:0.09 
-1.0 0:2.0 1:0.125 2:0.4 3:0.283 4:0.232 5:0.081 6:1.0 7:0.2 8:1.0 9:0.2 10:0.8 11:0.586 12:0.8 13:0.814 14:0.227 15:0.252 
-1.0 0:2.0 1:0.154 2:0.5 3:0.333 4:0.383 5:0.026 6:1.0 7:0.25 8:0.0 9:0.0 10:0.844 11:0.524 12:0.844 13:0.859 14:0.0 15:0.0 
-1.0 0:2.0 1:0.125 2:0.5 3:0.333 4:0.182 5:0.327 6:3.0 7:0.75 8:2.0 9:0.5 10:0.861 11:0.519 12:0.806 13:0.889 14:0.0 15:0.3 
-1.0 0:2.0 1:0.125 2:0.5 3:0.316 4:0.171 5:0.219 6:3.0 7:0.75 8:1.0 9:0.25 10:0.814 11:0.493 12:0.814 13:0.814 14:0.0 15:0.0 
-1.0 0:3.0 1:0.214 2:0.5 3:0.53 4:0.573 5:0.273 6:0.0 7:0.0 8:0.0 9:0.0 10:0.69 11:0.631 12:0.655 13:0.69 14:0.387 15:0.327 
-1.0 0:3.0 1:0.13 2:0.5 3:0.459 4:0.482 5:0.175 6:0.0 7:0.0 8:0.0 9:0.0 10:0.745 11:0.483 12:0.745 13:0.764 14:0.0 15:0.0 
-1.0 0:2.0 1:0.111 2:0.286 3:0.298 4:0.242 5:0.134 6:1.0 7:0.143 8:1.0 9:0.143 10:0.727 11:0.53 12:0.727 13:0.727 14:0.267 15:0.307 
-1.0 0:3.0 1:0.2 2:0.6 3:0.447 4:0.489 5:0.097 6:0.0 7:0.0 8:0.0 9:0.0 10:0.81 11:0.476 12:0.81 13:0.81 14:0.157 15:0.157 
-1.0 0:3.0 1:0.15 2:0.5 3:0.316 4:0.292 5:0.076 6:0.0 7:0.0 8:0.0 9:0.0 10:0.783 11:0.614 12:0.783 13:0.783 14:0.365 15:0.369 
-1.0 0:2.0 1:0.1 2:0.333 3:0.309 4:0.236 5:0.49 6:1.0 7:0.167 8:0.0 9:0.0 10:0.763 11:0.489 12:0.763 13:0.763 14:0.258 15:0.192 
-1.0 0:4.0 1:0.25 2:0.4 3:0.544 4:0.544 5:0.222 6:0.0 7:0.0 8:0.0 9:0.0 10:0.522 11:0.749 12:0.478 13:0.5 14:0.261 15:0.251 
-1.0 0:3.0 1:0.167 2:0.3 3:0.408 4:0.455 5:0.08 6:0.0 7:0.0 8:0.0 9:0.0 10:0.63 11:0.649 12:0.593 13:0.63 14:0.16 15:0.103 
-1.0 0:3.0 1:0.158 2:0.3 3:0.408 4:0.422 5:0.078 6:0.0 7:0.0 8:0.0 9:0.0 10:0.5 11:0.687 12:0.5 13:0.481 14:0.245 15:0.167 
-1.0 0:3.0 1:0.188 2:0.3 3:0.408 4:0.408 5:0.097 6:0.0 7:0.0 8:0.0 9:0.0 10:0.682 11:0.634 12:0.545 13:0.682 14:0.068 15:0.107 
-1.0 0:2.0 1:0.105 2:0.4 3:0.372 4:0.217 5:0.406 6:1.0 7:0.2 8:1.0 9:0.2 10:0.878 11:0.438 12:0.878 13:0.89 14:0.0 15:0.089 
-1.0 0:2.0 1:0.091 2:0.4 3:0.283 4:0.192 5:0.47 6:1.0 7:0.2 8:1.0 9:0.2 10:0.896 11:0.486 12:0.875 13:0.896 14:0.27 15:0.368 
-1.0 0:3.0 1:0.25 2:1.0 3:0.522 4:0.511 5:0.115 6:1.0 7:0.333 8:1.0 9:0.333 10:0.714 11:0.662 12:0.714 13:0.729 14:0.0 15:0.0 
-1.0 0:2.0 1:0.133 2:0.286 3:0.447 4:0.374 5:0.446 6:1.0 7:0.143 8:1.0 9:0.143 10:0.708 11:0.602 12:0.625 13:0.729 14:0.149 15:0.135 
-1.0 0:2.0 1:0.143 2:0.667 3:0.516 4:0.576 5:0.206 6:0.0 7:0.0 8:0.0 9:0.0 10:0.813 11:0.563 12:0.813 13:0.828 14:0.252 15:0.207 
-1.0 0:2.0 1:0.143 2:0.667 3:0.408 4:0.541 5:0.155 6:1.0 7:0.333 8:0.0 9:0.0 10:0.947 11:0.442 12:0.868 13:0.947 14:0.252 15:0.246 
-1.0 0:2.0 1:0.105 2:0.667 3:0.436 4:0.51 5:0.527 6:0.0 7:0.0 8:0.0 9:0.0 10:0.909 11:0.601 12:0.864 13:0.92 14:0.333 15:0.444 
-1.0 0:2.0 1:0.095 2:0.667 3:0.436 4:0.487 5:0.071 6:0.0 7:0.0 8:0.0 9:0.0 10:0.909 11:0.601 12:0.864 13:0.92 14:0.149 15:0.08 
-1.0 0:2.0 1:0.118 2:0.667 3:0.408 4:0.481 5:0.096 6:0.0 7:0.0 8:0.0 9:0.0 10:0.944 11:0.444 12:0.861 13:0.944 14:0.198 15:0.174 
-1.0 0:2.0 1:0.1 2:0.667 3:0.408 4:0.47 5:0.192 6:0.0 7:0.0 8:0.0 9:0.0 10:0.92 11:0.596 12:0.88 13:0.93 14:0.298 15:0.192 
-1.0 0:2.0 1:0.154 2:0.667 3:0.385 4:0.465 5:0.627 6:1.0 7:0.333 8:0.0 9:0.0 10:0.844 11:0.618 12:0.813 13:0.859 14:0.408 15:0.516 
-1.0 0:2.0 1:0.118 2:0.667 3:0.385 4:0.462 5:0.275 6:1.0 7:0.333 8:0.0 9:0.0 10:0.927 11:0.507 12:0.878 13:0.927 14:0.0 15:0.408 
-1.0 0:2.0 1:0.111 2:0.667 3:0.365 4:0.458 5:0.47 6:1.0 7:0.333 8:0.0 9:0.0 10:0.911 11:0.6 12:0.867 13:0.922 14:0.28 15:0.222 
-1.0 0:2.0 1:0.167 2:0.667 3:0.385 4:0.446 5:0.102 6:0.0 7:0.0 8:0.0 9:0.0 10:0.813 11:0.563 12:0.813 13:0.828 14:0.174 15:0.126 
-1.0 0:2.0 1:0.118 2:0.667 3:0.365 4:0.44 5:0.378 6:1.0 7:0.333 8:0.0 9:0.0 10:0.842 11:0.553 12:0.842 13:0.855 14:0.352 15:0.314 
-1.0 0:2.0 1:0.111 2:0.667 3:0.365 4:0.434 5:0.125 6:0.0 7:0.0 8:0.0 9:0.0 10:0.86 11:0.547 12:0.86 13:0.872 14:0.289 15:0.112 
-1.0 0:2.0 1:0.105 2:0.667 3:0.365 4:0.432 5:0.329 6:0.0 7:0.0 8:0.0 9:0.0 10:0.955 11:0.434 12:0.886 13:0.955 14:0.365 15:0.258 
-1.0 0:2.0 1:0.125 2:0.667 3:0.348 4:0.424 5:0.139 6:0.0 7:0.0 8:0.0 9:0.0 10:0.85 11:0.424 12:0.85 13:0.863 14:0.0 15:0.327 
-1.0 0:2.0 1:0.133 2:0.667 3:0.348 4:0.419 5:0.148 6:1.0 7:0.333 8:0.0 9:0.0 10:0.897 11:0.607 12:0.846 13:0.91 14:0.298 15:0.176 
-1.0 0:2.0 1:0.118 2:0.667 3:0.365 4:0.417 5:0.066 6:0.0 7:0.0 8:0.0 9:0.0 10:0.909 11:0.601 12:0.864 13:0.92 14:0.066 15:0.066 
-1.0 0:2.0 1:0.111 2:0.667 3:0.348 4:0.413 5:0.193 6:0.0 7:0.0 8:0.0 9:0.0 10:0.864 11:0.545 12:0.864 13:0.875 14:0.229 15:0.193 
-1.0 0:2.0 1:0.105 2:0.667 3:0.333 4:0.41 5:0.2 6:0.0 7:0.0 8:0.0 9:0.0 10:0.872 11:0.543 12:0.872 13:0.883 14:0.333 15:0.33 
-1.0 0:2.0 1:0.111 2:0.667 3:0.348 4:0.409 5:0.537 6:1.0 7:0.333 8:0.0 9:0.0 10:0.952 11:0.437 12:0.881 13:0.952 14:0.297 15:0.247 
-1.0 0:2.0 1:0.111 2:0.667 3:0.348 4:0.401 5:0.302 6:0.0 7:0.0 8:0.0 9:0.0 10:0.907 11:0.602 12:0.86 13:0.919 14:0.444 15:0.295 
-1.0 0:2.0 1:0.105 2:0.667 3:0.348 4:0.397 5:0.46 6:1.0 7:0.333 8:1.0 9:0.333 10:0.911 11:0.6 12:0.867 13:0.922 14:0.0 15:0.241 
-1.0 0:2.0 1:0.111 2:0.667 3:0.333 4:0.397 5:0.459 6:1.0 7:0.333 8:0.0 9:0.0 10:0.86 11:0.547 12:0.86 13:0.872 14:0.378 15:0.281 
-1.0 0:2.0 1:0.118 2:0.667 3:0.32 4:0.397 5:0.186 6:0.0 7:0.0 8:0.0 9:0.0 10:0.952 11:0.437 12:0.881 13:0.952 14:0.298 15:0.252 
-1.0 0:2.0 1:0.111 2:0.667 3:0.309 4:0.382 5:0.078 6:0.0 7:0.0 8:0.0 9:0.0 10:0.87 11:0.599 12:0.87 13:0.88 14:0.365 15:0.218 
-1.0 0:2.0 1:0.133 2:0.667 3:0.309 4:0.36 5:0.084 6:0.0 7:0.0 8:0.0 9:0.0 10:0.846 11:0.551 12:0.846 13:0.859 14:0.272 15:0.218 
-1.0 0:2.0 1:0.095 2:0.667 3:0.298 4:0.34 5:0.245 6:0.0 7:0.0 8:0.0 9:0.0 10:0.92 11:0.596 12:0.88 13:0.93 14:0.204 15:0.272 
-1.0 0:2.0 1:0.182 2:0.4 3:0.354 4:0.145 5:0.295 6:2.0 7:0.4 8:2.0 9:0.4 10:0.769 11:0.538 12:0.769 13:0.769 14:0.091 15:0.081 
-1.0 0:2.0 1:0.111 2:0.4 3:0.333 4:0.14 5:0.381 6:2.0 7:0.4 8:2.0 9:0.4 10:0.775 11:0.506 12:0.775 13:0.8 14:0.231 15:0.27 
-1.0 0:2.0 1:0.125 2:0.4 3:0.354 4:0.135 5:0.274 6:2.0 7:0.4 8:2.0 9:0.4 10:0.818 11:0.513 12:0.818 13:0.818 14:0.25 15:0.134 
-1.0 0:2.0 1:0.133 2:0.4 3:0.333 4:0.134 5:0.458 6:2.0 7:0.4 8:2.0 9:0.4 10:0.813 11:0.516 12:0.813 13:0.813 14:0.354 15:0.289 
-1.0 0:2.0 1:0.105 2:0.4 3:0.316 4:0.13 5:0.409 6:2.0 7:0.4 8:2.0 9:0.4 10:0.85 11:0.506 12:0.85 13:0.85 14:0.302 15:0.224 
-1.0 0:2.0 1:0.095 2:0.4 3:0.302 4:0.121 5:0.209 6:2.0 7:0.4 8:2.0 9:0.4 10:0.851 11:0.486 12:0.851 13:0.851 14:0.312 15:0.276 
-1.0 0:2.0 1:0.111 2:0.4 3:0.302 4:0.12 5:0.204 6:1.0 7:0.2 8:1.0 9:0.2 10:0.829 11:0.495 12:0.829 13:0.829 14:0.129 15:0.102 
-1.0 0:2.0 1:0.095 2:0.4 3:0.289 4:0.115 5:0.389 6:3.0 7:0.6 8:2.0 9:0.4 10:0.818 11:0.498 12:0.818 13:0.83 14:0.333 15:0.236 
-1.0 0:2.0 1:0.095 2:0.4 3:0.277 4:0.107 5:0.369 6:2.0 7:0.4 8:2.0 9:0.4 10:0.837 11:0.455 12:0.837 13:0.837 14:0.104 15:0.32 
-1.0 0:2.0 1:0.087 2:0.4 3:0.277 4:0.101 5:0.413 6:3.0 7:0.6 8:2.0 9:0.4 10:0.878 11:0.524 12:0.878 13:0.878 14:0.367 15:0.355 
-1.0 0:2.0 1:0.133 2:0.667 3:0.385 4:0.307 5:0.259 6:1.0 7:0.333 8:1.0 9:0.333 10:0.889 11:0.537 12:0.889 13:0.875 14:0.5 15:0.387 
-1.0 0:2.0 1:0.222 2:0.667 3:0.471 4:0.492 5:0.033 6:0.0 7:0.0 8:0.0 9:0.0 10:0.833 11:0.579 12:0.833 13:0.854 14:0.0 15:0.0 
-1.0 0:2.0 1:0.111 2:0.667 3:0.32 4:0.32 5:0.051 6:0.0 7:0.0 8:0.0 9:0.0 10:0.886 11:0.609 12:0.886 13:0.886 14:0.192 15:0.107 
-1.0 0:2.0 1:0.118 2:1.0 3:0.378 4:0.395 5:0.177 6:0.0 7:0.0 8:0.0 9:0.0 10:0.936 11:0.403 12:0.936 13:0.947 14:0.25 15:0.378 
-1.0 0:2.0 1:0.087 2:0.5 3:0.32 4:0.32 5:0.602 6:0.0 7:0.0 8:0.0 9:0.0 10:0.902 11:0.399 12:0.902 13:0.902 14:0.272 15:0.361 
-1.0 0:2.0 1:0.133 2:0.5 3:0.378 4:0.321 5:0.2 6:1.0 7:0.25 8:1.0 9:0.25 10:0.917 11:0.478 12:0.889 13:0.917 14:0.0 15:0.0 
-1.0 0:2.0 1:0.143 2:0.5 3:0.378 4:0.311 5:0.236 6:1.0 7:0.25 8:1.0 9:0.25 10:0.818 11:0.538 12:0.818 13:0.833 14:0.516 15:0.469 
-1.0 0:2.0 1:0.111 2:0.5 3:0.354 4:0.279 5:0.365 6:0.0 7:0.0 8:0.0 9:0.0 10:0.842 11:0.53 12:0.842 13:0.855 14:0.0 15:0.542 
-1.0 0:2.0 1:0.105 2:0.5 3:0.316 4:0.269 5:0.144 6:1.0 7:0.25 8:1.0 9:0.25 10:0.872 11:0.52 12:0.872 13:0.883 14:0.144 15:0.107 
-0.4912853540820545 0:2.0 1:0.105 2:0.5 3:0.316 4:0.264 5:0.1 6:1.0 7:0.25 8:0.0 9:0.0 10:0.86 11:0.524 12:0.86 13:0.872 14:0.0 15:0.0 
-1.0 0:2.0 1:0.105 2:0.5 3:0.316 4:0.259 5:0.246 6:1.0 7:0.25 8:1.0 9:0.25 10:0.917 11:0.52 12:0.917 13:0.917 14:0.0 15:0.147 
-1.0 0:2.0 1:0.087 2:0.5 3:0.316 4:0.255 5:0.227 6:1.0 7:0.25 8:1.0 9:0.25 10:0.88 11:0.518 12:0.88 13:0.89 14:0.354 15:0.343 
-1.0 0:2.0 1:0.087 2:0.5 3:0.316 4:0.254 5:0.311 6:1.0 7:0.25 8:1.0 9:0.25 10:0.885 11:0.516 12:0.885 13:0.894 14:0.169 15:0.296 
-1.0 0:2.0 1:0.1 2:0.5 3:0.316 4:0.247 5:0.056 6:1.0 7:0.25 8:1.0 9:0.25 10:0.854 11:0.527 12:0.854 13:0.866 14:0.0 15:0.0 
-1.0 0:2.0 1:0.087 2:0.5 3:0.302 4:0.235 5:0.076 6:1.0 7:0.25 8:1.0 9:0.25 10:0.885 11:0.516 12:0.885 13:0.894 14:0.0 15:0.14 
-1.0 0:2.0 1:0.095 2:0.5 3:0.267 4:0.225 5:0.329 6:1.0 7:0.25 8:0.0 9:0.0 10:0.936 11:0.465 12:0.915 13:0.936 14:0.258 15:0.177 
-1.0 0:2.0 1:0.083 2:0.5 3:0.258 4:0.2 5:0.152 6:1.0 7:0.25 8:1.0 9:0.25 10:0.88 11:0.453 12:0.88 13:0.89 14:0.137 15:0.125 
-1.0 0:3.0 1:0.176 2:0.6 3:0.474 4:0.419 5:0.486 6:1.0 7:0.2 8:0.0 9:0.0 10:0.816 11:0.569 12:0.816 13:0.829 14:0.548 15:0.286 
-1.0 0:2.0 1:0.095 2:0.4 3:0.3 4:0.255 5:0.193 6:1.0 7:0.2 8:1.0 9:0.2 10:0.854 11:0.466 12:0.854 13:0.865 14:0.244 15:0.208 
-1.0 0:2.0 1:0.133 2:0.4 3:0.298 4:0.144 5:0.225 6:2.0 7:0.4 8:1.0 9:0.2 10:0.806 11:0.526 12:0.806 13:0.79 14:0.239 15:0.279 
-1.0 0:2.0 1:0.095 2:0.4 3:0.248 4:0.125 5:0.291 6:2.0 7:0.4 8:1.0 9:0.2 10:0.822 11:0.577 12:0.8 13:0.822 14:0.258 15:0.434 
-1.0 0:2.0 1:0.111 2:0.4 3:0.239 4:0.114 5:0.034 6:2.0 7:0.4 8:0.0 9:0.0 10:0.806 11:0.466 12:0.778 13:0.819 14:0.0 15:0.047 
-1.0 0:2.0 1:0.1 2:0.4 3:0.224 4:0.105 5:0.158 6:2.0 7:0.4 8:1.0 9:0.2 10:0.833 11:0.579 12:0.833 13:0.833 14:0.0 15:0.071 
-1.0 0:2.0 1:0.286 2:0.5 3:0.447 4:0.447 5:0.076 6:0.0 7:0.0 8:0.0 9:0.0 10:0.538 11:0.682 12:0.538 13:0.577 14:0.146 15:0.115 
-1.0 0:1.0 1:0.077 2:1.0 3:0.354 4:0.229 5:0.0 6:0.0 7:0.0 8:0.0 9:0.0 10:0.925 11:0.692 12:0.925 13:0.925 14:0.0 15:0.0 
-1.0 0:2.0 1:0.143 2:0.5 3:0.378 4:0.435 5:0.226 6:0.0 7:0.0 8:0.0 9:0.0 10:0.788 11:0.536 12:0.788 13:0.803 14:0.236 15:0.392 
-1.0 0:2.0 1:0.167 2:0.5 3:0.333 4:0.377 5:0.237 6:0.0 7:0.0 8:0.0 9:0.0 10:0.852 11:0.599 12:0.741 13:0.87 14:0.183 15:0.263 
-1.0 0:2.0 1:0.286 2:0.4 3:0.707 4:0.62 5:0.727 6:1.0 7:0.2 8:1.0 9:0.2 10:0.75 11:0.528 12:0.75 13:0.75 14:0.433 15:0.615 
-1.0 0:2.0 1:0.133 2:0.4 3:0.632 4:0.542 5:0.834 6:1.0 7:0.2 8:1.0 9:0.2 10:0.742 11:0.569 12:0.742 13:0.742 14:0.354 15:0.566 
-1.0 0:2.0 1:0.125 2:0.4 3:0.535 4:0.477 5:0.632 6:1.0 7:0.2 8:1.0 9:0.2 10:0.824 11:0.549 12:0.824 13:0.824 14:0.0 15:0.0 
-1.0 0:2.0 1:0.118 2:0.4 3:0.5 4:0.439 5:0.673 6:1.0 7:0.2 8:1.0 9:0.2 10:0.806 11:0.46 12:0.806 13:0.806 14:0.0 15:0.0 
-1.0 0:2.0 1:0.154 2:0.4 3:0.5 4:0.428 5:0.663 6:1.0 7:0.2 8:1.0 9:0.2 10:0.769 11:0.536 12:0.769 13:0.769 14:0.327 15:0.456 
-1.0 0:2.0 1:0.095 2:1.0 3:0.343 4:0.33 5:0.105 6:1.0 7:0.5 8:0.0 9:0.0 10:0.887 11:0.386 12:0.887 13:0.895 14:0.0 15:0.0 
-1.0 0:3.0 1:0.167 2:0.429 3:0.463 4:0.558 5:0.0 6:0.0 7:0.0 8:0.0 9:0.0 10:0.656 11:0.542 12:0.656 13:0.656 14:0.0 15:0.0 
-1.0 0:3.0 1:0.136 2:0.429 3:0.433 4:0.517 5:0.48 6:1.0 7:0.143 8:0.0 9:0.0 10:0.761 11:0.466 12:0.739 13:0.761 14:0.0 15:0.453 
-1.0 0:2.0 1:0.111 2:0.667 3:0.385 4:0.464 5:0.47 6:0.0 7:0.0 8:0.0 9:0.0 10:0.892 11:0.462 12:0.892 13:0.892 14:0.0 15:0.178 
-1.0 0:2.0 1:0.111 2:0.667 3:0.385 4:0.43 5:0.2 6:0.0 7:0.0 8:0.0 9:0.0 10:0.892 11:0.508 12:0.892 13:0.892 14:0.265 15:0.156 
-1.0 0:2.0 1:0.091 2:0.667 3:0.32 4:0.358 5:0.464 6:0.0 7:0.0 8:0.0 9:0.0 10:0.922 11:0.498 12:0.922 13:0.922 14:0.0 15:0.402 
-1.0 0:2.0 1:0.1 2:0.667 3:0.298 4:0.343 5:0.326 6:1.0 7:0.333 8:0.0 9:0.0 10:0.911 11:0.459 12:0.911 13:0.911 14:0.488 15:0.566 
-1.0 0:2.0 1:0.125 2:0.4 3:0.283 4:0.194 5:0.27 6:1.0 7:0.2 8:1.0 9:0.2 10:0.811 11:0.496 12:0.811 13:0.811 14:0.217 15:0.29 
-1.0 0:2.0 1:0.1 2:0.4 3:0.27 4:0.171 5:0.282 6:1.0 7:0.2 8:1.0 9:0.2 10:0.87 11:0.436 12:0.87 13:0.87 14:0.258 15:0.257 
-1.0 0:2.0 1:0.095 2:0.4 3:0.258 4:0.156 5:0.318 6:1.0 7:0.2 8:1.0 9:0.2 10:0.833 11:0.611 12:0.833 13:0.833 14:0.0 15:0.178 
-1.0 0:2.0 1:0.105 2:0.286 3:0.433 4:0.38 5:0.369 6:1.0 7:0.143 8:1.0 9:0.143 10:0.743 11:0.521 12:0.714 13:0.743 14:0.378 15:0.408 
-1.0 0:2.0 1:0.095 2:0.286 3:0.408 4:0.342 5:0.363 6:1.0 7:0.143 8:0.0 9:0.0 10:0.732 11:0.505 12:0.732 13:0.732 14:0.316 15:0.4 
-1.0 0:2.0 1:0.167 2:0.286 3:0.408 4:0.341 5:0.519 6:1.0 7:0.143 8:1.0 9:0.143 10:0.719 11:0.523 12:0.719 13:0.719 14:0.0 15:0.0 
-1.0 0:2.0 1:0.133 2:0.286 3:0.354 4:0.278 5:0.231 6:1.0 7:0.143 8:1.0 9:0.143 10:0.76 11:0.552 12:0.68 13:0.76 14:0.302 15:0.196 
-1.0 0:2.0 1:0.105 2:0.286 3:0.354 4:0.269 5:0.399 6:1.0 7:0.143 8:1.0 9:0.143 10:0.818 11:0.52 12:0.758 13:0.818 14:0.316 15:0.324 
-1.0 0:2.0 1:0.111 2:0.286 3:0.316 4:0.26 5:0.216 6:1.0 7:0.143 8:1.0 9:0.143 10:0.714 11:0.521 12:0.714 13:0.714 14:0.318 15:0.281 
-1.0 0:2.0 1:0.105 2:0.286 3:0.316 4:0.239 5:0.46 6:1.0 7:0.143 8:0.0 9:0.0 10:0.743 11:0.614 12:0.714 13:0.743 14:0.338 15:0.283 
-1.0 0:2.0 1:0.1 2:0.286 3:0.277 4:0.22 5:0.595 6:1.0 7:0.143 8:0.0 9:0.0 10:0.773 11:0.494 12:0.773 13:0.773 14:0.426 15:0.492 
-1.0 0:2.0 1:0.095 2:0.286 3:0.277 4:0.214 5:0.421 6:1.0 7:0.143 8:1.0 9:0.143 10:0.829 11:0.5 12:0.805 13:0.841 14:0.408 15:0.258 
-1.0 0:2.0 1:0.087 2:0.286 3:0.277 4:0.213 5:0.58 6:1.0 7:0.143 8:1.0 9:0.143 10:0.792 11:0.515 12:0.792 13:0.802 14:0.404 15:0.42 
-1.0 0:2.0 1:0.133 2:0.333 3:0.338 4:0.254 5:0.116 6:1.0 7:0.167 8:1.0 9:0.167 10:0.68 11:0.618 12:0.68 13:0.66 14:0.105 15:0.172 
-1.0 0:2.0 1:0.125 2:0.333 3:0.338 4:0.249 5:0.105 6:1.0 7:0.167 8:1.0 9:0.167 10:0.724 11:0.561 12:0.724 13:0.707 14:0.115 15:0.069 
-1.0 0:2.0 1:0.143 2:0.333 3:0.298 4:0.206 5:0.032 6:1.0 7:0.167 8:1.0 9:0.167 10:0.68 11:0.618 12:0.68 13:0.66 14:0.0 15:0.0 
-1.0 0:2.0 1:0.167 2:0.667 3:0.471 4:0.38 5:0.141 6:1.0 7:0.333 8:0.0 9:0.0 10:0.833 11:0.444 12:0.833 13:0.833 14:0.385 15:0.252 
-1.0 0:2.0 1:0.1 2:0.667 3:0.408 4:0.327 5:0.192 6:0.0 7:0.0 8:0.0 9:0.0 10:0.917 11:0.417 12:0.917 13:0.917 14:0.289 15:0.27 
-1.0 0:2.0 1:0.111 2:1.0 3:0.471 4:0.511 5:0.133 6:0.0 7:0.0 8:0.0 9:0.0 10:0.911 11:0.613 12:0.911 13:0.922 14:0.471 15:0.333 
-1.0 0:2.0 1:0.133 2:1.0 3:0.471 4:0.491 5:0.3 6:0.0 7:0.0 8:0.0 9:0.0 10:0.882 11:0.426 12:0.882 13:0.897 14:0.216 15:0.191 
-1.0 0:2.0 1:0.118 2:1.0 3:0.447 4:0.463 5:0.255 6:0.0 7:0.0 8:0.0 9:0.0 10:0.918 11:0.611 12:0.918 13:0.929 14:0.0 15:0.136 
-1.0 0:2.0 1:0.143 2:1.0 3:0.426 4:0.43 5:0.48 6:0.0 7:0.0 8:0.0 9:0.0 10:0.892 11:0.426 12:0.892 13:0.905 14:0.0 15:0.0 
-1.0 0:2.0 1:0.105 2:1.0 3:0.392 4:0.415 5:0.365 6:0.0 7:0.0 8:0.0 9:0.0 10:0.92 11:0.61 12:0.92 13:0.93 14:0.365 15:0.365 
-1.0 0:2.0 1:0.118 2:1.0 3:0.378 4:0.411 5:0.192 6:0.0 7:0.0 8:0.0 9:0.0 10:0.913 11:0.612 12:0.913 13:0.924 14:0.0 15:0.0 
-1.0 0:2.0 1:0.1 2:1.0 3:0.378 4:0.404 5:0.07 6:0.0 7:0.0 8:0.0 9:0.0 10:0.918 11:0.423 12:0.918 13:0.929 14:0.0 15:0.0 
-1.0 0:2.0 1:0.143 2:1.0 3:0.354 4:0.377 5:0.192 6:0.0 7:0.0 8:0.0 9:0.0 10:0.897 11:0.425 12:0.897 13:0.91 14:0.0 15:0.0 
-1.0 0:2.0 1:0.091 2:1.0 3:0.354 4:0.369 5:0.036 6:0.0 7:0.0 8:0.0 9:0.0 10:0.93 11:0.345 12:0.93 13:0.939 14:0.0 15:0.0 
-1.0 0:2.0 1:0.095 2:1.0 3:0.343 4:0.359 5:0.176 6:0.0 7:0.0 8:0.0 9:0.0 10:0.935 11:0.605 12:0.935 13:0.944 14:0.0 15:0.0 
-1.0 0:2.0 1:0.154 2:0.667 3:0.436 4:0.459 5:0.119 6:0.0 7:0.0 8:0.0 9:0.0 10:0.833 11:0.627 12:0.833 13:0.817 14:0.0 15:0.0 
-1.0 0:2.0 1:0.105 2:0.667 3:0.385 4:0.437 5:0.141 6:0.0 7:0.0 8:0.0 9:0.0 10:0.884 11:0.477 12:0.884 13:0.884 14:0.0 15:0.0 
-1.0 0:2.0 1:0.091 2:0.667 3:0.408 4:0.424 5:0.102 6:0.0 7:0.0 8:0.0 9:0.0 10:0.902 11:0.604 12:0.902 13:0.892 14:0.0 15:0.0 
-1.0 0:2.0 1:0.105 2:0.667 3:0.42 4:0.421 5:0.139 6:0.0 7:0.0 8:0.0 9:0.0 10:0.902 11:0.385 12:0.902 13:0.902 14:0.0 15:0.0 
-1.0 0:2.0 1:0.105 2:0.667 3:0.385 4:0.417 5:0.108 6:0.0 7:0.0 8:0.0 9:0.0 10:0.889 11:0.475 12:0.889 13:0.889 14:0.385 15:0.272 
-1.0 0:2.0 1:0.133 2:0.667 3:0.385 4:0.409 5:0.154 6:0.0 7:0.0 8:0.0 9:0.0 10:0.868 11:0.446 12:0.868 13:0.868 14:0.154 15:0.154 
-1.0 0:2.0 1:0.125 2:0.667 3:0.385 4:0.401 5:0.245 6:0.0 7:0.0 8:0.0 9:0.0 10:0.853 11:0.448 12:0.853 13:0.853 14:0.176 15:0.156 
-1.0 0:2.0 1:0.167 2:0.667 3:0.385 4:0.394 5:0.59 6:0.0 7:0.0 8:0.0 9:0.0 10:0.839 11:0.45 12:0.839 13:0.839 14:0.265 15:0.263 
-1.0 0:2.0 1:0.125 2:0.667 3:0.385 4:0.392 5:0.403 6:0.0 7:0.0 8:0.0 9:0.0 10:0.857 11:0.486 12:0.857 13:0.857 14:0.403 15:0.403 
-1.0 0:2.0 1:0.167 2:0.667 3:0.385 4:0.39 5:0.585 6:0.0 7:0.0 8:0.0 9:0.0 10:0.828 11:0.629 12:0.828 13:0.81 14:0.356 15:0.455 
-1.0 0:2.0 1:0.118 2:0.667 3:0.365 4:0.39 5:0.296 6:0.0 7:0.0 8:0.0 9:0.0 10:0.861 11:0.618 12:0.861 13:0.847 14:0.386 15:0.417 
-1.0 0:2.0 1:0.111 2:0.667 3:0.385 4:0.385 5:0.232 6:0.0 7:0.0 8:0.0 9:0.0 10:0.878 11:0.445 12:0.878 13:0.878 14:0.238 15:0.162 
-1.0 0:2.0 1:0.118 2:0.667 3:0.365 4:0.382 5:0.349 6:0.0 7:0.0 8:0.0 9:0.0 10:0.884 11:0.477 12:0.884 13:0.884 14:0.207 15:0.352 
-1.0 0:2.0 1:0.1 2:0.667 3:0.348 4:0.379 5:0.055 6:0.0 7:0.0 8:0.0 9:0.0 10:0.896 11:0.473 12:0.896 13:0.896 14:0.0 15:0.19 
-1.0 0:2.0 1:0.111 2:0.667 3:0.365 4:0.378 5:0.208 6:0.0 7:0.0 8:0.0 9:0.0 10:0.898 11:0.472 12:0.898 13:0.898 14:0.0 15:0.111 
-1.0 0:2.0 1:0.1 2:0.667 3:0.365 4:0.372 5:0.231 6:0.0 7:0.0 8:0.0 9:0.0 10:0.884 11:0.477 12:0.884 13:0.884 14:0.0 15:0.0 
-1.0 0:2.0 1:0.133 2:0.667 3:0.365 4:0.365 5:0.237 6:0.0 7:0.0 8:0.0 9:0.0 10:0.853 11:0.62 12:0.853 13:0.838 14:0.218 15:0.311 
-1.0 0:2.0 1:0.105 2:0.667 3:0.333 4:0.362 5:0.228 6:0.0 7:0.0 8:0.0 9:0.0 10:0.878 11:0.612 12:0.878 13:0.866 14:0.0 15:0.0 
-1.0 0:2.0 1:0.154 2:0.667 3:0.348 4:0.356 5:0.087 6:0.0 7:0.0 8:0.0 9:0.0 10:0.821 11:0.452 12:0.821 13:0.821 14:0.436 15:0.174 
-1.0 0:2.0 1:0.133 2:0.667 3:0.348 4:0.351 5:0.392 6:0.0 7:0.0 8:0.0 9:0.0 10:0.865 11:0.447 12:0.865 13:0.865 14:0.0 15:0.0 
-1.0 0:2.0 1:0.1 2:0.667 3:0.32 4:0.339 5:0.298 6:0.0 7:0.0 8:0.0 9:0.0 10:0.9 11:0.471 12:0.9 13:0.9 14:0.298 15:0.298 
-1.0 0:2.0 1:0.111 2:0.667 3:0.309 4:0.336 5:0.157 6:0.0 7:0.0 8:0.0 9:0.0 10:0.891 11:0.474 12:0.891 13:0.891 14:0.0 15:0.0 
-1.0 0:2.0 1:0.105 2:0.667 3:0.32 4:0.331 5:0.1 6:0.0 7:0.0 8:0.0 9:0.0 10:0.881 11:0.478 12:0.881 13:0.881 14:0.0 15:0.0 
-1.0 0:2.0 1:0.118 2:0.667 3:0.32 4:0.32 5:0.45 6:0.0 7:0.0 8:0.0 9:0.0 10:0.878 11:0.479 12:0.878 13:0.878 14:0.0 15:0.195 
-1.0 0:2.0 1:0.125 2:0.667 3:0.298 4:0.308 5:0.658 6:0.0 7:0.0 8:0.0 9:0.0 10:0.884 11:0.61 12:0.884 13:0.872 14:0.39 15:0.476 
-0.16192106076293 0:2.0 1:0.091 2:0.667 3:0.28 4:0.293 5:0.143 6:0.0 7:0.0 8:0.0 9:0.0 10:0.919 11:0.465 12:0.919 13:0.919 14:0.0 15:0.0 
-1.0 0:2.0 1:0.154 2:0.667 3:0.436 4:0.459 5:0.119 6:0.0 7:0.0 8:0.0 9:0.0 10:0.833 11:0.574 12:0.833 13:0.817 14:0.0 15:0.0 
-1.0 0:2.0 1:0.105 2:0.667 3:0.385 4:0.437 5:0.141 6:0.0 7:0.0 8:0.0 9:0.0 10:0.884 11:0.424 12:0.884 13:0.884 14:0.0 15:0.0 
-1.0 0:2.0 1:0.091 2:0.667 3:0.408 4:0.424 5:0.102 6:0.0 7:0.0 8:0.0 9:0.0 10:0.902 11:0.551 12:0.902 13:0.892 14:0.0 15:0.0 
-1.0 0:2.0 1:0.105 2:0.667 3:0.385 4:0.417 5:0.108 6:0.0 7:0.0 8:0.0 9:0.0 10:0.889 11:0.422 12:0.889 13:0.889 14:0.385 15:0.272 
-1.0 0:2.0 1:0.125 2:0.667 3:0.385 4:0.411 5:0.249 6:0.0 7:0.0 8:0.0 9:0.0 10:0.875 11:0.427 12:0.875 13:0.875 14:0.252 15:0.222 
-1.0 0:2.0 1:0.133 2:0.667 3:0.385 4:0.409 5:0.154 6:0.0 7:0.0 8:0.0 9:0.0 10:0.868 11:0.425 12:0.868 13:0.868 14:0.154 15:0.154 
-1.0 0:2.0 1:0.125 2:0.667 3:0.385 4:0.401 5:0.245 6:0.0 7:0.0 8:0.0 9:0.0 10:0.853 11:0.427 12:0.853 13:0.853 14:0.176 15:0.156 
-1.0 0:2.0 1:0.111 2:0.667 3:0.385 4:0.4 5:0.22 6:0.0 7:0.0 8:0.0 9:0.0 10:0.868 11:0.429 12:0.868 13:0.868 14:0.154 15:0.109 
