svm_type c_svc
kernel_type rbf
gamma 0.022727272727272728
nr_class 2
total_sv 8522
rho -0.24766384920454165
label 1 -1
nr_sv 4012 4510
SV
1.1 0:0.013 1:0.018 2:0.133 3:0.03 4:0.058 5:0.055 6:0.0 7:0.0 8:0.0 9:22.0 10:1.0 11:22.0 12:0.0 13:42.0 14:1.0 15:1.0 16:40.0 22:1.0 
1.1 0:0.071 1:0.096 2:0.209 3:0.033 4:0.037 5:0.062 6:0.0 7:0.0 8:0.0 9:30.0 10:0.938 11:30.0 12:0.363 13:41.0 14:0.906 15:0.938 16:43.0 24:1.0 
1.1 0:0.104 1:0.116 2:0.287 3:0.302 4:0.313 5:0.414 6:0.0 7:0.0 8:0.0 9:19.0 10:1.0 11:19.0 12:0.0 13:36.0 14:1.0 15:1.0 16:34.0 23:1.0 
1.1 0:0.084 1:0.072 2:0.081 3:0.0 4:0.072 5:0.07 6:0.0 7:0.0 8:0.0 9:24.0 10:1.0 11:24.0 12:0.361 13:46.0 14:0.958 15:1.0 16:46.0 23:1.0 
1.1 0:0.036 1:0.067 2:0.084 3:0.031 4:0.024 5:0.031 6:0.0 7:0.0 8:0.0 9:15.0 10:1.0 11:15.0 12:0.0 13:27.0 14:1.0 15:1.0 16:25.0 22:1.0 
0.30724525113830575 0:0.168 1:0.191 2:0.273 3:0.0 4:0.046 5:0.076 6:0.082 7:1.0 8:0.042 9:29.0 10:0.967 11:29.0 12:0.393 13:44.0 14:0.933 15:0.967 16:46.0 22:1.0 
1.1 0:0.104 1:0.171 2:0.103 3:0.0 4:0.068 5:0.074 6:0.0 7:0.0 8:0.0 9:18.0 10:1.0 11:18.0 12:0.0 13:28.0 14:1.0 15:1.0 16:26.0 25:1.0 
1.1 0:0.042 1:0.067 2:0.075 3:0.0 4:0.0 5:0.097 6:0.094 7:1.0 8:0.045 9:28.0 10:0.933 11:28.0 12:0.4 13:39.0 14:0.9 15:0.917 16:41.0 24:1.0 
1.1 0:0.043 1:0.045 2:0.251 3:0.085 4:0.18 5:0.165 6:0.0 7:0.0 8:0.0 9:17.0 10:1.0 11:17.0 12:0.0 13:32.0 14:1.0 15:1.0 16:30.0 22:1.0 
1.1 0:0.016 1:0.027 2:0.121 3:0.0 4:0.068 5:0.077 6:0.075 7:1.0 8:0.048 9:33.0 10:0.943 11:33.0 12:0.383 13:53.0 14:0.943 15:0.929 16:53.0 24:1.0 
1.1 0:0.0 1:0.0 2:0.119 3:0.0 4:0.0 5:0.009 6:0.0 7:0.0 8:0.0 9:18.0 10:1.0 11:18.0 12:0.0 13:33.0 14:1.0 15:1.0 16:31.0 22:1.0 
1.1 0:0.048 1:0.079 2:0.061 3:0.0 4:0.0 5:0.0 6:0.0 7:0.0 8:0.0 9:21.0 10:1.0 11:21.0 12:0.0 13:32.0 14:1.0 15:1.0 16:30.0 24:1.0 
1.1 0:0.247 1:0.255 2:0.123 3:0.118 4:0.109 5:0.134 6:0.0 7:0.0 8:0.0 9:23.0 10:1.0 11:23.0 12:0.0 13:43.0 14:0.957 15:1.0 16:43.0 23:1.0 
1.1 0:0.123 1:0.146 2:0.454 3:0.0 4:0.031 5:0.048 6:0.0 7:0.0 8:0.0 9:23.0 10:0.958 11:23.0 12:0.325 13:31.0 14:0.875 15:0.958 16:33.0 24:1.0 
1.1 0:0.0 1:0.0 2:0.094 3:0.021 4:0.043 5:0.043 6:0.0 7:0.0 8:0.0 9:24.0 10:1.0 11:24.0 12:0.0 13:39.0 14:1.0 15:1.0 16:37.0 20:1.0 
1.1 0:0.006 1:0.008 2:0.058 3:0.0 4:0.047 5:0.062 6:0.0 7:0.0 8:0.0 9:23.0 10:1.0 11:23.0 12:0.367 13:38.0 14:0.957 15:1.0 16:38.0 44:1.0 
0.3787124106131399 0:0.081 1:0.098 2:0.574 3:0.083 4:0.153 5:0.222 6:0.0 7:0.0 8:0.0 9:19.0 10:0.905 11:19.0 12:0.41 13:32.0 14:0.905 15:0.929 16:34.0 18:1.0 
1.1 0:0.093 1:0.135 2:0.204 3:0.124 4:0.103 5:0.05 6:0.126 7:1.0 8:0.067 9:27.0 10:0.964 11:27.0 12:0.488 13:40.0 14:0.786 15:0.964 16:44.0 23:1.0 
1.1 0:0.047 1:0.049 2:0.211 3:0.061 4:0.063 5:0.092 6:0.101 7:1.0 8:0.053 9:23.0 10:0.92 11:23.0 12:0.419 13:41.0 14:0.88 15:0.92 16:43.0 22:1.0 
1.1 0:0.159 1:0.169 2:0.145 3:0.0 4:0.0 5:0.081 6:0.0 7:0.0 8:0.0 9:21.0 10:0.955 11:21.0 12:0.236 13:37.0 14:0.955 15:0.955 16:37.0 22:1.0 
1.1 0:0.117 1:0.118 2:0.078 3:0.129 4:0.06 5:0.039 6:0.0 7:0.0 8:0.0 9:18.0 10:1.0 11:18.0 12:0.37 13:34.0 14:0.944 15:1.0 16:34.0 17:1.0 
1.1 0:0.02 1:0.019 2:0.051 3:0.0 4:0.0 5:0.0 6:0.0 7:0.0 8:0.0 9:30.0 10:1.0 11:30.0 12:0.0 13:43.0 14:1.0 15:1.0 16:41.0 23:1.0 
1.1 0:0.099 1:0.141 2:0.233 3:0.0 4:0.072 5:0.06 6:0.0 7:0.0 8:0.0 9:12.0 10:1.0 11:12.0 12:0.394 13:20.0 14:0.917 15:1.0 16:20.0 40:1.0 
1.1 0:0.078 1:0.133 2:0.193 3:0.044 4:0.018 5:0.016 6:0.0 7:0.0 8:0.0 9:15.0 10:1.0 11:15.0 12:0.0 13:29.0 14:1.0 15:1.0 16:27.0 20:1.0 
1.1 0:0.062 1:0.131 2:0.246 3:0.102 4:0.279 5:0.241 6:0.0 7:0.0 8:0.0 9:29.0 10:0.967 11:29.0 12:0.378 13:54.0 14:0.9 15:0.967 16:58.0 22:1.0 
1.1 0:0.181 1:0.182 2:0.147 3:0.0 4:0.054 5:0.047 6:0.0 7:0.0 8:0.0 9:24.0 10:0.923 11:24.0 12:0.427 13:38.0 14:0.885 15:0.904 16:40.0 23:1.0 
1.1 0:0.166 1:0.307 2:0.1 3:0.0 4:0.025 5:0.011 6:0.0 7:0.0 8:0.0 9:24.0 10:1.0 11:24.0 12:0.0 13:39.0 14:1.0 15:1.0 16:37.0 22:1.0 
1.1 0:0.708 1:0.814 2:0.539 3:0.029 4:0.017 5:0.024 6:0.0 7:0.0 8:0.0 9:35.0 10:0.972 11:35.0 12:0.284 13:61.0 14:0.944 15:0.972 16:63.0 20:1.0 
1.1 0:0.001 1:0.002 2:0.072 3:0.0 4:0.0 5:0.012 6:0.0 7:0.0 8:0.0 9:24.0 10:1.0 11:24.0 12:0.0 13:42.0 14:0.958 15:1.0 16:42.0 21:1.0 
1.1 0:0.182 1:0.352 2:0.24 3:0.0 4:0.082 5:0.193 6:0.0 7:0.0 8:0.0 9:28.0 10:0.966 11:28.0 12:0.361 13:47.0 14:0.966 15:0.966 16:47.0 27:1.0 
1.1 0:0.111 1:0.158 2:0.148 3:0.04 4:0.033 5:0.043 6:0.0 7:0.0 8:0.0 9:23.0 10:1.0 11:23.0 12:0.0 13:45.0 14:1.0 15:1.0 16:43.0 20:1.0 
1.1 0:0.02 1:0.045 2:0.219 3:0.06 4:0.033 5:0.02 6:0.0 7:0.0 8:0.0 9:28.0 10:0.966 11:28.0 12:0.388 13:46.0 14:0.931 15:0.966 16:48.0 22:1.0 
1.1 0:0.023 1:0.043 2:0.099 3:0.243 4:0.271 5:0.2 6:0.0 7:0.0 8:0.0 9:23.0 10:1.0 11:23.0 12:0.0 13:37.0 14:1.0 15:1.0 16:35.0 19:1.0 
1.1 0:0.003 1:0.006 2:0.196 3:0.021 4:0.033 5:0.056 6:0.0 7:0.0 8:0.0 9:21.0 10:1.0 11:21.0 12:0.0 13:39.0 14:0.952 15:1.0 16:39.0 17:1.0 
1.1 0:0.14 1:0.133 2:0.289 3:0.348 4:0.21 5:0.107 6:0.0 7:0.0 8:0.0 9:21.0 10:1.0 11:21.0 12:0.0 13:34.0 14:0.952 15:1.0 16:34.0 17:1.0 
1.1 0:0.043 1:0.043 2:0.1 3:0.378 4:0.297 5:0.259 6:0.0 7:0.0 8:0.0 9:22.0 10:0.957 11:22.0 12:0.233 13:39.0 14:0.957 15:0.957 16:39.0 17:1.0 
1.1 0:0.08 1:0.136 2:0.211 3:0.0 4:0.0 5:0.0 6:0.085 7:1.0 8:0.043 9:21.0 10:0.913 11:21.0 12:0.396 13:39.0 14:0.913 15:0.935 16:41.0 22:1.0 
1.1 0:0.155 1:0.219 2:0.287 3:0.0 4:0.049 5:0.085 6:0.0 7:0.0 8:0.0 9:16.0 10:1.0 11:16.0 12:0.0 13:29.0 14:1.0 15:1.0 16:27.0 24:1.0 
1.1 0:0.146 1:0.213 2:0.132 3:0.0 4:0.0 5:0.0 6:0.095 7:1.0 8:0.05 9:25.0 10:1.0 11:25.0 12:0.359 13:43.0 14:0.88 15:1.0 16:45.0 20:1.0 
1.1 0:0.02 1:0.024 2:0.112 3:0.048 4:0.076 5:0.161 6:0.101 7:1.0 8:0.053 9:28.0 10:0.933 11:28.0 12:0.502 13:38.0 14:0.767 15:0.95 16:42.0 23:1.0 
1.1 0:0.032 1:0.042 2:0.182 3:0.0 4:0.026 5:0.121 6:0.105 7:1.0 8:0.056 9:22.0 10:0.957 11:22.0 12:0.422 13:39.0 14:0.87 15:0.957 16:41.0 22:1.0 
1.1 0:0.069 1:0.124 2:0.073 3:0.118 4:0.088 5:0.053 6:0.0 7:0.0 8:0.0 9:18.0 10:1.0 11:18.0 12:0.374 13:31.0 14:0.944 15:1.0 16:31.0 22:1.0 
1.1 0:0.258 1:0.561 2:0.198 3:0.053 4:0.146 5:0.163 6:0.0 7:0.0 8:0.0 9:18.0 10:1.0 11:18.0 12:0.0 13:31.0 14:1.0 15:1.0 16:29.0 22:1.0 
1.1 0:0.07 1:0.051 2:0.054 3:0.0 4:0.01 5:0.007 6:0.067 7:1.0 8:0.05 9:23.0 10:1.0 11:23.0 12:0.311 13:39.0 14:0.87 15:1.0 16:41.0 17:1.0 
1.1 0:0.01 1:0.008 2:0.063 3:0.0 4:0.016 5:0.028 6:0.096 7:1.0 8:0.05 9:25.0 10:1.0 11:25.0 12:0.0 13:44.0 14:0.96 15:1.0 16:44.0 17:1.0 
1.1 0:0.058 1:0.021 2:0.124 3:0.114 4:0.086 5:0.062 6:0.091 7:1.0 8:0.048 9:26.0 10:0.963 11:26.0 12:0.418 13:42.0 14:0.889 15:0.963 16:44.0 17:1.0 
1.1 0:0.046 1:0.043 2:0.327 3:0.0 4:0.03 5:0.049 6:0.0 7:0.0 8:0.0 9:22.0 10:1.0 11:22.0 12:0.0 13:36.0 14:1.0 15:1.0 16:34.0 22:1.0 
1.1 0:0.103 1:0.181 2:0.33 3:0.067 4:0.197 5:0.218 6:0.0 7:0.0 8:0.0 9:21.0 10:1.0 11:21.0 12:0.0 13:41.0 14:1.0 15:1.0 16:39.0 22:1.0 
1.1 0:0.015 1:0.018 2:0.032 3:0.091 4:0.049 5:0.027 6:0.0 7:0.0 8:0.0 9:22.0 10:0.957 11:22.0 12:0.235 13:38.0 14:0.957 15:0.957 16:38.0 25:1.0 
1.1 0:0.31 1:0.288 2:0.187 3:0.0 4:0.022 5:0.115 6:0.0 7:0.0 8:0.0 9:23.0 10:1.0 11:23.0 12:0.225 13:44.0 14:0.957 15:1.0 16:44.0 23:1.0 
1.1 0:0.003 1:0.008 2:0.252 3:0.053 4:0.035 5:0.115 6:0.0 7:0.0 8:0.0 9:27.0 10:1.0 11:27.0 12:0.0 13:50.0 14:1.0 15:1.0 16:48.0 22:1.0 
1.1 0:0.001 1:0.004 2:0.031 3:0.0 4:0.017 5:0.02 6:0.0 7:0.0 8:0.0 9:20.0 10:1.0 11:20.0 12:0.0 13:35.0 14:0.95 15:1.0 16:35.0 19:1.0 
1.1 0:0.036 1:0.065 2:0.104 3:0.103 4:0.105 5:0.069 6:0.0 7:0.0 8:0.0 9:26.0 10:1.0 11:26.0 12:0.0 13:43.0 14:1.0 15:1.0 16:41.0 20:1.0 
1.1 0:0.018 1:0.027 2:0.063 3:0.195 4:0.158 5:0.065 6:0.0 7:0.0 8:0.0 9:29.0 10:0.967 11:29.0 12:0.314 13:43.0 14:0.933 15:0.967 16:45.0 22:1.0 
1.1 0:0.056 1:0.056 2:0.264 3:0.151 4:0.27 5:0.233 6:0.0 7:0.0 8:0.0 9:29.0 10:0.967 11:29.0 12:0.0 13:38.0 14:0.967 15:0.967 16:38.0 22:1.0 
1.1 0:0.012 1:0.035 2:0.193 3:0.077 4:0.135 5:0.133 6:0.0 7:0.0 8:0.0 9:21.0 10:1.0 11:21.0 12:0.0 13:41.0 14:1.0 15:1.0 16:39.0 22:1.0 
1.1 0:0.027 1:0.043 2:0.252 3:0.0 4:0.0 5:0.0 6:0.0 7:0.0 8:0.0 9:23.0 10:0.958 11:23.0 12:0.398 13:38.0 14:0.917 15:0.958 16:40.0 22:1.0 
1.1 0:0.03 1:0.072 2:0.112 3:0.0 4:0.027 5:0.075 6:0.0 7:0.0 8:0.0 9:18.0 10:1.0 11:18.0 12:0.0 13:34.0 14:1.0 15:1.0 16:32.0 22:1.0 
1.1 0:0.184 1:0.317 2:0.052 3:0.0 4:0.033 5:0.033 6:0.0 7:0.0 8:0.0 9:17.0 10:1.0 11:17.0 12:0.375 13:30.0 14:0.941 15:1.0 16:30.0 24:1.0 
1.1 0:0.003 1:0.006 2:0.152 3:0.294 4:0.175 5:0.165 6:0.0 7:0.0 8:0.0 9:18.0 10:1.0 11:18.0 12:0.0 13:32.0 14:1.0 15:1.0 16:30.0 22:1.0 
1.1 0:0.024 1:0.053 2:0.247 3:0.189 4:0.235 5:0.302 6:0.0 7:0.0 8:0.0 9:22.0 10:1.0 11:22.0 12:0.0 13:39.0 14:1.0 15:1.0 16:37.0 21:1.0 
1.1 0:0.1 1:0.067 2:0.176 3:0.131 4:0.082 5:0.044 6:0.0 7:0.0 8:0.0 9:23.0 10:1.0 11:23.0 12:0.0 13:42.0 14:1.0 15:1.0 16:40.0 22:1.0 
1.1 0:0.504 1:0.434 2:0.094 3:0.0 4:0.0 5:0.03 6:0.0 7:0.0 8:0.0 9:27.0 10:1.0 11:27.0 12:0.387 13:46.0 14:0.926 15:1.0 16:48.0 23:1.0 
1.1 0:0.149 1:0.202 2:0.205 3:0.065 4:0.106 5:0.207 6:0.0 7:0.0 8:0.0 9:25.0 10:0.926 11:25.0 12:0.414 13:44.0 14:0.889 15:0.944 16:46.0 17:1.0 
1.1 0:0.044 1:0.059 2:0.171 3:0.165 4:0.18 5:0.171 6:0.105 7:1.0 8:0.056 9:25.0 10:0.962 11:25.0 12:0.388 13:43.0 14:0.885 15:0.981 16:45.0 22:1.0 
1.1 0:0.004 1:0.006 2:0.087 3:0.068 4:0.054 5:0.087 6:0.0 7:0.0 8:0.0 9:23.0 10:1.0 11:23.0 12:0.0 13:43.0 14:1.0 15:1.0 16:41.0 20:1.0 
1.1 0:0.01 1:0.026 2:0.201 3:0.0 4:0.016 5:0.012 6:0.0 7:0.0 8:0.0 9:14.0 10:1.0 11:14.0 12:0.0 13:22.0 14:1.0 15:1.0 16:20.0 22:1.0 
1.1 0:0.467 1:0.469 2:0.301 3:0.116 4:0.216 5:0.229 6:0.0 7:0.0 8:0.0 9:37.0 10:1.0 11:37.0 12:0.0 13:61.0 14:1.0 15:1.0 16:59.0 17:1.0 
1.1 0:0.109 1:0.208 2:0.114 3:0.047 4:0.056 5:0.062 6:0.114 7:1.0 8:0.059 9:26.0 10:0.963 11:26.0 12:0.226 13:42.0 14:0.926 15:0.963 16:44.0 23:1.0 
1.1 0:0.09 1:0.147 2:0.172 3:0.05 4:0.034 5:0.03 6:0.0 7:0.0 8:0.0 9:24.0 10:0.923 11:24.0 12:0.392 13:42.0 14:0.923 15:0.942 16:42.0 24:1.0 
1.1 0:0.002 1:0.003 2:0.228 3:0.0 4:0.22 5:0.215 6:0.0 7:0.0 8:0.0 9:24.0 10:1.0 11:24.0 12:0.389 13:44.0 14:0.917 15:1.0 16:46.0 22:1.0 
1.1 0:0.001 1:0.009 2:0.1 3:0.0 4:0.085 5:0.085 6:0.0 7:0.0 8:0.0 9:23.0 10:1.0 11:23.0 12:0.422 13:39.0 14:0.87 15:1.0 16:41.0 19:1.0 
1.1 0:0.089 1:0.116 2:0.206 3:0.03 4:0.049 5:0.079 6:0.0 7:0.0 8:0.0 9:24.0 10:1.0 11:24.0 12:0.403 13:36.0 14:0.917 15:1.0 16:38.0 22:1.0 
1.1 0:0.0 1:0.001 2:0.052 3:0.243 4:0.189 5:0.062 6:0.101 7:1.0 8:0.053 9:23.0 10:1.0 11:23.0 12:0.422 13:39.0 14:0.87 15:1.0 16:41.0 22:1.0 
1.1 0:0.092 1:0.139 2:0.213 3:0.059 4:0.062 5:0.183 6:0.0 7:0.0 8:0.0 9:21.0 10:1.0 11:21.0 12:0.0 13:33.0 14:1.0 15:1.0 16:31.0 22:1.0 
1.1 0:0.0 1:0.0 2:0.049 3:0.091 4:0.121 5:0.079 6:0.125 7:1.0 8:0.067 9:25.0 10:0.893 11:25.0 12:0.422 13:41.0 14:0.893 15:0.875 16:43.0 24:1.0 
1.1 0:0.023 1:0.028 2:0.047 3:0.042 4:0.042 5:0.019 6:0.081 7:1.0 8:0.05 9:39.0 10:0.951 11:39.0 12:0.426 13:55.0 14:0.902 15:0.976 16:59.0 24:1.0 
1.1 0:0.012 1:0.012 2:0.159 3:0.0 4:0.08 5:0.065 6:0.0 7:0.0 8:0.0 9:22.0 10:0.957 11:22.0 12:0.37 13:36.0 14:0.957 15:0.957 16:36.0 27:1.0 
1.1 0:0.074 1:0.086 2:0.099 3:0.0 4:0.0 5:0.0 6:0.0 7:0.0 8:0.0 9:28.0 10:1.0 11:28.0 12:0.359 13:51.0 14:0.964 15:1.0 16:51.0 22:1.0 
1.1 0:0.071 1:0.088 2:0.251 3:0.0 4:0.053 5:0.117 6:0.158 7:1.0 8:0.083 9:24.0 10:1.0 11:24.0 12:0.412 13:33.0 14:0.917 15:1.0 16:33.0 22:1.0 
1.1 0:0.019 1:0.035 2:0.163 3:0.084 4:0.077 5:0.109 6:0.0 7:0.0 8:0.0 9:26.0 10:0.963 11:26.0 12:0.312 13:42.0 14:0.926 15:0.963 16:44.0 22:1.0 
1.1 0:0.092 1:0.086 2:0.274 3:0.402 4:0.272 5:0.214 6:0.0 7:0.0 8:0.0 9:33.0 10:0.971 11:33.0 12:0.381 13:54.0 14:0.941 15:0.971 16:56.0 20:1.0 
1.1 0:0.013 1:0.014 2:0.032 3:0.018 4:0.012 5:0.014 6:0.0 7:0.0 8:0.0 9:20.0 10:0.87 11:20.0 12:0.448 13:31.0 14:0.87 15:0.87 16:33.0 17:1.0 
1.1 0:0.062 1:0.063 2:0.391 3:0.025 4:0.05 5:0.087 6:0.0 7:0.0 8:0.0 9:21.0 10:1.0 11:21.0 12:0.0 13:33.0 14:1.0 15:1.0 16:31.0 38:1.0 
1.1 0:0.0 1:0.0 2:0.046 3:0.0 4:0.0 5:0.023 6:0.0 7:0.0 8:0.0 9:22.0 10:1.0 11:22.0 12:0.0 13:43.0 14:1.0 15:1.0 16:41.0 22:1.0 
1.1 0:0.084 1:0.115 2:0.214 3:0.055 4:0.105 5:0.159 6:0.0 7:0.0 8:0.0 9:13.0 10:1.0 11:13.0 12:0.389 13:22.0 14:0.923 15:1.0 16:22.0 17:1.0 
1.1 0:0.082 1:0.129 2:0.184 3:0.163 4:0.24 5:0.233 6:0.0 7:0.0 8:0.0 9:27.0 10:0.964 11:27.0 12:0.432 13:46.0 14:0.857 15:0.964 16:52.0 22:1.0 
1.1 0:0.004 1:0.007 2:0.118 3:0.157 4:0.175 5:0.242 6:0.0 7:0.0 8:0.0 9:21.0 10:1.0 11:21.0 12:0.0 13:42.0 14:1.0 15:1.0 16:40.0 22:1.0 
1.1 0:0.103 1:0.129 2:0.149 3:0.088 4:0.085 5:0.045 6:0.095 7:1.0 8:0.05 9:24.0 10:1.0 11:24.0 12:0.362 13:39.0 14:0.833 15:1.0 16:41.0 23:1.0 
1.1 0:0.004 1:0.006 2:0.143 3:0.094 4:0.135 5:0.147 6:0.0 7:0.0 8:0.0 9:15.0 10:1.0 11:15.0 12:0.379 13:27.0 14:0.933 15:1.0 16:27.0 22:1.0 
1.1 0:0.052 1:0.082 2:0.117 3:0.022 4:0.015 5:0.015 6:0.0 7:0.0 8:0.0 9:18.0 10:1.0 11:18.0 12:0.0 13:27.0 14:1.0 15:1.0 16:25.0 40:1.0 
1.1 0:0.021 1:0.03 2:0.178 3:0.025 4:0.032 5:0.133 6:0.0 7:0.0 8:0.0 9:22.0 10:1.0 11:22.0 12:0.0 13:33.0 14:1.0 15:1.0 16:31.0 17:1.0 
1.1 0:0.32 1:0.505 2:0.276 3:0.258 4:0.22 5:0.178 6:0.0 7:0.0 8:0.0 9:36.0 10:0.973 11:36.0 12:0.384 13:43.0 14:0.973 15:0.986 16:43.0 17:1.0 
1.1 0:0.0 1:0.0 2:0.182 3:0.155 4:0.158 5:0.131 6:0.0 7:0.0 8:0.0 9:14.0 10:1.0 11:14.0 12:0.0 13:27.0 14:1.0 15:1.0 16:25.0 22:1.0 
1.1 0:0.026 1:0.04 2:0.057 3:0.0 4:0.0 5:0.0 6:0.0 7:0.0 8:0.0 9:24.0 10:1.0 11:24.0 12:0.0 13:47.0 14:1.0 15:1.0 16:45.0 22:1.0 
1.1 0:0.111 1:0.128 2:0.341 3:0.0 4:0.146 5:0.244 6:0.0 7:0.0 8:0.0 9:27.0 10:0.931 11:27.0 12:0.391 13:46.0 14:0.862 15:0.914 16:48.0 23:1.0 
1.1 0:0.04 1:0.06 2:0.307 3:0.101 4:0.133 5:0.146 6:0.091 7:1.0 8:0.048 9:26.0 10:0.929 11:26.0 12:0.389 13:45.0 14:0.929 15:0.929 16:45.0 22:1.0 
1.1 0:0.078 1:0.118 2:0.244 3:0.0 4:0.019 5:0.024 6:0.107 7:1.0 8:0.056 9:22.0 10:0.957 11:22.0 12:0.369 13:35.0 14:0.913 15:0.957 16:35.0 20:1.0 
1.1 0:0.105 1:0.11 2:0.157 3:0.237 4:0.129 5:0.1 6:0.095 7:1.0 8:0.05 9:29.0 10:1.0 11:29.0 12:0.433 13:46.0 14:0.862 15:1.0 16:50.0 23:1.0 
1.1 0:0.255 1:0.257 2:0.277 3:0.048 4:0.026 5:0.07 6:0.0 7:0.0 8:0.0 9:19.0 10:0.905 11:19.0 12:0.4 13:36.0 14:0.905 15:0.905 16:38.0 22:1.0 
1.1 0:0.034 1:0.074 2:0.161 3:0.202 4:0.34 5:0.308 6:0.0 7:0.0 8:0.0 9:30.0 10:1.0 11:30.0 12:0.213 13:56.0 14:0.967 15:1.0 16:56.0 22:1.0 
1.1 0:0.003 1:0.002 2:0.039 3:0.0 4:0.054 5:0.007 6:0.196 7:1.0 8:0.059 9:26.0 10:0.929 11:26.0 12:0.358 13:44.0 14:0.893 15:0.929 16:46.0 24:1.0 
1.1 0:0.149 1:0.245 2:0.099 3:0.0 4:0.048 5:0.064 6:0.0 7:0.0 8:0.0 9:24.0 10:1.0 11:24.0 12:0.0 13:45.0 14:1.0 15:1.0 16:43.0 22:1.0 
1.1 0:0.086 1:0.084 2:0.205 3:0.069 4:0.141 5:0.099 6:0.0 7:0.0 8:0.0 9:25.0 10:0.962 11:25.0 12:0.392 13:42.0 14:0.923 15:0.962 16:44.0 17:1.0 
1.1 0:0.0 1:0.0 2:0.305 3:0.0 4:0.209 5:0.262 6:0.0 7:0.0 8:0.0 9:25.0 10:1.0 11:25.0 12:0.361 13:47.0 14:0.96 15:1.0 16:47.0 22:1.0 
1.1 0:0.027 1:0.058 2:0.141 3:0.0 4:0.0 5:0.03 6:0.0 7:0.0 8:0.0 9:14.0 10:1.0 11:14.0 12:0.387 13:23.0 14:0.929 15:1.0 16:23.0 24:1.0 
1.1 0:0.033 1:0.043 2:0.151 3:0.108 4:0.09 5:0.114 6:0.16 7:2.0 8:0.087 9:27.0 10:1.0 11:27.0 12:0.383 13:50.0 14:0.926 15:1.0 16:48.0 22:1.0 
1.1 0:0.006 1:0.007 2:0.076 3:0.172 4:0.136 5:0.114 6:0.0 7:0.0 8:0.0 9:28.0 10:0.875 11:28.0 12:0.424 13:51.0 14:0.875 15:0.859 16:55.0 17:1.0 
1.1 0:0.038 1:0.039 2:0.067 3:0.0 4:0.011 5:0.007 6:0.224 7:1.0 8:0.125 9:18.0 10:1.0 11:18.0 12:0.344 13:29.0 14:0.889 15:1.0 16:29.0 33:1.0 
1.1 0:0.051 1:0.049 2:0.053 3:0.0 4:0.0 5:0.0 6:0.167 7:1.0 8:0.091 9:14.0 10:0.875 11:14.0 12:0.423 13:26.0 14:0.875 15:0.875 16:26.0 33:1.0 
1.1 0:0.0 1:0.0 2:0.29 3:0.07 4:0.035 5:0.073 6:0.0 7:0.0 8:0.0 9:25.0 10:1.0 11:25.0 12:0.363 13:44.0 14:0.96 15:1.0 16:44.0 24:1.0 
1.1 0:0.057 1:0.021 2:0.125 3:0.114 4:0.086 5:0.063 6:0.0 7:0.0 8:0.0 9:21.0 10:0.955 11:21.0 12:0.364 13:41.0 14:0.955 15:0.955 16:41.0 17:1.0 
1.1 0:0.141 1:0.127 2:0.197 3:0.0 4:0.098 5:0.102 6:0.0 7:0.0 8:0.0 9:22.0 10:1.0 11:22.0 12:0.0 13:36.0 14:1.0 15:1.0 16:34.0 22:1.0 
1.1 0:0.361 1:0.456 2:0.37 3:0.256 4:0.113 5:0.116 6:0.065 7:1.0 8:0.038 9:38.0 10:0.95 11:38.0 12:0.297 13:56.0 14:0.95 15:0.95 16:56.0 17:1.0 
1.1 0:0.08 1:0.128 2:0.299 3:0.0 4:0.06 5:0.113 6:0.141 7:1.0 8:0.071 9:25.0 10:1.0 11:25.0 12:0.0 13:34.0 14:0.92 15:1.0 16:34.0 22:1.0 
1.1 0:0.181 1:0.212 2:0.179 3:0.0 4:0.036 5:0.052 6:0.0 7:0.0 8:0.0 9:30.0 10:1.0 11:30.0 12:0.214 13:55.0 14:0.967 15:1.0 16:55.0 25:1.0 
1.1 0:0.184 1:0.305 2:0.362 3:0.044 4:0.017 5:0.01 6:0.0 7:0.0 8:0.0 9:16.0 10:1.0 11:16.0 12:0.419 13:27.0 14:0.875 15:1.0 16:27.0 24:1.0 
1.1 0:0.021 1:0.019 2:0.044 3:0.015 4:0.02 5:0.023 6:0.088 7:1.0 8:0.059 9:33.0 10:0.943 11:33.0 12:0.386 13:51.0 14:0.943 15:0.943 16:51.0 18:1.0 
1.1 0:0.105 1:0.1 2:0.089 3:0.034 4:0.055 5:0.093 6:0.0 7:0.0 8:0.0 9:21.0 10:1.0 11:21.0 12:0.0 13:37.0 14:1.0 15:1.0 16:35.0 22:1.0 
1.1 0:0.173 1:0.182 2:0.116 3:0.041 4:0.063 5:0.074 6:0.0 7:0.0 8:0.0 9:23.0 10:0.958 11:23.0 12:0.234 13:39.0 14:0.958 15:0.958 16:39.0 22:1.0 
1.1 0:0.099 1:0.103 2:0.211 3:0.0 4:0.0 5:0.0 6:0.0 7:0.0 8:0.0 9:14.0 10:1.0 11:14.0 12:0.0 13:27.0 14:1.0 15:1.0 16:25.0 24:1.0 
1.1 0:0.351 1:0.318 2:0.147 3:0.016 4:0.091 5:0.149 6:0.0 7:0.0 8:0.0 9:23.0 10:1.0 11:23.0 12:0.0 13:41.0 14:1.0 15:1.0 16:39.0 22:1.0 
1.1 0:0.068 1:0.081 2:0.172 3:0.0 4:0.0 5:0.072 6:0.0 7:0.0 8:0.0 9:29.0 10:0.967 11:29.0 12:0.381 13:52.0 14:0.933 15:0.967 16:54.0 22:1.0 
1.1 0:0.035 1:0.057 2:0.17 3:0.0 4:0.07 5:0.106 6:0.0 7:0.0 8:0.0 9:18.0 10:0.947 11:18.0 12:0.262 13:28.0 14:0.947 15:0.947 16:28.0 24:1.0 
1.1 0:0.066 1:0.178 2:0.133 3:0.144 4:0.089 5:0.115 6:0.0 7:0.0 8:0.0 9:15.0 10:1.0 11:15.0 12:0.0 13:27.0 14:1.0 15:1.0 16:25.0 21:1.0 
1.1 0:0.006 1:0.01 2:0.088 3:0.153 4:0.149 5:0.122 6:0.0 7:0.0 8:0.0 9:29.0 10:0.967 11:29.0 12:0.217 13:52.0 14:0.967 15:0.967 16:52.0 23:1.0 
1.1 0:0.002 1:0.009 2:0.019 3:0.0 4:0.017 5:0.033 6:0.0 7:0.0 8:0.0 9:25.0 10:1.0 11:25.0 12:0.0 13:47.0 14:0.96 15:1.0 16:47.0 27:1.0 
1.1 0:0.112 1:0.156 2:0.195 3:0.0 4:0.0 5:0.02 6:0.0 7:0.0 8:0.0 9:27.0 10:1.0 11:27.0 12:0.226 13:44.0 14:0.963 15:1.0 16:44.0 22:1.0 
1.1 0:0.048 1:0.045 2:0.12 3:0.0 4:0.017 5:0.05 6:0.0 7:0.0 8:0.0 9:26.0 10:0.929 11:26.0 12:0.293 13:37.0 14:0.857 15:0.929 16:37.0 25:1.0 
1.1 0:0.184 1:0.22 2:0.272 3:0.153 4:0.083 5:0.133 6:0.0 7:0.0 8:0.0 9:30.0 10:1.0 11:30.0 12:0.216 13:53.0 14:0.967 15:1.0 16:53.0 22:1.0 
1.1 0:0.365 1:0.44 2:0.425 3:0.0 4:0.135 5:0.194 6:0.077 7:1.0 8:0.038 9:32.0 10:0.865 11:32.0 12:0.43 13:59.0 14:0.865 15:0.865 16:63.0 20:1.0 
1.1 0:0.013 1:0.008 2:0.107 3:0.031 4:0.025 5:0.076 6:0.12 7:1.0 8:0.063 9:20.0 10:0.909 11:20.0 12:0.395 13:39.0 14:0.909 15:0.909 16:39.0 22:1.0 
1.1 0:0.072 1:0.112 2:0.254 3:0.3 4:0.218 5:0.261 6:0.0 7:0.0 8:0.0 9:29.0 10:1.0 11:29.0 12:0.0 13:51.0 14:1.0 15:1.0 16:49.0 22:1.0 
1.1 0:0.08 1:0.173 2:0.273 3:0.16 4:0.13 5:0.2 6:0.0 7:0.0 8:0.0 9:24.0 10:1.0 11:24.0 12:0.391 13:42.0 14:0.917 15:1.0 16:44.0 22:1.0 
1.1 0:0.173 1:0.124 2:0.35 3:0.092 4:0.091 5:0.148 6:0.0 7:0.0 8:0.0 9:21.0 10:1.0 11:21.0 12:0.0 13:41.0 14:1.0 15:1.0 16:39.0 17:1.0 
1.1 0:0.235 1:0.246 2:0.101 3:0.03 4:0.036 5:0.071 6:0.0 7:0.0 8:0.0 9:23.0 10:1.0 11:23.0 12:0.0 13:37.0 14:1.0 15:1.0 16:35.0 24:1.0 
1.1 0:0.19 1:0.236 2:0.43 3:0.0 4:0.0 5:0.021 6:0.0 7:0.0 8:0.0 9:20.0 10:1.0 11:20.0 12:0.235 13:37.0 14:0.95 15:1.0 16:37.0 17:1.0 
1.1 0:0.155 1:0.148 2:0.312 3:0.316 4:0.202 5:0.208 6:0.0 7:0.0 8:0.0 9:14.0 10:1.0 11:14.0 12:0.385 13:24.0 14:0.929 15:1.0 16:24.0 17:1.0 
1.1 0:0.0 1:0.0 2:0.08 3:0.088 4:0.082 5:0.133 6:0.091 7:1.0 8:0.048 9:26.0 10:0.929 11:26.0 12:0.351 13:47.0 14:0.893 15:0.929 16:51.0 23:1.0 
1.1 0:0.01 1:0.024 2:0.077 3:0.177 4:0.09 5:0.064 6:0.0 7:0.0 8:0.0 9:21.0 10:1.0 11:21.0 12:0.0 13:41.0 14:1.0 15:1.0 16:39.0 22:1.0 
1.1 0:0.279 1:0.338 2:0.187 3:0.0 4:0.108 5:0.1 6:0.0 7:0.0 8:0.0 9:23.0 10:0.958 11:23.0 12:0.371 13:36.0 14:0.958 15:0.958 16:36.0 22:1.0 
1.1 0:0.069 1:0.078 2:0.345 3:0.0 4:0.256 5:0.31 6:0.0 7:0.0 8:0.0 9:26.0 10:1.0 11:26.0 12:0.385 13:48.0 14:0.923 15:1.0 16:50.0 22:1.0 
1.1 0:0.044 1:0.038 2:0.119 3:0.147 4:0.23 5:0.222 6:0.0 7:0.0 8:0.0 9:27.0 10:0.931 11:27.0 12:0.46 13:43.0 14:0.828 15:0.948 16:49.0 27:1.0 
1.1 0:0.0 1:0.0 2:0.057 3:0.0 4:0.0 5:0.0 6:0.0 7:0.0 8:0.0 9:29.0 10:1.0 11:29.0 12:0.359 13:50.0 14:0.966 15:1.0 16:50.0 21:1.0 
1.1 0:0.047 1:0.05 2:0.041 3:0.062 4:0.078 5:0.058 6:0.092 7:1.0 8:0.048 9:27.0 10:1.0 11:27.0 12:0.39 13:44.0 14:0.926 15:1.0 16:44.0 17:1.0 
1.1 0:0.026 1:0.042 2:0.284 3:0.0 4:0.079 5:0.352 6:0.077 7:1.0 8:0.043 9:28.0 10:0.933 11:28.0 12:0.422 13:52.0 14:0.867 15:0.917 16:56.0 22:1.0 
1.1 0:0.0 1:0.0 2:0.061 3:0.0 4:0.012 5:0.039 6:0.0 7:0.0 8:0.0 9:34.0 10:1.0 11:34.0 12:0.0 13:55.0 14:0.971 15:1.0 16:55.0 23:1.0 
1.1 0:0.0 1:0.0 2:0.194 3:0.087 4:0.059 5:0.06 6:0.0 7:0.0 8:0.0 9:23.0 10:1.0 11:23.0 12:0.229 13:41.0 14:0.957 15:1.0 16:41.0 19:1.0 
1.1 0:0.0 1:0.0 2:0.051 3:0.0 4:0.047 5:0.054 6:0.0 7:0.0 8:0.0 9:17.0 10:1.0 11:17.0 12:0.0 13:29.0 14:1.0 15:1.0 16:27.0 31:1.0 
1.1 0:0.006 1:0.009 2:0.093 3:0.1 4:0.077 5:0.052 6:0.0 7:0.0 8:0.0 9:18.0 10:0.947 11:18.0 12:0.375 13:31.0 14:0.947 15:0.947 16:31.0 28:1.0 
1.1 0:0.034 1:0.03 2:0.134 3:0.109 4:0.049 5:0.026 6:0.092 7:1.0 8:0.048 9:31.0 10:0.969 11:31.0 12:0.383 13:49.0 14:0.906 15:0.969 16:51.0 23:1.0 
1.1 0:0.16 1:0.161 2:0.259 3:0.199 4:0.23 5:0.299 6:0.0 7:0.0 8:0.0 9:24.0 10:1.0 11:24.0 12:0.0 13:38.0 14:1.0 15:1.0 16:36.0 32:1.0 
1.1 0:0.045 1:0.058 2:0.183 3:0.0 4:0.0 5:0.0 6:0.0 7:0.0 8:0.0 9:23.0 10:1.0 11:23.0 12:0.0 13:37.0 14:1.0 15:1.0 16:35.0 24:1.0 
1.1 0:0.005 1:0.006 2:0.171 3:0.0 4:0.0 5:0.0 6:0.091 7:1.0 8:0.048 9:26.0 10:0.929 11:26.0 12:0.389 13:45.0 14:0.929 15:0.946 16:45.0 17:1.0 
1.1 0:0.057 1:0.081 2:0.077 3:0.139 4:0.119 5:0.112 6:0.0 7:0.0 8:0.0 9:30.0 10:0.968 11:30.0 12:0.36 13:50.0 14:0.968 15:0.968 16:50.0 24:1.0 
1.1 0:0.026 1:0.074 2:0.125 3:0.224 4:0.126 5:0.09 6:0.0 7:0.0 8:0.0 9:19.0 10:0.95 11:19.0 12:0.37 13:35.0 14:0.95 15:0.95 16:35.0 21:1.0 
1.1 0:0.009 1:0.008 2:0.054 3:0.0 4:0.0 5:0.041 6:0.0 7:0.0 8:0.0 9:13.0 10:0.929 11:13.0 12:0.385 13:21.0 14:0.857 15:0.929 16:21.0 33:1.0 
1.1 0:0.03 1:0.071 2:0.242 3:0.084 4:0.042 5:0.104 6:0.0 7:0.0 8:0.0 9:18.0 10:1.0 11:18.0 12:0.38 13:28.0 14:0.944 15:1.0 16:28.0 17:1.0 
1.1 0:0.25 1:0.303 2:0.408 3:0.0 4:0.088 5:0.101 6:0.0 7:0.0 8:0.0 9:28.0 10:0.966 11:28.0 12:0.264 13:51.0 14:0.931 15:0.966 16:53.0 24:1.0 
1.1 0:0.166 1:0.17 2:0.32 3:0.0 4:0.199 5:0.228 6:0.0 7:0.0 8:0.0 9:27.0 10:0.964 11:27.0 12:0.367 13:41.0 14:0.964 15:0.964 16:41.0 24:1.0 
1.1 0:0.027 1:0.036 2:0.1 3:0.048 4:0.071 5:0.039 6:0.0 7:0.0 8:0.0 9:23.0 10:1.0 11:23.0 12:0.394 13:40.0 14:0.913 15:1.0 16:42.0 22:1.0 
1.1 0:0.143 1:0.19 2:0.117 3:0.0 4:0.0 5:0.0 6:0.0 7:0.0 8:0.0 9:28.0 10:0.966 11:28.0 12:0.352 13:49.0 14:0.931 15:0.966 16:51.0 21:1.0 
1.1 0:0.115 1:0.166 2:0.362 3:0.0 4:0.076 5:0.328 6:0.0 7:0.0 8:0.0 9:20.0 10:1.0 11:20.0 12:0.374 13:32.0 14:0.95 15:1.0 16:32.0 20:1.0 
1.1 0:0.097 1:0.118 2:0.323 3:0.0 4:0.201 5:0.153 6:0.0 7:0.0 8:0.0 9:14.0 10:1.0 11:14.0 12:0.0 13:25.0 14:1.0 15:1.0 16:23.0 17:1.0 
1.1 0:0.018 1:0.038 2:0.14 3:0.079 4:0.078 5:0.095 6:0.095 7:1.0 8:0.05 9:24.0 10:1.0 11:24.0 12:0.391 13:42.0 14:0.917 15:1.0 16:42.0 22:1.0 
1.1 0:0.127 1:0.187 2:0.124 3:0.0 4:0.0 5:0.02 6:0.0 7:0.0 8:0.0 9:22.0 10:1.0 11:22.0 12:0.0 13:36.0 14:1.0 15:1.0 16:34.0 24:1.0 
1.1 0:0.446 1:0.472 2:0.193 3:0.087 4:0.066 5:0.042 6:0.0 7:0.0 8:0.0 9:24.0 10:1.0 11:24.0 12:0.534 13:29.0 14:0.75 15:1.0 16:29.0 23:1.0 
1.1 0:0.013 1:0.014 2:0.027 3:0.051 4:0.017 5:0.014 6:0.126 7:1.0 8:0.067 9:22.0 10:1.0 11:22.0 12:0.429 13:36.0 14:0.864 15:1.0 16:38.0 22:1.0 
1.1 0:0.173 1:0.174 2:0.059 3:0.036 4:0.074 5:0.072 6:0.126 7:1.0 8:0.067 9:19.0 10:0.864 11:19.0 12:0.429 13:36.0 14:0.864 15:0.864 16:36.0 23:1.0 
1.1 0:0.071 1:0.111 2:0.23 3:0.0 4:0.017 5:0.101 6:0.078 7:1.0 8:0.04 9:28.0 10:1.0 11:28.0 12:0.262 13:50.0 14:0.893 15:1.0 16:52.0 22:1.0 
1.1 0:0.011 1:0.02 2:0.269 3:0.088 4:0.09 5:0.071 6:0.0 7:0.0 8:0.0 9:22.0 10:1.0 11:22.0 12:0.0 13:41.0 14:1.0 15:1.0 16:39.0 17:1.0 
1.1 0:0.001 1:0.001 2:0.026 3:0.0 4:0.0 5:0.0 6:0.0 7:0.0 8:0.0 9:17.0 10:1.0 11:17.0 12:0.0 13:28.0 14:1.0 15:1.0 16:26.0 17:1.0 
1.1 0:0.044 1:0.075 2:0.265 3:0.094 4:0.13 5:0.116 6:0.089 7:1.0 8:0.045 9:34.0 10:1.0 11:34.0 12:0.408 13:50.0 14:0.912 15:1.0 16:52.0 18:1.0 
1.1 0:0.063 1:0.064 2:0.167 3:0.0 4:0.041 5:0.027 6:0.0 7:0.0 8:0.0 9:26.0 10:1.0 11:26.0 12:0.398 13:39.0 14:0.923 15:1.0 16:39.0 23:1.0 
1.1 0:0.349 1:0.395 2:0.258 3:0.359 4:0.21 5:0.199 6:0.167 7:1.0 8:0.071 9:30.0 10:0.938 11:30.0 12:0.438 13:36.0 14:0.938 15:0.938 16:36.0 22:1.0 
1.1 0:0.0 1:0.0 2:0.056 3:0.0 4:0.0 5:0.0 6:0.0 7:0.0 8:0.0 9:15.0 10:1.0 11:15.0 12:0.381 13:26.0 14:0.933 15:1.0 16:26.0 28:1.0 
1.1 0:0.16 1:0.154 2:0.155 3:0.0 4:0.069 5:0.097 6:0.0 7:0.0 8:0.0 9:29.0 10:1.0 11:29.0 12:0.359 13:49.0 14:0.931 15:1.0 16:51.0 23:1.0 
1.1 0:0.012 1:0.018 2:0.078 3:0.058 4:0.03 5:0.054 6:0.0 7:0.0 8:0.0 9:21.0 10:1.0 11:21.0 12:0.0 13:30.0 14:1.0 15:1.0 16:28.0 22:1.0 
0.6216082340758605 0:0.18 1:0.229 2:0.309 3:0.147 4:0.206 5:0.255 6:0.129 7:1.0 8:0.067 9:28.0 10:0.933 11:28.0 12:0.0 13:38.0 14:0.933 15:0.933 16:38.0 22:1.0 
1.1 0:0.177 1:0.251 2:0.226 3:0.0 4:0.023 5:0.167 6:0.0 7:0.0 8:0.0 9:24.0 10:1.0 11:24.0 12:0.364 13:42.0 14:0.958 15:1.0 16:42.0 20:1.0 
1.1 0:0.0 1:0.0 2:0.079 3:0.069 4:0.057 5:0.071 6:0.0 7:0.0 8:0.0 9:19.0 10:0.905 11:19.0 12:0.402 13:35.0 14:0.905 15:0.905 16:37.0 27:1.0 
1.1 0:0.055 1:0.058 2:0.124 3:0.0 4:0.063 5:0.058 6:0.0 7:0.0 8:0.0 9:23.0 10:1.0 11:23.0 12:0.318 13:36.0 14:0.87 15:1.0 16:40.0 25:1.0 
1.1 0:0.104 1:0.131 2:0.153 3:0.082 4:0.05 5:0.068 6:0.0 7:0.0 8:0.0 9:12.0 10:0.923 11:12.0 12:0.387 13:23.0 14:0.923 15:0.923 16:23.0 33:1.0 
1.1 0:0.023 1:0.031 2:0.241 3:0.0 4:0.046 5:0.153 6:0.158 7:1.0 8:0.077 9:24.0 10:1.0 11:24.0 12:0.0 13:34.0 14:0.917 15:1.0 16:34.0 22:1.0 
1.1 0:0.094 1:0.071 2:0.12 3:0.008 4:0.04 5:0.037 6:0.081 7:1.0 8:0.048 9:28.0 10:0.933 11:28.0 12:0.41 13:47.0 14:0.9 15:0.933 16:49.0 17:1.0 
0.021519922589608522 0:0.999 1:0.998 2:0.97 3:0.35 4:0.185 5:0.157 6:0.25 7:1.0 8:0.143 9:6.0 10:0.6 11:6.0 12:0.733 13:8.0 14:0.4 15:0.65 16:10.0 40:1.0 
1.1 0:0.013 1:0.017 2:0.158 3:0.159 4:0.147 5:0.129 6:0.083 7:1.0 8:0.043 9:22.0 10:0.917 11:22.0 12:0.394 13:40.0 14:0.917 15:0.917 16:42.0 23:1.0 
1.1 0:0.224 1:0.245 2:0.134 3:0.098 4:0.182 5:0.115 6:0.0 7:0.0 8:0.0 9:17.0 10:1.0 11:17.0 12:0.0 13:31.0 14:1.0 15:1.0 16:29.0 20:1.0 
1.1 0:0.077 1:0.158 2:0.157 3:0.0 4:0.0 5:0.02 6:0.0 7:0.0 8:0.0 9:23.0 10:1.0 11:23.0 12:0.0 13:43.0 14:1.0 15:1.0 16:41.0 24:1.0 
1.1 0:0.01 1:0.012 2:0.055 3:0.0 4:0.026 5:0.071 6:0.0 7:0.0 8:0.0 9:39.0 10:1.0 11:39.0 12:0.356 13:58.0 14:0.949 15:1.0 16:60.0 25:1.0 
1.1 0:0.045 1:0.04 2:0.062 3:0.1 4:0.129 5:0.096 6:0.129 7:1.0 8:0.067 9:21.0 10:0.875 11:21.0 12:0.428 13:37.0 14:0.875 15:0.854 16:37.0 25:1.0 
1.1 0:0.017 1:0.012 2:0.109 3:0.434 4:0.298 5:0.24 6:0.0 7:0.0 8:0.0 9:24.0 10:1.0 11:24.0 12:0.0 13:48.0 14:1.0 15:1.0 16:46.0 20:1.0 
1.1 0:0.004 1:0.006 2:0.171 3:0.0 4:0.0 5:0.057 6:0.101 7:1.0 8:0.053 9:24.0 10:1.0 11:24.0 12:0.39 13:43.0 14:0.917 15:1.0 16:43.0 24:1.0 
0.011816534543576325 0:0.779 1:0.836 2:0.675 3:0.545 4:0.5 5:0.395 6:0.639 7:7.0 8:0.467 9:8.0 10:0.364 11:8.0 12:0.836 13:14.0 14:0.318 15:0.409 16:20.0 22:1.0 
1.1 0:0.101 1:0.151 2:0.173 3:0.333 4:0.281 5:0.228 6:0.0 7:0.0 8:0.0 9:23.0 10:0.958 11:23.0 12:0.39 13:43.0 14:0.917 15:0.979 16:45.0 22:1.0 
1.1 0:0.313 1:0.447 2:0.171 3:0.0 4:0.0 5:0.099 6:0.063 7:1.0 8:0.036 9:34.0 10:1.0 11:34.0 12:0.376 13:59.0 14:0.941 15:1.0 16:59.0 22:1.0 
1.1 0:0.124 1:0.126 2:0.199 3:0.0 4:0.098 5:0.142 6:0.0 7:0.0 8:0.0 9:20.0 10:0.909 11:20.0 12:0.441 13:32.0 14:0.864 15:0.909 16:36.0 22:1.0 
1.1 0:0.106 1:0.117 2:0.066 3:0.046 4:0.029 5:0.035 6:0.105 7:1.0 8:0.056 9:26.0 10:0.897 11:26.0 12:0.406 13:49.0 14:0.897 15:0.897 16:49.0 42:1.0 
1.1 0:0.005 1:0.006 2:0.142 3:0.139 4:0.164 5:0.119 6:0.0 7:0.0 8:0.0 9:20.0 10:0.952 11:20.0 12:0.368 13:37.0 14:0.952 15:0.952 16:37.0 22:1.0 
1.1 0:0.035 1:0.053 2:0.158 3:0.0 4:0.043 5:0.037 6:0.0 7:0.0 8:0.0 9:22.0 10:1.0 11:22.0 12:0.334 13:33.0 14:0.909 15:1.0 16:33.0 22:1.0 
1.1 0:0.153 1:0.168 2:0.156 3:0.038 4:0.108 5:0.129 6:0.0 7:0.0 8:0.0 9:20.0 10:0.909 11:20.0 12:0.415 13:31.0 14:0.909 15:0.909 16:33.0 22:1.0 
1.1 0:0.022 1:0.043 2:0.164 3:0.128 4:0.155 5:0.16 6:0.0 7:0.0 8:0.0 9:30.0 10:1.0 11:30.0 12:0.358 13:50.0 14:0.933 15:1.0 16:52.0 22:1.0 
1.1 0:0.055 1:0.063 2:0.059 3:0.111 4:0.065 5:0.046 6:0.0 7:0.0 8:0.0 9:24.0 10:1.0 11:24.0 12:0.361 13:46.0 14:0.958 15:1.0 16:46.0 23:1.0 
1.1 0:0.256 1:0.29 2:0.158 3:0.0 4:0.0 5:0.0 6:0.0 7:0.0 8:0.0 9:21.0 10:0.955 11:21.0 12:0.364 13:41.0 14:0.955 15:0.955 16:41.0 23:1.0 
1.1 0:0.206 1:0.314 2:0.226 3:0.039 4:0.121 5:0.177 6:0.0 7:0.0 8:0.0 9:28.0 10:1.0 11:28.0 12:0.0 13:39.0 14:1.0 15:1.0 16:37.0 22:1.0 
1.1 0:0.213 1:0.29 2:0.161 3:0.272 4:0.191 5:0.206 6:0.0 7:0.0 8:0.0 9:38.0 10:0.974 11:38.0 12:0.357 13:59.0 14:0.974 15:0.974 16:59.0 22:1.0 
1.1 0:0.211 1:0.394 2:0.326 3:0.037 4:0.085 5:0.195 6:0.0 7:0.0 8:0.0 9:27.0 10:0.964 11:27.0 12:0.3 13:48.0 14:0.929 15:0.964 16:50.0 20:1.0 
1.1 0:0.195 1:0.19 2:0.306 3:0.415 4:0.22 5:0.23 6:0.0 7:0.0 8:0.0 9:34.0 10:0.971 11:34.0 12:0.213 13:57.0 14:0.971 15:0.971 16:57.0 19:1.0 
1.1 0:0.023 1:0.04 2:0.032 3:0.0 4:0.0 5:0.015 6:0.0 7:0.0 8:0.0 9:15.0 10:1.0 11:15.0 12:0.0 13:26.0 14:1.0 15:1.0 16:24.0 33:1.0 
1.075937096656993 0:0.167 1:0.161 2:0.201 3:0.117 4:0.07 5:0.04 6:0.12 7:1.0 8:0.063 9:18.0 10:0.75 11:18.0 12:0.504 13:35.0 14:0.75 15:0.729 16:35.0 23:1.0 
1.1 0:0.126 1:0.206 2:0.338 3:0.0 4:0.0 5:0.013 6:0.0 7:0.0 8:0.0 9:21.0 10:0.955 11:21.0 12:0.323 13:36.0 14:0.909 15:0.955 16:36.0 20:1.0 
1.1 0:0.006 1:0.01 2:0.17 3:0.018 4:0.096 5:0.092 6:0.069 7:1.0 8:0.04 9:28.0 10:0.966 11:28.0 12:0.294 13:52.0 14:0.931 15:0.966 16:52.0 22:1.0 
1.1 0:0.102 1:0.108 2:0.177 3:0.143 4:0.121 5:0.137 6:0.08 7:1.0 8:0.042 9:28.0 10:1.0 11:28.0 12:0.358 13:48.0 14:0.893 15:1.0 16:48.0 22:1.0 
1.1 0:0.879 1:0.901 2:0.356 3:0.0 4:0.0 5:0.0 6:0.0 7:0.0 8:0.0 9:32.0 10:0.889 11:32.0 12:0.499 13:40.0 14:0.861 15:0.917 16:44.0 38:1.0 
1.1 0:0.075 1:0.073 2:0.249 3:0.0 4:0.027 5:0.092 6:0.088 7:1.0 8:0.045 9:24.0 10:0.96 11:24.0 12:0.31 13:40.0 14:0.88 15:0.96 16:40.0 31:1.0 
0.3650599680638682 0:0.0 1:0.0 2:0.167 3:0.0 4:0.057 5:0.09 6:0.0 7:0.0 8:0.0 9:13.0 10:0.813 11:13.0 12:0.467 13:24.0 14:0.813 15:0.813 16:28.0 17:1.0 
1.1 0:0.065 1:0.11 2:0.034 3:0.072 4:0.037 5:0.025 6:0.0 7:0.0 8:0.0 9:21.0 10:0.955 11:21.0 12:0.371 13:35.0 14:0.955 15:0.955 16:35.0 22:1.0 
1.1 0:0.322 1:0.334 2:0.127 3:0.075 4:0.051 5:0.048 6:0.0 7:0.0 8:0.0 9:28.0 10:0.933 11:28.0 12:0.299 13:49.0 14:0.933 15:0.933 16:51.0 25:1.0 
1.1 0:0.002 1:0.009 2:0.104 3:0.202 4:0.141 5:0.104 6:0.0 7:0.0 8:0.0 9:22.0 10:1.0 11:22.0 12:0.0 13:44.0 14:1.0 15:1.0 16:42.0 23:1.0 
1.1 0:0.0 1:0.0 2:0.038 3:0.049 4:0.022 5:0.047 6:0.107 7:1.0 8:0.067 9:24.0 10:1.0 11:24.0 12:0.475 13:37.0 14:0.792 15:1.0 16:37.0 18:1.0 
1.1 0:0.066 1:0.091 2:0.208 3:0.021 4:0.092 5:0.131 6:0.0 7:0.0 8:0.0 9:18.0 10:0.947 11:18.0 12:0.37 13:34.0 14:0.947 15:0.947 16:34.0 20:1.0 
0.02250895543400143 0:0.619 1:0.653 2:0.736 3:0.257 4:0.398 5:0.621 6:0.696 7:8.0 8:0.533 9:9.0 10:0.391 11:9.0 12:0.758 13:16.0 14:0.391 15:0.457 16:24.0 17:1.0 
1.1 0:0.083 1:0.076 2:0.302 3:0.155 4:0.161 5:0.183 6:0.0 7:0.0 8:0.0 9:31.0 10:1.0 11:31.0 12:0.39 13:46.0 14:0.935 15:1.0 16:46.0 27:1.0 
1.1 0:0.044 1:0.066 2:0.158 3:0.0 4:0.088 5:0.079 6:0.0 7:0.0 8:0.0 9:28.0 10:1.0 11:28.0 12:0.0 13:49.0 14:0.964 15:1.0 16:49.0 22:1.0 
1.1 0:0.053 1:0.083 2:0.108 3:0.146 4:0.128 5:0.127 6:0.0 7:0.0 8:0.0 9:28.0 10:1.0 11:28.0 12:0.359 13:50.0 14:0.964 15:1.0 16:50.0 22:1.0 
1.1 0:0.104 1:0.11 2:0.114 3:0.0 4:0.076 5:0.04 6:0.0 7:0.0 8:0.0 9:24.0 10:1.0 11:24.0 12:0.0 13:41.0 14:1.0 15:1.0 16:39.0 24:1.0 
1.1 0:0.223 1:0.216 2:0.242 3:0.0 4:0.0 5:0.017 6:0.0 7:0.0 8:0.0 9:14.0 10:1.0 11:14.0 12:0.0 13:25.0 14:0.929 15:1.0 16:25.0 27:1.0 
1.1 0:0.026 1:0.028 2:0.385 3:0.108 4:0.207 5:0.252 6:0.077 7:1.0 8:0.04 9:26.0 10:0.963 11:26.0 12:0.386 13:47.0 14:0.926 15:0.963 16:47.0 22:1.0 
1.1 0:0.0 1:0.0 2:0.098 3:0.0 4:0.025 5:0.049 6:0.0 7:0.0 8:0.0 9:22.0 10:0.957 11:22.0 12:0.367 13:38.0 14:0.957 15:0.957 16:38.0 21:1.0 
1.1 0:0.031 1:0.088 2:0.096 3:0.107 4:0.099 5:0.107 6:0.0 7:0.0 8:0.0 9:28.0 10:0.966 11:28.0 12:0.359 13:50.0 14:0.966 15:0.966 16:50.0 22:1.0 
1.1 0:0.367 1:0.539 2:0.19 3:0.075 4:0.089 5:0.162 6:0.0 7:0.0 8:0.0 9:37.0 10:1.0 11:37.0 12:0.432 13:45.0 14:0.919 15:1.0 16:47.0 20:1.0 
1.1 0:0.108 1:0.147 2:0.043 3:0.109 4:0.07 5:0.055 6:0.0 7:0.0 8:0.0 9:23.0 10:1.0 11:23.0 12:0.364 13:42.0 14:0.957 15:1.0 16:42.0 17:1.0 
1.1 0:0.001 1:0.003 2:0.075 3:0.0 4:0.0 5:0.0 6:0.0 7:0.0 8:0.0 9:22.0 10:1.0 11:22.0 12:0.232 13:37.0 14:0.909 15:1.0 16:39.0 21:1.0 
1.1 0:0.063 1:0.052 2:0.079 3:0.0 4:0.0 5:0.041 6:0.0 7:0.0 8:0.0 9:20.0 10:1.0 11:20.0 12:0.0 13:37.0 14:1.0 15:1.0 16:35.0 25:1.0 
1.1 0:0.023 1:0.03 2:0.112 3:0.0 4:0.0 5:0.0 6:0.0 7:0.0 8:0.0 9:15.0 10:1.0 11:15.0 12:0.386 13:24.0 14:0.933 15:1.0 16:24.0 33:1.0 
1.1 0:0.028 1:0.036 2:0.069 3:0.0 4:0.116 5:0.135 6:0.081 7:1.0 8:0.042 9:29.0 10:0.906 11:29.0 12:0.405 13:49.0 14:0.875 15:0.922 16:51.0 17:1.0 
1.1 0:0.344 1:0.361 2:0.17 3:0.0 4:0.07 5:0.067 6:0.0 7:0.0 8:0.0 9:23.0 10:0.92 11:23.0 12:0.388 13:45.0 14:0.92 15:0.92 16:45.0 23:1.0 
1.1 0:0.061 1:0.118 2:0.123 3:0.0 4:0.056 5:0.116 6:0.0 7:0.0 8:0.0 9:22.0 10:1.0 11:22.0 12:0.395 13:39.0 14:0.909 15:1.0 16:41.0 22:1.0 
1.1 0:0.158 1:0.08 2:0.158 3:0.116 4:0.12 5:0.088 6:0.095 7:1.0 8:0.05 9:23.0 10:1.0 11:23.0 12:0.225 13:42.0 14:0.913 15:1.0 16:42.0 22:1.0 
1.1 0:0.073 1:0.092 2:0.13 3:0.163 4:0.148 5:0.107 6:0.118 7:1.0 8:0.059 9:29.0 10:1.0 11:29.0 12:0.388 13:46.0 14:0.931 15:1.0 16:46.0 22:1.0 
1.1 0:0.106 1:0.124 2:0.133 3:0.0 4:0.0 5:0.014 6:0.0 7:0.0 8:0.0 9:26.0 10:0.963 11:26.0 12:0.365 13:42.0 14:0.963 15:0.963 16:42.0 18:1.0 
1.1 0:0.104 1:0.133 2:0.1 3:0.0 4:0.0 5:0.015 6:0.0 7:0.0 8:0.0 9:21.0 10:1.0 11:21.0 12:0.0 13:41.0 14:1.0 15:1.0 16:39.0 22:1.0 
1.1 0:0.266 1:0.454 2:0.274 3:0.133 4:0.171 5:0.15 6:0.0 7:0.0 8:0.0 9:15.0 10:1.0 11:15.0 12:0.0 13:28.0 14:1.0 15:1.0 16:26.0 22:1.0 
1.1 0:0.079 1:0.082 2:0.108 3:0.146 4:0.108 5:0.108 6:0.0 7:0.0 8:0.0 9:24.0 10:1.0 11:24.0 12:0.362 13:45.0 14:0.958 15:1.0 16:45.0 22:1.0 
1.1 0:0.0 1:0.002 2:0.061 3:0.0 4:0.0 5:0.014 6:0.0 7:0.0 8:0.0 9:30.0 10:0.968 11:30.0 12:0.366 13:44.0 14:0.968 15:0.968 16:44.0 24:1.0 
1.1 0:0.002 1:0.003 2:0.107 3:0.0 4:0.048 5:0.056 6:0.0 7:0.0 8:0.0 9:19.0 10:1.0 11:19.0 12:0.0 13:33.0 14:1.0 15:1.0 16:31.0 17:1.0 
1.1 0:0.043 1:0.085 2:0.177 3:0.141 4:0.188 5:0.123 6:0.0 7:0.0 8:0.0 9:25.0 10:1.0 11:25.0 12:0.372 13:36.0 14:0.96 15:1.0 16:36.0 21:1.0 
0.7871761017209946 0:0.223 1:0.241 2:0.388 3:0.0 4:0.122 5:0.241 6:0.0 7:0.0 8:0.0 9:28.0 10:0.966 11:28.0 12:0.391 13:44.0 14:0.931 15:0.966 16:46.0 27:1.0 
1.1 0:0.167 1:0.182 2:0.197 3:0.121 4:0.166 5:0.172 6:0.0 7:0.0 8:0.0 9:23.0 10:1.0 11:23.0 12:0.0 13:44.0 14:1.0 15:1.0 16:42.0 22:1.0 
1.1 0:0.243 1:0.225 2:0.143 3:0.244 4:0.127 5:0.105 6:0.0 7:0.0 8:0.0 9:23.0 10:1.0 11:23.0 12:0.0 13:35.0 14:1.0 15:1.0 16:33.0 23:1.0 
1.1 0:0.064 1:0.084 2:0.18 3:0.038 4:0.04 5:0.052 6:0.109 7:1.0 8:0.063 9:27.0 10:0.9 11:27.0 12:0.414 13:45.0 14:0.9 15:0.883 16:47.0 24:1.0 
1.1 0:0.049 1:0.057 2:0.179 3:0.07 4:0.025 5:0.014 6:0.091 7:1.0 8:0.045 9:22.0 10:1.0 11:22.0 12:0.32 13:37.0 14:0.909 15:1.0 16:37.0 22:1.0 
1.1 0:0.019 1:0.023 2:0.098 3:0.243 4:0.081 5:0.069 6:0.136 7:1.0 8:0.071 9:24.0 10:0.857 11:24.0 12:0.459 13:40.0 14:0.75 15:0.875 16:46.0 42:1.0 
1.1 0:0.245 1:0.198 2:0.164 3:0.0 4:0.074 5:0.099 6:0.0 7:0.0 8:0.0 9:22.0 10:1.0 11:22.0 12:0.0 13:37.0 14:1.0 15:1.0 16:35.0 22:1.0 
1.1 0:0.046 1:0.313 2:0.275 3:0.071 4:0.032 5:0.106 6:0.0 7:0.0 8:0.0 9:22.0 10:0.957 11:22.0 12:0.365 13:40.0 14:0.957 15:0.957 16:40.0 38:1.0 
1.1 0:0.876 1:0.923 2:0.22 3:0.0 4:0.017 5:0.014 6:0.0 7:0.0 8:0.0 9:29.0 10:1.0 11:29.0 12:0.0 13:38.0 14:1.0 15:1.0 16:36.0 24:1.0 
1.1 0:0.046 1:0.029 2:0.176 3:0.0 4:0.1 5:0.095 6:0.098 7:1.0 8:0.05 9:27.0 10:0.931 11:27.0 12:0.418 13:43.0 14:0.897 15:0.931 16:45.0 24:1.0 
1.1 0:0.002 1:0.012 2:0.163 3:0.222 4:0.145 5:0.119 6:0.0 7:0.0 8:0.0 9:25.0 10:1.0 11:25.0 12:0.0 13:46.0 14:1.0 15:1.0 16:44.0 22:1.0 
1.1 0:0.063 1:0.086 2:0.147 3:0.218 4:0.29 5:0.231 6:0.075 7:1.0 8:0.038 9:29.0 10:1.0 11:29.0 12:0.404 13:51.0 14:0.897 15:1.0 16:53.0 23:1.0 
1.1 0:0.002 1:0.01 2:0.085 3:0.169 4:0.148 5:0.107 6:0.0 7:0.0 8:0.0 9:29.0 10:1.0 11:29.0 12:0.361 13:48.0 14:0.966 15:1.0 16:48.0 22:1.0 
1.1 0:0.021 1:0.059 2:0.133 3:0.0 4:0.0 5:0.025 6:0.0 7:0.0 8:0.0 9:23.0 10:0.958 11:23.0 12:0.378 13:33.0 14:0.958 15:0.958 16:33.0 21:1.0 
1.1 0:0.021 1:0.022 2:0.112 3:0.135 4:0.079 5:0.05 6:0.0 7:0.0 8:0.0 9:18.0 10:1.0 11:18.0 12:0.37 13:34.0 14:0.944 15:1.0 16:34.0 25:1.0 
0.19106581498298247 0:0.955 1:0.957 2:0.961 3:0.888 4:0.909 5:0.924 6:1.0 7:11.0 8:1.0 9:3.0 10:0.1 11:3.0 12:0.94 13:6.0 14:0.1 15:0.1 16:12.0 17:1.0 
1.1 0:0.087 1:0.087 2:0.247 3:0.032 4:0.215 5:0.158 6:0.0 7:0.0 8:0.0 9:19.0 10:0.95 11:19.0 12:0.367 13:36.0 14:0.9 15:0.975 16:38.0 22:1.0 
1.1 0:0.021 1:0.063 2:0.197 3:0.0 4:0.0 5:0.0 6:0.0 7:0.0 8:0.0 9:20.0 10:1.0 11:20.0 12:0.433 13:34.0 14:0.85 15:1.0 16:38.0 21:1.0 
1.1 0:0.014 1:0.011 2:0.11 3:0.232 4:0.14 5:0.107 6:0.0 7:0.0 8:0.0 9:20.0 10:0.952 11:20.0 12:0.404 13:34.0 14:0.905 15:0.952 16:36.0 22:1.0 
1.1 0:0.109 1:0.164 2:0.189 3:0.208 4:0.117 5:0.133 6:0.0 7:0.0 8:0.0 9:25.0 10:1.0 11:25.0 12:0.0 13:37.0 14:1.0 15:1.0 16:35.0 19:1.0 
1.1 0:0.068 1:0.089 2:0.123 3:0.078 4:0.19 5:0.133 6:0.0 7:0.0 8:0.0 9:32.0 10:1.0 11:32.0 12:0.295 13:52.0 14:0.938 15:1.0 16:52.0 23:1.0 
1.1 0:0.005 1:0.01 2:0.093 3:0.0 4:0.0 5:0.0 6:0.0 7:0.0 8:0.0 9:22.0 10:1.0 11:22.0 12:0.0 13:44.0 14:1.0 15:1.0 16:42.0 21:1.0 
1.1 0:0.018 1:0.032 2:0.18 3:0.048 4:0.057 5:0.041 6:0.0 7:0.0 8:0.0 9:24.0 10:1.0 11:24.0 12:0.0 13:44.0 14:1.0 15:1.0 16:42.0 22:1.0 
1.1 0:0.012 1:0.028 2:0.124 3:0.163 4:0.077 5:0.06 6:0.0 7:0.0 8:0.0 9:17.0 10:1.0 11:17.0 12:0.0 13:31.0 14:0.941 15:1.0 16:31.0 22:1.0 
1.1 0:0.21 1:0.212 2:0.275 3:0.0 4:0.0 5:0.13 6:0.0 7:0.0 8:0.0 9:28.0 10:1.0 11:28.0 12:0.219 13:49.0 14:0.964 15:1.0 16:49.0 22:1.0 
1.1 0:0.0 1:0.0 2:0.114 3:0.0 4:0.0 5:0.0 6:0.088 7:1.0 8:0.045 9:27.0 10:0.9 11:27.0 12:0.413 13:49.0 14:0.833 15:0.883 16:53.0 42:1.0 
1.1 0:0.252 1:0.267 2:0.112 3:0.048 4:0.135 5:0.12 6:0.0 7:0.0 8:0.0 9:22.0 10:1.0 11:22.0 12:0.0 13:43.0 14:1.0 15:1.0 16:41.0 23:1.0 
1.1 0:0.347 1:0.412 2:0.152 3:0.13 4:0.11 5:0.129 6:0.0 7:0.0 8:0.0 9:26.0 10:1.0 11:26.0 12:0.368 13:39.0 14:0.962 15:1.0 16:39.0 39:1.0 
1.1 0:0.496 1:0.506 2:0.196 3:0.139 4:0.136 5:0.266 6:0.0 7:0.0 8:0.0 9:34.0 10:1.0 11:34.0 12:0.0 13:48.0 14:0.971 15:1.0 16:48.0 17:1.0 
1.1 0:0.116 1:0.18 2:0.202 3:0.32 4:0.154 5:0.135 6:0.0 7:0.0 8:0.0 9:22.0 10:1.0 11:22.0 12:0.0 13:40.0 14:1.0 15:1.0 16:38.0 22:1.0 
1.1 0:0.011 1:0.045 2:0.089 3:0.052 4:0.082 5:0.073 6:0.0 7:0.0 8:0.0 9:20.0 10:1.0 11:20.0 12:0.372 13:33.0 14:0.95 15:1.0 16:33.0 21:1.0 
1.1 0:0.003 1:0.005 2:0.063 3:0.17 4:0.099 5:0.163 6:0.0 7:0.0 8:0.0 9:21.0 10:1.0 11:21.0 12:0.0 13:41.0 14:1.0 15:1.0 16:39.0 22:1.0 
1.1 0:0.087 1:0.134 2:0.174 3:0.037 4:0.024 5:0.049 6:0.0 7:0.0 8:0.0 9:19.0 10:0.95 11:19.0 12:0.374 13:32.0 14:0.95 15:0.95 16:32.0 24:1.0 
1.1 0:0.022 1:0.043 2:0.139 3:0.051 4:0.022 5:0.164 6:0.0 7:0.0 8:0.0 9:27.0 10:1.0 11:27.0 12:0.362 13:46.0 14:0.963 15:1.0 16:46.0 22:1.0 
1.1 0:0.001 1:0.002 2:0.092 3:0.0 4:0.0 5:0.0 6:0.0 7:0.0 8:0.0 9:30.0 10:1.0 11:30.0 12:0.264 13:51.0 14:0.933 15:1.0 16:53.0 24:1.0 
1.1 0:0.178 1:0.21 2:0.163 3:0.154 4:0.117 5:0.123 6:0.0 7:0.0 8:0.0 9:24.0 10:1.0 11:24.0 12:0.0 13:34.0 14:0.958 15:1.0 16:34.0 23:1.0 
1.1 0:0.069 1:0.128 2:0.325 3:0.0 4:0.128 5:0.149 6:0.0 7:0.0 8:0.0 9:20.0 10:1.0 11:20.0 12:0.0 13:35.0 14:1.0 15:1.0 16:33.0 23:1.0 
1.1 0:0.021 1:0.017 2:0.064 3:0.065 4:0.031 5:0.021 6:0.0 7:0.0 8:0.0 9:21.0 10:1.0 11:21.0 12:0.0 13:40.0 14:1.0 15:1.0 16:38.0 20:1.0 
1.1 0:0.037 1:0.045 2:0.066 3:0.105 4:0.061 5:0.069 6:0.0 7:0.0 8:0.0 9:23.0 10:0.958 11:23.0 12:0.319 13:38.0 14:0.917 15:0.958 16:40.0 18:1.0 
1.1 0:0.182 1:0.149 2:0.242 3:0.125 4:0.106 5:0.114 6:0.0 7:0.0 8:0.0 9:24.0 10:1.0 11:24.0 12:0.368 13:38.0 14:0.958 15:1.0 16:38.0 20:1.0 
1.1 0:0.088 1:0.115 2:0.134 3:0.309 4:0.274 5:0.231 6:0.0 7:0.0 8:0.0 9:24.0 10:0.96 11:24.0 12:0.419 13:41.0 14:0.88 15:0.96 16:45.0 22:1.0 
1.1 0:0.024 1:0.011 2:0.046 3:0.02 4:0.059 5:0.09 6:0.118 7:1.0 8:0.063 9:19.0 10:0.905 11:19.0 12:0.48 13:29.0 14:0.81 15:0.905 16:31.0 17:1.0 
1.1 0:0.037 1:0.039 2:0.127 3:0.0 4:0.0 5:0.008 6:0.0 7:0.0 8:0.0 9:26.0 10:1.0 11:26.0 12:0.0 13:44.0 14:1.0 15:1.0 16:42.0 20:1.0 
1.1 0:0.019 1:0.031 2:0.156 3:0.102 4:0.065 5:0.176 6:0.0 7:0.0 8:0.0 9:24.0 10:0.96 11:24.0 12:0.415 13:43.0 14:0.88 15:0.96 16:47.0 22:1.0 
1.1 0:0.226 1:0.388 2:0.137 3:0.192 4:0.141 5:0.125 6:0.0 7:0.0 8:0.0 9:25.0 10:0.962 11:25.0 12:0.388 13:45.0 14:0.923 15:0.962 16:47.0 17:1.0 
1.1 0:0.048 1:0.052 2:0.305 3:0.136 4:0.144 5:0.279 6:0.0 7:0.0 8:0.0 9:21.0 10:1.0 11:21.0 12:0.452 13:29.0 14:0.857 15:1.0 16:31.0 38:1.0 
1.1 0:0.1 1:0.167 2:0.055 3:0.036 4:0.081 5:0.108 6:0.083 7:1.0 8:0.056 9:33.0 10:0.943 11:33.0 12:0.387 13:50.0 14:0.943 15:0.943 16:50.0 18:1.0 
1.1 0:0.034 1:0.039 2:0.071 3:0.032 4:0.032 5:0.026 6:0.0 7:0.0 8:0.0 9:24.0 10:1.0 11:24.0 12:0.362 13:44.0 14:0.958 15:1.0 16:44.0 22:1.0 
1.1 0:0.0 1:0.0 2:0.113 3:0.0 4:0.027 5:0.026 6:0.129 7:1.0 8:0.063 9:21.0 10:0.75 11:21.0 12:0.533 13:34.0 14:0.75 15:0.75 16:34.0 23:1.0 
1.1 0:0.018 1:0.022 2:0.206 3:0.0 4:0.0 5:0.0 6:0.0 7:0.0 8:0.0 9:10.0 10:1.0 11:10.0 12:0.404 13:17.0 14:0.9 15:1.0 16:17.0 28:1.0 
1.1 0:0.004 1:0.005 2:0.106 3:0.286 4:0.167 5:0.105 6:0.101 7:1.0 8:0.053 9:22.0 10:1.0 11:22.0 12:0.395 13:39.0 14:0.909 15:1.0 16:39.0 22:1.0 
1.1 0:0.025 1:0.035 2:0.226 3:0.0 4:0.0 5:0.02 6:0.0 7:0.0 8:0.0 9:23.0 10:1.0 11:23.0 12:0.0 13:38.0 14:1.0 15:1.0 16:36.0 22:1.0 
1.1 0:0.008 1:0.013 2:0.11 3:0.0 4:0.008 5:0.051 6:0.118 7:1.0 8:0.063 9:21.0 10:1.0 11:21.0 12:0.402 13:35.0 14:0.905 15:1.0 16:35.0 24:1.0 
1.1 0:0.029 1:0.041 2:0.171 3:0.082 4:0.106 5:0.176 6:0.105 7:1.0 8:0.056 9:20.0 10:1.0 11:20.0 12:0.4 13:36.0 14:0.9 15:1.0 16:36.0 37:1.0 
1.1 0:0.068 1:0.103 2:0.13 3:0.117 4:0.076 5:0.058 6:0.0 7:0.0 8:0.0 9:37.0 10:1.0 11:37.0 12:0.0 13:59.0 14:1.0 15:1.0 16:57.0 17:1.0 
1.1 0:0.0 1:0.0 2:0.096 3:0.0 4:0.0 5:0.0 6:0.0 7:0.0 8:0.0 9:25.0 10:1.0 11:25.0 12:0.0 13:47.0 14:0.96 15:1.0 16:47.0 20:1.0 
1.1 0:0.249 1:0.281 2:0.172 3:0.108 4:0.069 5:0.112 6:0.0 7:0.0 8:0.0 9:25.0 10:1.0 11:25.0 12:0.0 13:42.0 14:1.0 15:1.0 16:40.0 17:1.0 
1.1 0:0.011 1:0.019 2:0.204 3:0.039 4:0.058 5:0.086 6:0.0 7:0.0 8:0.0 9:21.0 10:1.0 11:21.0 12:0.402 13:35.0 14:0.905 15:1.0 16:37.0 27:1.0 
1.1 0:0.126 1:0.156 2:0.263 3:0.261 4:0.185 5:0.146 6:0.0 7:0.0 8:0.0 9:21.0 10:1.0 11:21.0 12:0.37 13:33.0 14:0.905 15:1.0 16:35.0 22:1.0 
1.1 0:0.271 1:0.268 2:0.231 3:0.0 4:0.0 5:0.054 6:0.0 7:0.0 8:0.0 9:21.0 10:0.955 11:21.0 12:0.405 13:34.0 14:0.909 15:0.955 16:34.0 25:1.0 
1.1 0:0.084 1:0.092 2:0.077 3:0.0 4:0.049 5:0.1 6:0.095 7:1.0 8:0.05 9:27.0 10:0.964 11:27.0 12:0.442 13:42.0 14:0.857 15:0.964 16:44.0 17:1.0 
1.1 0:0.008 1:0.008 2:0.051 3:0.0 4:0.116 5:0.065 6:0.0 7:0.0 8:0.0 9:26.0 10:1.0 11:26.0 12:0.0 13:43.0 14:1.0 15:1.0 16:41.0 22:1.0 
1.1 0:0.25 1:0.255 2:0.319 3:0.167 4:0.1 5:0.075 6:0.0 7:0.0 8:0.0 9:17.0 10:0.895 11:17.0 12:0.405 13:33.0 14:0.895 15:0.895 16:35.0 20:1.0 
1.1 0:0.402 1:0.588 2:0.271 3:0.0 4:0.0 5:0.015 6:0.0 7:0.0 8:0.0 9:25.0 10:0.962 11:25.0 12:0.248 13:36.0 14:0.962 15:0.962 16:36.0 20:1.0 
1.1 0:0.049 1:0.054 2:0.151 3:0.0 4:0.0 5:0.0 6:0.0 7:0.0 8:0.0 9:29.0 10:1.0 11:29.0 12:0.0 13:49.0 14:1.0 15:1.0 16:47.0 22:1.0 
1.1 0:0.002 1:0.004 2:0.122 3:0.0 4:0.0 5:0.039 6:0.0 7:0.0 8:0.0 9:21.0 10:1.0 11:21.0 12:0.0 13:32.0 14:1.0 15:1.0 16:30.0 22:1.0 
1.1 0:0.175 1:0.219 2:0.41 3:0.0 4:0.023 5:0.036 6:0.0 7:0.0 8:0.0 9:18.0 10:1.0 11:18.0 12:0.0 13:33.0 14:1.0 15:1.0 16:31.0 22:1.0 
1.1 0:0.054 1:0.081 2:0.106 3:0.101 4:0.099 5:0.107 6:0.092 7:1.0 8:0.048 9:25.0 10:1.0 11:25.0 12:0.409 13:39.0 14:0.84 15:1.0 16:41.0 25:1.0 
1.1 0:0.002 1:0.013 2:0.094 3:0.034 4:0.015 5:0.029 6:0.0 7:0.0 8:0.0 9:27.0 10:0.964 11:27.0 12:0.387 13:46.0 14:0.929 15:0.964 16:48.0 22:1.0 
1.1 0:0.022 1:0.026 2:0.114 3:0.083 4:0.148 5:0.132 6:0.0 7:0.0 8:0.0 9:24.0 10:1.0 11:24.0 12:0.222 13:44.0 14:0.917 15:1.0 16:46.0 22:1.0 
1.1 0:0.035 1:0.047 2:0.127 3:0.0 4:0.045 5:0.063 6:0.129 7:1.0 8:0.067 9:26.0 10:0.963 11:26.0 12:0.387 13:46.0 14:0.926 15:0.963 16:48.0 25:1.0 
1.1 0:0.0 1:0.0 2:0.135 3:0.115 4:0.044 5:0.066 6:0.0 7:0.0 8:0.0 9:20.0 10:0.952 11:20.0 12:0.37 13:35.0 14:0.952 15:0.929 16:35.0 22:1.0 
1.1 0:0.003 1:0.002 2:0.039 3:0.0 4:0.054 5:0.007 6:0.196 7:1.0 8:0.059 9:26.0 10:0.929 11:26.0 12:0.358 13:44.0 14:0.893 15:0.929 16:46.0 17:1.0 
1.1 0:0.142 1:0.167 2:0.265 3:0.179 4:0.128 5:0.109 6:0.0 7:0.0 8:0.0 9:15.0 10:1.0 11:15.0 12:0.0 13:29.0 14:1.0 15:1.0 16:27.0 22:1.0 
1.1 0:0.206 1:0.255 2:0.375 3:0.0 4:0.0 5:0.0 6:0.0 7:0.0 8:0.0 9:30.0 10:1.0 11:30.0 12:0.357 13:52.0 14:0.933 15:1.0 16:54.0 22:1.0 
1.1 0:0.004 1:0.007 2:0.062 3:0.0 4:0.011 5:0.072 6:0.077 7:1.0 8:0.04 9:29.0 10:1.0 11:29.0 12:0.383 13:50.0 14:0.931 15:1.0 16:52.0 22:1.0 
1.1 0:0.024 1:0.072 2:0.248 3:0.132 4:0.083 5:0.107 6:0.0 7:0.0 8:0.0 9:29.0 10:1.0 11:29.0 12:0.0 13:41.0 14:1.0 15:1.0 16:39.0 22:1.0 
1.1 0:0.0 1:0.0 2:0.034 3:0.0 4:0.0 5:0.013 6:0.0 7:0.0 8:0.0 9:29.0 10:1.0 11:29.0 12:0.0 13:51.0 14:1.0 15:1.0 16:49.0 23:1.0 
1.1 0:0.108 1:0.125 2:0.163 3:0.066 4:0.255 5:0.335 6:0.0 7:0.0 8:0.0 9:23.0 10:0.958 11:23.0 12:0.39 13:43.0 14:0.917 15:0.958 16:45.0 25:1.0 
1.1 0:0.375 1:0.262 2:0.223 3:0.0 4:0.082 5:0.09 6:0.0 7:0.0 8:0.0 9:30.0 10:1.0 11:30.0 12:0.257 13:53.0 14:0.9 15:1.0 16:57.0 22:1.0 
1.1 0:0.099 1:0.102 2:0.276 3:0.0 4:0.0 5:0.027 6:0.0 7:0.0 8:0.0 9:19.0 10:1.0 11:19.0 12:0.0 13:33.0 14:1.0 15:1.0 16:31.0 21:1.0 
1.1 0:0.054 1:0.055 2:0.116 3:0.144 4:0.094 5:0.107 6:0.091 7:1.0 8:0.048 9:22.0 10:1.0 11:22.0 12:0.399 13:37.0 14:0.909 15:1.0 16:37.0 22:1.0 
1.1 0:0.028 1:0.11 2:0.07 3:0.0 4:0.018 5:0.009 6:0.0 7:0.0 8:0.0 9:28.0 10:1.0 11:28.0 12:0.0 13:40.0 14:1.0 15:1.0 16:38.0 24:1.0 
1.1 0:0.004 1:0.005 2:0.118 3:0.043 4:0.056 5:0.129 6:0.0 7:0.0 8:0.0 9:23.0 10:0.958 11:23.0 12:0.317 13:39.0 14:0.917 15:0.958 16:41.0 17:1.0 
1.1 0:0.014 1:0.021 2:0.099 3:0.05 4:0.163 5:0.139 6:0.0 7:0.0 8:0.0 9:23.0 10:1.0 11:23.0 12:0.0 13:45.0 14:1.0 15:1.0 16:43.0 22:1.0 
1.1 0:0.217 1:0.293 2:0.093 3:0.0 4:0.063 5:0.093 6:0.0 7:0.0 8:0.0 9:27.0 10:1.0 11:27.0 12:0.0 13:41.0 14:1.0 15:1.0 16:39.0 18:1.0 
1.1 0:0.082 1:0.101 2:0.123 3:0.0 4:0.0 5:0.0 6:0.0 7:0.0 8:0.0 9:22.0 10:1.0 11:22.0 12:0.0 13:34.0 14:1.0 15:1.0 16:32.0 24:1.0 
1.1 0:0.232 1:0.309 2:0.338 3:0.103 4:0.083 5:0.134 6:0.0 7:0.0 8:0.0 9:21.0 10:1.0 11:21.0 12:0.0 13:36.0 14:1.0 15:1.0 16:34.0 20:1.0 
0.48463243916589227 0:0.88 1:0.907 2:0.627 3:0.028 4:0.053 5:0.088 6:0.077 7:1.0 8:0.04 9:38.0 10:0.95 11:38.0 12:0.299 13:59.0 14:0.875 15:0.95 16:65.0 20:1.0 
0.26109913887585967 0:0.095 1:0.254 2:0.144 3:0.087 4:0.06 5:0.039 6:0.059 7:1.0 8:0.045 9:41.0 10:0.891 11:41.0 12:0.401 13:51.0 14:0.87 15:0.88 16:57.0 17:1.0 
1.1 0:0.029 1:0.041 2:0.168 3:0.069 4:0.109 5:0.151 6:0.0 7:0.0 8:0.0 9:28.0 10:0.966 11:28.0 12:0.418 13:43.0 14:0.897 15:0.983 16:45.0 23:1.0 
1.1 0:0.099 1:0.112 2:0.189 3:0.114 4:0.033 5:0.084 6:0.0 7:0.0 8:0.0 9:24.0 10:1.0 11:24.0 12:0.362 13:43.0 14:0.917 15:1.0 16:45.0 23:1.0 
1.1 0:0.002 1:0.004 2:0.116 3:0.06 4:0.049 5:0.226 6:0.0 7:0.0 8:0.0 9:23.0 10:1.0 11:23.0 12:0.427 13:37.0 14:0.87 15:1.0 16:39.0 17:1.0 
1.1 0:0.043 1:0.081 2:0.099 3:0.034 4:0.016 5:0.012 6:0.0 7:0.0 8:0.0 9:26.0 10:1.0 11:26.0 12:0.0 13:50.0 14:0.962 15:1.0 16:50.0 25:1.0 
1.1 0:0.011 1:0.024 2:0.15 3:0.08 4:0.082 5:0.078 6:0.0 7:0.0 8:0.0 9:42.0 10:1.0 11:42.0 12:0.0 13:57.0 14:0.976 15:1.0 16:57.0 24:1.0 
1.1 0:0.108 1:0.104 2:0.127 3:0.129 4:0.18 5:0.168 6:0.0 7:0.0 8:0.0 9:24.0 10:1.0 11:24.0 12:0.361 13:46.0 14:0.958 15:1.0 16:46.0 23:1.0 
1.1 0:0.029 1:0.051 2:0.049 3:0.121 4:0.062 5:0.061 6:0.0 7:0.0 8:0.0 9:22.0 10:1.0 11:22.0 12:0.0 13:39.0 14:1.0 15:1.0 16:37.0 21:1.0 
1.1 0:0.153 1:0.174 2:0.121 3:0.112 4:0.088 5:0.064 6:0.0 7:0.0 8:0.0 9:20.0 10:1.0 11:20.0 12:0.0 13:35.0 14:1.0 15:1.0 16:33.0 22:1.0 
1.1 0:0.05 1:0.092 2:0.254 3:0.0 4:0.0 5:0.02 6:0.114 7:1.0 8:0.059 9:27.0 10:0.964 11:27.0 12:0.0 13:40.0 14:0.964 15:0.964 16:40.0 22:1.0 
1.1 0:0.079 1:0.105 2:0.111 3:0.111 4:0.069 5:0.159 6:0.0 7:0.0 8:0.0 9:19.0 10:1.0 11:19.0 12:0.375 13:31.0 14:0.947 15:1.0 16:31.0 17:1.0 
1.1 0:0.085 1:0.089 2:0.195 3:0.046 4:0.097 5:0.148 6:0.0 7:0.0 8:0.0 9:25.0 10:1.0 11:25.0 12:0.362 13:45.0 14:0.96 15:1.0 16:45.0 22:1.0 
1.1 0:0.126 1:0.171 2:0.195 3:0.0 4:0.0 5:0.0 6:0.0 7:0.0 8:0.0 9:23.0 10:1.0 11:23.0 12:0.458 13:35.0 14:0.826 15:1.0 16:39.0 17:1.0 
1.1 0:0.253 1:0.275 2:0.06 3:0.048 4:0.031 5:0.053 6:0.0 7:0.0 8:0.0 9:24.0 10:1.0 11:24.0 12:0.393 13:41.0 14:0.917 15:1.0 16:43.0 25:1.0 
1.1 0:0.068 1:0.094 2:0.077 3:0.056 4:0.098 5:0.052 6:0.0 7:0.0 8:0.0 9:23.0 10:0.958 11:23.0 12:0.225 13:44.0 14:0.958 15:0.958 16:44.0 17:1.0 
1.1 0:0.276 1:0.293 2:0.209 3:0.0 4:0.201 5:0.184 6:0.0 7:0.0 8:0.0 9:26.0 10:0.963 11:26.0 12:0.395 13:41.0 14:0.926 15:0.963 16:43.0 20:1.0 
1.1 0:0.058 1:0.137 2:0.206 3:0.147 4:0.081 5:0.12 6:0.0 7:0.0 8:0.0 9:28.0 10:0.933 11:28.0 12:0.214 13:53.0 14:0.933 15:0.933 16:55.0 23:1.0 
1.1 0:0.047 1:0.03 2:0.104 3:0.105 4:0.055 5:0.077 6:0.0 7:0.0 8:0.0 9:22.0 10:1.0 11:22.0 12:0.32 13:37.0 14:0.909 15:1.0 16:37.0 17:1.0 
1.1 0:0.041 1:0.108 2:0.223 3:0.21 4:0.151 5:0.094 6:0.0 7:0.0 8:0.0 9:23.0 10:1.0 11:23.0 12:0.393 13:41.0 14:0.913 15:1.0 16:43.0 21:1.0 
1.1 0:0.442 1:0.546 2:0.222 3:0.144 4:0.259 5:0.198 6:0.092 7:1.0 8:0.048 9:42.0 10:0.977 11:42.0 12:0.381 13:60.0 14:0.953 15:0.977 16:60.0 17:1.0 
1.1 0:0.036 1:0.111 2:0.236 3:0.043 4:0.086 5:0.081 6:0.0 7:0.0 8:0.0 9:23.0 10:1.0 11:23.0 12:0.0 13:43.0 14:1.0 15:1.0 16:41.0 19:1.0 
1.1 0:0.106 1:0.206 2:0.299 3:0.135 4:0.213 5:0.233 6:0.0 7:0.0 8:0.0 9:17.0 10:1.0 11:17.0 12:0.0 13:32.0 14:0.941 15:1.0 16:32.0 22:1.0 
1.1 0:0.122 1:0.131 2:0.184 3:0.023 4:0.016 5:0.028 6:0.0 7:0.0 8:0.0 9:25.0 10:1.0 11:25.0 12:0.0 13:44.0 14:1.0 15:1.0 16:42.0 22:1.0 
0.3561792046241238 0:0.198 1:0.173 2:0.272 3:0.313 4:0.572 5:0.529 6:0.0 7:0.0 8:0.0 9:16.0 10:0.941 11:16.0 12:0.381 13:23.0 14:0.824 15:0.941 16:23.0 24:1.0 
1.1 0:0.045 1:0.069 2:0.241 3:0.049 4:0.074 5:0.041 6:0.109 7:1.0 8:0.063 9:25.0 10:0.926 11:25.0 12:0.0 13:34.0 14:0.926 15:0.926 16:34.0 22:1.0 
1.1 0:0.196 1:0.312 2:0.157 3:0.249 4:0.11 5:0.103 6:0.0 7:0.0 8:0.0 9:22.0 10:1.0 11:22.0 12:0.0 13:42.0 14:1.0 15:1.0 16:40.0 22:1.0 
1.1 0:0.024 1:0.023 2:0.027 3:0.0 4:0.037 5:0.021 6:0.109 7:1.0 8:0.056 9:20.0 10:1.0 11:20.0 12:0.0 13:33.0 14:0.85 15:1.0 16:33.0 23:1.0 
1.1 0:0.003 1:0.005 2:0.176 3:0.105 4:0.121 5:0.209 6:0.0 7:0.0 8:0.0 9:25.0 10:1.0 11:25.0 12:0.0 13:48.0 14:1.0 15:1.0 16:46.0 22:1.0 
1.1 0:0.019 1:0.022 2:0.174 3:0.107 4:0.155 5:0.119 6:0.0 7:0.0 8:0.0 9:15.0 10:1.0 11:15.0 12:0.0 13:29.0 14:1.0 15:1.0 16:27.0 22:1.0 
1.1 0:0.033 1:0.049 2:0.119 3:0.132 4:0.132 5:0.136 6:0.0 7:0.0 8:0.0 9:27.0 10:1.0 11:27.0 12:0.358 13:51.0 14:0.963 15:1.0 16:51.0 22:1.0 
1.1 0:0.019 1:0.038 2:0.086 3:0.066 4:0.03 5:0.032 6:0.0 7:0.0 8:0.0 9:24.0 10:1.0 11:24.0 12:0.0 13:43.0 14:1.0 15:1.0 16:41.0 20:1.0 
0.04842790281314009 0:0.172 1:0.402 2:0.546 3:0.545 4:0.163 5:0.607 6:0.545 7:3.0 8:0.429 9:6.0 10:0.353 11:6.0 12:0.806 13:12.0 14:0.353 15:0.353 16:18.0 17:1.0 
1.1 0:0.003 1:0.004 2:0.139 3:0.026 4:0.137 5:0.189 6:0.0 7:0.0 8:0.0 9:21.0 10:1.0 11:21.0 12:0.0 13:42.0 14:1.0 15:1.0 16:40.0 22:1.0 
1.1 0:0.307 1:0.332 2:0.262 3:0.078 4:0.213 5:0.22 6:0.0 7:0.0 8:0.0 9:13.0 10:0.929 11:13.0 12:0.394 13:21.0 14:0.929 15:0.929 16:21.0 28:1.0 
1.1 0:0.105 1:0.173 2:0.26 3:0.0 4:0.1 5:0.138 6:0.0 7:0.0 8:0.0 9:23.0 10:1.0 11:23.0 12:0.364 13:40.0 14:0.913 15:1.0 16:42.0 22:1.0 
1.1 0:0.147 1:0.151 2:0.157 3:0.037 4:0.041 5:0.047 6:0.087 7:1.0 8:0.053 9:29.0 10:0.967 11:29.0 12:0.311 13:44.0 14:0.933 15:0.967 16:46.0 44:1.0 
1.1 0:0.065 1:0.078 2:0.437 3:0.181 4:0.212 5:0.367 6:0.0 7:0.0 8:0.0 9:41.0 10:0.953 11:41.0 12:0.434 13:60.0 14:0.884 15:0.953 16:68.0 25:1.0 
1.1 0:0.347 1:0.396 2:0.138 3:0.034 4:0.047 5:0.101 6:0.0 7:0.0 8:0.0 9:18.0 10:1.0 11:18.0 12:0.373 13:32.0 14:0.944 15:1.0 16:32.0 24:1.0 
1.1 0:0.0 1:0.0 2:0.0 3:0.0 4:0.0 5:0.0 6:0.0 7:0.0 8:0.0 9:23.0 10:1.0 11:23.0 12:0.0 13:44.0 14:1.0 15:1.0 16:42.0 23:1.0 
1.1 0:0.068 1:0.094 2:0.076 3:0.056 4:0.098 5:0.054 6:0.0 7:0.0 8:0.0 9:22.0 10:1.0 11:22.0 12:0.227 13:42.0 14:0.955 15:1.0 16:42.0 17:1.0 
1.1 0:0.024 1:0.034 2:0.132 3:0.049 4:0.032 5:0.087 6:0.0 7:0.0 8:0.0 9:21.0 10:0.955 11:21.0 12:0.376 13:30.0 14:0.909 15:0.955 16:32.0 22:1.0 
1.1 0:0.393 1:0.405 2:0.082 3:0.065 4:0.085 5:0.062 6:0.0 7:0.0 8:0.0 9:21.0 10:1.0 11:21.0 12:0.0 13:41.0 14:1.0 15:1.0 16:39.0 23:1.0 
1.1 0:0.052 1:0.074 2:0.098 3:0.035 4:0.075 5:0.07 6:0.087 7:1.0 8:0.045 9:28.0 10:0.933 11:28.0 12:0.383 13:50.0 14:0.933 15:0.917 16:50.0 22:1.0 
1.1 0:0.001 1:0.003 2:0.327 3:0.096 4:0.045 5:0.063 6:0.167 7:1.0 8:0.05 9:26.0 10:0.963 11:26.0 12:0.225 13:43.0 14:0.926 15:0.963 16:45.0 22:1.0 
0.41403320540215044 0:0.088 1:0.106 2:0.22 3:0.157 4:0.349 5:0.332 6:0.0 7:0.0 8:0.0 9:24.0 10:0.923 11:24.0 12:0.424 13:39.0 14:0.885 15:0.942 16:43.0 17:1.0 
1.1 0:0.0 1:0.0 2:0.054 3:0.0 4:0.015 5:0.009 6:0.0 7:0.0 8:0.0 9:24.0 10:1.0 11:24.0 12:0.0 13:48.0 14:1.0 15:1.0 16:46.0 23:1.0 
1.1 0:0.323 1:0.379 2:0.355 3:0.081 4:0.079 5:0.13 6:0.0 7:0.0 8:0.0 9:33.0 10:1.0 11:33.0 12:0.0 13:55.0 14:1.0 15:1.0 16:53.0 17:1.0 
1.1 0:0.214 1:0.204 2:0.136 3:0.069 4:0.059 5:0.039 6:0.0 7:0.0 8:0.0 9:24.0 10:1.0 11:24.0 12:0.362 13:45.0 14:0.958 15:1.0 16:45.0 23:1.0 
1.1 0:0.0 1:0.0 2:0.034 3:0.027 4:0.048 5:0.061 6:0.0 7:0.0 8:0.0 9:30.0 10:0.968 11:30.0 12:0.359 13:51.0 14:0.968 15:0.968 16:51.0 17:1.0 
1.1 0:0.026 1:0.074 2:0.189 3:0.037 4:0.19 5:0.134 6:0.0 7:0.0 8:0.0 9:23.0 10:1.0 11:23.0 12:0.0 13:38.0 14:1.0 15:1.0 16:36.0 21:1.0 
1.1 0:0.076 1:0.096 2:0.172 3:0.122 4:0.201 5:0.21 6:0.0 7:0.0 8:0.0 9:16.0 10:1.0 11:16.0 12:0.0 13:30.0 14:1.0 15:1.0 16:28.0 22:1.0 
1.1 0:0.218 1:0.282 2:0.069 3:0.04 4:0.043 5:0.045 6:0.0 7:0.0 8:0.0 9:25.0 10:1.0 11:25.0 12:0.389 13:44.0 14:0.92 15:1.0 16:46.0 22:1.0 
1.1 0:0.155 1:0.151 2:0.168 3:0.283 4:0.172 5:0.112 6:0.0 7:0.0 8:0.0 9:19.0 10:0.95 11:19.0 12:0.404 13:34.0 14:0.9 15:0.95 16:36.0 22:1.0 
1.1 0:0.012 1:0.012 2:0.059 3:0.0 4:0.041 5:0.024 6:0.134 7:1.0 8:0.071 9:22.0 10:0.957 11:22.0 12:0.407 13:32.0 14:0.87 15:0.957 16:34.0 24:1.0 
1.1 0:0.0 1:0.001 2:0.178 3:0.105 4:0.106 5:0.133 6:0.1 7:1.0 8:0.053 9:24.0 10:1.0 11:24.0 12:0.39 13:43.0 14:0.917 15:1.0 16:45.0 22:1.0 
1.1 0:0.09 1:0.121 2:0.196 3:0.0 4:0.26 5:0.336 6:0.0 7:0.0 8:0.0 9:23.0 10:1.0 11:23.0 12:0.0 13:36.0 14:1.0 15:1.0 16:34.0 21:1.0 
1.1 0:0.33 1:0.311 2:0.28 3:0.0 4:0.017 5:0.11 6:0.0 7:0.0 8:0.0 9:30.0 10:1.0 11:30.0 12:0.357 13:54.0 14:0.967 15:1.0 16:54.0 22:1.0 
1.1 0:0.084 1:0.132 2:0.122 3:0.043 4:0.029 5:0.066 6:0.0 7:0.0 8:0.0 9:24.0 10:1.0 11:24.0 12:0.0 13:36.0 14:0.958 15:1.0 16:36.0 20:1.0 
1.1 0:0.327 1:0.389 2:0.064 3:0.0 4:0.0 5:0.0 6:0.098 7:1.0 8:0.048 9:40.0 10:0.93 11:40.0 12:0.287 13:52.0 14:0.93 15:0.93 16:52.0 25:1.0 
1.1 0:0.0 1:0.001 2:0.178 3:0.105 4:0.106 5:0.133 6:0.1 7:1.0 8:0.053 9:24.0 10:1.0 11:24.0 12:0.39 13:43.0 14:0.917 15:1.0 16:45.0 22:1.0 
1.1 0:0.153 1:0.156 2:0.108 3:0.055 4:0.029 5:0.092 6:0.0 7:0.0 8:0.0 9:21.0 10:1.0 11:21.0 12:0.32 13:37.0 14:0.905 15:1.0 16:39.0 22:1.0 
1.1 0:0.224 1:0.252 2:0.172 3:0.06 4:0.07 5:0.072 6:0.0 7:0.0 8:0.0 9:23.0 10:0.958 11:23.0 12:0.4 13:37.0 14:0.917 15:0.958 16:39.0 22:1.0 
1.1 0:0.04 1:0.075 2:0.239 3:0.212 4:0.23 5:0.262 6:0.0 7:0.0 8:0.0 9:24.0 10:1.0 11:24.0 12:0.369 13:37.0 14:0.958 15:1.0 16:37.0 22:1.0 
1.1 0:0.0 1:0.0 2:0.067 3:0.0 4:0.079 5:0.135 6:0.0 7:0.0 8:0.0 9:24.0 10:1.0 11:24.0 12:0.363 13:43.0 14:0.958 15:1.0 16:43.0 17:1.0 
1.1 0:0.019 1:0.058 2:0.182 3:0.058 4:0.149 5:0.129 6:0.0 7:0.0 8:0.0 9:24.0 10:1.0 11:24.0 12:0.391 13:42.0 14:0.917 15:1.0 16:44.0 22:1.0 
1.1 0:0.022 1:0.029 2:0.049 3:0.0 4:0.052 5:0.063 6:0.0 7:0.0 8:0.0 9:22.0 10:1.0 11:22.0 12:0.367 13:38.0 14:0.955 15:1.0 16:38.0 17:1.0 
1.1 0:0.006 1:0.004 2:0.145 3:0.028 4:0.017 5:0.023 6:0.0 7:0.0 8:0.0 9:31.0 10:1.0 11:31.0 12:0.0 13:44.0 14:1.0 15:1.0 16:42.0 24:1.0 
1.1 0:0.008 1:0.01 2:0.035 3:0.0 4:0.015 5:0.011 6:0.0 7:0.0 8:0.0 9:21.0 10:1.0 11:21.0 12:0.0 13:33.0 14:1.0 15:1.0 16:31.0 17:1.0 
1.1 0:0.121 1:0.124 2:0.105 3:0.0 4:0.0 5:0.037 6:0.167 7:1.0 8:0.083 9:15.0 10:0.882 11:15.0 12:0.455 13:27.0 14:0.824 15:0.882 16:27.0 25:1.0 
1.1 0:0.176 1:0.196 2:0.289 3:0.0 4:0.041 5:0.102 6:0.0 7:0.0 8:0.0 9:24.0 10:0.923 11:24.0 12:0.308 13:43.0 14:0.923 15:0.923 16:45.0 17:1.0 
1.1 0:0.028 1:0.057 2:0.158 3:0.0 4:0.104 5:0.132 6:0.0 7:0.0 8:0.0 9:17.0 10:1.0 11:17.0 12:0.0 13:29.0 14:1.0 15:1.0 16:27.0 21:1.0 
1.1 0:0.279 1:0.368 2:0.542 3:0.0 4:0.0 5:0.0 6:0.0 7:0.0 8:0.0 9:30.0 10:1.0 11:30.0 12:0.0 13:53.0 14:1.0 15:1.0 16:51.0 22:1.0 
1.1 0:0.0 1:0.0 2:0.042 3:0.0 4:0.0 5:0.0 6:0.0 7:0.0 8:0.0 9:16.0 10:1.0 11:16.0 12:0.0 13:28.0 14:1.0 15:1.0 16:26.0 25:1.0 
1.1 0:0.192 1:0.164 2:0.183 3:0.0 4:0.0 5:0.075 6:0.0 7:0.0 8:0.0 9:24.0 10:1.0 11:24.0 12:0.389 13:44.0 14:0.917 15:1.0 16:44.0 17:1.0 
1.1 0:0.004 1:0.011 2:0.165 3:0.0 4:0.0 5:0.0 6:0.0 7:0.0 8:0.0 9:25.0 10:0.962 11:25.0 12:0.387 13:46.0 14:0.923 15:0.981 16:48.0 21:1.0 
0.4046244954764449 0:0.091 1:0.1 2:0.167 3:0.05 4:0.035 5:0.091 6:0.091 7:1.0 8:0.056 9:20.0 10:0.909 11:20.0 12:0.401 13:36.0 14:0.909 15:0.909 16:36.0 17:1.0 
1.1 0:0.393 1:0.342 2:0.608 3:0.316 4:0.31 5:0.379 6:0.101 7:2.0 8:0.065 9:40.0 10:1.0 11:40.0 12:0.325 13:72.0 14:0.925 15:1.0 16:72.0 17:1.0 
1.1 0:0.112 1:0.117 2:0.127 3:0.04 4:0.038 5:0.093 6:0.114 7:1.0 8:0.059 9:20.0 10:0.909 11:20.0 12:0.399 13:37.0 14:0.909 15:0.886 16:37.0 24:1.0 
1.1 0:0.116 1:0.195 2:0.11 3:0.0 4:0.029 5:0.018 6:0.0 7:0.0 8:0.0 9:28.0 10:0.966 11:28.0 12:0.349 13:48.0 14:0.897 15:0.966 16:52.0 21:1.0 
1.1 0:0.006 1:0.023 2:0.126 3:0.0 4:0.065 5:0.122 6:0.0 7:0.0 8:0.0 9:15.0 10:1.0 11:15.0 12:0.0 13:23.0 14:1.0 15:1.0 16:21.0 21:1.0 
1.1 0:0.005 1:0.009 2:0.089 3:0.0 4:0.013 5:0.064 6:0.0 7:0.0 8:0.0 9:20.0 10:0.952 11:20.0 12:0.4 13:34.0 14:0.857 15:0.952 16:38.0 24:1.0 
1.1 0:0.01 1:0.022 2:0.172 3:0.21 4:0.23 5:0.206 6:0.0 7:0.0 8:0.0 9:23.0 10:1.0 11:23.0 12:0.0 13:45.0 14:1.0 15:1.0 16:43.0 22:1.0 
1.1 0:0.002 1:0.003 2:0.138 3:0.0 4:0.0 5:0.0 6:0.0 7:0.0 8:0.0 9:24.0 10:1.0 11:24.0 12:0.0 13:36.0 14:1.0 15:1.0 16:34.0 22:1.0 
1.1 0:0.0 1:0.0 2:0.015 3:0.0 4:0.0 5:0.012 6:0.0 7:0.0 8:0.0 9:16.0 10:1.0 11:16.0 12:0.0 13:31.0 14:1.0 15:1.0 16:29.0 22:1.0 
1.1 0:0.002 1:0.002 2:0.099 3:0.0 4:0.144 5:0.11 6:0.118 7:1.0 8:0.063 9:24.0 10:1.0 11:24.0 12:0.312 13:39.0 14:0.875 15:1.0 16:39.0 24:1.0 
1.1 0:0.003 1:0.004 2:0.057 3:0.0 4:0.0 5:0.0 6:0.0 7:0.0 8:0.0 9:23.0 10:0.958 11:23.0 12:0.362 13:45.0 14:0.958 15:0.958 16:45.0 22:1.0 
1.1 0:0.011 1:0.02 2:0.072 3:0.012 4:0.032 5:0.034 6:0.112 7:1.0 8:0.059 9:19.0 10:1.0 11:19.0 12:0.0 13:30.0 14:0.947 15:1.0 16:30.0 20:1.0 
1.1 0:0.009 1:0.012 2:0.281 3:0.0 4:0.016 5:0.011 6:0.109 7:1.0 8:0.056 9:29.0 10:1.0 11:29.0 12:0.398 13:41.0 14:0.931 15:1.0 16:41.0 17:1.0 
1.1 0:0.039 1:0.074 2:0.102 3:0.046 4:0.051 5:0.126 6:0.129 7:1.0 8:0.063 9:22.0 10:0.917 11:22.0 12:0.428 13:28.0 14:0.875 15:0.896 16:30.0 24:1.0 
1.1 0:0.102 1:0.102 2:0.096 3:0.138 4:0.1 5:0.075 6:0.0 7:0.0 8:0.0 9:22.0 10:0.917 11:22.0 12:0.447 13:39.0 14:0.833 15:0.917 16:43.0 23:1.0 
1.1 0:0.09 1:0.138 2:0.204 3:0.0 4:0.054 5:0.139 6:0.0 7:0.0 8:0.0 9:28.0 10:1.0 11:28.0 12:0.383 13:50.0 14:0.929 15:1.0 16:52.0 22:1.0 
1.1 0:0.256 1:0.294 2:0.172 3:0.042 4:0.015 5:0.035 6:0.0 7:0.0 8:0.0 9:26.0 10:0.963 11:26.0 12:0.361 13:47.0 14:0.963 15:0.963 16:47.0 20:1.0 
1.1 0:0.049 1:0.049 2:0.109 3:0.056 4:0.025 5:0.023 6:0.0 7:0.0 8:0.0 9:16.0 10:0.941 11:16.0 12:0.373 13:32.0 14:0.941 15:0.941 16:32.0 22:1.0 
1.1 0:0.066 1:0.106 2:0.12 3:0.098 4:0.081 5:0.052 6:0.114 7:1.0 8:0.059 9:26.0 10:1.0 11:26.0 12:0.388 13:45.0 14:0.923 15:1.0 16:43.0 22:1.0 
1.1 0:0.025 1:0.021 2:0.188 3:0.0 4:0.057 5:0.037 6:0.112 7:1.0 8:0.059 9:22.0 10:0.917 11:22.0 12:0.428 13:37.0 14:0.875 15:0.917 16:39.0 17:1.0 
1.1 0:0.014 1:0.078 2:0.169 3:0.058 4:0.063 5:0.085 6:0.0 7:0.0 8:0.0 9:16.0 10:1.0 11:16.0 12:0.0 13:29.0 14:1.0 15:1.0 16:27.0 21:1.0 
1.1 0:0.228 1:0.335 2:0.112 3:0.0 4:0.0 5:0.0 6:0.096 7:1.0 8:0.05 9:31.0 10:0.969 11:31.0 12:0.399 13:55.0 14:0.906 15:0.984 16:57.0 17:1.0 
1.1 0:0.078 1:0.122 2:0.111 3:0.105 4:0.021 5:0.035 6:0.0 7:0.0 8:0.0 9:24.0 10:1.0 11:24.0 12:0.0 13:42.0 14:1.0 15:1.0 16:40.0 22:1.0 
1.1 0:0.059 1:0.143 2:0.167 3:0.211 4:0.222 5:0.178 6:0.0 7:0.0 8:0.0 9:24.0 10:1.0 11:24.0 12:0.0 13:36.0 14:1.0 15:1.0 16:34.0 21:1.0 
1.1 0:0.235 1:0.369 2:0.237 3:0.31 4:0.145 5:0.209 6:0.0 7:0.0 8:0.0 9:17.0 10:0.944 11:17.0 12:0.371 13:33.0 14:0.944 15:0.944 16:33.0 17:1.0 
1.1 0:0.179 1:0.197 2:0.154 3:0.09 4:0.066 5:0.122 6:0.0 7:0.0 8:0.0 9:27.0 10:0.964 11:27.0 12:0.218 13:50.0 14:0.964 15:0.964 16:50.0 17:1.0 
1.1 0:0.003 1:0.007 2:0.051 3:0.0 4:0.014 5:0.011 6:0.0 7:0.0 8:0.0 9:22.0 10:1.0 11:22.0 12:0.0 13:36.0 14:0.955 15:1.0 16:36.0 17:1.0 
1.1 0:0.101 1:0.1 2:0.124 3:0.0 4:0.0 5:0.0 6:0.0 7:0.0 8:0.0 9:12.0 10:0.857 11:12.0 12:0.442 13:21.0 14:0.857 15:0.857 16:21.0 33:1.0 
1.1 0:0.059 1:0.111 2:0.15 3:0.0 4:0.0 5:0.0 6:0.0 7:0.0 8:0.0 9:24.0 10:1.0 11:24.0 12:0.364 13:40.0 14:0.917 15:1.0 16:42.0 21:1.0 
1.1 0:0.083 1:0.104 2:0.202 3:0.0 4:0.086 5:0.078 6:0.0 7:0.0 8:0.0 9:28.0 10:1.0 11:28.0 12:0.408 13:48.0 14:0.893 15:1.0 16:52.0 24:1.0 
1.1 0:0.285 1:0.433 2:0.267 3:0.174 4:0.165 5:0.11 6:0.0 7:0.0 8:0.0 9:37.0 10:1.0 11:37.0 12:0.0 13:52.0 14:1.0 15:1.0 16:50.0 17:1.0 
1.1 0:0.246 1:0.262 2:0.584 3:0.228 4:0.208 5:0.198 6:0.112 7:1.0 8:0.059 9:32.0 10:1.0 11:32.0 12:0.0 13:39.0 14:0.938 15:1.0 16:39.0 24:1.0 
1.1 0:0.293 1:0.218 2:0.301 3:0.0 4:0.0 5:0.0 6:0.0 7:0.0 8:0.0 9:18.0 10:0.947 11:18.0 12:0.379 13:29.0 14:0.947 15:0.947 16:29.0 24:1.0 
1.1 0:0.124 1:0.178 2:0.132 3:0.075 4:0.133 5:0.139 6:0.0 7:0.0 8:0.0 9:24.0 10:1.0 11:24.0 12:0.362 13:44.0 14:0.958 15:1.0 16:44.0 22:1.0 
1.1 0:0.04 1:0.049 2:0.191 3:0.035 4:0.067 5:0.093 6:0.0 7:0.0 8:0.0 9:23.0 10:0.958 11:23.0 12:0.393 13:41.0 14:0.917 15:0.958 16:43.0 22:1.0 
1.1 0:0.027 1:0.047 2:0.203 3:0.21 4:0.144 5:0.094 6:0.0 7:0.0 8:0.0 9:25.0 10:1.0 11:25.0 12:0.36 13:48.0 14:0.96 15:1.0 16:48.0 21:1.0 
1.1 0:0.049 1:0.101 2:0.13 3:0.118 4:0.12 5:0.202 6:0.0 7:0.0 8:0.0 9:30.0 10:1.0 11:30.0 12:0.0 13:53.0 14:1.0 15:1.0 16:51.0 22:1.0 
1.1 0:0.007 1:0.01 2:0.088 3:0.0 4:0.0 5:0.019 6:0.0 7:0.0 8:0.0 9:14.0 10:1.0 11:14.0 12:0.0 13:26.0 14:1.0 15:1.0 16:24.0 22:1.0 
1.1 0:0.024 1:0.026 2:0.05 3:0.0 4:0.1 5:0.099 6:0.0 7:0.0 8:0.0 9:18.0 10:1.0 11:18.0 12:0.0 13:36.0 14:1.0 15:1.0 16:34.0 23:1.0 
1.1 0:0.045 1:0.051 2:0.199 3:0.162 4:0.192 5:0.22 6:0.0 7:0.0 8:0.0 9:21.0 10:1.0 11:21.0 12:0.0 13:41.0 14:1.0 15:1.0 16:39.0 22:1.0 
1.1 0:0.05 1:0.081 2:0.19 3:0.097 4:0.092 5:0.071 6:0.0 7:0.0 8:0.0 9:20.0 10:1.0 11:20.0 12:0.0 13:31.0 14:1.0 15:1.0 16:29.0 22:1.0 
1.1 0:0.048 1:0.089 2:0.076 3:0.078 4:0.047 5:0.052 6:0.112 7:1.0 8:0.059 9:23.0 10:0.958 11:23.0 12:0.306 13:44.0 14:0.917 15:0.958 16:44.0 23:1.0 
1.1 0:0.001 1:0.007 2:0.117 3:0.121 4:0.066 5:0.037 6:0.0 7:0.0 8:0.0 9:29.0 10:1.0 11:29.0 12:0.298 13:51.0 14:0.966 15:1.0 16:51.0 21:1.0 
1.1 0:0.035 1:0.071 2:0.146 3:0.074 4:0.106 5:0.096 6:0.0 7:0.0 8:0.0 9:19.0 10:0.95 11:19.0 12:0.436 13:33.0 14:0.85 15:0.95 16:37.0 21:1.0 
1.1 0:0.238 1:0.236 2:0.298 3:0.16 4:0.111 5:0.11 6:0.0 7:0.0 8:0.0 9:15.0 10:1.0 11:15.0 12:0.379 13:27.0 14:0.933 15:1.0 16:27.0 17:1.0 
1.1 0:0.018 1:0.036 2:0.172 3:0.0 4:0.0 5:0.066 6:0.0 7:0.0 8:0.0 9:23.0 10:1.0 11:23.0 12:0.0 13:38.0 14:1.0 15:1.0 16:36.0 22:1.0 
1.1 0:0.107 1:0.111 2:0.122 3:0.0 4:0.0 5:0.015 6:0.0 7:0.0 8:0.0 9:27.0 10:0.964 11:27.0 12:0.432 13:46.0 14:0.857 15:0.964 16:52.0 22:1.0 
1.1 0:0.122 1:0.176 2:0.239 3:0.0 4:0.0 5:0.0 6:0.091 7:1.0 8:0.048 9:24.0 10:1.0 11:24.0 12:0.389 13:40.0 14:0.833 15:1.0 16:44.0 20:1.0 
1.1 0:0.164 1:0.145 2:0.357 3:0.271 4:0.156 5:0.122 6:0.0 7:0.0 8:0.0 9:28.0 10:0.933 11:28.0 12:0.391 13:45.0 14:0.933 15:0.933 16:45.0 22:1.0 
1.1 0:0.005 1:0.011 2:0.124 3:0.0 4:0.0 5:0.042 6:0.0 7:0.0 8:0.0 9:16.0 10:0.941 11:16.0 12:0.373 13:32.0 14:0.941 15:0.941 16:32.0 22:1.0 
1.1 0:0.045 1:0.039 2:0.176 3:0.073 4:0.034 5:0.069 6:0.0 7:0.0 8:0.0 9:23.0 10:0.958 11:23.0 12:0.362 13:45.0 14:0.958 15:0.938 16:45.0 23:1.0 
1.1 0:0.229 1:0.333 2:0.343 3:0.192 4:0.187 5:0.151 6:0.0 7:0.0 8:0.0 9:21.0 10:1.0 11:21.0 12:0.377 13:31.0 14:0.952 15:1.0 16:31.0 20:1.0 
1.1 0:0.017 1:0.019 2:0.16 3:0.0 4:0.083 5:0.066 6:0.0 7:0.0 8:0.0 9:24.0 10:1.0 11:24.0 12:0.452 13:31.0 14:0.875 15:1.0 16:33.0 25:1.0 
1.1 0:0.281 1:0.455 2:0.343 3:0.0 4:0.012 5:0.035 6:0.0 7:0.0 8:0.0 9:20.0 10:1.0 11:20.0 12:0.0 13:35.0 14:1.0 15:1.0 16:33.0 20:1.0 
1.1 0:0.274 1:0.367 2:0.273 3:0.12 4:0.186 5:0.21 6:0.0 7:0.0 8:0.0 9:28.0 10:1.0 11:28.0 12:0.382 13:51.0 14:0.929 15:1.0 16:51.0 22:1.0 
1.1 0:0.187 1:0.209 2:0.375 3:0.0 4:0.0 5:0.24 6:0.129 7:1.0 8:0.037 9:29.0 10:0.967 11:29.0 12:0.411 13:48.0 14:0.8 15:0.967 16:56.0 20:1.0 
1.1 0:0.011 1:0.026 2:0.164 3:0.118 4:0.204 5:0.224 6:0.0 7:0.0 8:0.0 9:28.0 10:1.0 11:28.0 12:0.0 13:55.0 14:1.0 15:1.0 16:53.0 22:1.0 
1.1 0:0.132 1:0.23 2:0.079 3:0.0 4:0.097 5:0.109 6:0.0 7:0.0 8:0.0 9:22.0 10:1.0 11:22.0 12:0.0 13:32.0 14:1.0 15:1.0 16:30.0 25:1.0 
1.1 0:0.246 1:0.297 2:0.111 3:0.07 4:0.03 5:0.027 6:0.0 7:0.0 8:0.0 9:22.0 10:1.0 11:22.0 12:0.376 13:32.0 14:0.955 15:1.0 16:32.0 24:1.0 
1.1 0:0.099 1:0.112 2:0.189 3:0.114 4:0.033 5:0.084 6:0.0 7:0.0 8:0.0 9:24.0 10:1.0 11:24.0 12:0.362 13:43.0 14:0.917 15:1.0 16:45.0 23:1.0 
1.1 0:0.037 1:0.05 2:0.191 3:0.0 4:0.0 5:0.019 6:0.107 7:1.0 8:0.056 9:20.0 10:0.909 11:20.0 12:0.395 13:37.0 14:0.864 15:0.886 16:39.0 22:1.0 
1.1 0:0.125 1:0.185 2:0.201 3:0.087 4:0.05 5:0.034 6:0.0 7:0.0 8:0.0 9:27.0 10:1.0 11:27.0 12:0.0 13:51.0 14:1.0 15:1.0 16:49.0 22:1.0 
1.1 0:0.043 1:0.072 2:0.11 3:0.0 4:0.0 5:0.041 6:0.0 7:0.0 8:0.0 9:29.0 10:1.0 11:29.0 12:0.385 13:48.0 14:0.931 15:1.0 16:50.0 22:1.0 
1.1 0:0.018 1:0.016 2:0.112 3:0.0 4:0.0 5:0.088 6:0.0 7:0.0 8:0.0 9:27.0 10:0.964 11:27.0 12:0.303 13:46.0 14:0.929 15:0.964 16:48.0 22:1.0 
1.1 0:0.375 1:0.433 2:0.038 3:0.0 4:0.0 5:0.0 6:0.0 7:0.0 8:0.0 9:17.0 10:1.0 11:17.0 12:0.375 13:30.0 14:0.941 15:1.0 16:30.0 33:1.0 
1.1 0:0.225 1:0.224 2:0.197 3:0.194 4:0.167 5:0.168 6:0.0 7:0.0 8:0.0 9:22.0 10:1.0 11:22.0 12:0.0 13:34.0 14:0.909 15:1.0 16:34.0 17:1.0 
1.1 0:0.079 1:0.173 2:0.118 3:0.073 4:0.071 5:0.078 6:0.0 7:0.0 8:0.0 9:24.0 10:1.0 11:24.0 12:0.363 13:43.0 14:0.958 15:1.0 16:43.0 22:1.0 
1.1 0:0.011 1:0.011 2:0.061 3:0.071 4:0.09 5:0.047 6:0.0 7:0.0 8:0.0 9:29.0 10:1.0 11:29.0 12:0.0 13:51.0 14:0.966 15:1.0 16:51.0 23:1.0 
1.1 0:0.131 1:0.185 2:0.218 3:0.108 4:0.194 5:0.285 6:0.0 7:0.0 8:0.0 9:24.0 10:0.96 11:24.0 12:0.393 13:41.0 14:0.92 15:0.96 16:41.0 22:1.0 
1.1 0:0.223 1:0.216 2:0.242 3:0.0 4:0.0 5:0.017 6:0.0 7:0.0 8:0.0 9:14.0 10:1.0 11:14.0 12:0.0 13:25.0 14:0.929 15:1.0 16:25.0 27:1.0 
1.1 0:0.006 1:0.007 2:0.082 3:0.0 4:0.0 5:0.0 6:0.177 7:1.0 8:0.091 9:20.0 10:1.0 11:20.0 12:0.418 13:29.0 14:0.9 15:1.0 16:29.0 24:1.0 
1.1 0:0.036 1:0.073 2:0.199 3:0.22 4:0.151 5:0.245 6:0.083 7:1.0 8:0.05 9:26.0 10:1.0 11:26.0 12:0.412 13:45.0 14:0.885 15:1.0 16:47.0 17:1.0 
1.1 0:0.017 1:0.069 2:0.319 3:0.052 4:0.079 5:0.066 6:0.0 7:0.0 8:0.0 9:24.0 10:1.0 11:24.0 12:0.0 13:37.0 14:1.0 15:1.0 16:35.0 21:1.0 
1.1 0:0.189 1:0.207 2:0.184 3:0.0 4:0.033 5:0.019 6:0.084 7:1.0 8:0.043 9:27.0 10:1.0 11:27.0 12:0.407 13:48.0 14:0.889 15:1.0 16:50.0 24:1.0 
1.1 0:0.014 1:0.039 2:0.284 3:0.047 4:0.027 5:0.061 6:0.0 7:0.0 8:0.0 9:27.0 10:1.0 11:27.0 12:0.0 13:41.0 14:1.0 15:1.0 16:39.0 22:1.0 
1.1 0:0.077 1:0.148 2:0.158 3:0.0 4:0.017 5:0.013 6:0.0 7:0.0 8:0.0 9:28.0 10:1.0 11:28.0 12:0.0 13:36.0 14:1.0 15:1.0 16:34.0 17:1.0 
1.1 0:0.001 1:0.007 2:0.041 3:0.0 4:0.068 5:0.041 6:0.118 7:1.0 8:0.063 9:19.0 10:0.905 11:19.0 12:0.437 13:33.0 14:0.857 15:0.929 16:35.0 23:1.0 
1.1 0:0.032 1:0.046 2:0.093 3:0.0 4:0.04 5:0.079 6:0.0 7:0.0 8:0.0 9:26.0 10:1.0 11:26.0 12:0.0 13:46.0 14:1.0 15:1.0 16:44.0 17:1.0 
1.1 0:0.002 1:0.012 2:0.103 3:0.0 4:0.0 5:0.033 6:0.0 7:0.0 8:0.0 9:28.0 10:0.933 11:28.0 12:0.438 13:38.0 14:0.9 15:0.933 16:40.0 22:1.0 
1.1 0:0.066 1:0.066 2:0.259 3:0.0 4:0.0 5:0.028 6:0.105 7:1.0 8:0.056 9:30.0 10:0.968 11:30.0 12:0.374 13:48.0 14:0.903 15:0.968 16:50.0 24:1.0 
1.1 0:0.011 1:0.014 2:0.072 3:0.0 4:0.021 5:0.01 6:0.0 7:0.0 8:0.0 9:40.0 10:0.952 11:40.0 12:0.213 13:60.0 14:0.952 15:0.952 16:62.0 17:1.0 
1.1 0:0.0 1:0.0 2:0.098 3:0.0 4:0.0 5:0.01 6:0.0 7:0.0 8:0.0 9:23.0 10:1.0 11:23.0 12:0.0 13:35.0 14:1.0 15:1.0 16:33.0 22:1.0 
1.1 0:0.031 1:0.064 2:0.073 3:0.147 4:0.073 5:0.065 6:0.0 7:0.0 8:0.0 9:30.0 10:1.0 11:30.0 12:0.29 13:55.0 14:0.933 15:1.0 16:57.0 23:1.0 
1.1 0:0.083 1:0.099 2:0.187 3:0.0 4:0.0 5:0.029 6:0.0 7:0.0 8:0.0 9:23.0 10:1.0 11:23.0 12:0.393 13:41.0 14:0.913 15:1.0 16:43.0 18:1.0 
1.1 0:0.0 1:0.0 2:0.065 3:0.061 4:0.043 5:0.035 6:0.0 7:0.0 8:0.0 9:22.0 10:1.0 11:22.0 12:0.0 13:34.0 14:0.955 15:1.0 16:34.0 17:1.0 
1.1 0:0.089 1:0.095 2:0.219 3:0.0 4:0.067 5:0.248 6:0.0 7:0.0 8:0.0 9:27.0 10:0.964 11:27.0 12:0.381 13:52.0 14:0.929 15:0.982 16:54.0 22:1.0 
1.1 0:0.142 1:0.167 2:0.265 3:0.179 4:0.128 5:0.109 6:0.0 7:0.0 8:0.0 9:15.0 10:1.0 11:15.0 12:0.0 13:29.0 14:1.0 15:1.0 16:27.0 22:1.0 
1.1 0:0.144 1:0.125 2:0.097 3:0.0 4:0.022 5:0.042 6:0.083 7:1.0 8:0.053 9:34.0 10:1.0 11:34.0 12:0.0 13:49.0 14:0.941 15:1.0 16:49.0 23:1.0 
1.1 0:0.095 1:0.116 2:0.208 3:0.345 4:0.279 5:0.199 6:0.0 7:0.0 8:0.0 9:22.0 10:1.0 11:22.0 12:0.364 13:41.0 14:0.955 15:1.0 16:41.0 22:1.0 
1.1 0:0.059 1:0.059 2:0.085 3:0.053 4:0.113 5:0.097 6:0.126 7:1.0 8:0.067 9:23.0 10:0.958 11:23.0 12:0.368 13:34.0 14:0.875 15:0.958 16:34.0 23:1.0 
1.1 0:0.016 1:0.021 2:0.126 3:0.149 4:0.191 5:0.286 6:0.077 7:1.0 8:0.043 9:28.0 10:1.0 11:28.0 12:0.216 13:50.0 14:0.929 15:1.0 16:52.0 23:1.0 
1.1 0:0.072 1:0.088 2:0.252 3:0.192 4:0.198 5:0.196 6:0.0 7:0.0 8:0.0 9:25.0 10:1.0 11:25.0 12:0.363 13:43.0 14:0.96 15:1.0 16:43.0 23:1.0 
1.1 0:0.001 1:0.005 2:0.034 3:0.0 4:0.024 5:0.016 6:0.0 7:0.0 8:0.0 9:23.0 10:1.0 11:23.0 12:0.364 13:42.0 14:0.957 15:1.0 16:42.0 23:1.0 
1.1 0:0.001 1:0.005 2:0.067 3:0.0 4:0.022 5:0.038 6:0.0 7:0.0 8:0.0 9:23.0 10:1.0 11:23.0 12:0.0 13:34.0 14:1.0 15:1.0 16:32.0 23:1.0 
1.1 0:0.0 1:0.0 2:0.016 3:0.029 4:0.007 5:0.006 6:0.0 7:0.0 8:0.0 9:30.0 10:1.0 11:30.0 12:0.0 13:58.0 14:1.0 15:1.0 16:56.0 23:1.0 
1.1 0:0.052 1:0.039 2:0.102 3:0.019 4:0.025 5:0.019 6:0.091 7:1.0 8:0.048 9:24.0 10:0.96 11:24.0 12:0.31 13:42.0 14:0.92 15:0.96 16:42.0 24:1.0 
1.1 0:0.022 1:0.038 2:0.268 3:0.0 4:0.14 5:0.132 6:0.107 7:1.0 8:0.056 9:23.0 10:0.92 11:23.0 12:0.432 13:36.0 14:0.88 15:0.92 16:38.0 20:1.0 
1.1 0:0.064 1:0.075 2:0.222 3:0.094 4:0.092 5:0.085 6:0.0 7:0.0 8:0.0 9:22.0 10:0.957 11:22.0 12:0.373 13:34.0 14:0.957 15:0.957 16:34.0 24:1.0 
1.1 0:0.052 1:0.159 2:0.138 3:0.0 4:0.0 5:0.048 6:0.0 7:0.0 8:0.0 9:24.0 10:1.0 11:24.0 12:0.0 13:37.0 14:0.958 15:1.0 16:37.0 21:1.0 
1.1 0:0.093 1:0.183 2:0.166 3:0.0 4:0.14 5:0.11 6:0.087 7:1.0 8:0.045 9:21.0 10:0.913 11:21.0 12:0.393 13:41.0 14:0.913 15:0.891 16:41.0 24:1.0 
1.1 0:0.042 1:0.15 2:0.208 3:0.088 4:0.243 5:0.206 6:0.0 7:0.0 8:0.0 9:19.0 10:0.95 11:19.0 12:0.368 13:35.0 14:0.9 15:0.95 16:37.0 21:1.0 
1.1 0:0.0 1:0.0 2:0.086 3:0.153 4:0.092 5:0.074 6:0.1 7:1.0 8:0.053 9:29.0 10:0.967 11:29.0 12:0.389 13:45.0 14:0.833 15:0.967 16:45.0 23:1.0 
1.1 0:0.018 1:0.022 2:0.031 3:0.0 4:0.0 5:0.0 6:0.0 7:0.0 8:0.0 9:17.0 10:1.0 11:17.0 12:0.0 13:29.0 14:1.0 15:1.0 16:27.0 17:1.0 
1.1 0:0.017 1:0.029 2:0.052 3:0.0 4:0.0 5:0.0 6:0.0 7:0.0 8:0.0 9:28.0 10:1.0 11:28.0 12:0.0 13:49.0 14:1.0 15:1.0 16:47.0 22:1.0 
1.1 0:0.028 1:0.042 2:0.082 3:0.0 4:0.03 5:0.026 6:0.0 7:0.0 8:0.0 9:20.0 10:1.0 11:20.0 12:0.0 13:36.0 14:1.0 15:1.0 16:34.0 22:1.0 
1.1 0:0.003 1:0.005 2:0.126 3:0.033 4:0.125 5:0.073 6:0.0 7:0.0 8:0.0 9:24.0 10:1.0 11:24.0 12:0.362 13:45.0 14:0.958 15:1.0 16:45.0 23:1.0 
1.1 0:0.037 1:0.077 2:0.109 3:0.039 4:0.015 5:0.029 6:0.0 7:0.0 8:0.0 9:32.0 10:1.0 11:32.0 12:0.0 13:52.0 14:1.0 15:1.0 16:50.0 25:1.0 
1.1 0:0.104 1:0.1 2:0.08 3:0.0 4:0.112 5:0.086 6:0.073 7:1.0 8:0.056 9:24.0 10:0.96 11:24.0 12:0.441 13:39.0 14:0.8 15:0.96 16:43.0 42:1.0 
1.1 0:0.0 1:0.0 2:0.041 3:0.0 4:0.042 5:0.03 6:0.0 7:0.0 8:0.0 9:23.0 10:1.0 11:23.0 12:0.0 13:42.0 14:1.0 15:1.0 16:40.0 21:1.0 
1.1 0:0.326 1:0.274 2:0.154 3:0.0 4:0.0 5:0.061 6:0.0 7:0.0 8:0.0 9:21.0 10:0.913 11:21.0 12:0.407 13:34.0 14:0.913 15:0.891 16:34.0 18:1.0 
1.1 0:0.032 1:0.072 2:0.186 3:0.0 4:0.062 5:0.118 6:0.096 7:1.0 8:0.05 9:23.0 10:0.885 11:23.0 12:0.38 13:35.0 14:0.846 15:0.904 16:39.0 17:1.0 
1.1 0:0.006 1:0.009 2:0.142 3:0.047 4:0.07 5:0.096 6:0.0 7:0.0 8:0.0 9:15.0 10:0.938 11:15.0 12:0.382 13:26.0 14:0.938 15:0.938 16:26.0 27:1.0 
1.1 0:0.0 1:0.0 2:0.036 3:0.0 4:0.038 5:0.05 6:0.0 7:0.0 8:0.0 9:26.0 10:1.0 11:26.0 12:0.431 13:37.0 14:0.885 15:1.0 16:39.0 25:1.0 
1.1 0:0.115 1:0.124 2:0.094 3:0.0 4:0.047 5:0.21 6:0.0 7:0.0 8:0.0 9:29.0 10:1.0 11:29.0 12:0.411 13:46.0 14:0.897 15:1.0 16:48.0 38:1.0 
1.1 0:0.13 1:0.147 2:0.399 3:0.0 4:0.012 5:0.025 6:0.0 7:0.0 8:0.0 9:28.0 10:1.0 11:28.0 12:0.409 13:45.0 14:0.857 15:1.0 16:49.0 20:1.0 
1.1 0:0.243 1:0.268 2:0.205 3:0.147 4:0.131 5:0.171 6:0.0 7:0.0 8:0.0 9:32.0 10:1.0 11:32.0 12:0.35 13:49.0 14:0.906 15:1.0 16:53.0 17:1.0 
1.1 0:0.005 1:0.012 2:0.092 3:0.0 4:0.024 5:0.066 6:0.0 7:0.0 8:0.0 9:22.0 10:1.0 11:22.0 12:0.364 13:42.0 14:0.955 15:1.0 16:42.0 22:1.0 
1.1 0:0.098 1:0.243 2:0.193 3:0.107 4:0.078 5:0.091 6:0.0 7:0.0 8:0.0 9:23.0 10:0.958 11:23.0 12:0.396 13:39.0 14:0.917 15:0.938 16:41.0 19:1.0 
1.1 0:0.0 1:0.0 2:0.159 3:0.0 4:0.116 5:0.084 6:0.0 7:0.0 8:0.0 9:16.0 10:0.941 11:16.0 12:0.383 13:26.0 14:0.941 15:0.941 16:26.0 22:1.0 
1.1 0:0.364 1:0.275 2:0.128 3:0.0 4:0.272 5:0.313 6:0.066 7:1.0 8:0.042 9:41.0 10:0.953 11:41.0 12:0.384 13:56.0 14:0.93 15:0.965 16:56.0 23:1.0 
1.1 0:0.105 1:0.143 2:0.131 3:0.0 4:0.0 5:0.0 6:0.0 7:0.0 8:0.0 9:18.0 10:0.947 11:18.0 12:0.373 13:32.0 14:0.947 15:0.947 16:32.0 22:1.0 
1.1 0:0.0 1:0.0 2:0.065 3:0.0 4:0.024 5:0.028 6:0.0 7:0.0 8:0.0 9:22.0 10:1.0 11:22.0 12:0.0 13:35.0 14:1.0 15:1.0 16:33.0 17:1.0 
1.1 0:0.139 1:0.056 2:0.219 3:0.0 4:0.046 5:0.062 6:0.0 7:0.0 8:0.0 9:30.0 10:0.938 11:30.0 12:0.353 13:36.0 14:0.906 15:0.938 16:38.0 24:1.0 
1.1 0:0.07 1:0.071 2:0.118 3:0.019 4:0.015 5:0.042 6:0.0 7:0.0 8:0.0 9:23.0 10:1.0 11:23.0 12:0.0 13:45.0 14:1.0 15:1.0 16:43.0 23:1.0 
1.1 0:0.011 1:0.019 2:0.212 3:0.0 4:0.076 5:0.091 6:0.0 7:0.0 8:0.0 9:36.0 10:1.0 11:36.0 12:0.354 13:63.0 14:0.972 15:1.0 16:63.0 24:1.0 
1.1 0:0.032 1:0.055 2:0.109 3:0.04 4:0.074 5:0.093 6:0.0 7:0.0 8:0.0 9:18.0 10:0.947 11:18.0 12:0.342 13:28.0 14:0.842 15:0.947 16:32.0 24:1.0 
1.1 0:0.007 1:0.006 2:0.247 3:0.03 4:0.224 5:0.219 6:0.0 7:0.0 8:0.0 9:26.0 10:1.0 11:26.0 12:0.36 13:48.0 14:0.962 15:1.0 16:48.0 20:1.0 
1.1 0:0.004 1:0.016 2:0.083 3:0.123 4:0.058 5:0.071 6:0.0 7:0.0 8:0.0 9:21.0 10:1.0 11:21.0 12:0.366 13:37.0 14:0.905 15:1.0 16:39.0 22:1.0 
1.1 0:0.014 1:0.046 2:0.096 3:0.1 4:0.082 5:0.061 6:0.0 7:0.0 8:0.0 9:23.0 10:0.958 11:23.0 12:0.375 13:34.0 14:0.958 15:0.958 16:34.0 17:1.0 
1.1 0:0.096 1:0.103 2:0.171 3:0.0 4:0.0 5:0.099 6:0.098 7:1.0 8:0.05 9:29.0 10:0.967 11:29.0 12:0.392 13:46.0 14:0.867 15:0.967 16:50.0 23:1.0 
1.1 0:0.029 1:0.03 2:0.114 3:0.0 4:0.0 5:0.043 6:0.12 7:1.0 8:0.063 9:22.0 10:0.957 11:22.0 12:0.397 13:36.0 14:0.87 15:0.957 16:38.0 24:1.0 
1.1 0:0.085 1:0.131 2:0.051 3:0.0 4:0.0 5:0.046 6:0.091 7:1.0 8:0.056 9:23.0 10:0.958 11:23.0 12:0.364 13:41.0 14:0.875 15:0.958 16:43.0 23:1.0 
1.1 0:0.036 1:0.064 2:0.193 3:0.147 4:0.065 5:0.065 6:0.096 7:1.0 8:0.05 9:24.0 10:1.0 11:24.0 12:0.228 13:42.0 14:0.958 15:1.0 16:42.0 23:1.0 
1.1 0:0.069 1:0.12 2:0.31 3:0.0 4:0.116 5:0.203 6:0.0 7:0.0 8:0.0 9:18.0 10:1.0 11:18.0 12:0.0 13:30.0 14:0.944 15:1.0 16:30.0 22:1.0 
1.1 0:0.156 1:0.21 2:0.142 3:0.129 4:0.116 5:0.162 6:0.087 7:1.0 8:0.045 9:28.0 10:0.933 11:28.0 12:0.259 13:52.0 14:0.9 15:0.933 16:54.0 22:1.0 
1.1 0:0.156 1:0.149 2:0.169 3:0.086 4:0.133 5:0.101 6:0.0 7:0.0 8:0.0 9:23.0 10:0.958 11:23.0 12:0.367 13:39.0 14:0.958 15:0.979 16:39.0 22:1.0 
1.1 0:0.003 1:0.009 2:0.08 3:0.072 4:0.053 5:0.049 6:0.0 7:0.0 8:0.0 9:22.0 10:1.0 11:22.0 12:0.372 13:34.0 14:0.955 15:1.0 16:34.0 21:1.0 
1.1 0:0.041 1:0.064 2:0.071 3:0.0 4:0.0 5:0.0 6:0.0 7:0.0 8:0.0 9:21.0 10:1.0 11:21.0 12:0.365 13:40.0 14:0.952 15:1.0 16:40.0 20:1.0 
1.1 0:0.025 1:0.027 2:0.445 3:0.226 4:0.234 5:0.214 6:0.0 7:0.0 8:0.0 9:14.0 10:1.0 11:14.0 12:0.0 13:25.0 14:1.0 15:1.0 16:23.0 22:1.0 
1.1 0:0.263 1:0.167 2:0.189 3:0.0 4:0.033 5:0.022 6:0.0 7:0.0 8:0.0 9:30.0 10:1.0 11:30.0 12:0.356 13:56.0 14:0.967 15:1.0 16:56.0 22:1.0 
1.1 0:0.0 1:0.0 2:0.007 3:0.0 4:0.0 5:0.0 6:0.0 7:0.0 8:0.0 9:23.0 10:1.0 11:23.0 12:0.367 13:38.0 14:0.957 15:1.0 16:38.0 25:1.0 
1.1 0:0.0 1:0.0 2:0.027 3:0.08 4:0.04 5:0.034 6:0.0 7:0.0 8:0.0 9:21.0 10:0.955 11:21.0 12:0.371 13:35.0 14:0.955 15:0.977 16:35.0 17:1.0 
1.1 0:0.066 1:0.103 2:0.093 3:0.218 4:0.2 5:0.217 6:0.0 7:0.0 8:0.0 9:27.0 10:1.0 11:27.0 12:0.0 13:54.0 14:1.0 15:1.0 16:52.0 22:1.0 
1.1 0:0.03 1:0.044 2:0.203 3:0.0 4:0.061 5:0.06 6:0.0 7:0.0 8:0.0 9:17.0 10:1.0 11:17.0 12:0.377 13:29.0 14:0.941 15:1.0 16:29.0 21:1.0 
1.1 0:0.011 1:0.014 2:0.129 3:0.0 4:0.0 5:0.0 6:0.0 7:0.0 8:0.0 9:17.0 10:0.944 11:17.0 12:0.415 13:29.0 14:0.889 15:0.944 16:31.0 27:1.0 
1.1 0:0.039 1:0.043 2:0.112 3:0.0 4:0.059 5:0.081 6:0.0 7:0.0 8:0.0 9:22.0 10:0.957 11:22.0 12:0.364 13:41.0 14:0.957 15:0.957 16:41.0 23:1.0 
1.1 0:0.035 1:0.074 2:0.289 3:0.0 4:0.0 5:0.152 6:0.0 7:0.0 8:0.0 9:30.0 10:0.968 11:30.0 12:0.372 13:41.0 14:0.968 15:0.968 16:41.0 17:1.0 
1.1 0:0.048 1:0.091 2:0.185 3:0.27 4:0.189 5:0.176 6:0.102 7:1.0 8:0.053 9:28.0 10:1.0 11:28.0 12:0.0 13:50.0 14:0.929 15:1.0 16:50.0 22:1.0 
1.1 0:0.011 1:0.026 2:0.124 3:0.277 4:0.127 5:0.159 6:0.0 7:0.0 8:0.0 9:21.0 10:1.0 11:21.0 12:0.0 13:39.0 14:0.952 15:1.0 16:39.0 22:1.0 
1.1 0:0.059 1:0.116 2:0.11 3:0.043 4:0.137 5:0.128 6:0.0 7:0.0 8:0.0 9:26.0 10:0.963 11:26.0 12:0.361 13:47.0 14:0.963 15:0.963 16:47.0 22:1.0 
1.1 0:0.031 1:0.023 2:0.105 3:0.0 4:0.025 5:0.048 6:0.095 7:1.0 8:0.05 9:27.0 10:1.0 11:27.0 12:0.0 13:47.0 14:0.926 15:1.0 16:47.0 17:1.0 
1.1 0:0.009 1:0.029 2:0.051 3:0.115 4:0.038 5:0.141 6:0.0 7:0.0 8:0.0 9:24.0 10:0.96 11:24.0 12:0.402 13:37.0 14:0.92 15:0.96 16:39.0 17:1.0 
1.1 0:0.006 1:0.006 2:0.019 3:0.027 4:0.039 5:0.026 6:0.0 7:0.0 8:0.0 9:24.0 10:1.0 11:24.0 12:0.0 13:41.0 14:1.0 15:1.0 16:39.0 18:1.0 
1.1 0:0.0 1:0.0 2:0.086 3:0.0 4:0.0 5:0.061 6:0.0 7:0.0 8:0.0 9:23.0 10:0.958 11:23.0 12:0.381 13:32.0 14:0.958 15:0.938 16:32.0 22:1.0 
1.1 0:0.018 1:0.023 2:0.251 3:0.0 4:0.094 5:0.083 6:0.0 7:0.0 8:0.0 9:16.0 10:0.941 11:16.0 12:0.344 13:29.0 14:0.882 15:0.941 16:31.0 28:1.0 
1.1 0:0.0 1:0.0 2:0.116 3:0.065 4:0.116 5:0.103 6:0.0 7:0.0 8:0.0 9:26.0 10:0.929 11:26.0 12:0.434 13:45.0 14:0.857 15:0.929 16:47.0 31:1.0 
1.1 0:0.001 1:0.002 2:0.276 3:0.115 4:0.183 5:0.217 6:0.0 7:0.0 8:0.0 9:23.0 10:1.0 11:23.0 12:0.394 13:40.0 14:0.913 15:1.0 16:40.0 17:1.0 
1.1 0:0.077 1:0.066 2:0.184 3:0.127 4:0.129 5:0.133 6:0.0 7:0.0 8:0.0 9:27.0 10:1.0 11:27.0 12:0.0 13:46.0 14:1.0 15:1.0 16:44.0 22:1.0 
1.1 0:0.002 1:0.003 2:0.138 3:0.0 4:0.0 5:0.0 6:0.0 7:0.0 8:0.0 9:24.0 10:1.0 11:24.0 12:0.0 13:36.0 14:1.0 15:1.0 16:34.0 22:1.0 
1.1 0:0.01 1:0.012 2:0.114 3:0.192 4:0.174 5:0.164 6:0.091 7:1.0 8:0.048 9:30.0 10:0.938 11:30.0 12:0.384 13:50.0 14:0.938 15:0.922 16:50.0 24:1.0 
1.1 0:0.034 1:0.091 2:0.147 3:0.098 4:0.139 5:0.128 6:0.0 7:0.0 8:0.0 9:23.0 10:1.0 11:23.0 12:0.309 13:42.0 14:0.913 15:1.0 16:44.0 17:1.0 
1.1 0:0.034 1:0.036 2:0.065 3:0.294 4:0.192 5:0.128 6:0.0 7:0.0 8:0.0 9:23.0 10:0.958 11:23.0 12:0.368 13:38.0 14:0.958 15:0.958 16:38.0 23:1.0 
1.1 0:0.0 1:0.0 2:0.186 3:0.118 4:0.14 5:0.127 6:0.0 7:0.0 8:0.0 9:25.0 10:1.0 11:25.0 12:0.221 13:47.0 14:0.96 15:1.0 16:47.0 22:1.0 
1.1 0:0.001 1:0.0 2:0.035 3:0.069 4:0.046 5:0.044 6:0.0 7:0.0 8:0.0 9:23.0 10:1.0 11:23.0 12:0.364 13:42.0 14:0.957 15:1.0 16:42.0 22:1.0 
1.1 0:0.003 1:0.016 2:0.323 3:0.067 4:0.11 5:0.164 6:0.154 7:1.0 8:0.083 9:15.0 10:0.938 11:15.0 12:0.423 13:26.0 14:0.875 15:0.938 16:26.0 22:1.0 
1.1 0:0.0 1:0.0 2:0.064 3:0.0 4:0.0 5:0.0 6:0.0 7:0.0 8:0.0 9:23.0 10:1.0 11:23.0 12:0.422 13:39.0 14:0.87 15:1.0 16:43.0 22:1.0 
1.1 0:0.177 1:0.193 2:0.227 3:0.148 4:0.121 5:0.216 6:0.0 7:0.0 8:0.0 9:15.0 10:1.0 11:15.0 12:0.381 13:26.0 14:0.933 15:1.0 16:26.0 22:1.0 
1.1 0:0.053 1:0.081 2:0.172 3:0.04 4:0.07 5:0.055 6:0.0 7:0.0 8:0.0 9:23.0 10:0.958 11:23.0 12:0.39 13:43.0 14:0.917 15:0.958 16:45.0 22:1.0 
1.1 0:0.095 1:0.105 2:0.229 3:0.095 4:0.126 5:0.153 6:0.0 7:0.0 8:0.0 9:22.0 10:1.0 11:22.0 12:0.397 13:38.0 14:0.909 15:1.0 16:38.0 22:1.0 
1.1 0:0.034 1:0.067 2:0.15 3:0.079 4:0.037 5:0.094 6:0.101 7:1.0 8:0.053 9:29.0 10:0.967 11:29.0 12:0.359 13:47.0 14:0.9 15:0.967 16:49.0 22:1.0 
1.1 0:0.004 1:0.023 2:0.124 3:0.0 4:0.0 5:0.034 6:0.109 7:1.0 8:0.056 9:23.0 10:0.92 11:23.0 12:0.493 13:33.0 14:0.8 15:0.92 16:39.0 18:1.0 
1.1 0:0.086 1:0.123 2:0.069 3:0.0 4:0.0 5:0.0 6:0.053 7:1.0 8:0.034 9:43.0 10:1.0 11:43.0 12:0.37 13:70.0 14:0.953 15:1.0 16:70.0 24:1.0 
1.1 0:0.161 1:0.213 2:0.215 3:0.075 4:0.167 5:0.147 6:0.0 7:0.0 8:0.0 9:19.0 10:1.0 11:19.0 12:0.368 13:36.0 14:0.947 15:1.0 16:36.0 23:1.0 
1.1 0:0.003 1:0.008 2:0.107 3:0.0 4:0.035 5:0.032 6:0.0 7:0.0 8:0.0 9:31.0 10:0.886 11:31.0 12:0.39 13:49.0 14:0.886 15:0.886 16:53.0 24:1.0 
1.1 0:0.05 1:0.049 2:0.183 3:0.033 4:0.072 5:0.107 6:0.107 7:1.0 8:0.056 9:23.0 10:1.0 11:23.0 12:0.429 13:36.0 14:0.87 15:1.0 16:36.0 22:1.0 
1.1 0:0.009 1:0.054 2:0.345 3:0.197 4:0.274 5:0.191 6:0.0 7:0.0 8:0.0 9:19.0 10:1.0 11:19.0 12:0.0 13:33.0 14:1.0 15:1.0 16:31.0 21:1.0 
0.31253469956719965 0:0.291 1:0.324 2:0.26 3:0.0 4:0.304 5:0.323 6:0.0 7:0.0 8:0.0 9:29.0 10:0.967 11:29.0 12:0.382 13:51.0 14:0.933 15:0.967 16:53.0 23:1.0 
1.1 0:0.026 1:0.065 2:0.182 3:0.0 4:0.0 5:0.051 6:0.0 7:0.0 8:0.0 9:14.0 10:1.0 11:14.0 12:0.0 13:28.0 14:1.0 15:1.0 16:26.0 22:1.0 
1.1 0:0.262 1:0.276 2:0.155 3:0.094 4:0.099 5:0.071 6:0.0 7:0.0 8:0.0 9:24.0 10:1.0 11:24.0 12:0.0 13:39.0 14:0.917 15:1.0 16:39.0 25:1.0 
1.1 0:0.136 1:0.14 2:0.072 3:0.092 4:0.098 5:0.058 6:0.136 7:1.0 8:0.071 9:23.0 10:0.958 11:23.0 12:0.417 13:42.0 14:0.875 15:0.958 16:46.0 28:1.0 
1.1 0:0.012 1:0.025 2:0.122 3:0.131 4:0.131 5:0.121 6:0.0 7:0.0 8:0.0 9:21.0 10:1.0 11:21.0 12:0.0 13:40.0 14:1.0 15:1.0 16:38.0 22:1.0 
1.1 0:0.008 1:0.017 2:0.018 3:0.052 4:0.056 5:0.084 6:0.0 7:0.0 8:0.0 9:21.0 10:1.0 11:21.0 12:0.0 13:38.0 14:1.0 15:1.0 16:36.0 22:1.0 
1.1 0:0.109 1:0.14 2:0.196 3:0.185 4:0.205 5:0.251 6:0.0 7:0.0 8:0.0 9:22.0 10:1.0 11:22.0 12:0.234 13:38.0 14:0.955 15:1.0 16:38.0 22:1.0 
1.1 0:0.132 1:0.175 2:0.206 3:0.0 4:0.0 5:0.096 6:0.0 7:0.0 8:0.0 9:28.0 10:0.966 11:28.0 12:0.367 13:42.0 14:0.966 15:0.966 16:42.0 27:1.0 
1.1 0:0.13 1:0.147 2:0.399 3:0.0 4:0.012 5:0.025 6:0.0 7:0.0 8:0.0 9:28.0 10:1.0 11:28.0 12:0.409 13:45.0 14:0.857 15:1.0 16:49.0 20:1.0 
1.1 0:0.003 1:0.002 2:0.075 3:0.121 4:0.192 5:0.142 6:0.101 7:1.0 8:0.053 9:27.0 10:1.0 11:27.0 12:0.0 13:48.0 14:0.926 15:1.0 16:48.0 17:1.0 
1.1 0:0.092 1:0.08 2:0.183 3:0.069 4:0.031 5:0.017 6:0.0 7:0.0 8:0.0 9:23.0 10:1.0 11:23.0 12:0.0 13:45.0 14:1.0 15:1.0 16:43.0 23:1.0 
1.1 0:0.012 1:0.024 2:0.07 3:0.061 4:0.098 5:0.083 6:0.0 7:0.0 8:0.0 9:20.0 10:1.0 11:20.0 12:0.374 13:32.0 14:0.95 15:1.0 16:32.0 25:1.0 
1.1 0:0.2 1:0.146 2:0.257 3:0.15 4:0.153 5:0.219 6:0.0 7:0.0 8:0.0 9:20.0 10:1.0 11:20.0 12:0.406 13:33.0 14:0.9 15:1.0 16:35.0 22:1.0 
1.1 0:0.075 1:0.071 2:0.098 3:0.099 4:0.289 5:0.259 6:0.0 7:0.0 8:0.0 9:25.0 10:0.962 11:25.0 12:0.366 13:41.0 14:0.962 15:0.962 16:41.0 22:1.0 
1.1 0:0.175 1:0.183 2:0.3 3:0.0 4:0.024 5:0.016 6:0.0 7:0.0 8:0.0 9:29.0 10:0.967 11:29.0 12:0.218 13:51.0 14:0.967 15:0.967 16:51.0 20:1.0 
1.1 0:0.003 1:0.006 2:0.045 3:0.0 4:0.039 5:0.031 6:0.0 7:0.0 8:0.0 9:28.0 10:1.0 11:28.0 12:0.386 13:47.0 14:0.929 15:1.0 16:49.0 24:1.0 
1.1 0:0.064 1:0.065 2:0.203 3:0.024 4:0.082 5:0.075 6:0.0 7:0.0 8:0.0 9:27.0 10:1.0 11:27.0 12:0.298 13:49.0 14:0.926 15:1.0 16:51.0 22:1.0 
1.1 0:0.049 1:0.049 2:0.132 3:0.095 4:0.108 5:0.121 6:0.087 7:1.0 8:0.045 9:22.0 10:0.957 11:22.0 12:0.363 13:41.0 14:0.913 15:0.957 16:41.0 22:1.0 
1.1 0:0.0 1:0.0 2:0.197 3:0.046 4:0.218 5:0.205 6:0.0 7:0.0 8:0.0 9:24.0 10:1.0 11:24.0 12:0.239 13:35.0 14:0.917 15:1.0 16:37.0 22:1.0 
1.1 0:0.044 1:0.048 2:0.147 3:0.073 4:0.175 5:0.137 6:0.096 7:1.0 8:0.05 9:27.0 10:0.9 11:27.0 12:0.384 13:47.0 14:0.833 15:0.9 16:51.0 42:1.0 
1.1 0:0.04 1:0.073 2:0.041 3:0.0 4:0.05 5:0.036 6:0.0 7:0.0 8:0.0 9:23.0 10:1.0 11:23.0 12:0.37 13:36.0 14:0.957 15:1.0 16:36.0 21:1.0 
1.1 0:0.137 1:0.245 2:0.169 3:0.0 4:0.018 5:0.127 6:0.0 7:0.0 8:0.0 9:23.0 10:1.0 11:23.0 12:0.0 13:43.0 14:1.0 15:1.0 16:41.0 17:1.0 
0.3806804835567889 0:0.805 1:0.56 2:0.999 3:1.0 4:1.0 5:1.0 6:0.8 7:8.0 8:0.667 9:20.0 10:0.952 11:20.0 12:0.549 13:20.0 14:0.524 15:0.976 16:4.0 17:1.0 
1.1 0:0.01 1:0.007 2:0.036 3:0.0 4:0.025 5:0.01 6:0.0 7:0.0 8:0.0 9:21.0 10:1.0 11:21.0 12:0.0 13:38.0 14:1.0 15:1.0 16:36.0 17:1.0 
1.1 0:0.003 1:0.006 2:0.141 3:0.141 4:0.038 5:0.155 6:0.091 7:1.0 8:0.048 9:17.0 10:0.944 11:17.0 12:0.337 13:31.0 14:0.889 15:0.944 16:33.0 25:1.0 
1.1 0:0.0 1:0.0 2:0.049 3:0.109 4:0.139 5:0.109 6:0.0 7:0.0 8:0.0 9:23.0 10:1.0 11:23.0 12:0.391 13:42.0 14:0.913 15:1.0 16:44.0 22:1.0 
1.1 0:0.025 1:0.063 2:0.107 3:0.085 4:0.076 5:0.071 6:0.0 7:0.0 8:0.0 9:28.0 10:0.966 11:28.0 12:0.398 13:39.0 14:0.897 15:0.948 16:43.0 22:1.0 
0.19976075127396414 0:0.758 1:0.531 2:1.0 3:1.0 4:1.0 5:1.0 6:1.0 7:12.0 8:1.0 9:5.0 10:0.192 11:5.0 12:0.988 13:5.0 14:0.192 15:0.192 16:5.0 18:1.0 
1.1 0:0.045 1:0.061 2:0.197 3:0.0 4:0.05 5:0.104 6:0.0 7:0.0 8:0.0 9:22.0 10:1.0 11:22.0 12:0.401 13:36.0 14:0.909 15:1.0 16:36.0 22:1.0 
1.1 0:0.013 1:0.02 2:0.063 3:0.053 4:0.026 5:0.023 6:0.0 7:0.0 8:0.0 9:29.0 10:0.967 11:29.0 12:0.293 13:53.0 14:0.933 15:0.967 16:55.0 22:1.0 
1.1 0:0.012 1:0.029 2:0.174 3:0.0 4:0.086 5:0.087 6:0.0 7:0.0 8:0.0 9:24.0 10:1.0 11:24.0 12:0.306 13:44.0 14:0.917 15:1.0 16:46.0 23:1.0 
1.1 0:0.002 1:0.002 2:0.072 3:0.0 4:0.0 5:0.013 6:0.0 7:0.0 8:0.0 9:23.0 10:1.0 11:23.0 12:0.364 13:42.0 14:0.957 15:1.0 16:42.0 24:1.0 
1.1 0:0.0 1:0.001 2:0.052 3:0.243 4:0.189 5:0.062 6:0.101 7:1.0 8:0.053 9:23.0 10:1.0 11:23.0 12:0.422 13:39.0 14:0.87 15:1.0 16:41.0 22:1.0 
0.2967804939415925 0:0.022 1:0.032 2:0.359 3:0.041 4:0.028 5:0.057 6:0.077 7:1.0 8:0.05 9:25.0 10:1.0 11:25.0 12:0.392 13:42.0 14:0.92 15:1.0 16:42.0 20:1.0 
1.1 0:0.332 1:0.366 2:0.317 3:0.078 4:0.096 5:0.1 6:0.075 7:1.0 8:0.048 9:39.0 10:0.929 11:39.0 12:0.426 13:56.0 14:0.905 15:0.929 16:60.0 24:1.0 
1.1 0:0.213 1:0.354 2:0.135 3:0.0 4:0.0 5:0.049 6:0.0 7:0.0 8:0.0 9:14.0 10:1.0 11:14.0 12:0.381 13:26.0 14:0.929 15:1.0 16:26.0 24:1.0 
1.1 0:0.057 1:0.11 2:0.15 3:0.0 4:0.028 5:0.139 6:0.0 7:0.0 8:0.0 9:25.0 10:0.962 11:25.0 12:0.445 13:40.0 14:0.846 15:0.962 16:46.0 17:1.0 
1.1 0:0.033 1:0.081 2:0.342 3:0.134 4:0.107 5:0.189 6:0.0 7:0.0 8:0.0 9:20.0 10:0.952 11:20.0 12:0.375 13:32.0 14:0.952 15:0.952 16:32.0 22:1.0 
1.1 0:0.0 1:0.0 2:0.039 3:0.0 4:0.0 5:0.019 6:0.12 7:1.0 8:0.063 9:19.0 10:0.792 11:19.0 12:0.5 13:36.0 14:0.75 15:0.771 16:38.0 23:1.0 
1.1 0:0.022 1:0.043 2:0.041 3:0.0 4:0.0 5:0.0 6:0.081 7:1.0 8:0.042 9:29.0 10:1.0 11:29.0 12:0.406 13:49.0 14:0.897 15:1.0 16:51.0 22:1.0 
1.1 0:0.014 1:0.055 2:0.142 3:0.0 4:0.0 5:0.013 6:0.0 7:0.0 8:0.0 9:23.0 10:1.0 11:23.0 12:0.0 13:37.0 14:1.0 15:1.0 16:35.0 22:1.0 
1.1 0:0.012 1:0.019 2:0.277 3:0.0 4:0.147 5:0.142 6:0.096 7:1.0 8:0.05 9:19.0 10:0.905 11:19.0 12:0.398 13:37.0 14:0.905 15:0.881 16:37.0 22:1.0 
1.1 0:0.049 1:0.094 2:0.271 3:0.277 4:0.174 5:0.189 6:0.0 7:0.0 8:0.0 9:19.0 10:1.0 11:19.0 12:0.0 13:35.0 14:0.947 15:1.0 16:35.0 21:1.0 
1.1 0:0.21 1:0.207 2:0.102 3:0.063 4:0.055 5:0.047 6:0.0 7:0.0 8:0.0 9:25.0 10:1.0 11:25.0 12:0.306 13:40.0 14:0.84 15:1.0 16:44.0 17:1.0 
1.1 0:0.0 1:0.0 2:0.181 3:0.139 4:0.258 5:0.237 6:0.0 7:0.0 8:0.0 9:21.0 10:0.955 11:21.0 12:0.241 13:35.0 14:0.955 15:0.955 16:35.0 22:1.0 
1.1 0:0.016 1:0.025 2:0.03 3:0.0 4:0.0 5:0.0 6:0.0 7:0.0 8:0.0 9:21.0 10:0.955 11:21.0 12:0.376 13:32.0 14:0.955 15:0.955 16:32.0 25:1.0 
1.1 0:0.178 1:0.242 2:0.117 3:0.17 4:0.124 5:0.094 6:0.07 7:1.0 8:0.053 9:32.0 10:0.914 11:32.0 12:0.402 13:54.0 14:0.914 15:0.914 16:56.0 17:1.0 
1.1 0:0.074 1:0.101 2:0.224 3:0.155 4:0.188 5:0.227 6:0.0 7:0.0 8:0.0 9:25.0 10:0.962 11:25.0 12:0.415 13:43.0 14:0.885 15:0.981 16:47.0 22:1.0 
1.1 0:0.028 1:0.029 2:0.049 3:0.129 4:0.17 5:0.102 6:0.0 7:0.0 8:0.0 9:27.0 10:1.0 11:27.0 12:0.0 13:44.0 14:1.0 15:1.0 16:42.0 25:1.0 
1.1 0:0.117 1:0.133 2:0.116 3:0.138 4:0.093 5:0.054 6:0.0 7:0.0 8:0.0 9:25.0 10:0.962 11:25.0 12:0.363 13:44.0 14:0.962 15:0.962 16:44.0 22:1.0 
1.1 0:0.0 1:0.0 2:0.05 3:0.0 4:0.0 5:0.0 6:0.095 7:1.0 8:0.05 9:28.0 10:0.966 11:28.0 12:0.223 13:47.0 14:0.966 15:0.966 16:47.0 22:1.0 
1.1 0:0.308 1:0.362 2:0.106 3:0.063 4:0.125 5:0.106 6:0.0 7:0.0 8:0.0 9:23.0 10:1.0 11:23.0 12:0.367 13:38.0 14:0.957 15:1.0 16:38.0 23:1.0 
1.1 0:0.07 1:0.122 2:0.093 3:0.0 4:0.0 5:0.021 6:0.067 7:1.0 8:0.042 9:40.0 10:0.93 11:40.0 12:0.407 13:57.0 14:0.93 15:0.93 16:59.0 24:1.0 
1.1 0:0.023 1:0.035 2:0.132 3:0.132 4:0.167 5:0.148 6:0.111 7:1.0 8:0.059 9:24.0 10:0.96 11:24.0 12:0.415 13:43.0 14:0.88 15:0.96 16:43.0 21:1.0 
1.1 0:0.082 1:0.134 2:0.215 3:0.044 4:0.022 5:0.02 6:0.0 7:0.0 8:0.0 9:20.0 10:1.0 11:20.0 12:0.374 13:28.0 14:0.85 15:1.0 16:30.0 24:1.0 
1.1 0:0.139 1:0.214 2:0.25 3:0.115 4:0.148 5:0.192 6:0.0 7:0.0 8:0.0 9:20.0 10:0.952 11:20.0 12:0.366 13:39.0 14:0.952 15:0.952 16:39.0 17:1.0 
1.1 0:0.078 1:0.087 2:0.122 3:0.153 4:0.106 5:0.131 6:0.098 7:1.0 8:0.05 9:18.0 10:0.857 11:18.0 12:0.437 13:33.0 14:0.857 15:0.857 16:33.0 24:1.0 
1.1 0:0.051 1:0.048 2:0.121 3:0.065 4:0.036 5:0.056 6:0.112 7:1.0 8:0.059 9:20.0 10:0.952 11:20.0 12:0.402 13:35.0 14:0.905 15:0.952 16:37.0 22:1.0 
1.1 0:0.044 1:0.073 2:0.074 3:0.048 4:0.065 5:0.088 6:0.0 7:0.0 8:0.0 9:23.0 10:1.0 11:23.0 12:0.0 13:46.0 14:1.0 15:1.0 16:44.0 20:1.0 
1.1 0:0.057 1:0.069 2:0.106 3:0.139 4:0.055 5:0.103 6:0.112 7:1.0 8:0.059 9:22.0 10:0.957 11:22.0 12:0.429 13:36.0 14:0.87 15:0.957 16:38.0 22:1.0 
1.1 0:0.074 1:0.12 2:0.204 3:0.039 4:0.026 5:0.039 6:0.0 7:0.0 8:0.0 9:23.0 10:1.0 11:23.0 12:0.0 13:44.0 14:1.0 15:1.0 16:42.0 22:1.0 
1.1 0:0.106 1:0.125 2:0.261 3:0.191 4:0.142 5:0.132 6:0.0 7:0.0 8:0.0 9:24.0 10:1.0 11:24.0 12:0.0 13:47.0 14:1.0 15:1.0 16:45.0 22:1.0 
1.1 0:0.058 1:0.092 2:0.168 3:0.031 4:0.062 5:0.048 6:0.0 7:0.0 8:0.0 9:21.0 10:1.0 11:21.0 12:0.0 13:39.0 14:1.0 15:1.0 16:37.0 20:1.0 
0.23025100678784427 0:0.986 1:0.984 2:0.877 3:1.0 4:1.0 5:1.0 6:1.0 7:11.0 8:1.0 9:4.0 10:0.16 11:4.0 12:0.951 13:5.0 14:0.16 15:0.22 16:13.0 17:1.0 
1.1 0:0.012 1:0.039 2:0.126 3:0.076 4:0.078 5:0.072 6:0.0 7:0.0 8:0.0 9:23.0 10:0.958 11:23.0 12:0.307 13:41.0 14:0.875 15:0.958 16:45.0 21:1.0 
1.1 0:0.32 1:0.41 2:0.163 3:0.128 4:0.147 5:0.133 6:0.0 7:0.0 8:0.0 9:29.0 10:0.967 11:29.0 12:0.383 13:50.0 14:0.933 15:0.967 16:52.0 23:1.0 
1.1 0:0.029 1:0.039 2:0.061 3:0.077 4:0.041 5:0.044 6:0.0 7:0.0 8:0.0 9:26.0 10:1.0 11:26.0 12:0.361 13:47.0 14:0.962 15:1.0 16:47.0 24:1.0 
1.1 0:0.021 1:0.009 2:0.111 3:0.151 4:0.206 5:0.158 6:0.0 7:0.0 8:0.0 9:23.0 10:0.958 11:23.0 12:0.362 13:44.0 14:0.958 15:0.958 16:44.0 22:1.0 
1.1 0:0.087 1:0.19 2:0.32 3:0.0 4:0.0 5:0.0 6:0.0 7:0.0 8:0.0 9:23.0 10:0.885 11:23.0 12:0.4 13:42.0 14:0.846 15:0.885 16:46.0 20:1.0 
1.1 0:0.019 1:0.026 2:0.057 3:0.029 4:0.011 5:0.018 6:0.0 7:0.0 8:0.0 9:18.0 10:0.947 11:18.0 12:0.37 13:32.0 14:0.895 15:0.947 16:34.0 22:1.0 
1.1 0:0.069 1:0.207 2:0.054 3:0.074 4:0.043 5:0.069 6:0.084 7:1.0 8:0.043 9:23.0 10:0.92 11:23.0 12:0.417 13:42.0 14:0.88 15:0.9 16:44.0 24:1.0 
1.1 0:0.0 1:0.0 2:0.034 3:0.023 4:0.033 5:0.036 6:0.0 7:0.0 8:0.0 9:22.0 10:0.957 11:22.0 12:0.37 13:36.0 14:0.957 15:0.957 16:36.0 24:1.0 
1.1 0:0.016 1:0.013 2:0.041 3:0.171 4:0.126 5:0.058 6:0.0 7:0.0 8:0.0 9:19.0 10:1.0 11:19.0 12:0.334 13:32.0 14:0.895 15:1.0 16:34.0 22:1.0 
1.1 0:0.102 1:0.134 2:0.215 3:0.0 4:0.037 5:0.051 6:0.105 7:1.0 8:0.056 9:24.0 10:1.0 11:24.0 12:0.389 13:44.0 14:0.917 15:1.0 16:44.0 22:1.0 
1.1 0:0.017 1:0.015 2:0.298 3:0.257 4:0.283 5:0.242 6:0.0 7:0.0 8:0.0 9:16.0 10:1.0 11:16.0 12:0.0 13:26.0 14:1.0 15:1.0 16:24.0 25:1.0 
1.1 0:0.123 1:0.253 2:0.062 3:0.0 4:0.0 5:0.013 6:0.0 7:0.0 8:0.0 9:22.0 10:1.0 11:22.0 12:0.374 13:33.0 14:0.955 15:1.0 16:33.0 24:1.0 
1.1 0:0.0 1:0.0 2:0.09 3:0.0 4:0.041 5:0.035 6:0.0 7:0.0 8:0.0 9:26.0 10:0.897 11:26.0 12:0.391 13:46.0 14:0.862 15:0.914 16:48.0 17:1.0 
0.3569024845096567 0:0.036 1:0.08 2:0.112 3:0.083 4:0.107 5:0.14 6:0.158 7:1.0 8:0.077 9:20.0 10:0.952 11:20.0 12:0.44 13:32.0 14:0.857 15:0.952 16:34.0 22:1.0 
1.1 0:0.328 1:0.385 2:0.354 3:0.0 4:0.09 5:0.125 6:0.0 7:0.0 8:0.0 9:27.0 10:1.0 11:27.0 12:0.359 13:50.0 14:0.963 15:1.0 16:50.0 22:1.0 
1.1 0:0.157 1:0.217 2:0.109 3:0.139 4:0.152 5:0.133 6:0.0 7:0.0 8:0.0 9:22.0 10:1.0 11:22.0 12:0.0 13:40.0 14:0.955 15:1.0 16:40.0 22:1.0 
1.1 0:0.008 1:0.029 2:0.459 3:0.251 4:0.364 5:0.396 6:0.0 7:0.0 8:0.0 9:26.0 10:1.0 11:26.0 12:0.0 13:45.0 14:0.962 15:1.0 16:45.0 22:1.0 
1.1 0:0.192 1:0.254 2:0.128 3:0.0 4:0.0 5:0.0 6:0.0 7:0.0 8:0.0 9:24.0 10:1.0 11:24.0 12:0.228 13:40.0 14:0.917 15:1.0 16:42.0 21:1.0 
1.1 0:0.053 1:0.075 2:0.389 3:0.0 4:0.062 5:0.149 6:0.163 7:1.0 8:0.048 9:28.0 10:0.966 11:28.0 12:0.387 13:47.0 14:0.931 15:0.966 16:49.0 22:1.0 
1.1 0:0.282 1:0.489 2:0.306 3:0.0 4:0.024 5:0.064 6:0.0 7:0.0 8:0.0 9:30.0 10:0.938 11:30.0 12:0.355 13:47.0 14:0.906 15:0.953 16:49.0 17:1.0 
1.1 0:0.059 1:0.093 2:0.102 3:0.119 4:0.08 5:0.188 6:0.0 7:0.0 8:0.0 9:28.0 10:1.0 11:28.0 12:0.36 13:48.0 14:0.964 15:1.0 16:48.0 17:1.0 
1.1 0:0.13 1:0.186 2:0.337 3:0.0 4:0.07 5:0.031 6:0.16 7:2.0 8:0.087 9:28.0 10:0.933 11:28.0 12:0.26 13:53.0 14:0.933 15:0.933 16:51.0 20:1.0 
1.1 0:0.071 1:0.073 2:0.139 3:0.0 4:0.0 5:0.094 6:0.118 7:1.0 8:0.063 9:20.0 10:0.87 11:20.0 12:0.449 13:38.0 14:0.826 15:0.848 16:40.0 25:1.0 
1.1 0:0.002 1:0.005 2:0.078 3:0.0 4:0.022 5:0.03 6:0.0 7:0.0 8:0.0 9:28.0 10:1.0 11:28.0 12:0.0 13:49.0 14:1.0 15:1.0 16:47.0 17:1.0 
1.1 0:0.0 1:0.0 2:0.027 3:0.0 4:0.02 5:0.017 6:0.0 7:0.0 8:0.0 9:22.0 10:1.0 11:22.0 12:0.364 13:42.0 14:0.955 15:1.0 16:42.0 23:1.0 
1.1 0:0.025 1:0.026 2:0.159 3:0.034 4:0.054 5:0.074 6:0.096 7:1.0 8:0.05 9:21.0 10:0.913 11:21.0 12:0.452 13:36.0 14:0.783 15:0.891 16:40.0 24:1.0 
1.1 0:0.055 1:0.087 2:0.246 3:0.0 4:0.0 5:0.122 6:0.0 7:0.0 8:0.0 9:26.0 10:1.0 11:26.0 12:0.0 13:45.0 14:1.0 15:1.0 16:43.0 22:1.0 
1.1 0:0.0 1:0.0 2:0.045 3:0.027 4:0.058 5:0.049 6:0.0 7:0.0 8:0.0 9:25.0 10:1.0 11:25.0 12:0.363 13:43.0 14:0.96 15:1.0 16:43.0 19:1.0 
1.1 0:0.0 1:0.0 2:0.007 3:0.0 4:0.011 5:0.006 6:0.0 7:0.0 8:0.0 9:17.0 10:0.944 11:17.0 12:0.376 13:30.0 14:0.944 15:0.944 16:30.0 31:1.0 
1.1 0:0.016 1:0.023 2:0.131 3:0.268 4:0.176 5:0.143 6:0.0 7:0.0 8:0.0 9:17.0 10:1.0 11:17.0 12:0.0 13:27.0 14:0.941 15:1.0 16:27.0 21:1.0 
1.1 0:0.019 1:0.043 2:0.108 3:0.081 4:0.225 5:0.185 6:0.0 7:0.0 8:0.0 9:21.0 10:1.0 11:21.0 12:0.404 13:34.0 14:0.905 15:1.0 16:36.0 23:1.0 
1.1 0:0.0 1:0.0 2:0.07 3:0.0 4:0.0 5:0.0 6:0.0 7:0.0 8:0.0 9:24.0 10:1.0 11:24.0 12:0.0 13:48.0 14:1.0 15:1.0 16:46.0 20:1.0 
1.1 0:0.015 1:0.019 2:0.115 3:0.0 4:0.0 5:0.117 6:0.115 7:1.0 8:0.053 9:33.0 10:0.868 11:33.0 12:0.524 13:42.0 14:0.816 15:0.868 16:50.0 17:1.0 
1.1 0:0.057 1:0.099 2:0.262 3:0.028 4:0.048 5:0.068 6:0.0 7:0.0 8:0.0 9:19.0 10:1.0 11:19.0 12:0.0 13:36.0 14:1.0 15:1.0 16:34.0 21:1.0 
1.1 0:0.095 1:0.097 2:0.159 3:0.105 4:0.055 5:0.125 6:0.154 7:1.0 8:0.083 9:18.0 10:1.0 11:18.0 12:0.0 13:31.0 14:0.889 15:1.0 16:31.0 23:1.0 
1.1 0:0.048 1:0.092 2:0.153 3:0.037 4:0.083 5:0.06 6:0.0 7:0.0 8:0.0 9:23.0 10:1.0 11:23.0 12:0.364 13:41.0 14:0.957 15:1.0 16:41.0 21:1.0 
1.1 0:0.045 1:0.089 2:0.305 3:0.035 4:0.037 5:0.033 6:0.081 7:1.0 8:0.042 9:31.0 10:0.861 11:31.0 12:0.485 13:49.0 14:0.806 15:0.861 16:53.0 20:1.0 
1.1 0:0.029 1:0.039 2:0.354 3:0.0 4:0.0 5:0.0 6:0.078 7:1.0 8:0.053 9:28.0 10:0.903 11:28.0 12:0.39 13:47.0 14:0.871 15:0.903 16:51.0 20:1.0 
1.1 0:0.0 1:0.002 2:0.064 3:0.318 4:0.194 5:0.132 6:0.0 7:0.0 8:0.0 9:20.0 10:1.0 11:20.0 12:0.367 13:38.0 14:0.95 15:1.0 16:38.0 22:1.0 
1.1 0:0.077 1:0.062 2:0.224 3:0.139 4:0.135 5:0.115 6:0.0 7:0.0 8:0.0 9:20.0 10:1.0 11:20.0 12:0.0 13:33.0 14:1.0 15:1.0 16:31.0 22:1.0 
1.1 0:0.116 1:0.159 2:0.209 3:0.0 4:0.083 5:0.039 6:0.095 7:1.0 8:0.05 9:29.0 10:1.0 11:29.0 12:0.359 13:47.0 14:0.897 15:1.0 16:49.0 22:1.0 
1.1 0:0.041 1:0.048 2:0.287 3:0.136 4:0.224 5:0.234 6:0.0 7:0.0 8:0.0 9:23.0 10:0.958 11:23.0 12:0.406 13:35.0 14:0.917 15:0.958 16:37.0 22:1.0 
1.1 0:0.05 1:0.05 2:0.168 3:0.0 4:0.091 5:0.094 6:0.0 7:0.0 8:0.0 9:25.0 10:0.962 11:25.0 12:0.34 13:42.0 14:0.885 15:0.962 16:46.0 27:1.0 
1.1 0:0.049 1:0.078 2:0.054 3:0.0 4:0.104 5:0.101 6:0.0 7:0.0 8:0.0 9:27.0 10:1.0 11:27.0 12:0.0 13:38.0 14:1.0 15:1.0 16:36.0 22:1.0 
1.1 0:0.012 1:0.027 2:0.079 3:0.0 4:0.0 5:0.036 6:0.0 7:0.0 8:0.0 9:25.0 10:0.926 11:25.0 12:0.41 13:46.0 14:0.889 15:0.926 16:48.0 20:1.0 
1.1 0:0.045 1:0.058 2:0.147 3:0.516 4:0.296 5:0.319 6:0.0 7:0.0 8:0.0 9:20.0 10:1.0 11:20.0 12:0.0 13:40.0 14:1.0 15:1.0 16:38.0 22:1.0 
1.1 0:0.149 1:0.151 2:0.211 3:0.0 4:0.013 5:0.029 6:0.0 7:0.0 8:0.0 9:30.0 10:1.0 11:30.0 12:0.0 13:48.0 14:1.0 15:1.0 16:46.0 25:1.0 
1.1 0:0.378 1:0.435 2:0.168 3:0.062 4:0.021 5:0.152 6:0.0 7:0.0 8:0.0 9:29.0 10:1.0 11:29.0 12:0.381 13:52.0 14:0.931 15:1.0 16:54.0 25:1.0 
1.1 0:0.061 1:0.114 2:0.209 3:0.039 4:0.069 5:0.108 6:0.0 7:0.0 8:0.0 9:36.0 10:0.973 11:36.0 12:0.362 13:52.0 14:0.973 15:0.973 16:52.0 22:1.0 
1.1 0:0.004 1:0.007 2:0.14 3:0.048 4:0.022 5:0.043 6:0.0 7:0.0 8:0.0 9:24.0 10:1.0 11:24.0 12:0.391 13:42.0 14:0.917 15:1.0 16:44.0 22:1.0 
0.17970358705589945 0:0.805 1:0.56 2:0.996 3:1.0 4:1.0 5:1.0 6:0.7 7:7.0 8:0.538 9:21.0 10:1.0 11:21.0 12:0.413 13:24.0 14:0.571 15:1.0 16:12.0 17:1.0 
1.1 0:0.088 1:0.096 2:0.124 3:0.135 4:0.074 5:0.049 6:0.0 7:0.0 8:0.0 9:24.0 10:0.923 11:24.0 12:0.316 13:40.0 14:0.923 15:0.923 16:40.0 18:1.0 
1.0818409664610746 0:0.028 1:0.053 2:0.213 3:0.141 4:0.061 5:0.075 6:0.182 7:2.0 8:0.1 9:26.0 10:0.867 11:26.0 12:0.492 13:45.0 14:0.767 15:0.883 16:53.0 22:1.0 
1.1 0:0.004 1:0.006 2:0.115 3:0.026 4:0.098 5:0.103 6:0.0 7:0.0 8:0.0 9:22.0 10:1.0 11:22.0 12:0.364 13:41.0 14:0.955 15:1.0 16:41.0 22:1.0 
1.1 0:0.065 1:0.098 2:0.151 3:0.16 4:0.18 5:0.206 6:0.0 7:0.0 8:0.0 9:24.0 10:1.0 11:24.0 12:0.307 13:43.0 14:0.917 15:1.0 16:45.0 21:1.0 
1.1 0:0.114 1:0.124 2:0.159 3:0.058 4:0.065 5:0.057 6:0.107 7:1.0 8:0.056 9:26.0 10:0.963 11:26.0 12:0.386 13:47.0 14:0.926 15:0.963 16:49.0 27:1.0 
1.1 0:0.079 1:0.095 2:0.144 3:0.038 4:0.042 5:0.058 6:0.0 7:0.0 8:0.0 9:30.0 10:1.0 11:30.0 12:0.356 13:57.0 14:0.967 15:1.0 16:57.0 22:1.0 
1.1 0:0.043 1:0.06 2:0.072 3:0.0 4:0.027 5:0.067 6:0.0 7:0.0 8:0.0 9:23.0 10:1.0 11:23.0 12:0.363 13:43.0 14:0.957 15:1.0 16:43.0 17:1.0 
1.1 0:0.071 1:0.079 2:0.212 3:0.066 4:0.094 5:0.103 6:0.0 7:0.0 8:0.0 9:28.0 10:1.0 11:28.0 12:0.222 13:47.0 14:0.964 15:1.0 16:47.0 22:1.0 
1.1 0:0.002 1:0.001 2:0.169 3:0.102 4:0.078 5:0.074 6:0.0 7:0.0 8:0.0 9:28.0 10:1.0 11:28.0 12:0.0 13:49.0 14:0.964 15:1.0 16:49.0 24:1.0 
